solver_type L2R_L2LOSS_RANKSVM
nr_class 2
nr_feature 1124
bias -1
w
0.4733605153640143 
-0.1466040941738799 
-0.2001813474196159 
-0.07061660160665981 
0.06928748221051925 
-0.008133672156923313 
0.6358133000021838 
0.1307622488786861 
0.14339469234449 
0.1140268003699918 
-0.2500367732429589 
-0.01398090524848948 
0.6067965725698137 
0.1276880252484544 
0.6239730831212571 
0.4358555335996754 
-0.5636402047901973 
-0.2883618307184807 
0.1126777560418373 
-0.2631182027438869 
-0.03713351038299366 
0.1028047616418504 
-0.1899921394533536 
0.03617514574476961 
-0.4991964877653961 
-0.01031941129922577 
0.04251116371243111 
0.04916632502482402 
-0.02336321509492511 
-0.3386182470785337 
-0.1248588137413315 
-0.2269082967063435 
-0.1931939503538573 
0.2007219835984151 
0.3582041069529901 
-0.1699344467564997 
0.1149870142175107 
-0.245238164230712 
-0.1625131456471761 
-0.1669813238584564 
0.2759551374047358 
-0.2201301789443942 
-0.08025249115152511 
0.4397608959991339 
-0.1486338169949964 
0.3495427947841667 
0.2343865176060919 
-0.272668513162844 
-0.1730677803542031 
-0.1312845454974453 
0.08223175620916609 
-0.6103496054874387 
0.4472749126257891 
0.3632176368668582 
-0.1893885381485251 
-0.3437233092322587 
-0.1992407036540457 
0.07740765607861828 
-0.05348111020750683 
-0.02628949951589847 
0.2827405974061771 
-0.5068479936466792 
-0.01930186628009881 
0.2573214876005833 
0.08582602928933952 
-0.3568704053503948 
0.2510563334767617 
0.1878501647319534 
-0.3724901533526971 
0.5612748348914189 
-0.05431996601810207 
0.1653705316105277 
-0.1656922590776748 
0.2311601686673913 
0.06681707483734682 
0.1783135046644637 
-0.2056858064125577 
0.5014603055586089 
0.1705037023161864 
-0.07074109801483028 
-0.1115301818427902 
0.252632150862379 
-0.09250348371987924 
0.4066570351977397 
0.008196896480465635 
0.04301613563054153 
-0.08629424406627556 
-0.2037771154982845 
0.2015113830639116 
0.1521043054355509 
-0.01106856945786651 
0.09177610120539118 
-0.5424120498501988 
0.1693284792995349 
-0.05878296260544544 
-0.309452170278896 
0 
0 
0 
0 
0 
0 
0.09366330744153903 
-0.1494774023148156 
0.0008923410626731315 
0.1715704498095988 
-0.1001705767676123 
0.1364196400258514 
0.2420710516143394 
0 
0 
0 
0 
0 
0 
0 
-0.004979234741808639 
0.1687492163235896 
0.02224524814629523 
0.2484969013228893 
0.3821823791659131 
-0.1518198512296066 
0.2077638009267349 
0 
0 
0 
0 
0 
-0.02605639724770748 
0.04023294656052853 
-0.489815660994742 
-0.2560645686553621 
0.7647375219879865 
0.1824181385900137 
-0.2880624185112731 
-0.07848507235168332 
-0.3580340475383871 
0 
0.1735713404748693 
0 
0.4140830532598367 
-0.0246523349422981 
-0.2430722426394429 
-0.4116588336767452 
0.01637577928976696 
0.07979599557952007 
0.04564394047538328 
-0.002207312164815203 
0.04832660501882868 
-0.02467080917387496 
0 
0 
0 
0 
0.02119690711440007 
0 
0.1451595190596915 
0 
0 
0.01578771161792419 
0.01637577928976696 
0.07979599557952007 
0.04564394047538328 
-0.002207312164815203 
0.04832660501882868 
-0.02467080917387496 
0 
0 
0 
0 
0.02119690711440007 
0 
0.1451595190596915 
0 
0 
0.01578771161792419 
0.01637577928976696 
0.07979599557952007 
0.04564394047538328 
-0.002207312164815203 
0.04832660501882868 
-0.02467080917387496 
0 
0 
0 
0 
0.02119690711440007 
0 
0.1451595190596915 
0 
0 
0.01578771161792419 
0.01637577928976696 
0.07979599557952007 
0.04564394047538328 
-0.002207312164815203 
0.04832660501882868 
-0.02467080917387496 
0 
0 
0 
0 
0.02119690711440007 
0 
0.1451595190596915 
0 
0 
0.01578771161792419 
0.01637577928976696 
0.07979599557952007 
0.04564394047538328 
-0.002207312164815203 
0.04832660501882868 
-0.02467080917387496 
0 
0 
0 
0 
0.02119690711440007 
0 
0.1451595190596915 
0 
0 
0.01578771161792419 
0.110035297814718 
0.08076489233644699 
-0.2922701813725753 
-0.1293675699169379 
-0.1212554206662925 
0.4407899036196813 
-0.09597117469786018 
0.08175427759927612 
0.09023428163153997 
0.08153138532002946 
0.5773346397672758 
0.03705811475228629 
0.1503362883484565 
0.1745420729990883 
-0.2687960437262809 
-0.1003767378808471 
0.1733929228061516 
-0.0330300399090828 
-0.04505245223734809 
0.05396209203198368 
-0.1669675403368753 
-0.2249874151918525 
0.2820714152635241 
-0.2088909004334105 
-0.2199566593086141 
-0.1654956877551473 
-0.2720923530745379 
0.0915830755437865 
-0.2785502008545948 
-0.005861134297513499 
0.410263095784933 
-0.1109874996197746 
0.2166190845710896 
-0.1894391190353105 
-0.5088923157863619 
0.01360077436825639 
0.1740005026237362 
-0.06760575284096621 
0.2146327044037386 
0.1210265928498206 
-0.1294270036631769 
-0.15376444261484 
0.3095796866258976 
0.3883641157817767 
-0.0649823890177744 
0.8127483151264802 
0.0009183628890375643 
0.005244929993648791 
-0.3335763566530611 
-0.3705809378858178 
-0.2136245995905724 
0.1392644230690123 
-0.06366256431175697 
0.4622420217959588 
-0.2801151647332923 
0.03335876805606301 
0.3924650889469473 
0.1639240627369377 
0.09024213300013989 
0.6126434343818875 
-0.01046691240700982 
-0.2001733253684286 
0.1595200518659426 
0.2872290505925426 
0.2311380299658085 
0.2497971772189361 
-0.4473105724241319 
-0.006349181415476175 
-0.02735499665085291 
-0.07653210209717561 
-0.0314065026911276 
-0.0249267724452923 
-0.0968362224229356 
-0.6147039206203517 
0.01338704460042525 
-0.1356018306073847 
-0.2650640602474847 
0.2266621951768569 
0.1589384727350795 
-0.5202046729472523 
-0.1497569080916154 
-0.2886346487141822 
0.4649622293227851 
-0.1956217751524328 
0.4227447825745874 
-0.06658180472814565 
0.01589536257257797 
-0.2091886359469693 
-0.4687777343069209 
0.6049945521257019 
0 
-0.07973013288422777 
0.2369420621565192 
0.310249679250781 
-0.169586157306007 
0 
-0.0005025549834617232 
-0.05675373582302653 
-0.6986005036635662 
-0.1116079742891107 
-0.8601023672781543 
-0.1408415922189681 
0.03441894290994591 
-0.2380777104566731 
-0.02386369319533353 
-0.04471483332759819 
-0.1050592081953273 
0.1936864041003593 
-0.2496372715778048 
-0.03688101347063763 
0.3714063564787613 
0.07199909947908495 
0.2514452660941891 
-0.103925717781188 
0.5606449998458415 
-0.3582268546022652 
-0.3717364539387371 
-0.01944423469883565 
0.03814130486669073 
0.3867066236441059 
0.3113675963111673 
-0.002196540953350217 
0.03538045813824028 
0.09479756107711995 
-0.127560237702903 
-0.1828351136324734 
0.04783539558171958 
0.4789099795277333 
0.09656586972220048 
-0.01948448225009274 
0.05433558708739203 
0.349454858420534 
0.3218534448622666 
0.269063985876895 
0.03299329426963299 
0.3594372700483151 
0.02603395055263824 
-0.8155937473286986 
-0.3432468228595925 
-0.1556585796056228 
-0.2156810258030554 
0.1909806701380142 
-0.4156945438999971 
-0.1900143453921635 
0.3811840897799095 
0.1953358044840977 
0.5215825241119806 
0.07788336029526727 
-0.2969698732050446 
0.1631985567635433 
-0.3316480826224297 
-0.213853840644794 
0.5398437048114061 
0.2690253425576437 
-0.3881930354094324 
0.495056342183881 
-0.2756851156702819 
-0.3379291381669179 
-0.1204326785036246 
0.30160983914869 
-0.9747805351147829 
-0.3105982152572888 
0.4208007756883989 
-0.3196852755598084 
-0.3415778621035357 
-0.5625392165959274 
-0.1823375065026676 
0.05070672859609565 
0.3946596196098484 
-0.06146632494998242 
0.1237097826467387 
0.6245253252219351 
0.1319920665268225 
0.1882848332214994 
-0.1605327704707587 
0.2919300492828678 
-0.3663147865624675 
0.1654620972662757 
-0.05384865042342902 
0.4683738063496318 
0.3144585267847947 
0.4768871957946061 
-0.08694276551154016 
-0.1972558088402625 
-0.4391643231216419 
-0.06765148242036093 
0.07097351509496051 
-0.2851255969896818 
-0.1438972098643038 
-0.03877839002367799 
-0.09558529552980372 
0.038774170915955 
0.02253503147106609 
-0.3271351206820244 
0.29658325401862 
0.03196056125070746 
-0.07502008275532324 
-0.2630194278372163 
0.002251529777043686 
0.1181997404155152 
0.03934074337697009 
0.2518593749152048 
0.4347018185251872 
0.1005480953795781 
-0.05894473215741172 
-0.1354196952333974 
-0.3739126275830149 
0.2723557723195949 
0.06638302158138328 
-0.1256330145974609 
0.2011475397627839 
0.05654389164231942 
-0.5177341536889549 
0.3281938228420928 
-0.1135617984469781 
0.3629138304782581 
-0.1055555004828453 
0.2725292554165478 
-0.1513957009089408 
0.6148027624959802 
-0.07945909608863955 
-0.02225205509350403 
-0.3252115112750165 
0.4443387490815525 
0.6421262048027796 
0.560502643287082 
-0.1904254892897027 
-0.1554774704391926 
0.002583632304455154 
-0.02590393572233624 
-0.3533336659198341 
0.0951358729675853 
0.3761989901795448 
0.07891645529284065 
-0.386225493672121 
-0.1442705661103709 
-0.0869657595060785 
-0.0198085988074255 
-0.08372201713836243 
0.08017879149573738 
0.5763389206849846 
-0.08025085651078363 
-0.2516123582887597 
0.6862852528377846 
-0.4017332122235715 
-0.4820903626576488 
-0.3617505051798954 
0.05765866431118377 
-0.1929472276453474 
0.5245039554343522 
0.1695019406279128 
-0.00817064596744747 
0.2688548349827286 
0.232436163952304 
-0.2767090445649754 
0.2175975545511758 
-0.08799654795348744 
0.2611760677104573 
-0.5193468547211093 
-0.1069920370769456 
0.486017066845859 
0.1354464769626229 
0.1109381203264408 
-0.201606658961947 
0.2146277339295535 
0.04478412283846595 
0.07040281724504008 
0.2078397599235409 
0.1115878746579734 
0.2017196474995335 
0.1453962523925442 
-0.2455045575998407 
0.2156332303832119 
-0.5089783339758505 
-0.07493832582689718 
0.06480402388909742 
-0.2990167387880957 
-0.1703014682490925 
-0.4245322063507658 
-0.5116310560209546 
-0.09714482143149879 
-0.487112655225433 
0.07639501082604475 
0.1259621834147251 
0.04562413225368373 
0.4351969467362617 
-0.08890316357038747 
0.1370401233047023 
0.1391115921956636 
0.4105910438698521 
0.2951374217905544 
0.04451426101878796 
0.1210980866031382 
-0.2160629405121236 
-0.1487506718325523 
0.1020081725624314 
-0.2040773382102873 
-0.2735302468438524 
-0.006180412354516628 
0.1978040837708376 
0.1881781931199268 
-0.2718341181796227 
-0.1892643046461688 
0.02776470210406902 
-0.07257806398007018 
-0.04830833095680696 
0.04267634499148043 
0.05790323342771948 
-0.06576380027323964 
0.2608253645374893 
-0.1392239510235344 
-0.1265414849289059 
0.279676206090766 
-0.4833555354640189 
0.1427349432391769 
0.0981964977086898 
0.591549903602472 
-0.3341920446519157 
0.2441443201029586 
0.1385919086661908 
-0.2985242933746634 
-0.1789115537415427 
0.0542762728536744 
0.1920584098565504 
-0.09163487522445526 
0.2975321614950338 
-0.01527791557172531 
-0.5777910286495878 
0.05929954767527233 
0.2539499720879371 
0.4861257560804518 
0.3810864938031314 
-0.1604535644997776 
-0.04871250053791968 
0.1260576622412904 
-0.2471710924742664 
-0.2069497758863495 
-0.1808387991992269 
-0.257796878307188 
0.1729637917123113 
0.1963578927183259 
0.1165984770265655 
0.2016460558811724 
-0.2516976209966035 
-0.1086693607766801 
0.1550814692437458 
0.3903354089135966 
-0.001460908810270251 
-0.04422175228533699 
-0.05662083351973291 
0.2408596335410967 
-0.1965177719156146 
0.2224274601404429 
0.291233895525788 
0.08471437894928431 
-0.07340074652463188 
-0.2776752438845729 
-0.1457687085647412 
0.1059641338980332 
0.2776776664770107 
0.08952143954278179 
-0.2261310390285259 
0.1142697106117279 
0.2193511487871394 
0.2114635994113826 
-0.3417353818509636 
0.3728497952574357 
-0.1830057414730165 
-0.4327086751605048 
-0.1854450821312696 
-0.1843389105586486 
-0.548544719639511 
0.1137648607442845 
0.37820948123555 
0.4399424688952649 
-0.1359657967921423 
-0.1254185281242687 
0.1986408142653657 
0.3022020086204748 
0.1689646914958422 
-0.1948187139900871 
-0.2296174992736607 
0.1040423153992597 
-0.1595056988500047 
0.09380626260778266 
0.02647687012187764 
-0.2763527230017118 
-0.4140002710720587 
0.06187505879855229 
-0.165784331414735 
-0.043334497079576 
-0.113135269825923 
0.3855022212071609 
-0.1412583351807048 
-0.000911277551462265 
0.01208558784549221 
-0.2337634246854974 
0.1329531080948889 
0.3210690926932772 
0.187899186107978 
0.2064695286527942 
0.08834138304386101 
-0.2734862676837666 
0.2856753692004008 
0.1589195514430801 
0.09734062068608491 
0.6009681428982561 
-0.108450350794867 
0.2208338056141365 
-0.1668094880890809 
0.2016397520601365 
-0.06933474410547637 
-0.1672800135900998 
-0.02951085687754943 
0.5072447366036925 
-0.01427993692482714 
-0.130803827854851 
-0.3995815220867427 
-0.3379355960695055 
0.02281013326220113 
-0.6916098834393747 
0.1644579483434126 
-0.4280674041569728 
0.1194011527468607 
0.0262774924430654 
-0.1364920536514139 
0.06558826100648177 
-0.8237494337005122 
0.1907336887311367 
-0.05620886354773978 
0.141205224292145 
0.06396190723166041 
0.1393051540879556 
-0.01292123613103537 
0.1239136069871768 
-0.3904371399664226 
0.2106980641622796 
-0.4233238627326762 
-0.3319730912338796 
0.150248828218343 
-0.4907757720803563 
0.3705556718887634 
0.02051694604711584 
0.02514033825032309 
0.1208465319676102 
-0.3841660746703531 
-0.09897731995366707 
-0.1130671063749432 
-0.05476571150973383 
-0.1228624420028546 
-0.1606010417976039 
-0.1057123671485314 
0.003640929128908627 
-0.2139353126771228 
0.1741983350274295 
-0.1951913596632311 
0.108040176075876 
0.3094273631157377 
-0.1591177076457237 
-0.2102138272313374 
0.4420002273614165 
-0.0276767753734674 
-0.2183880362818572 
0.04852374397318263 
-0.174916422186447 
0.3341384357889323 
0.2457794638533239 
0.3626787145623924 
0.1136057513742921 
-0.1869436603628544 
0.1622554300206637 
-0.3709663912657616 
-0.1928716679834199 
0.6432074362649347 
0.08297771785044435 
-0.2205350029821621 
-0.07568303736558586 
-0.1930843190451407 
0.06427280737402272 
-0.1030013950515736 
-0.3166819550914375 
-0.1550080813426203 
0.1990358507833003 
0.423343139315433 
-0.03130233476423941 
-0.0656108123934082 
-0.05335343338851789 
0.1009830974965234 
-0.1883460632067411 
-0.1622774395212263 
0.3050212401868569 
-0.05671211115443888 
0.2283778300043475 
-0.08164423739345447 
0.1756692986265416 
-0.2278170271386398 
0.1378312050879013 
-0.3908458546526003 
-0.4162521353235701 
0.3140228522250321 
0.06091077943393967 
0.2294078054428002 
-0.3275723259299423 
-0.1093018281652421 
0.1587315476083464 
-0.05905085250918579 
0.04779877214596175 
0.09544381123522382 
0.1006100728501481 
-0.1034878886522328 
0.4260905125580619 
-0.07465577645116775 
0.03965675158559081 
0.08740731187599529 
0.3001889463801422 
0.07462052765935111 
-0.1873737926077667 
0.03150742865387165 
-0.04339998487425821 
0.214129719629881 
-0.08623135930180986 
-0.01494326279195584 
-0.4168959115242812 
0.0330551906568982 
-0.2814088576583516 
-0.2768707699418241 
-3.624833863975687e-005 
0.565676218120114 
0.2878490713936285 
-0.02748322945644341 
0.1283309314155061 
-0.1417580261336252 
0.4349755703786964 
-0.06370151132170665 
-0.08843905455626702 
0.39210366075756 
0.06068188492272165 
-0.0480258369081074 
-0.2560266261532834 
-0.4977298777831122 
0.03362906964303027 
-0.01186145640896218 
0.1046845133591837 
0.2372212620448333 
0.1686407837390033 
0.03362906964303027 
0.3374995335463129 
0.869121368583518 
0.3653039535917982 
0.09921094253211192 
-0.3394488230133767 
0.2106358266662905 
0.4596515713933726 
-0.04607266053932196 
-0.1813146501895913 
-0.03136979851770592 
0.2313655553946437 
-0.01785859347791627 
-0.08129479049165299 
0.1700022721653574 
0.5273601717255508 
0.1798623888296643 
-0.07300308120743143 
-0.02849401819579828 
-0.3176960308261236 
-0.1754328177375504 
-0.2684949560802555 
-0.4716366008675945 
-0.5998581897078262 
0.08852455512573705 
-0.04226706838610724 
0.1179224578919772 
-0.2563169280500218 
-0.1001009775604263 
0.2857580864940622 
-0.5744084820528916 
0.2426302886886552 
0.09956662771669284 
-0.3808105298484848 
0.1515451002453725 
0.2140382477339695 
0.008015024772050426 
0.3922586132527962 
-0.1383944291032264 
-0.06647563853840421 
-0.06474261438292854 
-0.1390545773116838 
0.006571792238319726 
-0.07135654957074786 
0.1869615513059923 
-0.3080999551318353 
0.3401240005489898 
0.4031480032750246 
0.3453953261513732 
0.07737686620331233 
0.5732999290825205 
0.2250742040122092 
-0.04200387815028608 
-0.3437710274516571 
-0.5572496295683986 
-0.2754714532946221 
0.1533942181465171 
-0.07975585582546725 
0.6786985232277393 
0.2201869375334709 
1.067022644567315 
-0.1512266607022019 
-0.01289571177574073 
0.1421677911249551 
-0.1302386922221516 
-0.0363550423688277 
-0.3118215675369829 
-0.1002868702791562 
0.03879817796376037 
-0.01359616329395536 
-0.1640189089528425 
-0.2670121474972064 
0.01388506598601211 
0.2175340589126454 
-0.01306818532999124 
-0.09622042870697371 
-0.1804199203524695 
0.1162163423195136 
-0.5445799326876483 
-0.07566108078344797 
0.2564614838650475 
0.03030676794495055 
0.3457071616993963 
-0.1355597175418152 
0.1679565934987153 
-0.163097153136709 
0.4877022027163007 
-0.4788038303038552 
0.1514095810421582 
-0.303276989220624 
-0.03166479069532079 
0.1530211518773202 
-0.1047683896808479 
0.352153108800265 
0.1133735016140031 
0.03086273767935822 
0.1522298227038575 
0.2092586252305215 
-0.06486076377884857 
0.3379620395387843 
-0.06444174308959499 
0.3173177344587932 
0.02117900221802912 
-0.3622508125690455 
-0.08101955525829742 
-0.004574324213495469 
0.119825971850732 
-0.4151649947509882 
-0.2866466890720124 
0.1016596723651756 
-0.134860270381372 
0.2409824862649042 
-0.2297061383269895 
0.01532126831525451 
-0.0393485789949371 
-2.910747478462785e-005 
-0.05439613711141553 
0.1194098984133924 
0.1069098492438584 
-0.1416488869043883 
-0.3581545314835443 
-0.1112360062713285 
-0.5854617297897722 
-0.1410073097125685 
0.6746436334285896 
0.07575760290210062 
-0.09856757208724568 
-0.03428371518515693 
-0.618031027772106 
0.1091417619485097 
0.3249677664852643 
-0.1805131511646728 
0.2448412537102833 
-0.2426088263546796 
0.08363590914100205 
-0.2315032779661513 
-0.3812674682246046 
0.4349650179223893 
0.3216829506295327 
0.3388825166087175 
-0.600554388002231 
-0.6138004020411365 
0.09782516104922094 
0.1007896495840666 
0.153329289195144 
0.2358130162387846 
-0.07417014521353474 
-0.3442226332376285 
-0.4099112159139113 
-0.3778886853369673 
0.3854072905701628 
0.2240506225885498 
0.1977503886212118 
-0.1222542882782372 
-0.43504049645938 
0.2636389796737768 
0.3386279987744157 
0.04439100605182979 
-0.5481511286427123 
0.3639903265314234 
-0.2406657448178593 
0.1583711427233565 
-0.215533368843905 
-0.3804866551767335 
0.02608340624371289 
0.1092642376496987 
-0.2121532664805987 
-0.7223383408559289 
0.2378781053443292 
-0.2464657704854112 
-0.1203254783442856 
0.1470960410115568 
0.01938994343468864 
0.5889196220002144 
0.08061495249406249 
0.3486316076063611 
0.2438050780168607 
0.3225737274827015 
-0.04155821045470907 
0.558087039698321 
0.1200366439074188 
-0.3188361909272106 
-0.1052451998232869 
0.02445007315459982 
-0.04246644936231289 
-0.1760353755900368 
-0.06929684932361789 
-0.2717882850870501 
0.5627115011173949 
0.437696371046419 
-0.1871854907134738 
0.06890331068521592 
0.1374804248669428 
-0.05026777213590659 
0.2227490897121641 
0.5943341548163149 
-0.5570833231285534 
0.2785313602383449 
-0.02264891548499842 
-0.3925829197082854 
-0.4459229806511361 
0.2085978762774256 
-0.2519841952554416 
-0.5958234360523084 
-0.2433551519595317 
0.1631404529550534 
0.08505262547740428 
0.125756186972237 
-0.0536830052795407 
0.1552943417215288 
0.1538665503735336 
0.007508071961928343 
0.3858854215099996 
-0.006312461327014413 
0.2241850194677263 
0.2639188378094363 
-0.07577782334735339 
-0.1353369692923444 
0.1416292579123222 
-0.5530371070885497 
-0.01176439381159614 
0.6381256130467869 
0.3066080711401437 
-0.08908802183032648 
-0.3350184547528519 
-0.1466175316640915 
-0.1447805825198026 
-0.232618162476734 
-0.5396807564221023 
-0.31145934126616 
0.2071030058680507 
0.01192492350316728 
-0.4320512374243737 
-0.1143478760733743 
0.4928828302679333 
-0.02457310442530047 
0.2095777684664616 
-0.1009871402707452 
0.1417450817433701 
-0.4484897798149565 
0.2482866997490336 
0.05269005878150231 
-0.2676325303699517 
-0.006677697966925786 
-0.0005816655866261889 
0.4585307909803335 
0.06185308146810357 
-0.2811842195848538 
-0.01228639230023578 
0.3409386842071312 
-0.3154988121537313 
-0.1397916374320827 
-0.1704061638245485 
-0.2901780248079919 
-0.2578577995454604 
-0.06474620775369228 
0.2979734010974461 
0.2760660893056935 
0.1068705379561655 
0.1798798455059021 
0.08257192141784205 
0.264995665281819 
-0.4007150053374821 
-0.4103745721430483 
0.01562580437650252 
-0.09023384903074604 
-0.1017969376474259 
0.03626964911863844 
0.1270050772695452 
-0.08596269606786233 
0.4543787422339006 
-0.1328179075507649 
0.06093714111773546 
0.3582291337270974 
-0.1154074110612949 
-0.3290723199215944 
0.03663867350748626 
0.6484924308363779 
0.2131472408643716 
-0.06420409585718657 
0.1656121030448171 
0.1104663278415181 
-0.2393112036583027 
-0.3233502400190926 
0.1244845970079253 
0.1651428608101424 
0.1891719109475965 
0.2407082486094909 
-0.2677850496030773 
0.01667803517195176 
0.08561120076254553 
0.5491579807980692 
0.177013498342002 
-0.1225460308538706 
0.2930205911334036 
0.5938065081542316 
0.50085901800144 
-0.3943948862682212 
-0.2083114117039211 
-0.3959468095249943 
0.1051703319514704 
-0.1555778794719564 
0.1811887613856633 
0.3546659909383557 
-0.2796563152114337 
-0.2796111319120886 
0.2510930816917886 
-0.2941552375885004 
0.04636702903952075 
-0.2667184861359058 
0.1899786707719729 
-0.3255942625343276 
-0.4447895507400268 
0.1728786531860529 
0.2587198636476933 
0.02189131745692031 
0.116602606656216 
-0.02820760855949009 
0.2074414084767554 
-0.02399000980818985 
-0.2504636361709637 
-1.109158159208645 
0.4927303336443283 
0.04247241428038501 
0.2575610921125542 
-0.2639045099995923 
-0.2634607953460879 
0.2023527620474968 
0.5128576456693487 
0.2981649403986976 
-0.2419024008727998 
0.1321424540520093 
0.07932551800783094 
0.05639684158567234 
-0.09136054109118737 
0.065466484241172 
0.01250305168778537 
-0.04814054953256625 
-0.07858807391747727 
0.06308625706768417 
0.02893554042609051 
0.1373038976266666 
0.04109807936126529 
0.06963709599561477 
0.02775504046949396 
0.3957100160318045 
-0.2856844467557645 
0.05171869419140877 
-0.2215944071586305 
0.2492714356011186 
0.2471980589027266 
0.268941840078383 
0.1354387678557568 
0.03149594257048802 
-0.003435584106477782 
