solver_type L2R_L2LOSS_RANKSVM
nr_class 2
nr_feature 1124
bias -1
w
-0.1021548567950325 
0.08728421426337642 
-0.2669472873229007 
0.5212347721368337 
-0.2982599995141109 
-0.4658192019608869 
-0.162998580333799 
0.1355780109489509 
-0.1521374067335346 
0.4237030075543848 
-0.1642917521490815 
0.2687779337263345 
0.1042739492606633 
-0.3853384430219483 
0.3323593430051924 
0.3054998319124458 
0.1329410534457763 
0.4296578755169351 
0.03321130274758423 
-0.3011612471281848 
0.08060530181055421 
-0.111485312053596 
0.3772186827113105 
0.02457097120372312 
0.2847920580577089 
0.01235599616042658 
0.2854487907008283 
-0.2928093055939059 
0.05738190031111259 
-0.4125201179640668 
0.3943577853439021 
-0.3250843301673749 
0.4416387901067267 
-0.2730109669715383 
-0.04159866882828005 
0.1655323963980446 
0.4515865971559015 
-0.2353225104398606 
-0.003154956511669041 
-0.003147433943747947 
0.04472198393521537 
-0.3091452469197779 
0.006641458873684568 
-0.2471659469164365 
0.1803947424380981 
0.1060170973286444 
0.01358629518608082 
-0.4466143612668153 
-0.03220376166632041 
-0.2300770910353193 
0.2994624317772571 
0.1546979929273628 
0.2781453648841075 
-0.0800594069566747 
0.1119555127542865 
0.1185362103250187 
0.2503137560436589 
0.3786656901426051 
-0.1323337623305421 
-0.1116830978845043 
-0.1075430354732559 
-0.3609058613793638 
0.5783062766358236 
0.4384431255915562 
0.05647454455257218 
-0.1508846941654609 
-0.4280579893191157 
-0.2822228581548452 
-0.1269939435774206 
0.2115081493634187 
-0.2942497632662465 
0.0005947437381915513 
0.2010891026558392 
0.4646308623155093 
-0.3899661304487189 
0.1797999083148563 
-0.09025980031015736 
0.0112112588827376 
0.209022384305981 
-0.3249421114408262 
0.4505929941288603 
-0.2870799624825425 
-0.05506501160620517 
0.0002029901759879925 
-0.2558216880252479 
0.39437102036185 
-0.07814934299215846 
0.0125365238244931 
0.06890733329626286 
0.1563688893268981 
0.3222032232679393 
-0.08575520100476188 
-0.05087254162502489 
0.16199762397646 
0.1087729954545248 
0.2272790603585349 
0 
0 
0 
0 
0 
0 
0.5384936388383476 
0.08038703375736855 
-0.1871872437627661 
0.9192598680999072 
0.2945134413709813 
0.2330201951363865 
0.4722440357080059 
0 
0 
0 
0 
0 
0 
0 
0 
-0.4721989945527979 
0.1054269829357045 
0.2587709571401189 
0.1076305529217739 
0.1846550291587583 
0.07292586650745583 
0 
0 
0 
0 
0 
0.193243116788681 
0.07854748210595847 
-0.4249739782284218 
0.2032955986861245 
0.5882740249412561 
0.8145454474711852 
0.1534245613593993 
-0.4176636318074754 
-0.08628388704332937 
0 
-0.9425946309462473 
0 
-0.06699593704667882 
-0.2366445159202184 
0.2529305277536334 
-0.5411262533461186 
0.03098234029641382 
0.05796518351533365 
-0.003907552387369202 
0 
0.05044343535711796 
-0.03976295594401603 
-0.04971786011017886 
0 
0 
0 
0.08358205568375077 
0 
0.1396589829702344 
0 
0 
0.0570866408596127 
0.03098234029641382 
0.05796518351533365 
-0.003907552387369202 
0 
0.05044343535711796 
-0.03976295594401603 
-0.04971786011017886 
0 
0 
0 
0.08358205568375077 
0 
0.1396589829702344 
0 
0 
0.0570866408596127 
0.03098234029641382 
0.05796518351533365 
-0.003907552387369202 
0 
0.05044343535711796 
-0.03976295594401603 
-0.04971786011017886 
0 
0 
0 
0.08358205568375077 
0 
0.1396589829702344 
0 
0 
0.0570866408596127 
0.03098234029641382 
0.05796518351533365 
-0.003907552387369202 
0 
0.05044343535711796 
-0.03976295594401603 
-0.04971786011017886 
0 
0 
0 
0.08358205568375077 
0 
0.1396589829702344 
0 
0 
0.0570866408596127 
0.03098234029641382 
0.05796518351533365 
-0.003907552387369202 
0 
0.05044343535711796 
-0.03976295594401603 
-0.04971786011017886 
0 
0 
0 
0.08358205568375077 
0 
0.1396589829702344 
0 
0 
0.0570866408596127 
0.0842992720656775 
-0.07909469077710665 
0.286011151951995 
0.06107657895406406 
0.01672340788338239 
-0.1434294703342926 
-0.2239822858194243 
0.1662328859468331 
0.3578053230683805 
0.1517856525014328 
0.08149258270140027 
-0.2924934430705921 
0.3811915578753251 
-0.3723074931810587 
-0.1553436239540946 
-0.255095275943149 
-0.1840561639909059 
-0.1089223857769447 
-0.1344567650060067 
-0.07201621396947915 
-0.5677008222275682 
0.08283202798452408 
0.1617513234763597 
0.2508042557590182 
0.1896008946100758 
0.01220793466921943 
0.2613747087534225 
0.0651860992842874 
-0.08395340399344255 
-0.07528538586893512 
0.02287297602033972 
-0.001159280401148654 
0.1180935800698331 
0.05261496928176017 
-0.2528340605202142 
0.2271113445482983 
0.2017182563227437 
-0.06667653647141753 
-0.0274474293703425 
-0.3928211743241297 
0.1671888037299876 
0.02931040499663685 
-0.3331042584596002 
-0.03856376062321728 
0.2538242807515441 
0.1350677560969262 
0.01789798954526645 
0.2466472611592885 
-0.1655200651657356 
-0.2287421002616066 
-0.1439540271587873 
0.06639426525458922 
0.2470231689371157 
-0.1795801727815306 
-0.2552129625495168 
0.2010507215175466 
0.3360279597935567 
-0.1919329113616265 
-0.1174011737834975 
0.02015530434576963 
-0.1489796438801301 
-0.169894641230628 
0.1803526658621384 
-0.06868671302649107 
0.1315863323901392 
0.2518431585270453 
0.07932942065205277 
0.1130329468355181 
-0.2207066213741135 
-0.1790872074895462 
0.309184874653036 
-0.08212786377477052 
0.4951843018294243 
-0.123467241122168 
0.1110017893164248 
0.2601063650809284 
-0.06259540732091969 
-0.2161344134957814 
-0.1077283969532139 
0.1048999553833711 
-0.6503290469305884 
-0.2166688923321553 
0.2338719164375851 
-0.07165390037115098 
-0.2928043798774421 
0.2504885536877674 
-0.1456285107125315 
-0.1863934903993501 
-0.07815733325800078 
-0.03610383854887531 
0 
-0.1429605601667661 
0.000182678421965152 
0.4640344397472528 
-0.5488837718045584 
0 
0.01540249595762436 
-0.1798003383738822 
-0.2171786187876002 
-0.02651723217533539 
-0.1048847509165877 
0.1537564706698362 
-0.276538647413404 
0.2677818781880219 
0.3747127390663154 
-0.01806741017873006 
0.3304136143153046 
0.130693664015839 
0.0545975947617137 
0.004334238838716956 
0.06818437197387481 
-0.045878577035753 
-0.08967457586781515 
0.05892930229873607 
-0.2560739198324458 
-0.4015996428411999 
0.2277110470735927 
0.2695122977225283 
-0.3802608433335947 
0.631386845823574 
-0.01565966029297428 
-0.0811461120798269 
-0.07890305516307118 
0.12821195142438 
0.05064505131507421 
0.3200284810376828 
0.03179261347678037 
0.3393554939675598 
-0.117980698027406 
0.04674567564003933 
0.01131742987890285 
0.09321401108262566 
0.02116837356268256 
-0.03830656510556168 
-0.1833182966887645 
-0.1626214978357207 
0.5088728730958557 
-0.2115228490867254 
0.03760031765133329 
0.4328650466737968 
-0.2995130244328879 
-0.5488421141656175 
-0.1693335390996578 
-0.07458357715786833 
-0.3566447150246295 
-0.02211747371199871 
-0.08606875589806723 
0.62629172952757 
-0.2687704820378652 
-0.520676705368645 
0.2453728812311455 
-0.009141155663163276 
0.1263952311951937 
-0.07540181794776654 
0.1866362093092279 
-0.5879895293168406 
-0.1552873268748809 
-0.3714942936491635 
-0.1006915431408284 
0.3297838033024806 
0.09985312789237741 
-0.04280476946698621 
-0.08090344261863731 
0.199414716730263 
-0.2202431708532167 
-0.2566897567151135 
0.05147836956618419 
0.1336232737570563 
-0.1142167299874137 
0.03870590100162342 
-0.01754690556007213 
-0.3971773683396478 
-0.2321065059351112 
-0.03308887078166709 
-0.0638453413879983 
-0.3839707157672672 
-0.08324511054221144 
-0.01733513878581538 
-0.2231923514925631 
-0.1098023616641089 
0.4418362128873374 
0.3868799739059932 
-0.1692797218689907 
-0.3213358004477659 
0.1753854629018 
-0.2369254101577322 
-0.04560706522198828 
-0.155254850029323 
-0.2025830279491495 
0.4749302382410744 
0.1214077297401954 
0.2442789331003508 
0.04274530114295787 
-0.26458361391877 
-0.3511733689109978 
0.007867544537720855 
0.2027917081348087 
0.04214029872353697 
0.3338957797643622 
0.3871162086792847 
0.2616685993706872 
0.009562234771053522 
-0.01660904636317993 
0.1410284210322739 
-0.1444017422472834 
-0.01745343211660843 
0.175414115720571 
0.2456342797458337 
-0.1594751982024817 
0.06844824136769008 
0.4805174521286828 
-0.1794286536738862 
-0.2078539378824245 
-0.005419458344435149 
-0.3626336487924867 
0.1265801673027605 
0.09825215179985641 
-0.1980324866693958 
0.1169439318491984 
-0.2901713012506074 
0.3716414189862284 
-0.1289186673847326 
0.1679295993717362 
-0.5467706949564271 
0.1466532807965021 
0.04828442388990562 
-0.3411875737276545 
0.1260617403685226 
-0.1164276322742799 
0.08189949096589472 
0.107092679526014 
0.1765740580388852 
-0.01953898575049549 
0.2620316810600485 
0.1554607004213867 
-0.4907917776875092 
0.2409255209902183 
-0.5587949945954737 
-0.09937217178610967 
-0.2270956257508025 
0.1330004129816048 
-0.1548895107700233 
0.3668472256358566 
-0.116312771027791 
0.181598502669847 
0.05994254879468612 
0.04902698413717604 
-0.3659224350351795 
0.518258777123041 
-0.2767477495182783 
-0.494081031539631 
0.6993652536666924 
0.0562499205820455 
-0.3398810478519062 
0.2257577940743422 
0.173017599899864 
-0.4399503479141243 
0.1795999253959303 
-0.25857051653859 
0.04981631856674427 
0.2971083641262586 
-0.1508351502555436 
-0.248874090162726 
0.1999112812875667 
-0.02934221015623277 
0.1666075534536811 
-0.2527887385161951 
0.2822157704918731 
0.187647370180199 
0.08517401210107758 
0.146284932124793 
-0.05347689594080322 
0.1789450924290765 
-0.1029896752702229 
-0.1477126569567736 
0.378574775967622 
-0.04219210068741904 
-0.2359647979984162 
0.1816533500139158 
-0.02711923225551777 
-0.2315822005742797 
0.0765571634757113 
0.5938230637436244 
0.2195945671766666 
0.5451367422738815 
0.2193122906318602 
0.07551261834978086 
-0.1232915671186536 
-0.2391830159407481 
0.08400859641859254 
-0.157342279517831 
-0.0338208547386728 
0.283964890449966 
-0.09600703061045399 
0.07940739894422676 
0.6012885084643155 
0.2279107205770701 
-0.0902828838889267 
0.3083344536795217 
0.2610447107489888 
0.3388866592142411 
-0.1050803094353431 
0.1966030442287641 
0.1197944156550524 
-0.03798259088444107 
0.08382825974360657 
0.03325928228671176 
-0.03873653271110406 
0.1352846784777325 
-0.3013532232852966 
-0.2996413644568476 
-0.08075310267139388 
-0.02618770082018405 
-0.0890167099787962 
-0.03854124959115911 
0.05662156414490231 
0.1476343183477104 
0.09898687419603057 
-0.2981107691603583 
-0.1530546212203435 
-0.1744087171576647 
-0.1033263978871018 
0.5140045369495132 
0.2780187716934944 
0.03552129547817235 
-0.08065047464910821 
-0.02998172092525675 
-0.09008779204205317 
0.08091152471534897 
-0.1763237352863007 
0.3040646799618226 
0.3617083760401336 
0.119801025715402 
-0.3714898101365362 
0.3100865888618423 
0.08274624121718875 
-0.5544269131178596 
-0.3559826649828733 
-0.111063113944303 
-0.387442908423504 
-0.03051318371546833 
0.03937968700889608 
-0.2492596484596699 
-0.1145002952769164 
0.7094809008957254 
-0.1804449876737223 
-0.07227354153622009 
0.2359774975141325 
-0.06691187956768424 
0.05745341925954323 
0.01001650848492114 
-0.03469284379450813 
-0.1110703824407328 
-0.2229988471748831 
-0.03433007367690012 
-0.2742220400386914 
0.05325914108863387 
0.03855641644676321 
0.09886913899509645 
-0.06303640103457303 
0.3301873486491013 
0.03873620169215975 
0.3425190948654423 
-0.1390203760301605 
0.05966674814611896 
0.1659949614072196 
0.2785936090410107 
0.1419471600643733 
-0.04987744825050461 
0.02965625157709088 
-0.1615952703080968 
-0.3621647612067238 
-0.2724200356315713 
0.1405391522315719 
0.4108809755229715 
0.1585241940498006 
0.08951590818795535 
-0.003784373955904232 
0.3493338333801165 
0.2460518973536034 
-0.3633045760825756 
-0.1683030185497852 
-0.0587661513708269 
0.01938508460036057 
-0.09530240552436764 
0.3680471666619294 
0.07812732153956459 
0.201829821048391 
-0.06569705170455163 
-0.1080176751143914 
0.549608954595992 
0.1670413815822974 
-0.02152746314572301 
-0.2700593149710429 
0.1944738051211817 
-0.1979312291729117 
0.01706787689893921 
0.06046013372162126 
-0.07305961349500653 
-0.3915251003517304 
-0.1287499962498632 
-0.0153383712326902 
-0.1419227085067922 
-0.228999784410958 
0.3018611808258722 
0.008911207969400871 
-0.01400610529573611 
-0.09803987564197959 
-0.4876487394325618 
0.186883650971832 
-0.1142234405884779 
0.341809370733958 
0.6278366864653958 
-0.11728848229364 
-0.005517313282813707 
0.09514986107259196 
-0.1072593577041029 
0.04053976956515063 
-0.08514573069244125 
0.1187782266550029 
-0.1982986414665237 
0.3927831016714252 
-0.007266007071741631 
-0.03969410437996254 
-0.1635813809297931 
0.240946118130427 
-0.3237864762416634 
0.02451066642949315 
-0.3112802900554217 
-0.07025633584322917 
0.1558800761094649 
0.5116902244090675 
-0.0254508035744212 
0.1034344512220326 
-0.001120924354866536 
-0.4435382178203182 
0.2026361169740399 
0.2171731188854232 
-0.1727290615137417 
0.08215989246681574 
-0.09698117549732922 
0.272685506374053 
-0.2433886420607435 
0.08579492970795084 
-0.212194981956112 
0.049181692842214 
0.07431910172664635 
-0.2805653061391125 
0.03076909423502257 
0.06903581371132572 
0.05544358019426549 
-0.2459598174055769 
-0.1217880731665162 
-0.002418994352733743 
-0.01123267520165781 
0.2978663540766386 
-0.09947565176261597 
0.002621424678427878 
-0.169685656819164 
-0.05027624100883319 
-0.4065350998962041 
0.01552938303156965 
0.5912715127061093 
0.1695032657678638 
0.04904704433558345 
0.07979868913545633 
0.3409846277330706 
-0.1387379859304934 
-0.07588123065283121 
0.09240954734242778 
-0.02701732760386932 
-0.2694307559801162 
0.03544284466818365 
0.4009997564188534 
0.3203222388980246 
-0.1728955291733158 
-0.08288512380292441 
0.1944369123770897 
0.3565203738404418 
0.22506893747681 
0.1423835555475318 
-0.4717103904341058 
-0.08088104846612884 
0.2098449321294743 
-0.03865822147451137 
-0.03920866313471502 
0.1251325213828422 
-0.3029051496647057 
-0.547591592198906 
0.3235894900489201 
0.1033121224637971 
-0.1208139612416016 
-0.1676756714157832 
0.3496627345176072 
0.1310493321151925 
0.4821299499793526 
-0.01211451213583525 
0.3809190632593933 
0.06572373298015942 
0.1453780317235416 
-0.1038012582042406 
-0.02496251836009748 
0.3727451402871733 
-0.1983530946642959 
-0.1115137482965382 
-0.508750952532139 
-0.2412559374224788 
-0.4578446295780466 
0.1427236675052776 
0.06185492920050989 
-0.1200453904291025 
0.1086885069627857 
-0.02228493956699967 
-0.02297419683884286 
0.05790648852656827 
-0.338012542622376 
-0.1346876178531897 
0.1865462432207099 
0.5196001687315752 
-0.1450679204726863 
0.4908349953813815 
-0.2894626175893496 
-0.2468169879131576 
-0.09283663216126183 
-0.266382315125249 
0.100433372385135 
0.06052226528661871 
0.1501080392376463 
-0.1126809679966493 
0.08112141912878471 
0.2003194143028721 
0.2901153017651125 
-0.05833506952317268 
-0.002807958204545206 
0.04385930068986554 
-0.2445712538914767 
-0.1770363821731155 
0.2116537387783968 
0.4765178339964193 
-0.07189256925729154 
0.2176911924761792 
0.07152646722304089 
-0.46475235618435 
0.3992603926087676 
0.2935326887448282 
0.2176911924761792 
-0.09726648203444166 
-0.2218600761141157 
0.2189775234108912 
-0.3332736261405405 
-0.4010037293531823 
0.1188405782110127 
0.04247923978685454 
0.3663223992482882 
-0.02520178719173829 
0.3520422498911814 
0.2176020514086292 
-0.4591597102526477 
0.07869489164537155 
0.1532512901628937 
0.08809513889128941 
-0.5787831832534065 
-0.1792892534003462 
-0.2602358733369444 
-0.2196097901980514 
-0.3786437191092081 
-0.03218294036056953 
0.2670724212076167 
0.01856798926362574 
0.0303347532447308 
0.3664588087477694 
-0.2594094203191275 
-0.1567927274894505 
-0.3460651624848483 
0.1271845065951453 
0.1050106709791605 
0.329720468475132 
-0.3724745233704323 
0.1507881707653969 
0.1902255980299077 
-0.1200430336802275 
0.2340663281555902 
0.2999964566362081 
0.1053173995845038 
0.1386133846953453 
0.09893364627942529 
0.05724559090359291 
0.109972346551904 
-0.2274014313873783 
0.1319715000531025 
-0.03074222710854797 
0.06623788451214986 
0.4524721761849313 
0.4896292022548452 
0.4185401337046518 
0.2111776955504394 
-0.3080663165709695 
0.02563579256486293 
0.05701862890132391 
-0.2728605538527083 
-0.2808625078186766 
-0.2724774390610812 
0.4271257902061859 
0.008649394975027923 
0.1729231110424862 
0.2745908245939329 
0.1376656336335197 
0.2395093603286369 
0.5809063726845762 
-0.6077562502142263 
0.2139141922086926 
0.004346901045695476 
-0.05188653010892851 
-0.172539044491954 
-0.04359893646124966 
0.3107998092732582 
0.416808684151237 
0.2185072861358621 
0.4061440147310833 
-0.3465237000612724 
-0.3357260151852228 
0.02133769567512288 
0.06569965105965861 
-0.07015900769974331 
-0.1097181222799724 
-0.1124111172212218 
0.4044952767701106 
0.3940185033524672 
0.09960811150442296 
-0.228661963425215 
-0.1425374539738342 
-0.08161662998988464 
-0.4715012548457158 
0.2288031467149148 
-0.3455529932803748 
0.1637173298169927 
0.1737084706766498 
0.5441112453265538 
0.02192409035619227 
0.0803964301046354 
-0.3864655246791427 
-0.1804590431103502 
0.1217794254153648 
0.1759335017409619 
-0.09950044059582273 
-0.008288025885897565 
-0.1158252843581828 
-0.5136986706498923 
0.1128489777813845 
-0.1339249194613274 
-0.3489069064027721 
0.02281180287704894 
-0.3722170430152789 
-0.3263017976296064 
-0.05264745658494007 
-0.07533619494298197 
-0.1362850436307132 
0.2168131649858348 
0.06016014898508526 
0.1588232133646616 
0.3060872697335299 
-0.1436353559343424 
0.1487443773734431 
0.2674957239534327 
0.1016359405438751 
0.05591348974537738 
-0.1332377317760214 
0.04644911561321663 
-0.04782932395557964 
-0.1684279622358464 
-0.2466467685511953 
0.06765583475258472 
0.2931283753537241 
0.08604351756337131 
-0.2743158372850978 
-0.1256618457935609 
0.3065868633326424 
0.18303225787388 
-0.09265506718164583 
0.2835011135771693 
0.2198970441759074 
-0.446963971388292 
0.5184382259307765 
0.2224021533075354 
-0.4550380483351538 
-0.04929812596848723 
0.0582289672458484 
0.1595934205019228 
-0.2184220935520601 
0.2203486574152418 
0.1870951912632129 
-0.1150258765079825 
0.07252789529808316 
-0.2780346098908112 
-0.06097342595604668 
-0.08706899485568705 
0.2237911754871924 
-0.1116775252502523 
-0.1152211006541545 
-0.2606343863248756 
0.1764403045111354 
-0.5744933506166536 
0.1704740374945246 
-0.1601559411319172 
-0.1595768838968501 
-0.08509696805469476 
0.2373994012205176 
-0.07076284894146755 
0.06466074591342409 
-0.3209347602428681 
-0.02885533985502574 
-0.03869682919341087 
0.2716675140037705 
-0.2249769380466477 
-0.1039610290691163 
0.07320941210161053 
0.08173609479662354 
0.03561358673206966 
-0.1348347602577218 
-0.3182989012282865 
-0.0854907838959411 
0.7265525866683679 
0.2423129748360168 
0.2928610962195725 
-0.4198619148328567 
0.1158459233470728 
0.09580213195272333 
-0.1632026595440048 
-0.3672756920270507 
-0.3614551633959218 
-0.2837006004215917 
-0.06773830236049959 
-0.3284552817613714 
-0.6313428651872877 
-0.2451849420139158 
-0.3457586537250719 
0.2450674477347966 
0.08710696396051788 
-0.09701589149336189 
-0.2814338439709131 
-0.1184841762922892 
-0.3334783302120604 
-0.2148559366106029 
0.3137773237205842 
0.1515592356748134 
-0.4949274190794397 
0.2685184769001364 
-0.1201012607813639 
-0.2068401192419782 
-0.3415763841333223 
0.15759717918697 
0.2440345238805461 
0.06835064461709159 
-0.3609256634904072 
0.2498708280557233 
0.03351649467767225 
0.03816310088717557 
-0.0827452373580604 
0.09247610901085511 
-0.09974438446234789 
-0.02468104192385031 
-0.02234828263177224 
-0.2142498579987272 
-0.07169019618109912 
0.3155425971962148 
-0.221634301822931 
-0.01216116305471903 
-0.05436501984302128 
-0.1607402180214465 
-0.2803014744235367 
-0.2550599252915352 
0.6209660328954785 
-0.2485265414749501 
-0.1991737711634687 
0.1756899414942665 
0.186871415733374 
0.03071252468773502 
0.02078352428931923 
-0.06386664347237453 
0.08736343987016831 
-0.02163261972299322 
-0.0934722039060189 
0.1011620775015163 
0.3687121679868607 
0.08434410797783308 
0.1558817314191505 
0.1387027074162584 
0.05903358682439569 
0.1655322338056989 
-0.04009867319595907 
-0.06075343519193191 
-0.06146836963877073 
0.007943610836786047 
-0.1408289952412263 
0.09559402931434227 
0.2096530244221018 
0.1335713125904349 
-0.3059541162270364 
0.06594522142291276 
-0.08041509906996261 
-0.04444749964157867 
0.08601615418098123 
-0.1421369183769503 
-0.2102075882066564 
0.3053419349033856 
0.1963632519538912 
0.1194650317063666 
0.2049379464008229 
0.1089380833933375 
0.09994277486116696 
0.1225577230129669 
-0.1143429478014117 
-0.4906777097947745 
0.1506491696670365 
-0.2278799937202907 
0.2423712389473061 
0.08005857390748219 
-0.2316340372619275 
0.04681843662214117 
-0.07997796438358247 
-0.1172086916948001 
-0.4206821482568604 
0.3914886973002297 
0.3508235753301674 
-0.07959663117115869 
-0.1318469584777657 
0.03496073223968263 
-0.5209045921095479 
-0.1646908005724859 
-0.05337953882432082 
0.08255643911114917 
-0.2826962816751393 
-0.3002802606909653 
0.5161508378902807 
0.2159260667506972 
-0.01156016514229579 
-0.01890756299214482 
0.3117538853561386 
-0.05077735983576709 
0.1233777742149381 
-0.01918088507148314 
-0.3669146895907619 
-0.1918553313134465 
-0.02195131401036736 
-0.06553260724886617 
-0.02229300833672157 
0.07569061592286841 
0.05407587962206467 
-0.1434314217249399 
-0.1017974044182596 
-0.07155516315863719 
0.1183205097737314 
0.06061857926518893 
-0.01074658359612382 
0.2240529650348666 
-0.0613315664778081 
-0.6257251709691902 
0.4608943404740865 
-0.02913329100750325 
-0.05333406285547183 
0.2951802215481497 
-0.2306855165837733 
-0.4939243851460552 
0.07692395799524153 
0.7904535584401133 
-0.1369935896982662 
-0.5231329946334382 
0.1065398536486467 
-0.2925311813191671 
-0.007274868990652165 
-0.07759547743032789 
-0.1972807648128722 
0.4749535650098606 
0.2822263362877764 
0.4913964740481831 
-0.05059381840722277 
0.08153002229784777 
-0.000933512881120889 
-0.005442885924147436 
0.1869329866854709 
0.04325679796792249 
-0.5294367222599242 
-0.1140436389446259 
-0.2037999598141367 
0.06429447193317957 
-0.2761521892630254 
0.01124914788249859 
0.150806305488238 
0.1191446289854359 
-0.09745390904939144 
0.2160434504921409 
0.2778725858673929 
0.09040681107026739 
0.02519356741622032 
0.3462806156280603 
-0.1773797052236937 
-0.04091892622774523 
-0.05710650827898332 
0.1696008075459952 
-0.1370302578845802 
