solver_type L2R_L2LOSS_RANKSVM
nr_class 2
nr_feature 1124
bias -1
w
-0.289779123073951 
0.1562569340108368 
-0.3239153681879834 
0.07886125436765423 
0.1477171082680168 
-0.1493624888743726 
0.237554106062623 
0.4427688484532337 
0.07370986857429454 
-0.02486886070597233 
0.5454661755669866 
-0.09256123258986219 
0.04419661455297488 
0.01099909261679145 
0.4130149445249698 
0.0846747869665553 
-0.2171717169598695 
0.1561551447320936 
0.4137395848059541 
-0.07439527675012768 
0.06919340117153293 
0.04939716389643963 
-0.2281299827636459 
-0.03769242858710159 
-0.2907118217920299 
0.2015757215457082 
0.1866950003298505 
0.2368068584622542 
0.1542148208056961 
-0.1779145194908006 
0.1989484036665307 
-0.2686261592297837 
0.2440921561199702 
0.03866017522080609 
-0.01187041016145854 
-0.1900171018421172 
-0.03846411377304516 
0.02373012527088829 
-0.09213182265426913 
0.04069542155026484 
0.1800397822527516 
-0.1323033314489823 
0.002744126491359427 
-0.2333790337629094 
0.1436735865127435 
0.2267712492911664 
-0.1231329434566308 
-0.06691191623356715 
-0.278147476459581 
0.2717441581994388 
-0.3825466935545471 
0.3613661819849689 
-0.1139500942346499 
0.2240584624619856 
-0.01456621311096043 
0.2332610511606426 
-0.05823250963177482 
0.1621930249709017 
0.1828738227088963 
-0.06705405106669872 
0.2315101808192321 
0.08440606899337658 
-0.1969938921320111 
0.09403324828233917 
0.2965887443555286 
-0.2326967300359046 
0.0589467260345152 
-0.2831365753457826 
0.1832765472827101 
0.3367208422235841 
0.2957783828818876 
-0.2526074374632105 
0.127839236320428 
0.1062980885493557 
0.104234118854597 
0.395292592399858 
0.1652777668665688 
0.06201972567970684 
-0.04612319405313482 
-0.02700561039128186 
0.07927665024867721 
-0.02971220188181677 
-0.08588012514119119 
-0.536343798431855 
0.02893927577428909 
0.008986625846720081 
-0.3442590602945831 
0.03042709490427675 
-0.2009474810892513 
0.09400397899693484 
-0.03650276434198024 
0.07047917033640087 
-0.2614496829300282 
-0.1994620752061634 
-0.3988735143214357 
0.1854716821256702 
0 
0 
0 
0 
0 
0 
0.3510952569623733 
0.1873782741977927 
0.03908526475470402 
0.08662519887245082 
0.2077889411173825 
0.1191063008029077 
0.04226706149361188 
0 
0 
0 
0 
0 
0 
0 
0.04715784648634629 
-0.2092609070990887 
0.5330706384088725 
0.09418384396030072 
0.406757669587744 
0.1567649989563869 
0.193856176368899 
0.0003086504637854493 
0 
0 
0 
0 
0.4465295146514358 
-0.02450020841290757 
0.3487791380056708 
0.03186025244568967 
-0.1313956413524439 
0.5890529330125859 
0.3520735115788813 
0.2620296347746093 
-0.2764431896678428 
0 
-0.08130207723374296 
0 
0.104186800971638 
0.04285535827801704 
0.2937989935994326 
0.3317354721802672 
0.01017037285860568 
0.05458779881983004 
0.01034105971708804 
0 
0 
-0.01410195289336995 
-0.06790285340074237 
0.04655533479621909 
0 
0 
0.04540688791526271 
0 
0.002436165690106285 
0 
0 
0.03401583521491964 
0.01017037285860568 
0.05458779881983004 
0.01034105971708804 
0 
0 
-0.01410195289336995 
-0.06790285340074237 
0.04655533479621909 
0 
0 
0.04540688791526271 
0 
0.002436165690106285 
0 
0 
0.03401583521491964 
0.01017037285860568 
0.05458779881983004 
0.01034105971708804 
0 
0 
-0.01410195289336995 
-0.06790285340074237 
0.04655533479621909 
0 
0 
0.04540688791526271 
0 
0.002436165690106285 
0 
0 
0.03401583521491964 
0.01017037285860568 
0.05458779881983004 
0.01034105971708804 
0 
0 
-0.01410195289336995 
-0.06790285340074237 
0.04655533479621909 
0 
0 
0.04540688791526271 
0 
0.002436165690106285 
0 
0 
0.03401583521491964 
0.01017037285860568 
0.05458779881983004 
0.01034105971708804 
0 
0 
-0.01410195289336995 
-0.06790285340074237 
0.04655533479621909 
0 
0 
0.04540688791526271 
0 
0.002436165690106285 
0 
0 
0.03401583521491964 
0.4785044861385014 
-0.006281429111841892 
0.08705251558944946 
-0.1808984323669793 
-0.07612457187794912 
-0.194401973775629 
-0.05008432724348744 
0.1447142199147321 
-0.08603589961007838 
0.1522786787618389 
-0.3119757277854895 
0.01208512072381599 
-0.2347135449507137 
-0.05955450874306278 
0.27992872081048 
-0.5769354359696203 
-0.1347348728581404 
-0.1634705283633095 
0.03796993507368035 
0.2664187394416291 
0.1309208988834555 
0.2339223720914369 
0.1212329817821382 
-0.2157116258007516 
0.004779149958158816 
0.1813786428373956 
0.1097988266231463 
-0.1971478887438475 
0.1871964521007163 
-0.2231954267010102 
-0.09680178532277015 
0.1355453859714322 
-0.1047202032655406 
0.03927647190085268 
-0.07233795520493279 
0.3587438958516007 
-0.4357368016784888 
-0.2187856884756514 
-0.0421329445495854 
0.2250843164008569 
-0.1385913830201137 
0.04069726390531109 
-0.1473684538610559 
-0.219908021146408 
0.07255465894206611 
0.3112341723687321 
0.3069837017880028 
0.02576140098109903 
0.2358124676224333 
0.01708084778981112 
-0.1565375556195284 
0.005614146216744863 
-0.208449919991009 
-0.3067328296598347 
0.07799709133301024 
-0.001990683960539885 
0.2968872084284882 
0.2671462377745371 
-0.3092684190238704 
-0.2410825100516909 
0.2883452779978928 
-0.1031941723120696 
-0.02283737354049984 
0.2181304308788045 
0.1561907195343439 
-0.2874146525553328 
-0.2019890203053711 
0.09110577908685187 
0.01707092531631183 
0.04816754793258946 
-0.02423951914921545 
-0.04535016378668295 
-0.01433389773234421 
-0.1038822049668043 
0.09882061245573813 
0.3326532672646598 
-0.2041550918708614 
0.09998616525156839 
-0.3414121931134312 
-0.09299625294160832 
-0.135953544326947 
0.1929516373131438 
0.1025905436229047 
-0.07456486346150851 
0.1337985220323142 
-0.4142530634151294 
-0.05182887892144805 
-0.2362109491470416 
0.1779944736687228 
0.01510756391296587 
0 
-0.3358546812561248 
0.0806080686036512 
0.313913130429001 
0.1670975525600086 
0 
-0.2006723163864143 
0.2495952978028105 
0.5535793044484525 
-0.4977668702964169 
0.1308737332930735 
0.08977649969931789 
0.2505865979341707 
0.09430590143508386 
0.2777349036510001 
0.01280547267431171 
0.04450807506819203 
-0.1370574445306304 
0.1155061929211768 
-0.08947268218414947 
0.07938093839383828 
0.1382268661621627 
-0.08896649687219968 
0.03938567194927221 
0.2926464598789598 
-0.0839575904338026 
0.1669526442377591 
-0.2598304761994205 
0.06411329298951972 
0.1067858700260573 
0.2745514878973754 
0.1616532506474357 
-0.02731019993558111 
-0.1547923117961372 
-0.01149353729323024 
0.4787757940886705 
0.2014451379830374 
0.1554021472117992 
-0.0582393743888952 
0.01130384287064029 
0.02947626831844136 
-0.05250468456564877 
0.01664440009048009 
0.08230858975842008 
-0.3329408453956944 
0.07082418601509304 
-0.144608622557666 
0.2019435674665588 
-0.1974952009357449 
0.3537863676213102 
-0.1650766070333827 
-0.06256104524248832 
-0.5013279050650042 
0.1210264993382679 
0.1779577592979736 
0.07643037319348531 
-0.01362332484797424 
0.121348628145262 
-0.2823694689206491 
-0.2212027997131025 
0.2344339025188991 
-0.1739172758211816 
-0.06489991238640734 
-0.51022612898333 
-0.6132980783362729 
-0.08656473206252846 
-0.03252971172226809 
-0.1808387885322956 
0.1160917212201855 
0.3637773963605281 
0.3085389387907023 
-0.2856525904283381 
0.03278848957452907 
-0.07588150797627224 
0.2013654369562911 
0.1206401660105236 
-0.0824788973431809 
-0.2796288042825099 
-0.1185464655036527 
-0.2770953396266622 
-0.1161022940640922 
0.1594765605906705 
-0.05768186793034551 
-0.03720500084030803 
-0.09157278811549344 
0.1377433703975443 
0.02669432042713111 
0.1261007963902797 
-0.1948401418726639 
0.1901375809086281 
0.3286038645600269 
-0.1924320498768766 
0.1561188249608871 
0.146610389015832 
0.00622717712529291 
-0.1349361916927677 
-0.1541390331091764 
0.06019672895715711 
0.05625840484726287 
-0.1115750291575668 
-0.1296855577932547 
0.002942857376238579 
-0.1205621803111626 
-0.08080525876618801 
-0.1032691222306779 
-0.3027339252685233 
-0.1712937172365933 
0.03122325333293932 
0.3076425591542967 
0.03350164921278352 
-0.05064898405242646 
-0.2949858916142319 
0.05876380498148316 
0.04130055930973029 
0.341076803111339 
-0.4874220188200568 
-0.05405738583978308 
-0.0621093002423088 
0.14562356449183 
-0.006302096257359611 
-0.08649583011747462 
-0.2792913811689844 
-0.2807069862660699 
-0.04893237570276098 
-0.1226911337967619 
0.5754283645840036 
0.145532583197089 
0.2322823852813432 
0.1877986422855982 
0.1359583474798545 
0.1882317769955852 
-0.09916041643688375 
0.258491854763586 
0.1397132656960331 
0.2075284331119786 
-0.2420127696893704 
0.4217172462191822 
-0.2414167636815808 
-0.04145237046916173 
0.01366120549972511 
-0.1687956789829809 
0.1891399084347173 
-0.373776231941909 
-0.04764851392480536 
0.01744087823507048 
-0.1707672214818749 
0.2918159304736203 
-0.1755031840879179 
0.1411998515108449 
0.03472320395792414 
0.3210580659583317 
-0.2371579380349003 
0.08475933612207773 
-0.3068481598538516 
0.3545552291141773 
0.2173401366854407 
0.09707384967546591 
-0.2374403039754245 
-0.2334827613015119 
0.05832271439148771 
0.2037465997396278 
-0.07415460599893983 
-0.2111778243025422 
0.1366550715770568 
-0.1279699479103752 
-0.3513572003132676 
-0.1073033787652192 
0.1096986819501374 
-0.1116963558049607 
-0.07000616954452824 
0.2502964195764694 
0.08314261693121237 
-0.2231562805781996 
0.3580552683537022 
-0.2094182002317807 
-0.3307652551631003 
-0.2515328784591067 
0.234469424916212 
-0.2974908784659606 
0.008881544248163337 
0.1632497003085854 
0.115227040417231 
-0.2584893683911276 
0.01849361633560089 
0.3010582188375917 
-0.03842925451003206 
-0.02050494608874994 
-0.1256463480664824 
-0.03158707561859671 
-0.1385095772005975 
-0.2770912400245364 
-0.3272752126876096 
0.1067125651331191 
-0.3086636244647978 
0.1879953402605394 
-0.01791380750467288 
0.4188399958191267 
-0.05998457567672336 
0.04072653207983026 
-0.2090331861634704 
0.2605968004401185 
-0.07681073342982087 
0.2036904376971162 
-0.21119498204085 
-0.438103287396467 
0.2949067692063811 
0.1672407124421662 
0.1219964725181587 
-0.4328176357108038 
-0.01021863535647627 
0.06330657240014928 
-0.2129658339263007 
0.09153268331054223 
-0.08093162490554375 
-0.134551515420084 
0.1584635417273649 
0.1472468187125548 
0.2654887868095065 
0.0454800125168917 
0.002256204452907844 
0.2850858287581266 
-0.1331614026108524 
0.07016545173216901 
0.2596603547923635 
0.1480391166172821 
0.2604864212818169 
0.07997510555111297 
0.3154041020198669 
0.2739586829050166 
-0.2079484087300869 
0.06503701716650741 
0.4045288493173392 
-0.2422113203466476 
0.04313065663129521 
-0.002196589814281232 
0.1280162787427325 
0.3007351160064939 
-0.1218228323330568 
-0.1978542354508244 
-0.3477138629867548 
0.09369786996524393 
-0.3695992855613667 
0.2229433145078242 
-0.193038077449724 
0.1520198963917656 
-0.1397330339499051 
-0.1424556038481539 
0.01142331150696537 
0.1402490186725346 
0.05282132736623369 
-0.120696401500271 
0.3186852624573241 
-0.1298052428264448 
0.05908714511568037 
-0.323302255799633 
-0.04180921654263704 
-0.1532313805768537 
0.4640553034549836 
-0.00347355643582048 
-0.0367403666841672 
0.05232684229285711 
0.3170965273919312 
-0.201223177402253 
-0.1302970496667435 
0.03177355639027192 
0.08391666395882338 
0.2359350633958547 
0.01922681636408183 
-0.1795842122026856 
-0.06235199952077408 
-0.2292843303192888 
-0.005888714302185083 
0.1739565889018446 
-0.08882485971263525 
0.3027527348754698 
-0.05558471283176363 
0.2121059907778244 
0.2490168189850994 
-0.167702331932653 
-0.07121444676771911 
-0.1299934018925771 
-0.02052317612146431 
-0.1487522419724716 
0.02142563408338931 
-0.05479230730210816 
-0.3753117358977925 
0.1801290841447173 
-0.06966915467534669 
0.4073004289825918 
0.2585253852588524 
-0.02899346176233954 
0.1234387616439264 
0.1207017511168447 
0.2291205793943194 
0.04955517624951709 
-0.3980888996941633 
0.01225017138174881 
0.05327668732023114 
0.08361810095150382 
-0.0461912343926883 
-0.37870766772742 
-0.3607937850108995 
0.1464502517290094 
0.01138115155470741 
0.1781470874903264 
0.03644076675974692 
-0.2093889330912886 
0.362211534838143 
-0.03230291370502957 
0.1757630668924115 
0.4389769981553003 
-0.03737513155225208 
0.08267382750925215 
-0.4433040170138242 
0.2183925687185878 
0.1234347318676401 
-0.1561266478853935 
0.02978750513859038 
0.03670410653569631 
0.3755999803011899 
0.03958030801427849 
0.08764861279203499 
-0.1461604646900269 
-0.2618559712443171 
0.2401563556398681 
-0.1355886592971073 
-0.1192820396648756 
0.07501506340664919 
-0.2026801981847795 
-0.1170470408384867 
0.09840632504342442 
0.01576443696485319 
-0.1309431328532398 
0.07525932897199855 
0.2021004544781773 
0.09361166272540689 
0.3018771322579811 
-0.1126033267574775 
0.211693638516423 
-0.1007234780618764 
0.07354182009408333 
-0.1365293521910771 
0.04252814174732087 
0.09094527078567319 
0.08629297685482223 
0.1584239610820833 
-0.07037724687656018 
0.153471071918757 
-0.1673303767986382 
-0.02569692474267121 
0.3507608798336437 
-0.3410912547249853 
0.5200824667312484 
-0.4417551549689403 
0.149805448287869 
0.3262872796713497 
-0.3663892722619007 
0.09751785929550308 
-0.08256340754590337 
-0.05723485166327123 
-0.01119390158500347 
0.4774062771490594 
0.230995689086024 
0.007989290733470853 
0.1632141680848671 
-0.3424922077393059 
-0.04107748681141821 
0.4170355097112796 
-0.1468653539736985 
-0.1264337693512081 
0.1529243566736287 
-0.06153172588269781 
0.1397238306678596 
-0.2943140398583951 
0.1611614283949299 
0.2853299550132161 
0.05632824899672521 
-0.07207251757415459 
-0.05305268221997547 
0.007218089376422697 
-0.1848642326956604 
0.1447653412499625 
0.1622373634156483 
-0.1331295562456249 
-0.2372142827655671 
0.3950048052266024 
-0.2100083895090494 
0.1676107257860808 
0.06990017918118581 
0.1798696854156761 
-0.04577648393584603 
-0.06223440905213433 
0.0751142329615008 
0.1448336582986161 
-0.03880430378545213 
-0.1899311692155988 
0.009793402720180991 
0.03243891750617289 
0.1686797233766764 
-0.01775278396069617 
0.2278522511114702 
-0.0697917137335696 
-0.1808036277447783 
-0.2534944792821394 
0.19409058993639 
0.2025523709455244 
-0.3039691645817118 
-0.1732513965178736 
0.04756368034026286 
0.3303333107339273 
-0.1406443254799251 
0.02036371660573113 
0.4125177659462528 
0.10527152702553 
0.02212545596094386 
-0.1174032580669492 
0.1888215424742963 
-0.2822834348599993 
-0.02322234939811729 
-0.08902590651642284 
-0.102497398488464 
-0.02858346004650018 
-0.03735857320604707 
0.03335821320115215 
0.04066874823489679 
-0.04727833100646559 
-0.06428381223582322 
-0.03854872135798224 
0.1443492862812257 
-0.3391088544298728 
0.0007485603624155573 
-0.1055068161583256 
0.1429389360282636 
0.2293726905713142 
-0.0432198704783958 
0.1322390677818666 
0.06398287104493683 
-0.130391951806925 
-0.06289805789293092 
0.152985925609289 
0.01156034410926646 
0.3596075180880523 
-0.1289380240639088 
0.05176756785057207 
-0.08822020065197582 
-0.1557625347314287 
-0.1004243553156061 
0.09571171717663544 
-0.1914837861681939 
-0.05927052412490864 
-0.3256499753470322 
0.02570422121745487 
-0.49739192730737 
0.101630292033833 
-0.4117722383802464 
-0.3256499753470322 
0.4277733262377431 
-0.2461582376284106 
0.1912356633323789 
0.1145454768998161 
0.04593338054411628 
0.4352374187978411 
-0.6042690642296948 
-0.01098225613574124 
-0.1164623401763961 
0.09646838096157097 
0.005140102883379273 
-0.09700201586134918 
-0.04676520404635667 
-0.00929866439116143 
-0.07313262481063002 
0.2203530825992119 
0.1277135170700027 
-0.1707685357346597 
-0.1361173696439741 
-0.1576608307324489 
0.357290601159033 
-0.1792740760208479 
-0.1125024077708105 
0.1179816090973162 
-0.1388356667508564 
0.3249858756712327 
-0.1087106164156828 
-0.09183459133599717 
-0.1691189552314401 
-0.03001023837576307 
-0.129906632176308 
0.04935390454288756 
0.176482589791371 
-0.1833520028520783 
0.02915557173533699 
0.1162460117403531 
0.1173214289780668 
0.2380788691818298 
-0.2854133718695986 
-0.04981853711437297 
0.2470563352308232 
-0.3167833533384044 
-0.5143195107346071 
0.0811927717203725 
0.1558451476253408 
0.04510024603472822 
0.5487454796431051 
0.06141047686796994 
0.0397774246693044 
0.03190333102275815 
0.06729288959537709 
-0.2778583005856845 
0.1695482065438853 
0.06069315543099028 
-0.1800355621832551 
-0.4490877373331778 
0.2012160001901134 
0.2820343351544435 
-0.1411893369574462 
0.283530609517187 
0.4995937538256701 
-0.1262946563036528 
-0.04036811394275082 
-0.1222284568653372 
-0.2728475304526984 
0.1234014480094419 
0.2018234221812779 
-0.4022319101634377 
0.1354671694068404 
0.06932462505227277 
0.2340761582947195 
0.065332152936265 
0.3316280508076348 
-0.2685796841660451 
0.2979057657602207 
-0.09555458093258773 
-0.7115795904020524 
-0.1821310467212864 
-0.02130508607864354 
0.3851189784679143 
0.07014140892100453 
-0.03131779021216744 
-0.184554194369404 
0.02182906954255824 
0.3008001127405656 
0.3700454193085479 
-0.05241040932660616 
0.05572443484405758 
-0.0021311090968114 
-0.2715544854401847 
-0.3567382795050053 
-0.279933316497885 
0.2118674321748683 
0.04968717713546389 
0.4324806186590388 
0.04106687147739947 
0.02682624167537145 
-0.1911781438523512 
0.3145306533176079 
0.1309621873545316 
0.07539271170487927 
0.2176101019507433 
0.01763619850284789 
-0.1325432750609802 
-0.2395886324319979 
0.1924322395971055 
0.137631488397777 
-0.293424294735988 
0.1125110252833864 
-0.06788820585083961 
-0.05368044399921337 
-0.1343872769835105 
0.2360989871634909 
-0.1738252999246001 
-0.1914588631739201 
0.001677746739652833 
0.1700504152832522 
0.0876541761129208 
0.02285546817576824 
0.1947411947037656 
-0.1889066361679195 
0.1403577193268054 
-0.3648131779718455 
-0.2901481022038597 
-0.06531215424591544 
-0.1567907362364195 
-0.06602656652048705 
-0.2322974380390266 
-0.05245874754349173 
0.1539145360546902 
0.279891965302599 
0.4838299616438866 
-0.1770338122511599 
0.06969323970062614 
0.3873412378664927 
0.005422966054618119 
-0.1772139920680346 
0.2513319859297825 
0.291237082537702 
-0.0638959610516588 
-0.4482848257680468 
0.287746971883991 
-0.3585094433082534 
-0.06236221283414146 
0.05279249145330855 
-0.381090919284736 
-0.0185205976218228 
0.476484411353434 
-0.2710390716561804 
-0.0317651332597795 
0.09281970669924004 
0.2916803803629343 
-0.2123265241640326 
-0.09159528758908549 
0.1405640724503988 
-0.3756360784158481 
-0.1485678905884135 
-0.03169904035589977 
-0.05523945283795499 
-0.03079294255617719 
0.3694704363852947 
0.09828205160129087 
0.05826952959176428 
-0.1069993862437795 
0.07609676667617971 
-0.1145719682613496 
-0.07464111561693057 
-0.1585735672185305 
0.342643259314787 
0.1997059353810981 
-0.1971452248893257 
-0.197241927524749 
0.2522903188219309 
-0.1970827152217131 
0.06303460396313507 
-0.3643088723902587 
0.1286020614836561 
0.1665890110642226 
-0.07182466857342031 
0.1566943042595139 
0.2404244361669867 
-0.02861561068244053 
0.3147026860494089 
0.3286463405381016 
0.06411293792190202 
-0.1589374970602707 
0.111247625114404 
-0.2981890701196353 
-0.1463270572667874 
0.1446249040733507 
0.09631053849971104 
0.3369814226781581 
-0.2833219589470908 
0.01055578123712237 
-0.0606873856048211 
0.07803090815678521 
-0.2448001367518564 
-0.2971203533704886 
-0.1404140752120302 
0.2906924358656454 
-0.1793930343277309 
-0.2932566185368015 
0.08675702406295827 
0.07176068027607289 
0.09309977722904739 
0.04194806684621721 
-0.03883962185692518 
0.179239603465309 
-0.0679643742931928 
0.1929537930643049 
-0.005900418667719403 
0.2966524066697771 
-0.1233427884639782 
-0.06453942200590175 
-0.03389033470081544 
0.04488802056275082 
0.166008380310374 
-0.1031774269507126 
-0.1945685070545008 
-0.09324782331186184 
-0.2120651651580574 
0.3599546736965217 
-0.2009802100006108 
-0.0571709408010827 
0.2069550697375557 
-0.1874320889246378 
0.5379910464306623 
-0.2288305148070474 
-0.2127224157548828 
0.2147372791152515 
0.1357334392838012 
-0.4228226735849834 
-0.4483471835943741 
-0.2951298284756095 
0.2200832197345685 
0.3421031412801586 
-0.1543176542329989 
-0.008221186173391008 
0.2060965014793095 
0.1304171811127502 
-0.01083761403946503 
-0.0550107444560936 
-0.1794228156284696 
-0.2265763420348077 
0.1690868585731339 
-0.02295493278370606 
0.04234546168293144 
0.1959042008307217 
0.2169143806859077 
0.1576589390237064 
0.3575205091424178 
0.0829948657462188 
-0.1270058684579178 
-0.09119700834342848 
-0.2006876779221161 
0.08848420357306545 
-0.2534935769161763 
-0.06232235456310976 
-0.002292115482675074 
-0.1211275971462649 
-0.04321221783081534 
0.2085823956868699 
-0.1979807954933373 
0.0308396500303779 
0.07802462925417152 
-0.5651725720627762 
-0.1966978303265844 
-0.04124833488478553 
0.06187133679947843 
-0.05365015622383615 
0.2840367937676425 
-0.01893929928562212 
0.03171220328683606 
-0.3216634445860111 
-0.005022851487225287 
0.5200855470339185 
0.07850424031761766 
-0.3405130734773683 
0.1232302233494215 
0.1284408300041721 
-0.07305012855421592 
0.2241173517630608 
0.129954886712597 
0.08368136376216595 
0.1603940964236734 
-0.185457137871861 
-0.08922747549862958 
-0.04848086390097161 
0.07269046290279849 
0.051367300880317 
-0.2431445343200913 
-0.3123351471756119 
-0.02885148408003218 
0.00578488979350777 
0.4303871216224637 
-0.204648146764778 
-0.2831703064285774 
-0.185491486368135 
0.263577685836428 
-0.475506024693817 
-0.01695855310207261 
0.135919807975967 
0.04960344242461175 
-0.1097612103772808 
-0.08693304782305271 
0.2662185904012969 
-0.1179333402409922 
-0.2354757965461087 
-0.2589438514276595 
-0.2663697952615201 
0.2110206665811288 
0.05091984833198359 
0.133391596764591 
-0.2078989516753653 
-0.2312591263661329 
0.3596343502595342 
-0.1340232054595005 
0.009221283153162679 
0.1146633043007608 
-0.2776661386780807 
0.1337425085485672 
-0.408324538632459 
0.2217633696603598 
0.3778657697815813 
-0.3115409095458049 
-0.1894445498973864 
-0.2300235583911436 
-0.1361878301495917 
-0.3700966829158283 
0.2737599728773297 
-0.2192123743297668 
0.05525776484977742 
0.08535838521554609 
0.1355476378818918 
-0.01503777770048138 
-0.02624706834205857 
-0.01454262141160462 
0.3306945132226462 
0.01917352355747904 
0.106863809604057 
-0.11330085245961 
0.2381849924616072 
0.06797621483074906 
-0.5257384719646112 
-0.1783473260477013 
0.327471683096757 
0.1780119527987391 
0.237337006814588 
0.08203732727763732 
0.3666173689041529 
-0.2960423634985822 
0.2788232028242904 
-0.1527530414260144 
-0.07203264601439277 
