solver_type L2R_L2LOSS_RANKSVM
nr_class 2
nr_feature 1124
bias -1
w
0.2672463368610293 
0.6668104805823774 
-0.3427277054739001 
-0.2565600053912432 
-0.1519146216158623 
-0.5570088513740662 
0.09798911220998045 
0.1018413485988874 
-0.3329120169351472 
0.2694528822784386 
0.06384176971672967 
0.1567854862184572 
0.4525229938981314 
-0.0109983492475804 
0.1239578713147437 
-0.03657101433726246 
-0.1667045128000045 
-0.1310723542273006 
0.4899458057858497 
0.1834439698893716 
-0.120719689922702 
0.1838098517205742 
-0.1091536052100126 
0.02478265149678165 
-0.09040695868450632 
-0.1478671258841232 
-0.1614078563229364 
-0.6860108330855208 
0.4007584404291555 
0.05514983986436162 
0.4656452160017542 
0.03349333770658073 
0.3498984874867421 
0.4304330428259667 
-0.3908682276641062 
0.09851181493794535 
-0.3152503444717074 
-0.0876278836812102 
-0.1432530822531991 
0.04511389130063671 
-0.06394436646070069 
-0.2837752910024476 
0.1687747232683184 
-0.08372158273190594 
0.03796299144860812 
0.2719246069379382 
-0.04978849631399296 
-0.2273706401255745 
-0.1722993301024555 
0.04194341132690585 
0.006971342946957301 
0.1009686763708712 
0.3858093234017181 
-0.1660896233533796 
0.09323612847615032 
0.2253837192071487 
0.1964076674849627 
0.06056956449317323 
-0.2659266296691448 
0.2739902281508447 
-0.02689954547229578 
0.04718156672368551 
0.3008761327084706 
0.3193853493046978 
0.0497128925060775 
-0.2992870670581121 
0.1242274658974406 
-0.1544452625518339 
0.1865379984679402 
0.2005691481082393 
0.01115634313667752 
0.2436716215162691 
-0.3883684593305914 
0.2801836883802216 
-0.3840505859134773 
-0.3441138790482886 
-0.1227567644655171 
0.2263097583179763 
0.2383423563628144 
-0.2772259754338085 
-0.1181842008098564 
-0.6429690017004288 
0.01443184209907441 
-0.0407486549301416 
0.1715031333353026 
0.462429513515449 
-0.1161562055073354 
0.02477075072152022 
0.04396893888539678 
-0.01206738681213635 
0.01206574575038009 
0.4310877172553056 
-0.05633410809186787 
-0.2552002376080197 
0.2124899442961619 
0.166464916681965 
0 
0 
0 
0 
0 
0 
0.7127467047746242 
0.2134201185888658 
-0.08774452690190016 
0.4224870653819994 
0.1142075620168651 
0.2377960272136909 
0.2759477303375185 
0 
0 
0 
0 
0 
0 
0 
-0.01113445746972556 
0.1816636242597645 
-0.2632280922721139 
0.5503900404713579 
0.04689277059920259 
-0.1538992115819108 
0.25809779370192 
0 
0 
0 
0 
0 
0.3798899918853623 
0.05736969609142358 
0.0723138981574569 
-0.1639224892213737 
0.6290267869953944 
0.4943535042794178 
-0.4811710199086637 
-0.2576552609076592 
-0.36081728780448 
0 
0.2065283074117679 
0 
-0.2009709023032862 
-0.3642522353205512 
-0.06605038271134563 
-0.4543457258534168 
-0.03260406171289897 
0.03919075515055191 
-0.1398075503221216 
0 
0.1879630053546454 
0.01847581145330524 
0.2612791681550319 
0 
0 
0 
0.003736061571385287 
0 
0.193255345808678 
0 
0 
-0.01631649473664184 
-0.03260406171289897 
0.03919075515055191 
-0.1398075503221216 
0 
0.1879630053546454 
0.01847581145330524 
0.2612791681550319 
0 
0 
0 
0.003736061571385287 
0 
0.193255345808678 
0 
0 
-0.01631649473664184 
-0.03260406171289897 
0.03919075515055191 
-0.1398075503221216 
0 
0.1879630053546454 
0.01847581145330524 
0.2612791681550319 
0 
0 
0 
0.003736061571385287 
0 
0.193255345808678 
0 
0 
-0.01631649473664184 
-0.03260406171289897 
0.03919075515055191 
-0.1398075503221216 
0 
0.1879630053546454 
0.01847581145330524 
0.2612791681550319 
0 
0 
0 
0.003736061571385287 
0 
0.193255345808678 
0 
0 
-0.01631649473664184 
-0.03260406171289897 
0.03919075515055191 
-0.1398075503221216 
0 
0.1879630053546454 
0.01847581145330524 
0.2612791681550319 
0 
0 
0 
0.003736061571385287 
0 
0.193255345808678 
0 
0 
-0.01631649473664184 
0.1031223041257448 
-0.3710996989811881 
-0.1408265519827933 
0.03165767999614181 
-0.2747280286105411 
0.08328114227901773 
0.5383406291543718 
0.5315302818871882 
-0.05772083217211937 
0.2921711215098738 
0.1666125545330472 
-0.0636407993403189 
0.4094959545935124 
-0.160703170768325 
-0.6082117072715806 
0.04792538633002409 
-0.3399769171783567 
-0.2699352386483949 
0.1038158501594348 
-0.04478130733357309 
-0.4219504711083113 
0.1111309298790078 
0.3982893305297638 
0.1089008142359631 
0.08336407583603443 
-0.2052774327407558 
0.4762519273251673 
-0.5280770139049347 
-0.6000596356875984 
0.4941743403148263 
-0.1772979562681243 
-0.204767517551478 
0.02059633667621491 
0.197623166814659 
-0.1376831200207351 
0.07302846527044996 
-0.2075787768288324 
0.4740772892445997 
0.4256905272977871 
0.3098351012796833 
-0.2767789441586215 
-0.2517584697220783 
-0.3645929657140253 
-0.01510649337709779 
0.4560091368310781 
0.3777654355498408 
-0.1396188441995465 
-0.01921345568279135 
0.004701169964907702 
0.1327999584282579 
-0.1979628198219731 
0.09649693419014831 
-0.008113309814284802 
0.3171097802635068 
0.293253025423927 
0.01246141486548028 
-0.2411737995412522 
-0.295217768910108 
-0.2576809141822437 
-0.222216900311678 
-0.01912058505842998 
-0.1259967157752345 
-0.1863668078384942 
-0.008546862966667261 
0.290280665371459 
-0.02372420142066109 
0.2143108433648827 
-0.0261494619920609 
-0.3875829674772331 
0.1075081017477443 
-0.2074167317086879 
0.272044903921031 
0.07676678375108746 
-0.1250901814630175 
0.3070781768213131 
-0.3125706014520716 
0.08619282679897948 
-0.5080187892244696 
0.3416960493410476 
-0.04267955796998955 
-0.6335580767708886 
-0.01459134195345081 
-0.4678064870789744 
-0.1625598851451932 
-0.00364494180883973 
0.009982600432406039 
0.004299430296022666 
0.2633312274542428 
0.3046133278522559 
-0.1927064411150066 
0 
0.3156519925093221 
0.1100586822771395 
0.559188452368767 
-0.3015002718861646 
0 
0.7176717695781275 
-0.2732514294053239 
-0.3283245879873175 
-0.2167173472067107 
-0.4472197888574174 
0.06430280381053391 
-0.3552961615183784 
-0.4716288810152637 
-0.1788484079698552 
0.4255809039760425 
0.3554044267962743 
0.5760886015090014 
-0.08509451076456617 
0.3480165433103035 
-0.00130621776212005 
0.02095120551236645 
-0.2535998974141116 
0.5027819201314466 
-0.3712799073894702 
-0.5727742153131572 
-0.2537121959896407 
0.04698646145786669 
-0.3960093881934543 
0.2031195718944603 
-0.1542769739499648 
-0.4540708373400341 
0.2816719985650588 
-0.1039422711658764 
0.3103021135144561 
0.09756702566734651 
0.107040412497684 
0.5250877114833863 
0.02332685782882793 
-0.08007788906478924 
-0.03987600575820144 
0.3205276096077067 
0.08187911809754683 
0.1200692581605863 
-0.03705992737973902 
0.2934755259684077 
-0.06262956036782441 
-0.2595900419019477 
0.1821488632228758 
0.2920930702832006 
-0.5841020028524668 
0.2965797548478424 
-0.3297299683174247 
-0.3915600432543498 
0.4595875243880038 
-0.1938750035849653 
0.1721648680048014 
-0.03222057621897592 
0.3435301322694049 
-0.07084056872075858 
0.06002536547400321 
0.2497110105690044 
-0.2489183048581463 
0.2149802430092576 
0.4677936304491332 
-0.3518005073486112 
0.2898504280349559 
-0.02816812060163228 
-0.07376259615409815 
0.009313548239209274 
-0.06924837238922611 
0.05713611487311641 
0.5622248923320026 
-0.07956956724722997 
-0.4480566693989399 
0.005675641017580563 
-0.2537187396010266 
0.1133149814371673 
-0.126935316038113 
0.1636187771924851 
-0.2984274063254417 
-0.3278102897354354 
0.2710330752927725 
0.094518618323892 
-0.2297905686221181 
0.3709957281089223 
0.319048968692723 
0.05716401497746264 
-0.04202115915997012 
-0.3660758559266379 
0.06866728482817168 
-0.1917529997763948 
0.2348443279967181 
-0.3586639155181043 
-0.2157384030209946 
0.1827327672569378 
0.168767602395052 
0.1649459056340245 
-0.2909372542033195 
-0.2781404043959589 
-0.1158497055643664 
-0.3661837057133023 
-0.1285876677085445 
-0.1378030847118323 
0.2380878162407698 
-0.3526843640586589 
0.4613668284901538 
-0.1667402980493448 
0.356170707189623 
-0.009186044048578368 
0.1770966961128133 
-0.3542293558357978 
0.1013529660710964 
0.0727325176540691 
-0.1038164639680327 
-0.2019223136964936 
0.3242651071964428 
-0.0529980015105824 
-0.09701224650882782 
-0.2203074193313837 
0.03715976946572625 
-0.2325488234136707 
-0.2544211681392335 
0.5035499280882377 
-0.3438251386371594 
0.09165975692255991 
-0.04015437378761284 
-0.2983435096364141 
0.4080947084112905 
0.2771594690188019 
-0.3196637793357222 
-0.5751045216502649 
-0.008919821845661865 
0.07458389571222499 
0.5130784760933944 
-0.3511228588147429 
-0.07914285888590644 
0.07566696345908915 
-0.1139748263064308 
0.8143749860271026 
-0.3143269713767841 
0.3417376997729244 
-0.229870237606039 
-0.2664647055612691 
0.1033337588524499 
0.205261811792592 
0.2574335060945235 
0.002562855832703373 
-0.06925079054994024 
-0.003524508833498034 
0.05242741331750758 
-0.3760309834598062 
0.08753072061041689 
0.07880624706578861 
-0.03055085446638347 
-0.3454375128867869 
0.3611480375313872 
-0.1217135107501741 
0.4273520703245231 
0.2395073492152798 
-0.2541465669431403 
0.3150430202554079 
-0.4542297647414187 
-0.1108792806692659 
-0.2293311944212726 
0.2321983447218907 
-0.4274914599756564 
0.08426928860394732 
-0.051871217824766 
0.1590428089565091 
0.303565938260545 
-0.03890531809625678 
-0.2494908230527874 
0.1361779077760727 
0.07765368074525129 
0.2302008448986491 
0.1846363466950822 
0.1073032382651862 
0.1552204528352162 
0.4364914836376635 
0.4356810537543515 
-0.2939663680103111 
-0.5835497481283354 
0.2946443133025381 
0.1141861176603724 
0.2313906197327394 
-0.2259619234032193 
-0.3010621127471725 
0.01363928728731223 
0.6557034527616872 
-0.09020758488523288 
-0.496761731817443 
0.5653124318438864 
-0.7624059763607201 
0.5642789958349231 
-0.3713243825019219 
-0.06323961570185328 
-0.4066206027955469 
0.0406740340011222 
-0.3297836128190391 
0.01324707711619089 
0.3951795038037267 
0.02776518106073916 
-0.2887108413339768 
-0.06464284490549767 
0.07164267947177187 
0.3042681523418114 
0.1914773957628597 
0.06538204837877351 
-0.1458196804414827 
0.2550956843055701 
0.1307862767603159 
0.09740909355842947 
-0.1388342210395175 
0.1572247521283933 
0.3938249849177378 
0.09633173297201417 
-0.01711991599072674 
-0.2157310466163486 
-0.4416582863283539 
-0.1636692857257329 
-0.09864113344197298 
0.0009943352040723847 
-0.1364404407379784 
0.1483231170269315 
0.6475154068435947 
-0.1169800710280236 
0.2647177395490742 
0.1103752096497812 
-0.03444209780210138 
0.0814711134985644 
0.007861070233294481 
0.113901172623109 
-0.1801808097147605 
0.4273302676255811 
-0.03994285059232929 
0.3010426441998941 
-0.5077238642197132 
0.01759886084864631 
-0.06165286375370462 
0.3493506601723682 
0.2729265265668819 
-0.3869490005662049 
-0.07211270813662438 
0.3962812940420144 
0.1253167548950556 
-0.2843271856274088 
0.05565406939774707 
0.04372042643674685 
-0.4258357924698631 
-0.05097737098770629 
0.09921525509128137 
-0.02737659618763057 
0.1120340629988789 
0.2942505148985652 
-0.3045431897877236 
0.2657141598549753 
-0.1473514056726451 
-0.2693561596869786 
0.2585516920697704 
-0.2433819054049266 
0.00607228028636417 
-0.2282123182883457 
-0.08337277746266902 
0.2365344103437518 
-0.2388884920249392 
0.0996521545488233 
-0.2257916351570741 
0.1692385159707356 
-0.2535456365950459 
0.191928630931602 
0.3845387206611422 
0.1542294751863362 
-0.146664228887542 
-0.2147612904868714 
0.2323523444529853 
0.4803983488187142 
-0.2604633696652161 
0.04865350477885468 
0.116273081817492 
0.3502271118849025 
-0.1899412086669225 
0.0487587381289144 
0.1289276829311576 
-0.1224663157472428 
0.207201242319271 
0.2393551629669077 
0.05631980024298935 
0.3155927187974177 
0.003187835500470416 
-0.0008857248530677198 
-0.1086552019537496 
-0.3764101762892532 
0.002867274359496627 
0.2291309342156738 
-0.1269690946923119 
0.09207245027273363 
0.07264808514412888 
-0.4431701397130872 
-0.03828961302729693 
0.01805481770486455 
0.2628927978542048 
0.455735169746633 
-0.2232288511442878 
0.0356940721487887 
-0.4277274200425837 
-0.3136298074489994 
-0.1256813193180726 
-0.02213498778878387 
0.04290898465628398 
0.0378356584969063 
-0.2812020797519682 
0.3771463947106236 
0.2623667760114761 
-0.05481890950413853 
0.1142886403886828 
-0.002523403743806144 
0.1433463659516216 
0.4623756069676231 
-0.04320877293527019 
-0.1167822242553612 
0.3125251239493573 
-0.07124937266793556 
-0.441676648903701 
-0.4403777157049497 
-0.4295758803519749 
-0.3103570918681513 
0.1440518272710567 
0.01186559080961367 
0.1439755982121398 
0.1240016947625482 
0.5410225422608089 
0.200469207435328 
-0.1826041249153824 
-0.2434712656838697 
0.05242285270449951 
-0.5916731566680751 
-0.2606772123768354 
-0.08193758315524774 
-0.2885268517245689 
0.5045106934802771 
0.4062530067904561 
0.3302083649835944 
0.489072560913653 
0.06953465112358788 
-0.5504124456529258 
0.2184094190396795 
-0.1885758983420104 
-0.2424617903871001 
-0.004655390815554905 
0.2535095829080694 
0.2904646062400976 
0.3251780141446989 
0.1754814391570974 
-0.3235862051246713 
0.1339590333033846 
-0.3881044959081241 
-0.04415909639582019 
-0.2668733033535626 
0.04098895042415885 
0.04231884818497578 
0.1367348156299905 
-0.02666066594615867 
-0.4207163550635815 
0.3347947588288443 
-0.3819954454876649 
-0.5887110586092003 
0.2145570173501699 
0.168993123502995 
0.1132652649600825 
-0.2443530099930525 
0.1306801555670177 
-0.2200788489268158 
0.2765631631797111 
0.2730211436526299 
0.2924938148646009 
-0.4814586871550391 
0.08705095059896821 
0.09183516182469008 
-0.3374305435340869 
0.2171628964895012 
-0.2658291520966482 
-0.3234101937654972 
0.2227107075829874 
-0.1314167275398009 
0.113499664815304 
-0.04654711376618075 
0.09109063583611959 
0.531668234345698 
-0.1188980941892428 
0.01126425934204861 
0.3680221590097952 
-0.07670588203442881 
-0.1075745325131667 
-0.1212527969787961 
-0.2951422557111857 
-0.05606655559033138 
0.252470721668318 
-0.2055813480524082 
-0.1086916844291579 
0.1916190670602333 
0.07190334431571699 
0.2069871471233644 
0.1323931372501212 
0.05562771741414058 
0.2127320363954038 
-0.420810392393281 
-0.2079442388352306 
0.4296592959637329 
0.2445649449315523 
0.2177059808464059 
-0.04757462831077156 
0.5359509370274443 
0.2818095937652279 
-0.4447942975606912 
-0.3771081132279415 
-0.02557248456582568 
0.05018108161009985 
0.0279200750541923 
-0.0833648037520786 
-0.06203092064993071 
-0.02062708554188012 
0.2779671213999161 
0.3543352115732239 
0.1652095221044175 
0.2505812862701615 
0.01205798458093744 
0.231580274824061 
0.3925207770791042 
-0.4602615913528299 
-0.06079804909871284 
-0.4791694621045837 
-0.07231808914861036 
0.03513676841643477 
-0.2878873281132734 
-0.1994132417755935 
0.5532195992641201 
0.2390920789116324 
-0.3530040901544997 
-0.1665690950002192 
-0.1527873629809056 
0.5536241119338617 
-0.0496418100180412 
0.03301002236518216 
-0.008437099329398987 
-0.07234347653668506 
-0.09722592323631649 
-0.02356282309144872 
0.5791802927451923 
0.2873274482258176 
-0.03313207192828013 
0.0966783949559769 
-0.1721082037588222 
0.3392334902469664 
0.03796468119780531 
-0.03313207192828013 
0.5991520762856426 
-0.06652456547588496 
-0.1359476090149789 
-0.4223281003769918 
0.08425648259552671 
0.3949282646531024 
0.04557640687492025 
0.05082027812593228 
0.021745265689787 
0.3202606428367134 
-0.09107040096291151 
-0.1692610374350101 
0.0316000532010924 
0.4172458718997497 
0.5971127916392762 
-0.4710488697457355 
-0.4129896876321784 
-0.5880727635787592 
-0.3290656430307258 
-0.540643848103793 
0.1875119314592649 
0.140527423478639 
0.1408857241220357 
-0.04281083346738539 
0.06078536819233946 
0.02234677975881127 
-0.4421294568469987 
-0.117070985745866 
0.2643159175963981 
-0.005672354637817422 
-0.09957215267833756 
-0.09126695667596592 
0.7115567842782969 
0.0633284144939337 
0.2380063559918387 
0.3316955895382362 
-0.0911767501739411 
0.1317090322250305 
0.1041289430559627 
0.2452195141207965 
0.4493925093358858 
0.3501849568292134 
-0.0762794840892924 
-0.0753966041273513 
-0.1873943996539607 
-0.1689587680028634 
0.3063369165595707 
0.01965681150349759 
0.1652413837858243 
0.07363925677835716 
-0.2591546739656365 
-0.1167099654065855 
-0.5367085058639564 
0.05052850628191299 
-0.05067889954528658 
0.02253597980985151 
-0.1653263209755448 
0.03683474037218427 
-0.2697428448450743 
0.3309043846881293 
-0.4047957649139202 
0.1965310528271583 
0.04353832174320865 
-0.4210536903006964 
0.3091879182260224 
-0.1179350198782702 
-0.2923086191155496 
0.2652967915830579 
0.2204813405954321 
0.1845655107791753 
0.06516774195931516 
0.0313939833380698 
0.3063786447646259 
0.1007504421853431 
-0.03870334932606191 
-0.6045534775665908 
0.08678398099670229 
0.06125216162735669 
-0.1877558715415395 
0.04490124027822633 
0.1473895155598643 
0.1782268875036205 
-0.2544844179389074 
-0.1840317745434672 
0.1821681394445742 
-0.1427107667486988 
-0.4375251842481355 
0.1424366173349963 
0.2474461324150977 
0.07885359779775877 
0.2616916192910612 
-0.1763733299478972 
0.463136812436067 
0.3596041664913017 
0.06799907159790036 
-0.1629824003251709 
-0.02802713324158354 
-0.09708470141865341 
0.3511289673661501 
0.3413611413286798 
0.07058373301423457 
-0.2662818497072171 
-0.2197259095125688 
-0.008738354494523714 
-0.255593055015572 
-0.06018418716711392 
0.100324573853922 
0.05122602177431839 
0.1120525326244703 
-0.2500455132646345 
-0.1185868971591396 
0.1657038938904643 
0.1630808081257583 
0.2247135823679198 
0.1082587372395441 
0.3858297105615554 
0.232837162000586 
0.3012466114559337 
0.2395261776858935 
0.2712213614404481 
-0.2719637769811082 
-0.2063879410124683 
0.04338157401549826 
-0.1718285379106633 
-0.6279477335652116 
0.4639539347406521 
-0.1966089430103027 
0.3720600071736854 
-0.231240351830818 
-0.1623622753047688 
0.1129123953524416 
0.1457287316888395 
-0.06416629779766106 
-0.03760558087993804 
-0.1059095087777525 
0.9865856690385549 
-0.1221164242469501 
-0.1499024744827894 
-0.490784646617412 
-0.5338151695872344 
-0.07900960926012002 
-0.1718661096543881 
0.4392435345957654 
-0.04980848307902135 
0.05128018281988866 
-0.6695178597196323 
-0.02425478007613866 
0.1133593657963369 
0.6525555410536658 
-0.325967710833762 
-0.0747618223930582 
0.3137312871559441 
-0.4709126611103269 
-0.04047216654882925 
0.3708761488973826 
0.001986235584585392 
0.2231180387441211 
0.3574038825806921 
-0.2001380098840531 
0.1847171379885911 
-0.431256399563579 
-0.3040856225290353 
-0.01156088921177135 
-0.6649934251078142 
-0.1140708298202823 
0.532483700734505 
0.4913685226141956 
-0.1659704218702738 
-0.3145261597135672 
0.05998865610555616 
-0.3198093916845133 
0.1126244477966181 
-0.4821942792177612 
0.2093311036096681 
0.2159728170497639 
0.5494628372691319 
0.3360384666170249 
-0.2687523587136724 
-0.3034359542987343 
-0.07089572901170356 
0.10963279100692 
-0.2270522059513959 
-0.4579400706417138 
-0.1354913112471767 
0.3050385580941081 
-0.1739410903771394 
0.2897798538051565 
-0.3004572924830838 
-0.1070061818617351 
-0.5138599426551238 
0.4975920193048871 
0.1670806870010018 
0.2020724039759476 
-0.3760798091527172 
0.2065630764112977 
0.2180940491177296 
0.01698410133957276 
0.3106430397761325 
0.2683825483280874 
-0.2155162263096492 
0.01411068823304006 
0.06232771467545231 
0.1657984151944424 
-0.4913062588587289 
0.2368862944918755 
0.1001406915624291 
0.09965357470125208 
-0.2399690483472969 
-0.1271028366184551 
-0.3636138863043409 
0.006799514414072598 
-0.009434828295014493 
0.2164123246478715 
-0.06136984148232746 
-0.2193785358114811 
-0.2665031526439502 
0.2862900485608877 
0.1123208460857715 
0.2088609079149962 
-0.313751599385508 
0.2102643764835061 
0.09567335406931994 
-0.2304356435412749 
-0.09957241912371809 
0.4405241733796193 
-0.008457123195895915 
-0.3405505738177398 
-0.5182063556263703 
-0.1470427181061534 
-0.1665945747733721 
-0.01292223004396903 
-0.06449398730578183 
-0.378439248202081 
-0.03739178096298474 
-0.07917275219642912 
0.008655904075420372 
0.317499298178041 
-0.1870057115931295 
-0.07765094103025576 
-0.07545794102529548 
-0.4872391218758543 
-0.08229021680138313 
0.1811824696194058 
-0.3595685802421309 
-0.1129864408415813 
0.3621131806112749 
-0.05814394950010476 
-0.2094828243573263 
0.06374787796674042 
-0.2189092856592231 
0.5086849592951556 
-0.04014844020492738 
-0.02539439934029981 
0.3920034173570845 
-0.09389120756065796 
-0.09579189673531707 
0.2104798739312229 
0.1280682273647037 
-0.1174268034383387 
0.09079395408313051 
0.2619758250599915 
0.1160552477776894 
-0.3510421389332158 
-0.02412691548377675 
-0.1421420160264112 
-0.006428195189359038 
0.1424920858396994 
0.10556629337369 
0.2728378583118445 
0.106959227228209 
-0.2055344567637703 
-0.5553149347512038 
-0.3076824849111202 
0.04409845930275382 
-0.1737741321005903 
0.03553107598128563 
-0.2465253684831291 
0.04006814699262121 
-0.08917968636801416 
-0.2549427971280814 
0.2814270070589097 
-0.07859470131943051 
-0.008561533708262542 
-0.2348048023700434 
0.2117093966419894 
0.108921379977346 
0.3419642954610861 
0.4014528613080304 
-0.3577084838236952 
0.05043853348876459 
0.0773898478895594 
0.3625139154426176 
-0.05542909141552485 
-0.215398369892298 
0.1501284570249709 
-0.1739381849615523 
-0.02826304375485109 
-0.2924824674680226 
-0.02490506379168881 
0.03985805250820493 
0.02178468549780819 
0.3436740128096789 
0.08286271155940542 
0.01408847805257563 
0.0003485794688041465 
0.1794676377417585 
0.2101263786641991 
-0.2356551577941158 
-0.5143887990401981 
0.07989040242935062 
-0.7525566962005267 
0.4566004319863821 
0.5805127201026576 
-0.08546399301997791 
0.3531282967711868 
0.4005381529196122 
-0.2997490157167321 
0.1655141129747164 
-0.1425345832814921 
-0.02621082158771136 
-0.2935225512145906 
0.07594825594492956 
-0.1153964548429655 
0.03627971542774098 
0.4453514357300641 
-0.1391081405759267 
0.2811584438618091 
0.3161868393011785 
-0.3598862837251833 
-0.554809733879166 
-0.700002930410929 
-0.3902483285496339 
0.2428855892042993 
0.3201629054760794 
-0.06875933933309127 
-0.0196274963946887 
-0.03961078288978193 
-0.3613324268803427 
-0.1070380985591093 
-0.07022104396216269 
-0.1446954965780907 
-0.446719202207929 
0.3196877825298661 
0.05009315603170574 
-0.05146722196151774 
0.1876989888693732 
0.1029589055906778 
0.3009077092935825 
-0.4397034276485772 
0.1758158676261399 
-0.04258900464938531 
0.1611751533379099 
-0.07452157249789822 
0.1784188473703657 
