solver_type L2R_L2LOSS_RANKSVM
nr_class 2
nr_feature 1124
bias -1
w
-0.2129998623120055 
-0.1572499797534888 
-0.3743868810067311 
-0.1277723358117063 
0.3598187885896935 
-0.109782005398165 
0.001164201018564808 
0.09677555167538103 
-0.08698619337943256 
0.3409816931265932 
-0.2306449070649075 
-0.084828745395261 
-0.1347497697329055 
0.09847647405727093 
-0.1504834996081748 
-0.03396549429848452 
-0.247058429438949 
-0.08777881594283218 
0.4104406528027499 
0.2584721085854817 
-0.1034996616016811 
-0.03878338581344617 
-0.3687363676260887 
-0.1336201939455189 
-0.2146286452579481 
-0.3481321431704624 
-0.2866351804195983 
0.01755535879639708 
-0.0573991260942183 
-0.2282467596945974 
-0.3181532375891318 
-0.0897540906547452 
0.3474623547540332 
0.2235185622158112 
0.1451208994716756 
0.08989495050846184 
0.2668327002046291 
-0.4693412975694639 
0.2906938032387636 
-0.2250927069475436 
-0.008908960221810966 
0.4379556538413559 
0.09593043086661204 
0.3294484399838508 
0.1612655857392241 
0.2062169465153517 
0.5482730296322986 
-0.3600437742690679 
0.1287097930561055 
0.6123530800465477 
0.0176263918205047 
-0.2388619363782049 
0.1176779698890117 
0.3865110811307775 
-0.2935905463627409 
0.4324836846222272 
-0.2387108875934706 
0.3720378630846475 
0.1899710863866546 
-0.5767910449707129 
0.2086401070131415 
-0.045112815759076 
-0.2148767240041426 
-0.08787625501263285 
-0.1004775237008756 
0.1160427015204213 
-0.4248993164367593 
-0.2590372735068855 
0.4833547407974804 
0.2148184164601468 
-0.2056058616381937 
0.2223706868616513 
-0.005382574550228498 
-0.1754833200026112 
0.0845363182682639 
0.3749658304779721 
0.0426018009997848 
0.0962546769523573 
-0.09122155706138223 
-0.1606835522485162 
0.5152033867041675 
-0.232756163389608 
0.1144186165674393 
0.1853856527853687 
-0.03513863705337917 
0.04224047213651856 
-0.1356245967327673 
0.1566520997344043 
0.1698950732736774 
0.3346437693540258 
-0.3899049848862416 
0.1482368510608465 
-0.03346123527123741 
0.5274739142467378 
-0.3357166802358116 
0.3816797962967368 
0 
0 
0 
0 
0 
0 
0.2933547446379237 
-0.0382157481249206 
0.2362304097476572 
0.4851267403440763 
0.1030272284731005 
0.09061549596833134 
0.0008792294715317369 
0 
0 
0 
0 
0 
0 
0 
0.2811373528539793 
0.3989266914506899 
0.0373829310691214 
0.2545508659225529 
0.02674338315866184 
0.06398717470303529 
0.3758856285684192 
0 
0 
0 
0 
0 
0.4434210877700984 
-0.1351072370915523 
0.0301749734917867 
0.7053741235538379 
0.6271640726829356 
0.8562282448877646 
0.7851708960329339 
0.5135013859857147 
-0.3609744516977576 
0 
0.294470674394927 
0 
0.2483535350271617 
-0.06949186136799683 
0.39282215672093 
-0.009364591184894786 
-0.1243617038306446 
-0.03056647604440476 
0.1745059439417332 
0 
0.0004386816455032743 
-0.1516239074413736 
-0.07082934073591958 
0 
0 
0 
0.01324436111578834 
0 
0.03097454094524447 
0 
0 
0.08323856301499504 
-0.1243617038306446 
-0.03056647604440476 
0.1745059439417332 
0 
0.0004386816455032743 
-0.1516239074413736 
-0.07082934073591958 
0 
0 
0 
0.01324436111578834 
0 
0.03097454094524447 
0 
0 
0.08323856301499504 
-0.1243617038306446 
-0.03056647604440476 
0.1745059439417332 
0 
0.0004386816455032743 
-0.1516239074413736 
-0.07082934073591958 
0 
0 
0 
0.01324436111578834 
0 
0.03097454094524447 
0 
0 
0.08323856301499504 
-0.1243617038306446 
-0.03056647604440476 
0.1745059439417332 
0 
0.0004386816455032743 
-0.1516239074413736 
-0.07082934073591958 
0 
0 
0 
0.01324436111578834 
0 
0.03097454094524447 
0 
0 
0.08323856301499504 
-0.1243617038306446 
-0.03056647604440476 
0.1745059439417332 
0 
0.0004386816455032743 
-0.1516239074413736 
-0.07082934073591958 
0 
0 
0 
0.01324436111578834 
0 
0.03097454094524447 
0 
0 
0.08323856301499504 
-0.1728037403367476 
0.04027416073640484 
0.1319707313871854 
0.0147309537478404 
0.02928469515376853 
-0.0005483630321595759 
-0.06302224032021377 
0.05506682373874761 
0.4664281267631854 
0.1492043845961618 
0.3790987598702849 
-0.154550398799093 
-0.02099927527912378 
-0.05715907588277856 
0.02117870194836186 
-0.2838997355793038 
0.02996422385512882 
0.089076374222644 
-0.1797114492555539 
-0.1908537951513907 
-0.2151971817360701 
-0.264137864167332 
-0.09129666497459021 
0.1780882386988726 
0.3746870792264672 
-0.3850845879671188 
0.08576937423307887 
0.2624986980436453 
0.04890183000407107 
0.02203653038501303 
-0.2562043744631424 
0.1016439011147336 
-0.09494426833130575 
-0.167531015411325 
0.2958134348762178 
-0.3007746834127707 
-0.1893298746086538 
-0.1557660746830845 
-0.1413261554036716 
0.1858710495925347 
-0.07337250395419249 
0.7617416551298506 
-0.1312739132401999 
0.07012685663642189 
0.02406906047763721 
0.2589912816578089 
-0.4138906330466061 
0.084399982887317 
-0.03677627289245659 
0.2039516533066005 
0.02520537259511664 
0.2965894658992818 
0.21446346250895 
-0.2867745218833377 
-0.004358174319249977 
0.03847656177935135 
-0.3265838521620278 
0.02240556549517365 
0.2804230373496338 
-0.2568720637842769 
0.5079036745192709 
-0.01002260270865754 
-0.05463848958604875 
0.1777094640068339 
-0.05814831070273424 
0.1465963548442827 
-0.07756886301418269 
0.1063038947277686 
0.1176481455167271 
-0.004407999531219112 
-0.01716338777345858 
-0.02440836283095383 
-0.2933553000315021 
-0.09443800701741517 
-0.1283083123067363 
0.0456076993382805 
0.1020867797778004 
-0.1236727538938009 
-0.1735865789990763 
0.1723493667296925 
-0.01857821773929964 
0.1221568478562358 
-0.08178740163460767 
-0.4853380774092995 
-0.2384027940459295 
0.1480036235474868 
0.1171749065773286 
0.3534265118159293 
-0.02789551064821369 
0.1839854398995296 
0 
0.1424147306896153 
-0.1464302758731777 
-0.009808396667321404 
0.07148124561922138 
0 
0.1037686546148637 
0.02442269867939877 
0.04768012471312146 
0.02450402609673445 
0.1001576181957008 
0.04789682448209194 
0.2305701969225945 
-0.04472158784949304 
0.4456184577543429 
0.1653430205818461 
0.2041799038881872 
-0.1397175937122799 
-0.3403718299184768 
0.0972533462551864 
0.3267181768214576 
0.2093159331974622 
0.101649808774701 
-0.06283106210563609 
0.635372246561842 
-0.2292957194335062 
-0.7101756657139775 
0.1427940860342742 
-0.2519066660625195 
-0.124046870363376 
0.5948191070258784 
0.09887127086512899 
0.4030699382813893 
-0.1010635864324982 
-0.004894039789759817 
0.07520062044259465 
0.09822405295034778 
-0.336808841158265 
0.1268473683433082 
0.06226770104398895 
0.03845666312650369 
0.2010801950627492 
0.2248554428775473 
-0.1077068453179895 
-0.1978605303768491 
-0.06796788542593069 
-0.4468105830214971 
0.02460103582161834 
-0.1895371301193917 
0.2350414977059799 
-0.3103143486408926 
-0.05145798470354046 
-0.2344898702012824 
-0.2886870352170122 
-0.2042608235543463 
0.2599633317985211 
-0.6113403395261663 
0.568358932974693 
0.208592392921053 
-0.229839773487818 
-0.1942938070543744 
-0.2464978681954394 
0.06705351944383707 
0.1931949073943076 
-0.01279861494254704 
0.4839544114918533 
0.4919982329880957 
0.1856839472842567 
-0.0171224417077229 
-0.009361873967982323 
-0.3248470520905119 
0.396011938913741 
0.03661248542424277 
0.2606524675620734 
0.3058783683148993 
0.4419923444989509 
0.197665643075374 
0.1153825960937537 
0.04796623020785264 
0.02390725590102709 
0.01299642255551972 
0.3943492913477067 
0.1243949768797255 
-0.315697189366961 
0.191390199904619 
0.2435686390822698 
-0.2805567887614968 
-0.1935988919987416 
-0.0002520208889312415 
0.09060053452586478 
0.2761725249291976 
-0.30446803027535 
-0.0566524761705965 
0.04659214204361833 
0.1231458527553999 
-0.1737855022300794 
-0.1206948775108915 
0.1710508637758826 
0.3120339451114184 
0.1847478377851485 
0.06299157176397811 
-0.2924096478509342 
-0.2079104916431261 
-0.09331708769094364 
0.1061811011896639 
0.4021492938150039 
0.01128123856890889 
-0.3253454831356356 
-0.02167012303387497 
0.04688955362194899 
0.2703578177518574 
0.2369803225481543 
-0.1751292052700503 
0.1007196443094013 
0.1715516109879003 
0.1486766873991373 
-0.3962305611854227 
-0.1166335794953841 
0.1088745409843619 
0.2221218972992676 
-0.02983613878586949 
-0.4149542653971725 
0.5124197954478641 
-0.1629843362282542 
0.0812215073803715 
0.4519545052877292 
0.08950753762629286 
-0.1108844697663819 
-0.200186265455253 
0.2723445321060798 
-0.09100911906958965 
0.3530515470192835 
-0.01885944354743184 
-0.5095272295119392 
-0.7969776130229074 
0.06744452136599444 
-0.1994822814107794 
0.1396960084562312 
0.6735109994333094 
-0.3036026451937611 
-0.2288608748614641 
0.1953689429075 
0.4016581729986425 
0.2206118737076428 
0.3563668012458863 
0.4679811502801912 
-0.5449914942697344 
-0.03903453270570129 
-0.1370528267251527 
0.1212030685623747 
0.4068899083674069 
0.01553229472128739 
-0.3220605116981856 
0.09234039091022266 
-0.1649321923676671 
0.5403296779061517 
0.2592635824490167 
-0.1256295256581689 
0.09658610439607172 
-0.01150474078229636 
-0.003107662972516402 
-0.08899048864283451 
0.199759783964068 
-0.4001316212430596 
0.2636824857123653 
1.061458219190063 
-0.1377523086382955 
-0.009047236892082115 
0.4489070452047232 
-0.503962815219939 
0.4556834998169023 
-0.05062453002959023 
-0.2434969733280264 
0.07778876436473189 
-0.1954483873843868 
-0.1105653470509577 
0.05805585266639751 
0.2342658842323665 
-0.207197621492295 
-0.09945445015134541 
-0.002439938593167622 
0.1240935294725773 
-0.03115612581814988 
-0.3565792385712719 
0.53325355272216 
-0.264339193204322 
-0.8541223581738336 
-0.05636065001461075 
0.355642686783457 
0.05557627249877371 
-0.1263631666211281 
-0.05300867798252907 
0.3630558407883096 
0.1346253318188478 
0.07848068417650986 
-0.05262714437661118 
0.06585074764656401 
-0.2300372809977997 
-0.03263464723751219 
0.03373083712619621 
-0.1202133860862126 
-0.08041114697616647 
-0.320196901108776 
0.2604632767539901 
-0.2251617697607471 
0.2686572681176248 
0.2307179113859746 
0.2048284778092602 
-0.1147671164057392 
-0.2378804944848499 
0.1201855385706852 
0.2793176342113176 
-0.2004153895593058 
0.1594633792537042 
-0.1999380834440558 
0.2242029786688438 
0.3828215116493664 
-0.4390279852166037 
0.09664040516652764 
0.07781024538618123 
0.3555386225509156 
-0.2633198063062466 
-0.07434315802969753 
0.2083133414390016 
-0.4083269631795872 
0.4459318453767764 
0.09016497433557283 
0.2021483397177306 
0.1419066060026802 
-0.03373927032167478 
0.8165620832346753 
0.1539997649334536 
-0.3271443609202896 
-0.2564736791280194 
0.3178675834764795 
-0.1712193372846776 
-0.3832944731092253 
-0.1815132856445493 
-0.1133461257598456 
-0.1646546608501847 
0.1665719704764326 
-0.3014833408545304 
-0.1616645180698841 
-0.1967684014428713 
0.3363320463665565 
-0.3698307356631114 
-0.0254049610041151 
0.03656438211291459 
-0.1734170406905361 
0.1845110089455921 
0.3861547567829619 
0.147079921398394 
-0.1143264682284054 
0.04430393981577292 
0.1295518760612395 
-0.01176185405680453 
-0.06801207703408439 
0.09714265092900021 
0.2150310869469297 
-0.3458920062981662 
0.1728368729563205 
0.1541924591086104 
0.1104966069043566 
-0.02218187137168291 
-0.2935869368872162 
0.1578500163403748 
-0.1427678361571433 
-0.07028116638227676 
-0.1509274896862295 
0.1261695360778852 
0.01928861147539108 
0.1028536508999303 
-0.2619104389969287 
-0.3246255563713641 
-0.142195430325658 
0.1701187526827692 
-0.2078416119361595 
0.1758783295254103 
0.3020245257630705 
-0.2456324475064098 
0.09435802057711859 
0.5139834152013838 
0.1739421237405541 
-0.07776617858498901 
0.07901471968320009 
0.07734669495414466 
0.3061386472699219 
0.2465027199009132 
-0.2422260229885592 
-0.07271981118927204 
0.09565492231244893 
0.1594900242895855 
-0.2476676148794114 
0.1735889091665283 
0.1939941143667026 
0.03581195023315421 
-0.1716786211515193 
0.2618895767703561 
-0.3514557310914415 
-0.2079048629625837 
-0.08558883975198083 
-0.04641377780977053 
-0.03633532996036822 
-0.0401973980846213 
-0.2027700450801591 
-0.4189159724713303 
0.06405951328220438 
0.2826115419437679 
-0.3226874006791278 
-0.1994514694167409 
-0.2710968909162856 
-0.04265765513046676 
0.08100130132302431 
-0.07699329294492047 
-0.2887234364206637 
-0.01332961419175456 
-0.2373219738377904 
0.1372131155881899 
-0.2873476185653556 
0.1132046727295296 
0.07352738770507185 
0.04666461625215281 
0.3414967799602364 
0.1946312229662292 
0.2923161749285008 
-0.1585795708889936 
0.1291726103550441 
-0.5189393072311616 
0.1729280435842236 
0.07494291440403574 
0.5173713892384915 
-0.126911333510046 
-0.06701269988302154 
0.2787848682106696 
-0.2287851239476747 
-0.03737297736697716 
-0.08589156894117531 
0.02983289835099842 
0.1755175176986986 
-0.07810286035608231 
-0.469471102829 
-0.3526580198797636 
-0.5415716598464961 
0.2595288950094891 
-0.3961381764819409 
0.262147564864106 
0.1302132068802034 
-0.3695596236992079 
-0.0726261416891132 
-0.1252030158410343 
0.4556015715281232 
0.1223758998616978 
0.1468778669291694 
-0.2629839342341365 
0.06225036780056928 
0.3641390533798851 
0.4767589333772725 
-0.2948729555978395 
0.1906945992590819 
-0.287795258566779 
0.264337738349274 
-0.3388825557214837 
0.2846394498753612 
0.1245400157092588 
0.0110065150522597 
-0.1990141539051936 
-0.4105146211194059 
-0.0326136435573556 
0.2892703623462931 
0.4074444617931409 
-0.3880436497291003 
0.01823104741009922 
-0.168887251988465 
0.118126561883573 
-0.1606306146558731 
0.123980650928463 
0.0473485781630016 
-0.07143022466137723 
0.04644640469123425 
-0.06876503887434053 
0.1671821302799086 
-0.35807538234991 
-0.2631375910116294 
-0.1569771559342491 
-0.3072179995091522 
0.05497990822517553 
-0.2147459105456279 
0.2359397754477585 
0.3437162396708594 
0.1973492085439144 
0.303561385833156 
0.2999360949730733 
-0.1132226624873107 
-0.1369015176323494 
-0.3873999156325037 
0.03408528062225563 
-0.01602528527677445 
0.004752638158944408 
0.4212020431655373 
-0.3307542568995531 
0.1423700235485801 
-0.3697873189929205 
0.0291046489620924 
-0.05932741084364428 
0.1236870577966621 
0.1907637368797177 
0.00692364412889499 
-0.3303642096818282 
0.4121537045542501 
-0.0455689884703851 
-0.04734792397512831 
0.06887945316635549 
0.411469199396697 
-0.2208398091118538 
-0.222300457490043 
0.116184683105941 
0.4538052008424328 
-0.186378478309567 
-0.1210083227269573 
-0.3108726248656852 
-0.455370985686092 
-0.3541697357127743 
0.2233094162876321 
-0.1847810427538956 
0.05024001715952114 
-0.03085592078937334 
0.1328156506161511 
0.1773724458022835 
0.1126664931840057 
-0.2123507317580779 
-0.05088598377515389 
-0.2529476928600149 
0.1871153368020117 
0.1615650608025209 
0.04130108778218285 
0.03521534704297669 
0.01338384000950784 
-0.08719862952221469 
0.2354494038177523 
-0.412756299631775 
-0.2299467056003192 
-0.001790050397391527 
0.3689129370399269 
-0.1911851906302294 
0.1960623707690515 
0.0539742988078812 
0.1020291693898901 
-0.1201697693222049 
-0.09133434118939451 
-0.1407188858160835 
-0.07052774366510443 
-0.04174490911717393 
0.06548346881331436 
-0.2357967352130324 
0.007278291310622374 
-0.07052774366510443 
-0.5947585334973574 
-0.256390572389929 
0.5336848490759172 
-0.09102586695423136 
0.4589481792910203 
-0.3884935029728727 
-0.4722080023236629 
-0.03141469395508514 
0.3898421830657171 
-0.06787745768917119 
0.01815748549561087 
0.5949330280088607 
0.1818238930280826 
-0.1860325284754179 
0.5178812035061264 
0.3526876245486668 
-0.05482595247480224 
-0.3325757627155246 
-0.1081107605127941 
-0.1882153169519603 
-0.03659244730611445 
-0.4481304367302764 
0.149015590117694 
-0.1195616546782762 
0.0780454405209845 
0.09763717466463835 
0.4260566959786521 
-0.2068531209232609 
-0.05726610862768036 
0.2279431031010072 
-0.1692708951600678 
0.1367138840388278 
0.02418060320001529 
-0.1082889104645411 
-0.1564213694692572 
0.1340552679180126 
0.06035422595694825 
0.02187836618682025 
-0.02406977084134068 
-0.109024506183553 
-0.1202304291119947 
0.3244990444604365 
-0.02778465101822333 
0.2331294813583575 
0.53080696693069 
0.345182521663071 
0.2179477933750692 
0.06482819970953646 
-0.5883370251943016 
-0.1246300736015146 
0.3801747429765003 
0.1377331286507358 
-0.3264386398502724 
0.3820662951464317 
-0.5764802144511676 
0.3525793564826179 
-0.03358755103400125 
-0.03512515696044287 
-0.233709944465783 
-0.321578213605094 
0.08730474684126478 
0.0239823903066322 
-0.5295313073545639 
0.2524044068179322 
-0.2099713461219167 
-0.02392874293221385 
-0.3465385156859239 
-0.04207068627077178 
0.00279961706642518 
-0.2207040398708693 
-0.0293175248860614 
0.4152629633765628 
-0.1506783294009529 
0.4116593235634927 
-0.1466472870539399 
0.06879051897324111 
-0.4621538196823348 
0.1921814920171816 
-0.6680554308213851 
-0.1284808976721611 
0.1392607579496102 
0.001912173257506904 
-0.1907997864746651 
-0.0558628363908667 
0.2675606177996638 
0.335212318590524 
-0.5267143225242665 
-0.1059330027010042 
0.01008739375469392 
-0.2744565918485796 
0.2417883022790276 
0.03672306860451752 
0.1165285315053499 
0.175178439119814 
-0.151887501157172 
-0.1618328946035229 
-0.0401386084320807 
0.3387554840903258 
0.1187074076899672 
0.005855212019673295 
0.08551580742014284 
-0.2298538040007306 
-0.04043714476886458 
-0.3006847272652444 
0.04006202471642766 
0.04375466495889601 
-0.152005414125215 
-0.2865155659286759 
0.001647863636857783 
-0.04785530566942966 
-0.3944669897500181 
0.4798079584884547 
-0.3684862754237277 
0.4330367544166023 
0.4425635286148176 
-0.06467925611424703 
-0.3849830266167132 
-0.1023817651848877 
0.3900222810218492 
0.7589579582041975 
0.02651232020352569 
0.03553819822951338 
0.06679664394073216 
-0.09133703795325249 
0.2374581564789778 
-0.4383337384245911 
-0.33339820661024 
0.121043468858273 
-0.09668504175334688 
0.1629001370991406 
0.09948416007419174 
-0.1293510365270777 
0.182726584259607 
-0.1400762523413928 
0.1461853998655983 
-0.1321681083817482 
-0.6554306334801193 
-0.4896737409974868 
0.208188365342246 
-0.1903587814890934 
0.1277567261084208 
-0.4551048290701605 
0.1396818309817227 
-0.2333255558694256 
-0.3042039297086182 
0.2327265288473388 
-0.1442777724425605 
0.3473895471052791 
0.1384691739257709 
-0.1899331123123513 
-0.02348842945829385 
-0.1514320847127569 
-0.2636712177535622 
0.2658866732970342 
-0.1194491020288062 
0.1997242169825387 
-0.4168323187368778 
-0.3005491024465933 
0.1529537448766498 
0.2731007934458655 
-0.01823936003194286 
-0.01138817697014496 
-0.005489687826411661 
-0.1686184047984492 
-0.2119493837180864 
-0.2837507371824259 
-0.2556127834246711 
-0.1888652935581185 
-0.02459276273944296 
-0.5029499867561141 
-0.04086623071022158 
0.1181793544816171 
0.2032235844284943 
0.2958269043097545 
0.1795892766726283 
0.008894760777889546 
-0.007215879816526946 
-0.09723090724632999 
-0.2058707937225923 
-0.08309144069980529 
-0.4696109312067175 
-0.1918987957260881 
-0.07734602870365262 
0.007830966234749999 
0.1182868561489351 
0.7792847005396737 
-0.2355492646284736 
0.2561253621530948 
-0.426518599054446 
0.06146737669873809 
-0.191044806845988 
-0.3851866403586481 
-0.0948872281190854 
-0.07387405419315654 
-0.06188230389599554 
-0.1006824826181566 
-0.1439420704342799 
-0.1455244285396919 
0.4467301470678721 
-0.2993142314932143 
0.3935030770554542 
-0.008726549857282412 
0.03529171547725599 
0.2398703214578442 
0.07076402070519389 
0.07991409231261447 
0.2065649760272885 
0.005912417930975149 
-0.2643745117137722 
0.06138994391964604 
-0.09152233106346845 
0.4290964354299228 
-0.03339895299849562 
-0.04667942411722219 
-0.1071646990491494 
-0.1885337506571304 
-0.07751360326276455 
0.1300628679536582 
-0.1733862396966053 
0.3547349050773539 
0.007138223443161966 
-0.01453096893627713 
-0.2762665184086942 
-0.2635881388814879 
0.1266132251248544 
-0.05558621141793757 
-0.06106204514696487 
0.0632351351162955 
0.1754404935450384 
-0.1334787156797111 
-0.4216918455369693 
0.3447504504554489 
0.0518603281609548 
-0.3427205245124824 
-0.1299042440572892 
-0.002067209017964287 
0.003631356137841292 
0.1588887840204994 
-0.09284310848965091 
0.02592666118748172 
-0.1134648005073418 
0.1847317168958358 
-0.03949596382387697 
0.2128815629873244 
-0.04720053117897564 
-0.04036435662174583 
-0.1170264639065249 
-0.2613533869799514 
0.01126256132911247 
0.07309248274959906 
-0.1772731978159476 
0.02154004241829447 
0.06821127014739746 
-0.1123255747749076 
0.191540477027509 
-0.2013712067653327 
-0.5873230094038534 
0.1572766034467793 
-0.1297684194288698 
0.2982503186599508 
0.4647917249936149 
0.2581499087824574 
0.4038338240503223 
-0.4045788357927062 
0.146426021753142 
-0.004862290405317263 
0.005832996644826457 
8.139255949067732e-005 
-0.04782987893646454 
-0.1522946878823222 
0.1948713684398561 
-0.167326837279146 
-0.004413691838045134 
0.09392985098231962 
-0.2943715754553786 
-0.1661905897767228 
0.1698880807430563 
0.5649989688399255 
-0.2843884013879833 
-0.08296320122463974 
0.02156332529660716 
-0.06900576420256223 
-0.1723958293910212 
0.2684682142013617 
-0.5779421201064332 
0.3075559623906649 
-0.2284623474969973 
-0.2648103468070512 
0.1837583518999102 
0.0379541902504589 
-0.2511410144640614 
0.09993512830723288 
-0.1463571678891255 
-0.266889457910911 
0.09941111509666641 
-0.1926929020665321 
-0.06468384389612868 
0.722818632554361 
0.3876048575502735 
0.6080401799901054 
0.2714038685668023 
0.1064752041234074 
-0.3901245576657247 
-0.09606885002415622 
0.1801679683334024 
-0.3089047849559227 
0.09748211912381724 
-0.2245354103901823 
-0.149133784323504 
0.07179492864321695 
-0.2622945568099726 
0.02869862680597434 
-0.3147469827319974 
0.188429584010618 
-0.0818009445585712 
-0.2051435417801231 
0.1737580744650234 
0.2857923699476249 
0.5271489970437291 
-0.1227503930115004 
-0.07209328836110006 
-0.1118994829920689 
0.1602075995837546 
-0.6574318772439856 
0.1401560183356468 
0.3754000543427377 
-0.03841927694194328 
0.1215396601885405 
0.2141702164616604 
-0.0005252228023532903 
-0.5083945129606488 
-0.3971514159472306 
0.1741189142444137 
-0.1445949973084349 
-0.1348369314944385 
0.622848150045118 
0.02253095638111075 
-0.0290790802244619 
0.04211473024256401 
-0.3280154368755888 
0.1989048877433218 
0.0786750237385026 
-0.101763893088947 
-0.09399539423589404 
-0.153900506420373 
0.03155908353483002 
-0.2405080612124524 
-0.1328246263597241 
0.2003780073473767 
-0.03766453849676021 
0.1611105937255599 
-0.1951002001817591 
0.1879708554525622 
0.1497384616864989 
