solver_type L2R_L2LOSS_RANKSVM
nr_class 2
nr_feature 1124
bias -1
w
0.2780751293480608 
0.4559678094509154 
0.4695403228652946 
-0.4100326562773164 
-0.2045858462142354 
0.2428300106774966 
0.05582689788963733 
-0.08307655120007103 
0.2916517977728167 
-0.1313184541032943 
0.5132051519380179 
-0.3099903029518655 
0.2030872375614995 
-0.104318928588935 
-0.2839648406529007 
0.279953111235628 
0.03626170147026336 
0.1556799013811865 
-0.2658145013850903 
0.2285102686762912 
-0.04670551932087969 
0.05416372649959794 
-0.363802396068285 
-0.1986459025519048 
-0.07276151027070685 
-0.1676561036615385 
-0.2241132173276967 
0.4476764095923558 
-0.01505945423275771 
-0.06785228135424222 
-0.03050573334139023 
0.0194783883697431 
0.1215093497797493 
-0.2023719874718347 
0.446308129803269 
0.4258464056710567 
-0.1098590683504836 
0.07318080438418928 
0.2559338587650373 
0.01765744192138053 
-0.4177154638135601 
-0.1845218390366039 
0.09540359117856087 
0.1021652202863463 
0.2077451183578168 
-0.07825161180804084 
0.09428095605554193 
-0.1027333294426354 
0.1448065923960437 
0.4387575249364504 
-0.1074112572620369 
0.1221337537251245 
0.04111719040801651 
0.1516669579567976 
-0.2755060375505088 
0.03375191634183429 
-0.03535597496343541 
0.15956879824719 
-0.2287461798303147 
-0.3997407410370225 
0.553558218778853 
0.01902882347333685 
-0.05554760147911978 
0.4004712025205647 
0.1882416798970475 
0.04332323417465437 
-0.1559627239635176 
-0.6016214267367216 
-0.1101653491954689 
0.07605793659812911 
-0.2605127654123807 
0.1290269434891771 
0.1382248213712122 
-0.2489434661994232 
-0.1547129074716579 
-0.2608566266469886 
-0.1692484901312751 
-0.2146129154163862 
-0.1322574260229217 
0.1667039252107665 
-0.3401017888301396 
-0.1260908077522681 
-0.2327305462965252 
-0.679439405753276 
0.1319649762272126 
-0.111255059383345 
0.0003970322451410146 
0.04097779512340416 
0.04412942683172665 
0.4233048457033669 
0.03404143316518619 
-0.7333059399475189 
0.04649615592325272 
-0.1094899453067181 
-0.107457872990115 
-0.06026432055958158 
0 
0 
0 
0 
0 
0.2225347866621704 
0.625312402883687 
0.01891450890560407 
0.08517217351328746 
0.2132080015070567 
0.8126252316766158 
0.4203802266955585 
0.346842868921719 
0 
0 
0 
0 
0 
0 
0.01693032281695442 
0.2002930970925714 
0.03240619678833935 
0.9596767076327876 
0.2025556273704903 
0.3685672044290206 
0.7116742195045087 
-0.08144495017447881 
-0.005277033301240824 
0 
0 
0 
0 
-0.02847977095194859 
-0.1341832399476864 
0.07901911162004893 
0.312472562392778 
-0.1031197743042859 
0.676372919286788 
0.04012525783608617 
0.2381603389051848 
-0.2013637413550848 
0 
0.2945849345721725 
0 
0.3546469981916046 
-0.08641890919308831 
0.1661966058448345 
-0.03746142014624887 
-0.1622010332718067 
0.1136844843334909 
0.2665899247613519 
0 
0 
-0.05229614928201816 
0 
0 
0 
0 
0.05693551778710083 
0 
-0.1204143833245545 
0 
0 
0.1209765604585104 
-0.1622010332718067 
0.1136844843334909 
0.2665899247613519 
0 
0 
-0.05229614928201816 
0 
0 
0 
0 
0.05693551778710083 
0 
-0.1204143833245545 
0 
0 
0.1209765604585104 
-0.1622010332718067 
0.1136844843334909 
0.2665899247613519 
0 
0 
-0.05229614928201816 
0 
0 
0 
0 
0.05693551778710083 
0 
-0.1204143833245545 
0 
0 
0.1209765604585104 
-0.1622010332718067 
0.1136844843334909 
0.2665899247613519 
0 
0 
-0.05229614928201816 
0 
0 
0 
0 
0.05693551778710083 
0 
-0.1204143833245545 
0 
0 
0.1209765604585104 
-0.1622010332718067 
0.1136844843334909 
0.2665899247613519 
0 
0 
-0.05229614928201816 
0 
0 
0 
0 
0.05693551778710083 
0 
-0.1204143833245545 
0 
0 
0.1209765604585104 
0.08197252967055721 
0.02760741530765016 
-0.02208398323514927 
0.1686927584686509 
0.1128182133332815 
-0.04613326417216291 
-0.009947183641406503 
-0.4407689133208813 
-0.06068538753797081 
-0.1534214577264915 
-0.1937758286199119 
-0.1004811169932194 
-0.003407032820612678 
-0.1870704530796177 
0.4380214503106991 
0.1003244433147779 
-0.2503889243317637 
0.1775224744430786 
-0.01021221685237399 
0.03771330785280161 
-0.241781534850582 
0.4674817267821449 
-0.08667219073650642 
0.04017682184218462 
0.3724258051030864 
-0.1673841226104985 
-0.008318597960024042 
0.06557533395194967 
0.131726896899313 
-0.0682116196140219 
0.2531674566786195 
-0.08197715733164826 
-0.2284377729475459 
0.197461059912672 
-0.248149740202894 
0.3967870174451244 
-0.1419483157284115 
0.2877088202192775 
0.3699665228133289 
-0.09003413480998358 
0.1487679196931998 
0.2530078631094044 
0.2149022838358165 
-0.2012471215057596 
-0.07507662733084715 
0.4902652311723135 
-0.2301786180092346 
0.141891215912872 
0.223668921690081 
-0.1944896278254059 
0.071965699355852 
-0.115296534173254 
-0.1408506218663641 
-0.2157915583500315 
0.4255150450757025 
0.2764296391389184 
0.03813995606210723 
0.03689460092978092 
0.02901317982421245 
0.03138865153454839 
0.09157197215452494 
-0.06408985151276898 
0.3784094994075514 
0.3353833666016498 
-0.5433192688422449 
0.100534404310265 
0.2803338051109108 
-0.00545965017547801 
-0.02021053401306482 
0.08490217667921712 
-0.3895250998959907 
-0.03968652633369529 
0.1392600384399451 
-0.1501006638877087 
-0.1528175884195384 
0.05026015997834786 
-0.2281804361281937 
-0.1108667452721659 
0.143647845766239 
-0.2199615484178565 
-0.316318508754237 
-0.1445348543990202 
0.3607087332170354 
-0.01257013245872026 
0.0578446726820943 
0.2887432816948674 
0.09978186667446765 
-0.008418668638375149 
-0.1548912836920852 
-0.3182944633434525 
0 
-0.1392537353505369 
0.4349154308996983 
0.1931683886252174 
-0.04483816370851037 
0 
-0.4431431743070421 
-0.5576228857106428 
-0.06708191005338469 
0.0469092691792439 
0.2596395449748839 
-0.02015996627310015 
0.4413902463481668 
-0.387512389633702 
-0.1479816535946103 
0.2600936505730844 
-0.105997680756004 
0.5308064107270195 
-0.01839651211091771 
-0.1734004059278185 
0.2261597027291796 
-0.4323424274616475 
-0.1459169688479037 
-0.1499754335704505 
0.01552693176918103 
-0.3774070926600133 
-0.02116634230370136 
0.04889589245560168 
-0.004305978235855608 
-0.2776824733096258 
-0.04574577203467891 
0.2187497958542413 
-0.4190456274928436 
-0.2044129512568777 
0.01316511674425984 
-0.1036693083001419 
0.1844377057794495 
-0.04403028840370675 
-0.05101247457849414 
0.06647302109803048 
-0.08024857209726378 
-0.406218554208132 
-0.2500136471649366 
-0.09344863180190631 
-0.2817035410977364 
-0.2146176891634806 
0.01073068087005905 
0.2090047027622091 
-0.2381861621574972 
0.139290346524098 
0.1201253804738999 
-0.2597946862258819 
-0.2333575646389982 
-0.1287499923698254 
-0.05015945823896277 
-0.05703121335914559 
0.1162904308871653 
-0.1045925239737783 
-0.3508217712302834 
0.2829476095394842 
0.2222643187810732 
-0.1878122600538622 
-0.6063326998124723 
-0.4827567160348757 
-0.4038354297971881 
-0.5571073020091023 
0.5079324008001896 
0.06570402512493041 
-0.001903863909479328 
0.005331868390055878 
0.1406201542686524 
-0.08928140594582842 
0.2890446922366906 
-0.002924536188560966 
0.2922296543868236 
0.4006130908380081 
-0.1319540008647371 
-0.2502622377174511 
-0.3023119022485242 
-0.5002793684933425 
-0.2808108209622178 
-0.1892951850398811 
0.1079424391994272 
-0.2599149792391316 
-0.01752140713369505 
0.08085237909715078 
-0.2736728004488128 
0.17226522341221 
0.1485577401466859 
0.09740239771694506 
-0.2183711957462527 
0.2799744070758031 
0.3327473485224363 
0.2760096463847857 
-0.03765159105591222 
-0.1564545695524154 
-0.1025960382998977 
0.2130506859610042 
0.154161760851021 
0.2915093189649317 
-0.3918379214410314 
0.2874381218725834 
-0.04174908968950596 
-0.134137691687425 
-0.04394094579105277 
0.2769990886750658 
-0.1090140588406342 
0.01717067125682199 
0.3149941500601618 
-0.4455916609992196 
-0.4263198702408052 
-0.169871727463778 
0.257406681307517 
0.4130373576839548 
0.07091226878437472 
0.1413006324094223 
-0.03833386348798273 
0.2593967641266839 
0.04532060052597012 
-0.2542924440442123 
0.04481814369836846 
-0.411712562246228 
-0.1061359524671286 
0.1054585685290317 
0.1085019720968911 
0.659194551612342 
-0.2932050514217737 
0.1606361273783417 
-0.1437665663376561 
0.007689597853904632 
0.2659755886672757 
0.08271955730953477 
0.1600327630056708 
-0.2840773857208871 
0.06877991602419774 
0.08663681136159009 
0.2935185385959602 
-0.4161898279182865 
0.08187555525069316 
0.5729768197797711 
0.3512329367155597 
0.4989578981847334 
-0.1462435042529941 
0.01729291774906809 
-0.03981082062198807 
0.1029699668880591 
-0.1964300717784985 
0.2312301478401977 
0.2284298324078187 
0.2127191546109465 
-0.2255431121755414 
-0.03680846021435216 
0.2409421310191278 
-0.2521953750247119 
0.05868387866515721 
0.08205284695318803 
-0.2109844176865463 
0.3011453245953503 
-0.07748392592905995 
0.1848004911471192 
0.07138761433388804 
0.137384128900951 
-0.2265658388033205 
0.1171259143073174 
0.05684226683691631 
-0.4369113838424277 
0.2382964942195273 
0.1361892849276448 
-0.04928574923208372 
0.07540834540170008 
-0.311135701241523 
-0.2418517731664282 
-0.4062579414580379 
-0.1412774579378631 
-0.01403831788078291 
-0.3965901093093946 
-0.05558450565727685 
-0.08245995773696281 
0.218899644700998 
0.2457271839393697 
0.434215562594418 
0.05766343776509814 
-0.2481434738332645 
0.08463821526978223 
0.4358500806517767 
0.02607418365877231 
-0.3124077052980135 
0.1875452344573275 
0.2017612182481649 
-0.6612564128364685 
0.6609436994776784 
-0.1844128591102639 
0.3136547446793249 
0.00662364738929541 
0.1183455252718993 
-0.0297951342179868 
0.00207792284642781 
-0.0744704532440998 
0.3048271446340802 
0.3673174841238763 
-0.206664580088703 
-0.1943539815543925 
0.2766718560145041 
0.01965702412967463 
-0.1286548575015571 
-0.132353263906854 
0.07519469327701947 
0.1646113760155045 
-0.002358723608330973 
0.0545909614616569 
0.2208841724587459 
-0.03203901746033124 
-0.03345237417867791 
-0.0915970917347123 
-0.004107373874997426 
0.5300883951959319 
0.1608785337782868 
-0.2533871335612846 
0.6958492628642126 
0.02797053562312862 
0.2075025434678312 
-0.2823797180183595 
0.3571271153117058 
-0.2501098743541519 
0.2094123539881357 
0.343711548431861 
-0.4563365212822354 
-0.01269637502316996 
0.04064038269383701 
-0.07971862510676132 
0.4830162374405799 
0.5245890515473589 
0.3610033963727093 
0.2261359868480381 
-0.1029937825844481 
0.2185479518170103 
0.1247207148656937 
0.1854465053491702 
0.2508084930202445 
0.0009691498817897236 
0.2352625011946589 
-0.2984151519064507 
-0.106866328845627 
0.03087625318384557 
-0.2661860745686518 
-0.07708181717484243 
-0.4166615529855829 
-0.2836982647065135 
0.01526663550234014 
0.3001729265405818 
-0.2406618202453395 
0.3980031984391914 
0.1823209646067968 
-0.1048102500459521 
0.3390460953345275 
-0.1391300128501757 
0.1040499039670058 
0.3566288558036945 
0.1159323183586639 
-0.2080293943925323 
-0.1229847187805669 
0.009192600977448394 
-0.1303559409227228 
-0.2542427332963239 
0.1523563658960332 
0.1801161411905617 
-0.1506345104580083 
-0.3082084660470991 
-0.1056693552886662 
0.108922438850762 
-0.3708840982347933 
-0.1506141541394652 
0.033730953609782 
-0.06848473985674849 
0.09619764919278566 
-0.1331615665002784 
0.3461888202801249 
0.4152515114856425 
0.3118614117306429 
-0.3396615946815498 
-0.6167727622546901 
-0.3421402868017999 
0.2448601951753991 
0.1418995235479846 
0.04348902224554416 
0.1846402398566369 
0.07155297711569011 
-0.2191130024404367 
-0.09797985597185259 
0.2172389327438873 
0.03327896843776887 
-0.2098550999504793 
0.2744058144408679 
-0.2404798001334501 
0.09630656585861357 
-0.2370924466382631 
-0.07346010941948265 
0.1982400584521628 
-0.124965574507683 
0.08843389294014181 
-0.3990470315726299 
-0.5289698500906895 
-0.05270929667209202 
0.1605840514760537 
0.1279238823166525 
0.198198362518002 
-0.01864114202800044 
-0.2599202603510508 
0.1128147112632569 
0.07778492186937741 
0.1016487296022532 
-0.2507434926925007 
0.2390248681155477 
-0.01315731548477643 
-0.1782559538391654 
-0.01363156566103975 
-0.08842844400595978 
0.06477029229251098 
-0.200547191251543 
-0.1416070194002322 
-0.2786930152028629 
-0.05946551925557347 
0.3196722992925069 
-0.04310056803989315 
-0.110153341348844 
0.5220851874886024 
-0.1541251366733137 
0.3448077877721824 
0.1127400006753023 
-0.2843978750056922 
0.3273843825490165 
0.04028826048595272 
0.06942737227908918 
0.2664876460319526 
-0.09919980881699063 
0.02984514277470424 
0.409566238688586 
0.1314825048965235 
0.003568115335549325 
0.3626805008350264 
0.488009423741305 
-0.4376716865857042 
-0.178948029198146 
0.1169315833435787 
-0.4031622847093034 
-0.04407453458837463 
-0.3523279952527963 
0.416177490571442 
-0.06464720113034995 
0.06861100442885537 
0.01994809791761293 
0.0852335372373258 
0.3664942738802028 
-0.005795249624023066 
-0.2471834910335149 
-0.1912889335148706 
-0.1282858957792671 
0.2278386077998204 
-0.101615421878172 
0.1922472766610135 
0.1824205587962484 
0.1226012110510664 
0.3023577146061012 
-0.005153742722933936 
0.1643027637110195 
0.09505895500275965 
0.1647040154072793 
0.2199157397261108 
-0.2936915052078454 
0.01367863708117604 
0.4274679061051263 
0.2075897321975461 
0.1414735115842207 
-0.1648960049765259 
0.1387141801886581 
0.1356359345167667 
0.2189430106141548 
-0.2087957312398123 
-0.1215968599005874 
0.2228554507656321 
-0.1236910098373923 
-0.4087943377564347 
0.08344051323652514 
-0.3479451300412282 
0.02260751303620812 
0.4283896096909335 
-0.2117949115313535 
0.1358480474952009 
0.05068695967702038 
0.1198770986208583 
-0.1580111051239599 
0.170272369398717 
-0.06614952565250809 
-0.2559172426174188 
-0.1181287459370731 
-0.152379870599256 
-0.0217127518900258 
0.3029542847233464 
-0.07023284114260853 
0.1898763517276642 
0.3483285607344522 
-0.213486367853591 
-0.2357105122793558 
-0.06603394337913378 
-0.1230379348719566 
0.202611847277096 
0.1112702389685447 
-0.2210028624307722 
0.4996703350467433 
-0.4034266396734042 
-0.04311629951433624 
-0.1819812302534719 
-0.2310878263190486 
-0.05568925135584388 
0.3996149568692858 
0.04502661982271901 
-0.00370081622616205 
0.01049497542344895 
-0.00103893832767174 
-0.06607059264974816 
0.4512111772315186 
0.09940351968244604 
-0.008024983525087112 
0.1495003938349104 
-0.7250681468318219 
-0.0009761960254901339 
-0.0526511869530978 
0.6568655383943991 
-0.09396491424263286 
0.2993831177185661 
0.2190381145678026 
0.2787859642815206 
-0.1725855013361954 
0.3188938544575392 
-0.3395740739452811 
0.1124819959693859 
-0.279357059105054 
0.2007559423295115 
0.1261615531142791 
0.08587910480975593 
0.05153513273013782 
-0.04141791952705819 
0.169052633990308 
-0.0917582355278526 
-0.09499470004149631 
0.1284078660663811 
0.1151842307544936 
-0.3114455788649592 
-0.2034438857184444 
0.1869867668761953 
0.3953299661993919 
0.1769037217304768 
0.1238075754998006 
0.05899835945815075 
-0.2972565210907757 
0.3953299661993919 
-0.1025009471773204 
-0.767616645468344 
0.07990753054604037 
-0.1643127919965657 
0.05273965681777402 
0.4840419147000156 
-0.4880657485478316 
0.1498984173743985 
0.07003530580514197 
0.09288678166153096 
-0.5684983983095847 
-0.1224372024173083 
0.1046758851013905 
0.5586300434262894 
0.5086301142766705 
-0.1249043793244271 
0.3179074476163924 
0.05883870353886934 
0.2973125568850024 
-0.6050322373091146 
0.1495028790463144 
-0.1473516089641843 
0.01363755249522711 
-0.5088504739102887 
0.06232750179084586 
0.02374157854015529 
0.4456798152373211 
-0.01315779684179892 
0.05237966388040796 
-0.2269528698196967 
0.09176672135622001 
0.03620497167433679 
0.09384401266773851 
0.1443510145800072 
0.295233735534727 
0.1719873779237711 
0.1089383320458703 
0.03137013204273205 
-0.08160953660069047 
0.001179732987508116 
-0.1274268180908355 
0.340598877166631 
0.4440545246938259 
-0.1067984220863249 
0.1505594502727493 
0.03547164510449249 
0.5806548175400159 
0.001693346751032167 
0.148482734615954 
-0.04491083048243395 
-0.2170330376019265 
-0.5029725468193201 
-0.02455277033922329 
-0.05498290651350177 
-0.01348881239004342 
-0.01068480703061044 
0.1300235532447801 
-0.1214768027735743 
0.008331771551328367 
0.03636785262622202 
-0.3471598636800283 
0.0672789768107773 
0.1440651154260099 
0.04714476136239464 
-0.1641950947629168 
0.0005380164834149978 
0.3527908965188553 
0.08814602528311114 
0.03945924575803107 
-0.2852826126960567 
-0.02363399446568793 
0.550870671110771 
0.2714157207992091 
0.1759039320829028 
0.2115831998336769 
-0.2227188188942508 
-0.3528294775249722 
-0.3580160954870751 
-0.03055246732141921 
-0.1257963806199572 
0.290484661448727 
0.2599015910580472 
0.0902929218045375 
-0.1922415130847857 
-0.1176558988172171 
-0.05039200047384729 
0.2339148918667261 
-0.03345698938393688 
0.01614880737240843 
-0.377930394018689 
0.4356982355483351 
-0.3549537911079513 
-0.07480125763564173 
-0.165221276059937 
0.5875260286100481 
0.131134950967167 
-0.4299971698743726 
0.01604636035511159 
0.04852205165536824 
-0.1252942069338086 
0.1224200164013775 
0.4332470692827448 
-0.2140879385206427 
0.1387433030711525 
0.130272476946579 
-0.001483483888214551 
-0.2055146261232101 
0.02811848949038302 
0.0127988152482977 
-0.1989974517743928 
-0.5595311788616172 
-0.4267343466202666 
0.2364427304940376 
-0.04326614335585223 
0.002091877639533698 
0.1056646823589468 
0.09502489277733114 
-0.1020885612744618 
0.03118445750409209 
0.05310455941899107 
-0.2924481070993145 
-0.6005332232163819 
-0.3693009551081262 
-0.006548374144492793 
0.2766894463306788 
0.1405168263517671 
-0.08894204507927273 
-0.08784010347507432 
0.2385936678043467 
-0.2281799339589188 
-0.06463763344649687 
0.08231036728821278 
-0.4407508059759743 
-0.2574808166100973 
-0.1114772902962452 
0.1525827683740632 
-0.147840511548846 
0.02533901858795157 
-0.3314476367339515 
-0.3922493101031798 
0.1919681462406891 
-0.03585625326108605 
-0.5011346187685236 
0.5580090015366255 
-0.08629579055496366 
0.1905560976610506 
0.1797219867823276 
-0.2263554463974897 
-0.05042765023043703 
0.1427031280167219 
-0.1369649248783267 
0.4039004911031272 
0.2885842719097034 
-0.1782785116976059 
-0.3290106551756195 
-0.558626270726391 
0.216223571412247 
0.1255743491479835 
0.1369736518444632 
0.1355294433442332 
-0.1904301074865748 
0.06670494122585657 
-0.1715931630129174 
0.09368206700973722 
0.1147692356130639 
0.1051223471020972 
-0.09309982695929878 
-0.1863972472127707 
0.2106607082352089 
-0.02453799358610373 
0.03725209823896021 
0.4720201564939227 
-0.1968495696179674 
0.05311637018020336 
-0.29101543648724 
-0.4048469034820597 
-0.06645519028123217 
-0.06690089520154947 
-0.1752595000169748 
0.2496073763205591 
-0.4503344754451218 
-0.3060252971080244 
0.2306746779597199 
0.2604847920777725 
0.2799612564416971 
-0.282912862269224 
0.6851736573043615 
0.4903488702225348 
-0.9034536289089141 
0.339881273882166 
0.05757642066698328 
0.581408750901976 
0.05803797453864563 
0.1355714759821573 
0.08801471297699515 
-0.2497749121299964 
-0.2478921285808544 
-0.1106880881188966 
-0.2173301285063906 
0.2408481358170467 
-0.157676229714006 
0.1536373286021709 
0.1384462935339618 
-0.01332524941369171 
-0.2086046300076808 
-0.2742610756884339 
0.3188406107263097 
-0.01687600650312537 
0.1921789202784217 
0.1167729795730678 
-0.3995250119051075 
0.2095158865703515 
-0.2214203407020062 
-0.1422799980929837 
-0.3474656881088563 
-0.3465841965472048 
0.4037806239225209 
0.2207321534029036 
-0.4376434119249696 
0.03654690560985389 
-0.2726310636197796 
0.0467933454393511 
0.1037026374029896 
-0.597015003695818 
0.1798291062931041 
0.2034496369925904 
-0.01823348254649531 
-0.7854975438095022 
0.6139848946943229 
0.07529677858171212 
0.09113090225826113 
-0.3669940569571529 
-0.6346673945093377 
-0.5660913459023353 
-0.3260628690349769 
0.03521488416455323 
-0.1881035986323003 
0.008905551662203375 
0.2834728453356206 
-0.008299912706652989 
-0.06656113668138726 
0.3086129660934239 
0.3969593165338598 
-0.01836780098789326 
-0.08105598187467253 
-0.1920426449822651 
-0.0806415806644528 
0.01976403789137982 
-0.3558156329199335 
0.4112015528473171 
-0.1358367641139135 
0.202597448406908 
-0.1450589747357245 
-0.07356370338951183 
0.2300165672998202 
-0.1514339743119308 
-0.3054187568688156 
0.2692860564242868 
-0.1312170618689707 
0.08877500806143826 
-0.08956493827574011 
0.1348762375132362 
0.3022629070437602 
0.1116811243784923 
0.226584970561171 
-0.279981036859311 
-0.01193346095907224 
-0.05521602590339999 
-0.1800019851690684 
-0.09726478762493734 
-0.02550719538895355 
-0.1321294559585642 
-0.08393850419862357 
-0.5749157096631717 
0.2513160767150944 
0.1813896833187842 
0.2191093911301923 
0.2968222317931332 
0.1509895492705664 
0.07033888132479041 
0.1825295778599934 
-0.07964825979883679 
-0.1062550805902911 
0.3957379405190903 
0.2318079131737529 
0.07962793254003633 
0.06960114678952192 
0.4585594686222601 
-0.5193205954090961 
-0.1959845302376086 
-0.2875398778248336 
0.01046977081937805 
0.05039784647317182 
-0.4151247742568091 
-0.1724451760911197 
0.1709777815230308 
-0.2541108237743544 
-0.03422605421560124 
0.1878799196508922 
0.4292298437746002 
-0.2918750621187126 
0.460911286937375 
-0.4482669089144858 
0.1451528699604881 
-0.09923887425440774 
0.07144641277593286 
-0.212067872505369 
-0.010037051221902 
0.03657983548001645 
-0.2159277981611988 
-0.09691685654693853 
0.3515453300831947 
0.2588040604018426 
-0.3254200355699438 
-0.07695373149844777 
0.1415089506044132 
0.4200047809667706 
-0.2529677331114302 
-0.01168823430575713 
-0.03530872959919852 
0.3461464392610852 
-0.07951783726930475 
0.2204975679478819 
-0.517322462804485 
0.1745370514065944 
-0.2420026578757888 
0.2527169667895775 
-0.4447880648554788 
-0.06978202967450359 
-0.135595933493944 
-0.2658922270500997 
-0.2894563465516495 
-0.3185617894967371 
0.06019664611028429 
0.2695275073573468 
-0.04731110910967056 
-0.6024008325512754 
-0.01437043723300234 
0.5009819032532967 
0.1625047847511717 
0.263361399097285 
0.1292378479461112 
-0.007839510554595908 
-0.1715131782378164 
-0.2587432160281541 
0.2554600389757322 
0.2477779384948294 
-0.07429384542385523 
-0.1106999350159693 
-0.1440658837455386 
-0.3674275291081061 
-0.1430979611119557 
0.01075050315581638 
0.1821430184925004 
