solver_type L2R_L2LOSS_RANKSVM
nr_class 2
nr_feature 98
bias -1
w
0.03087913614362012 
0.0006472348498279708 
0.01644174739166117 
0.0005825321027429992 
0.005388071620283879 
0.003540985554192406 
0.00146845078723598 
-0.008293775320269693 
0.01112934232827009 
-0.002705599834724631 
0.01712377465715701 
-0.00119891725501353 
0.02577726309711427 
-0.03966072424897864 
0.02495737506512533 
-0.001060646878773674 
0.006267817788215373 
0.00806070481232571 
0.002347187060135727 
-0.007783488936233136 
-0.03292092358870741 
0.02632411443499123 
0.02684384368647335 
-0.001878393224764556 
-0.01481464889441829 
0.03229170716932144 
-0.01734868178279669 
-0.01575404485665448 
0.03002279335573415 
0.003148403261261115 
-0.008789656394549433 
0.00514304716275327 
0.02972560594662213 
-0.01682267023592484 
-0.05192954816214387 
0.0341791920049279 
0.009756593692667979 
0.02137126547192592 
0.02072109685452036 
-0.01756256081644877 
0.01935830424558181 
-0.06654197129722178 
0.0360941146663683 
0.01412545850166593 
-0.01332398149517102 
0.04142682445333077 
-0.001513618416777558 
0.02316806895093555 
-0.05450294254223628 
0.03087913614362012 
0.0006472348498279708 
0.01644174739166117 
0.0005825321027429992 
0.005388071620283879 
0.003540985554192406 
0.00146845078723598 
-0.008293775320269693 
0.01112934232827009 
-0.002705599834724631 
0.01712377465715701 
-0.00119891725501353 
0.02577726309711427 
-0.03966072424897864 
0.02495737506512533 
-0.001060646878773674 
0.006267817788215373 
0.00806070481232571 
0.002347187060135727 
-0.007783488936233136 
-0.03292092358870741 
0.02632411443499123 
0.02684384368647335 
-0.001878393224764556 
-0.01481464889441829 
0.03229170716932144 
-0.01734868178279669 
-0.01575404485665448 
0.03002279335573415 
0.003148403261261115 
-0.008789656394549433 
0.00514304716275327 
0.02972560594662213 
-0.01682267023592484 
-0.05192954816214387 
0.0341791920049279 
0.009756593692667979 
0.02137126547192592 
0.02072109685452036 
-0.01756256081644877 
0.01935830424558181 
-0.06654197129722178 
0.0360941146663683 
0.01412545850166593 
-0.01332398149517102 
0.04142682445333077 
-0.001513618416777558 
0.02316806895093555 
-0.05450294254223628 
