solver_type L2R_L2LOSS_RANKSVM
nr_class 2
nr_feature 1124
bias -1
w
-0.09858756543532388 
-0.2279833803185874 
0.3303495219350913 
-0.2622024247746088 
-0.07875499830319105 
-0.2608211038780988 
0.09073917629927708 
0.333547431604561 
-0.4529403005447022 
0.2717322777745144 
0.01827038075853712 
0.006031178428363957 
-0.07355872680472561 
0.2936580453246925 
0.1509658081514074 
0.08321472211239978 
-0.07622015593301319 
0.06770788452567941 
0.04937977108400413 
0.03959985865082927 
-0.1794592311439434 
0.3325262951457927 
-0.08296991884852656 
-0.1286073578092043 
0.3646543907158871 
0.03354499948716342 
-0.1219061381383266 
0.06444965700593687 
0.1314223061341538 
0.1808225106756093 
-0.3976523170969865 
-0.3333035709700706 
0.1834948116605605 
0.1029046300308264 
-0.1443682059732405 
-0.1252990728300044 
-0.003106696199455368 
-0.006627034667240214 
-0.08617041561543502 
-0.05983194548801137 
-0.04188523434273097 
0.09466979440487411 
0.08430087510051608 
-0.2223572224591721 
-0.04250569232071441 
0.2742208410151067 
0.2488983726016638 
-0.3392073388729327 
-0.1147648380329284 
0.1768709776638717 
0.4963248475887803 
-0.2271109100376342 
0.05697935600199753 
-0.1035235421759464 
-0.1690270288937986 
0.04100457376340044 
0.2268497534658956 
0.6813570776766995 
0.1167606664987104 
-0.2945448012355297 
-0.2408618091934384 
-0.07884745126111087 
0.08612725869539381 
-0.2128912526889642 
0.1232836345444883 
-0.2936161500408781 
0.1946161985022596 
-0.009090432220437251 
-0.1405604920376639 
-0.2140574152102277 
0.05203593448610258 
0.04783049358899225 
-0.2791997665001365 
-0.4578062028155889 
0.8025945324150409 
0.2209474180015304 
0.2560076798323532 
0.2833175081241768 
0.1431746809529265 
-0.2113112871411246 
0.3292739521990684 
-0.06401955641497058 
0.2763840255792658 
0.1638029680658465 
-0.01542676988490714 
0.151296693130942 
0.1444888660848984 
0.2732409531031419 
-0.3201659313159054 
-0.1390063498414977 
-0.007736679513744628 
0.1996474747927378 
0.1622562953145104 
0.2591816977185715 
-0.3096127316155366 
0.3881087477552564 
0 
0 
0 
0 
0 
0 
-0.2225575374689637 
-0.1459402076516208 
-0.02309593693204611 
0.7691986376217231 
0.312298414457339 
0.1714683008581579 
0.08678322111454702 
0 
0 
0 
0 
0 
0 
0 
0.1716977749629747 
0.2359323288042898 
0.234742234479021 
0.4594941138126392 
-0.2761852693190785 
0.2073141434325795 
0.01155475671986525 
0.008998554917855185 
0 
0 
0 
0 
0.4369285500357691 
-0.1843765506165352 
-0.2081010971548923 
-0.129577473140143 
0.2093275672026918 
0.6437271896274166 
0.2463843926014325 
-0.2105249310833205 
-0.3698815275029057 
0 
0.1706908611179671 
0 
-0.0460612085263086 
0.03291275071407248 
-0.2057617554163665 
-0.01348603352412069 
0.001600844224850977 
0.1071072127554781 
0.2074375506513382 
0 
0.02497289639068481 
-0.01884796937000406 
0.1870336884838112 
0 
0 
0 
0.04735366422167137 
0 
-0.0119361010426258 
0 
0 
-0.03790245573768154 
0.001600844224850977 
0.1071072127554781 
0.2074375506513382 
0 
0.02497289639068481 
-0.01884796937000406 
0.1870336884838112 
0 
0 
0 
0.04735366422167137 
0 
-0.0119361010426258 
0 
0 
-0.03790245573768154 
0.001600844224850977 
0.1071072127554781 
0.2074375506513382 
0 
0.02497289639068481 
-0.01884796937000406 
0.1870336884838112 
0 
0 
0 
0.04735366422167137 
0 
-0.0119361010426258 
0 
0 
-0.03790245573768154 
0.001600844224850977 
0.1071072127554781 
0.2074375506513382 
0 
0.02497289639068481 
-0.01884796937000406 
0.1870336884838112 
0 
0 
0 
0.04735366422167137 
0 
-0.0119361010426258 
0 
0 
-0.03790245573768154 
0.001600844224850977 
0.1071072127554781 
0.2074375506513382 
0 
0.02497289639068481 
-0.01884796937000406 
0.1870336884838112 
0 
0 
0 
0.04735366422167137 
0 
-0.0119361010426258 
0 
0 
-0.03790245573768154 
-0.2475754189187564 
-0.3545987861194334 
-0.03086208145842274 
0.2070755912726925 
-0.0772752332578054 
0.1392792532162707 
-0.0431599812015475 
0.3170611207297213 
0.2806392291481181 
-0.2001288164752869 
0.0518905676159433 
0.03523889135511962 
0.1873195954935916 
-0.1718997560536151 
0.08690958027618467 
-0.1060391609615535 
0.2223469564121522 
-0.04134066209414148 
-0.190430643910295 
-0.06480538666905179 
0.2393268516771524 
-0.01566885457128048 
0.03503395611893952 
0.09683857741106039 
-0.1469981529634133 
-0.6574485601278924 
0.3827620046991104 
-0.3375305367011904 
0.2961018211624761 
-0.2690840308666258 
-0.17177207803592 
-0.05338458127971417 
0.106334419926203 
0.01645921895503666 
0.07632555154495231 
0.1489778035501527 
0.2980285816105124 
-0.2939518185908711 
-0.3205608463003765 
-0.07868289934462094 
0.03874084159890981 
0.2925440172249789 
-0.04074778864405582 
0.1713022331970033 
0.07572548351721095 
0.2961396572338045 
-0.4828054485156346 
-0.04610113222990614 
0.2650573021914886 
0.112037935193589 
0.01303781107877509 
0.1545454764866468 
-0.1525128825855631 
0.04167041130362406 
-0.3010920414114759 
0.09393680574071975 
-0.3073975464057596 
0.04823191666664508 
-0.01991434756810877 
0.1373168815904769 
0.201171090249457 
0.0977945278662342 
-0.3488356533133665 
0.2920499173562622 
-0.1866474430284789 
-0.2318897822548532 
0.2116555986248317 
-0.01665400576971533 
0.2979773194857587 
-0.09032893024931098 
0.1205005438217147 
0.06684117883367739 
-0.09871805340194796 
-0.03335092554310776 
-0.1175409998797715 
-0.3148963955246674 
0.06728179968612419 
-0.1690004991918321 
0.1239528782302574 
0.03731575109664159 
-0.0765365561870661 
-0.03818361935240824 
0.06065651193146442 
0.0108114133162391 
-0.1417786513463316 
-0.02707885954947134 
0.2186713533685912 
-0.003359609330882307 
-0.2755045971343539 
-0.002241805713740511 
0 
-0.01524029841975061 
-0.03931951454022733 
-0.1538500788171956 
0.07578650018855417 
0 
0.310111908737678 
0.3050740690874312 
-0.2024154484872525 
-0.2507616437734073 
0.7507587085392636 
-0.4836569151045935 
-0.2387196217761556 
0.2910106901519023 
0.1546816191905353 
-0.288296030746334 
0.137342154089151 
0.02368016713355975 
-0.4346292217866937 
-0.3037784627567855 
-0.0985545617717901 
-0.4888494084599134 
-0.05332840456254425 
-0.03468034210206534 
0.4004976988774094 
-0.3425749197948501 
-0.05310914152360214 
0.1229735012598203 
-0.3957468585653743 
-0.1666313325545774 
0.0280125143460315 
-0.197387986017901 
0.386981345132972 
0.1233336671558387 
0.09028943557553805 
-0.5305844999750818 
0.1180604605070342 
-0.03264362338554596 
-0.006777754115429607 
0.2507236122484731 
-0.08264070427051955 
-0.03417524904341318 
0.3955777574734679 
-0.09624073693373651 
-0.2381148695550811 
-0.1831468584088017 
-0.1163850911252262 
-0.2462955581995288 
-0.07310817292347134 
0.07150472378350306 
0.04360921304856245 
-0.6562747321935674 
0.02429127717155481 
-0.3587543141768568 
-0.3299630376517018 
-0.04502859425615647 
-0.1411507532977697 
0.8230678252226168 
0.03002424128822469 
-0.4410629644955501 
0.3982496753441679 
-0.0063246375479104 
-0.2740883288764998 
-0.07493025622024271 
-0.1297596271852076 
0.1690856429469675 
-0.1272115636330083 
0.03639875768923605 
-0.2479473990805606 
0.1974277600171898 
0.1998556634453939 
-0.07265161592319086 
-0.4556743327598319 
0.04998441927060567 
-0.2505340822563482 
0.07953193823476254 
-0.06401904879907466 
-0.520950157194912 
0.3725866631108579 
-0.02966288325485102 
-0.05960349608180933 
0.276746046770029 
-0.1177511524967651 
0.1565769013821061 
0.2590769170501416 
-0.2476417446097993 
-0.03058053602432557 
0.4439502408691002 
-0.1217280487051335 
-0.02084906862134846 
0.04111216126110469 
0.02146003209093756 
-0.1145834336113406 
-0.3665376186850446 
0.3365061349557595 
-0.1323648886389523 
-0.2663149094948607 
-0.005311951913590049 
-0.3226782322359691 
0.2208083689822081 
-0.3041185371440532 
-0.231838006893199 
0.4163373054943655 
0.128113315015506 
-0.1407074875276378 
-0.1788615435540419 
0.02638577888065151 
-0.05073352175347087 
0.4164526690627078 
0.1646464746740923 
0.2485685788587833 
0.06468459484551616 
-0.1254782207477917 
0.1289780041449321 
0.167352751443399 
-0.3959054285602921 
-0.2087209199471353 
-0.2503811545970661 
0.2556369703277436 
-0.2731229372588927 
-0.1298104009826031 
-0.2682154145908435 
0.343092091033007 
0.1579794459238749 
0.3210442339329172 
-0.0247409624151444 
-0.2646358330784289 
-0.2350043608769995 
0.2553256742735832 
0.4470454485161162 
-0.2878745834406969 
0.3470580465098341 
-0.3101363277142149 
-0.06707652701288068 
0.55055393625783 
-0.3263546501925349 
0.1190530842977736 
-0.2181452002294562 
0.5851681163779766 
0.2212080050248197 
-0.1194229465204854 
0.1396518033251545 
-0.02748431755335072 
-0.4204168470458163 
0.1686654994046759 
0.3975163391188448 
-0.1027625518940592 
0.02807257258621974 
-0.162424231742733 
0.04643703808361096 
-0.5522465162177147 
-0.03448210565723292 
-0.015862173601721 
-0.4662570384978669 
0.1373766769374858 
-0.3443254302700242 
0.3697104865036196 
0.05409872805517885 
0.4826795024146832 
0.2491458756034733 
0.4020701049820718 
-0.01837029035722275 
0.1640993538364083 
-0.08798445961930915 
0.3793047184080541 
0.2340321089720153 
-0.00418526480726482 
0.01140915658867049 
-0.1674326798582971 
-0.3089379870532882 
0.4121780778400085 
0.001608262450887088 
0.2509820222684124 
-0.07751277843192687 
0.1450082868031389 
-0.2791978778109412 
-0.2538285606749827 
-0.1611368393496283 
0.0813620391111102 
0.1297531275522227 
0.4121486642453562 
-0.6566382310661993 
-0.1094059763533803 
0.5756643530827963 
0.3443318054406009 
-0.267111332203968 
-0.1946874913691538 
0.01597039182628306 
0.1386131245015727 
0.01507775955861825 
-0.07494661684529376 
-0.1042014143954909 
-0.04255727716391293 
0.2511182629549384 
0.521539473067606 
-0.05141950652777077 
-0.3404369508438302 
0.08505432668286027 
-0.3294923010561368 
0.04062026762247438 
0.046464578698881 
0.1750520908738908 
-0.1551453563022017 
-0.1288882157776413 
-0.1647950796103326 
-0.1519124830694239 
-0.04695275024407705 
0.09387565232870068 
0.01773319222368818 
0.2662414481307366 
0.1735943583738204 
0.2808933662030878 
-0.05001328674344115 
-0.02783857423060466 
0.4225247797663586 
-0.5242999664887215 
-0.3142318845101255 
-0.4222509516577085 
-0.03755418696314633 
0.08636267174307362 
0.003349309405491158 
0.146408593063861 
0.3820755115603874 
0.1035850365901937 
-0.06942960187232937 
0.2071208891638891 
0.1636904259142135 
0.3077128986046583 
0.1681558727391754 
0.007551048202189491 
0.3154391195874273 
-0.2763536638964793 
0.1432604575607356 
0.3015689969236765 
-0.1216482977129422 
-0.07286523533816447 
-0.2235019187276015 
0.2617652657072322 
-0.01117052636508705 
-0.3680338741372797 
0.2715928932180286 
-0.2858045099115851 
0.1815016458611382 
-0.08771700348161131 
-0.02560778349085913 
-0.1878801947539857 
-0.1241162084379849 
0.04272912588009963 
0.1162457077070654 
0.05466894012661124 
0.07357711831109826 
0.06739986631369645 
-0.04448459842486708 
0.038182269741243 
-0.5743493817092179 
0.04446606531706075 
0.2325017186315523 
0.1978527577893606 
0.1059408608585124 
-0.2452937293980963 
0.3172439042619218 
-0.004832201150531793 
0.1800140784044249 
-0.1055948610581466 
-0.08654249308038117 
0.08642273022777497 
-0.01323805732087063 
0.1233858298919551 
-0.1618408172833809 
0.1740744361178322 
-0.1072488937117558 
-0.2028465186245115 
-0.1932178216452892 
0.2446956757594375 
-0.2001896024679595 
-0.02255555689198123 
-0.01665883818960919 
0.2708917820165527 
0.4201731586665518 
-0.5674781283657535 
-0.001918468897779907 
0.05250340958358935 
-0.06136185244657171 
0.1018718235372307 
0.1391179104397956 
0.179759549512573 
-0.1509150269067467 
0.09094083025235941 
-0.1015497476484548 
-0.1492858611826523 
0.1393401307111203 
0.3182477581965318 
-0.4719776656549831 
0.06658582350261949 
-0.3206730287715835 
0.3797162025492851 
-0.2626951642681521 
-0.2942877640111125 
-0.4079187155987772 
0.2363910612971836 
-0.02316463160485118 
-0.1803546219134251 
0.4775713330610943 
-0.2641420731180171 
0.3771031243622345 
0.1480162620344583 
0.3319129861088337 
0.272546650275909 
0.1398244179080722 
-0.2483655694639972 
0.02218175661162279 
-0.0737816302383925 
0.2522763533369758 
0.1567082437991464 
-0.2113968693285466 
0.1193294009479113 
-0.6191710441058322 
-0.03557349645125665 
0.06268020062084231 
0.07570110604368147 
-0.01059345767092688 
-0.0421510767506531 
0.274928083597742 
-0.002489105215227052 
0.3395300202207027 
0.2638713126630324 
0.03164496960897761 
0.2185296727089149 
0.1574023034820482 
-0.4091663909809212 
0.2050766119183616 
0.04451498487545589 
-0.2163170671114395 
0.2558970562992006 
-0.1530446636366898 
-0.140284339904847 
-0.03253561526574893 
-0.1546134433144485 
-0.1243179407765436 
0.1131901221506581 
0.3712761942632687 
0.09747681377288489 
0.1945953720783743 
-0.008017024059229619 
0.08454410456951363 
0.1766267536417394 
-0.139080836511831 
-0.4118656745481513 
0.1638221887216008 
0.2648433083015332 
-0.08941946439048702 
0.1663419121493116 
-0.1455818490383104 
-0.2419676703976363 
0.317224553846622 
-0.08946008650655829 
0.05278582787897233 
0.2908396638776112 
-0.4546170092270653 
-0.2487914207282211 
0.1289160023846785 
-0.1078477127160827 
-0.07562043070912905 
0.07167633350880769 
0.09027305591912384 
0.2148451436204896 
-0.066143720231486 
-0.2243617717410857 
0.1827647573889418 
0.06851249190158172 
0.02580723691891881 
0.2380988448680092 
0.4164435021806799 
-0.2683343130357128 
-0.40191725168471 
0.2478052510057763 
-0.2530948444681928 
-0.02298244315383259 
0.2617971474678044 
-0.3194855735421479 
0.2554089144496439 
-0.09624405099627507 
-0.257015868019977 
0.1226704161498571 
-0.4269174979024461 
0.3970413354802538 
-0.06523505674479395 
-0.08309743371977045 
0.3523692029167715 
0.01925500369583365 
-0.0536292931532104 
0.5904704970231747 
0.2787648009261491 
-0.1445597159507647 
0.04782496221561119 
-0.237951044938594 
0.2547296911184869 
-0.3625541378571938 
0.08987067974320846 
-0.5219721936469706 
-0.04747812484832378 
-0.1203016387333398 
0.2380525316025192 
0.005988630399621735 
-0.07563964271479751 
0.09478535181072365 
-0.9242696284319126 
-0.1598025347864042 
-0.1966695339494471 
0.2506766259255562 
0.3400322129751944 
0.3305208920711444 
0.1479269601759495 
0.1868163946326765 
0.1367933283699478 
-0.1760794312637411 
0.3165672209212723 
-0.1124160301318362 
-0.1122077304657788 
-0.06490189678053293 
-0.06061158715169758 
0.3088577244772892 
-0.1576523840991449 
-0.4437049770193748 
-0.01161278213808478 
-0.2462920732536221 
-0.1418119630865778 
0.06748388084758034 
-0.1843709962485467 
0.05413975347066019 
0.4082784605040278 
-0.1591036791515536 
0.5366365784082093 
-0.02309439005782463 
-0.2317272493447614 
0.3068307677769829 
-0.04554638179771682 
-0.1785874064710795 
0.1152118650730404 
-0.2136684171513326 
-0.2630861561238241 
-0.2504422657883176 
0.02513333570624152 
0.2582406188639624 
-0.08259633781900765 
0.2514312259535552 
0.3818220755514016 
0.1414256962109088 
0.2565264419072326 
0.01069914300888815 
-0.07447784744800828 
0.1611468819500899 
0.08119020032818057 
-0.701623583233183 
0.0896057931704911 
-0.07447784744800828 
-0.3773092048472278 
0.5676909728859062 
-0.003816980889604052 
0.2297163956646909 
0.04778122682436849 
-0.3616549400631105 
-0.1447269598971822 
0.7331102884379602 
-0.4986240448338259 
0.2342227436325673 
-0.009691529629547141 
0.3787486913185298 
0.01841125564047144 
0.2869003980579818 
0.1634129759274524 
0.1999569223768564 
0.2049277807200157 
0.04079456546420408 
-0.113923469267754 
0.1717452884170416 
0.01539755664079382 
-0.177840307171523 
0.06395696435536236 
-0.03590979103008047 
0.3787827036842453 
-0.132758176923088 
0.2120298259529342 
-0.2788214155893299 
0.1529251042190772 
0.1520023475491783 
-0.2709724330990262 
-0.002549057876889614 
0.04935400241661559 
0.2459077555887746 
-0.1441662399601652 
0.1787592315262643 
0.1628251343491678 
-0.00210543811965171 
0.4248305161852737 
0.168193956116919 
0.02027745885337161 
0.00779805227868498 
-0.324892426983266 
0.3588861628921333 
0.1701377011474727 
0.08081783412086054 
-0.03554537945227409 
0.2211138534331804 
0.03167767011145315 
-0.09456280529335898 
0.5668522467466289 
0.09570927818069919 
0.1529787648234025 
0.05065995148516517 
-0.08972866678202149 
0.4578102316403672 
-0.1724973060222038 
0.3547119540364032 
-0.01717385390521607 
0.155647712121924 
-0.07038104184707716 
0.1870022686599913 
-0.1310525903008498 
-0.196451140349391 
0.1766293831125833 
-0.1924244940048056 
-0.4814495105323794 
-0.1304788600482694 
0.7121488959824426 
0.2293676579098194 
0.1624218567919143 
-0.01351021534214003 
0.1014130206610352 
0.1758847044693893 
0.03937396784377455 
-0.3347392304277049 
-0.1208556317038276 
-0.2000570637376539 
-0.2344482216361913 
0.1598801623126982 
-0.01717951742618661 
0.04127216812073458 
-0.2768229295578483 
0.1287587915526732 
-0.08007816157065023 
-0.2257675731896782 
0.1135153468529933 
-0.2921769156771849 
-0.14150179593428 
0.006203148210460117 
0.01580443665279626 
0.1085137517224598 
-0.07643468567416531 
0.2948248519084165 
0.359346486648129 
-0.1994787919105032 
-0.06977518401560091 
0.3198954075371497 
0.5068813839354911 
0.01092643338826099 
0.5422354345652756 
-0.4686701692276814 
0.05100555373611854 
0.2072033688096438 
0.1953382943314013 
0.09020094410825759 
-0.3176026606905628 
-0.2970799988460045 
0.3615179019818131 
-0.4206707547350483 
0.1953174177423511 
-0.1613228387926448 
0.2316828478326978 
-0.2409574697911508 
-0.1679081296136037 
0.3294441014679503 
-0.2945496018493149 
-0.1850853113461471 
0.147958909609423 
0.9126020155238197 
-0.2946713161055454 
0.196825232919514 
-0.135088464079117 
0.2543567481593158 
0.2211449752292664 
-0.4445227010896485 
-0.1855766725995565 
-0.2287628489228069 
-0.6149047758462036 
-0.5461533496409209 
-0.1964441567304106 
-0.172954665978158 
0.1343618206431134 
0.4343603349309212 
0.1444194793450498 
-0.654606730551844 
-0.1540216619574364 
-0.09636256119485455 
0.06294509720327431 
-0.08462692876045551 
0.2174313612216023 
-0.05907316741895376 
-0.03671900157151162 
0.39648663776003 
0.1939183860289894 
-0.1538578907117669 
-0.5202340521007907 
-0.3565433984329399 
0.2448149957013245 
-0.4583750493233578 
0.3385454168458639 
-0.1853588464915817 
-0.1837051246635962 
0.7251108171667948 
-0.1350456155049941 
0.3662780106581796 
0.2885529293060455 
-0.3369308874940762 
-0.0349351959968503 
0.2502255520772714 
-0.01008425582015323 
0.04632866278427777 
-0.03908326171403155 
-0.2444074631521788 
0.2847414796610128 
0.3527633999396535 
-0.08074454845983045 
-0.3135129833821302 
-0.3921639749753689 
-0.2652115532813369 
-0.05397740268375491 
0.03398870175551554 
0.01350935352680245 
0.2516700791438523 
0.2744192069488345 
-0.3038950790419959 
-0.3679134082754341 
0.02464553930874528 
-0.2176402521501845 
-0.15933344049883 
0.3014096342242278 
-0.001282044356388581 
0.00371769783406609 
-0.1132063851739645 
0.09485207304587499 
0.2145802155296503 
0.4324120816019606 
0.1364391951171808 
-0.5198675619265543 
0.07587588258400406 
-0.02151645819024198 
-0.2625496527089945 
-0.4169432790031246 
-0.2084598625361414 
0.2308861596732809 
-0.02484320025072837 
0.3348833466077266 
-0.1342550842783635 
0.02383244097935804 
-0.118655337181094 
0.2074450236900587 
0.1367572070861136 
0.1082036672208275 
0.4551406255672167 
0.229187682743783 
0.04666659493189006 
-0.003108906949168582 
-0.03412540382512926 
0.01729907207130624 
0.233139820905608 
-0.2566548053404223 
0.1959220461745846 
0.007468240199057875 
0.03499068606461189 
-0.07009655944707191 
-0.3358712225615103 
0.4502371809585206 
0.5764581960931112 
-0.202120775238832 
-0.1702777608489709 
0.1124021096172278 
-0.5014694001330744 
-0.2541607369222338 
0.2190456277763354 
-0.05296072440936973 
0.2907896913281648 
0.2697709303811816 
-0.4083039554098168 
0.2882586827274353 
0.1758429000184535 
-0.01660680080130819 
0.02303784714462837 
-0.09617187811218292 
0.08676022434269134 
0.3502063897536504 
0.5757570980856533 
0.1582376342681896 
-0.2796789194406947 
0.3107282322354978 
0.1524191129087199 
0.02755525218829609 
-0.1353400092775454 
0.5102844098908911 
-0.205558252542794 
-0.2369401394527597 
-0.2661900380852082 
-0.1630736945081768 
-0.0599645543906559 
-0.0987819956509351 
0.1013889611742202 
-0.1176629603093697 
0.09452065223997211 
-0.4743744182359567 
0.0839504042654564 
-0.1332331462348852 
-0.360496094757251 
-0.1696666898378395 
0.4009502654170387 
-0.1438322554162921 
0.3918981913031961 
-0.07115287930248357 
0.4779405320939047 
0.2883177502267224 
-0.1524092580894587 
0.2866512440069162 
-0.2676202091158395 
-0.05235733996897461 
0.1626549192952293 
0.4417270009393738 
-0.2050944322191054 
-0.219041926676192 
-0.02742519612107671 
0.003307623425311863 
-0.2721759434862815 
-0.2809221404382327 
0.1192121490287476 
-0.08436773223712907 
0.3262249683445503 
0.3700447677855936 
-0.1978777490626381 
0.02774120303007055 
0.1508912535779464 
-0.2443115492351446 
0.330329462723766 
0.2003120194009232 
-0.001141208955303443 
-0.2239458825769274 
-0.3262371294580346 
0.2503705623762823 
0.1331484019204194 
0.2032101494024123 
-0.07060346827506288 
0.004183872279480089 
-0.004820647979926286 
-0.3221627663965975 
-0.1148192547140483 
-0.2705854893373771 
-0.113370368636811 
0.0435249167188581 
-0.2621403150133236 
-0.03895799424589253 
0.04532659719442592 
0.09306385799288781 
-0.01682354670975868 
0.193597273582819 
-0.1680926283130015 
0.2470826698477003 
-0.1782471137400782 
-0.1096136464079664 
-0.113744251042605 
0.08994789034787769 
-0.193890131096652 
-0.1355483432784981 
-0.06448388901467139 
-0.04997114123274979 
-0.3562344493040552 
0.5790322245373784 
0.1925912346429625 
0.05142024829819596 
-0.5420614528466168 
-0.1731579824994939 
-0.00289949360325566 
0.4405121912318352 
-0.4595754728378284 
-0.153667050511494 
-0.06104007850220216 
-0.0908325284058879 
-0.1673596974835921 
-0.1556092203650587 
0.006519071664585676 
-0.1070116131585761 
-0.3599526636265245 
-0.09240638692134323 
0.09538413911138477 
-0.009475398500886413 
0.3455405468078359 
0.02128855959255114 
0.1474537988518997 
-0.4372084498613927 
-0.1989747005219745 
0.3788941405159048 
0.1107896367452873 
-0.04900364779780414 
-0.1619203511503771 
0.0919648372228274 
0.1045891434487109 
-0.006752124345213618 
-0.3748960853644947 
-0.05517160969534045 
0.1543655740688275 
0.2121412934077536 
-0.4995502155666874 
-0.1381848706554427 
-0.1922908131205481 
