solver_type L2R_L2LOSS_RANKSVM
nr_class 2
nr_feature 1124
bias -1
w
-0.07095060357794206 
0.05850825599748848 
-0.1518699818735911 
0.03635152282425459 
0.160273279656844 
0.417676060263936 
0.2047274006522102 
0.1473274705956918 
0.2961317058404746 
0.2221372427962232 
0.3555061836583652 
0.04361851692102602 
-0.07053197725056927 
-0.3542795286893627 
-0.2501724244242377 
0.07959318255490366 
0.1183662520556257 
0.1893424125868195 
0.3790527684271445 
0.02214310260759631 
-0.1138037650954073 
0.0514947630072901 
-0.3614765113985185 
0.2041772808860373 
-0.5060894434652321 
-0.05938803057366488 
-0.213447836013626 
0.2626655174631799 
0.3895222868658814 
-0.06785841951310667 
0.2867157932323217 
-0.05766002649589733 
-0.07532112678184946 
0.01760520117024697 
0.2022157391362986 
-0.1270159579173387 
-0.002594991866128282 
-0.06498354279218294 
0.1350526359231041 
-0.03338830594886559 
0.1593609853500577 
0.1838296843916506 
-0.06245801607078604 
0.06522255143125011 
-0.1071215089259986 
0.00160077062647471 
-0.2467236867522947 
-0.1545899152395725 
-0.2724021500098724 
-0.03685997682956431 
-0.03673779235234467 
-0.09852668552672292 
0.2009470785023649 
0.4792982832772008 
-0.4738194384500157 
0.0553469490849624 
-0.09317644271515735 
0.3360199013694907 
0.3452140307720502 
-0.07406582626455395 
-0.07165993580577583 
0.0458175683850931 
0.1804526749412057 
0.07891305651709259 
0.2328362419866205 
0.003564439005279519 
-0.001312397273700354 
-0.02079302362487932 
-0.6086538947810251 
-0.1746420606337274 
0.3471182774918349 
0.2124669149955576 
-0.07923622037586872 
-0.2247666012332509 
-0.03342532502824367 
0.01829433848372809 
0.1484103411815211 
0.489072513542121 
0.1566515825505855 
0.4643795795388963 
0.1965655417097081 
0.137943686282908 
-0.2530659046108343 
-0.3456929138011299 
-0.144267261841461 
-0.3253400464771602 
-0.1708580506949136 
0.1190635141522987 
0.06067898970458906 
-0.3534132193433526 
-0.3498587288230544 
-0.1285985438002359 
-0.05923757009981918 
0.4471000109281783 
0.0552843313701645 
0.3292951831615951 
0 
0 
0 
0 
0 
0.008162628703480243 
-0.1381732536595808 
0.2171587421613815 
0.3797459997861133 
0.0006694276397374872 
0.1560425921220759 
0.4278142004571379 
0.2616838401846634 
0 
0 
0 
0 
0 
0 
0 
0.04071397863283387 
0.3246654736081233 
-0.1763721850763198 
0.2448588782854925 
0.3217635930403854 
0.4710667577583074 
-0.1079553484504459 
0.3032532968759819 
0.03817645541536564 
0 
0 
0 
0.3184325594801683 
0.2089511715018628 
0.2721623368116402 
-0.2970720353709085 
-0.1045616485457873 
0.2453139949118579 
-0.0229530167630406 
0.4272611527176533 
0.3617158161448242 
0 
-0.2373001347560705 
0 
0.1053740792944127 
0.5308448832473715 
0.4529348977500859 
0.3434346903598656 
0.09733139865448823 
0.03428455530260188 
0 
0 
0 
0.03000270038957809 
0.08546988133666807 
0.0686385770973498 
0 
0 
0.04884483658586895 
0 
0.02560952205259128 
0 
0 
0.02535492666698958 
0.09733139865448823 
0.03428455530260188 
0 
0 
0 
0.03000270038957809 
0.08546988133666807 
0.0686385770973498 
0 
0 
0.04884483658586895 
0 
0.02560952205259128 
0 
0 
0.02535492666698958 
0.09733139865448823 
0.03428455530260188 
0 
0 
0 
0.03000270038957809 
0.08546988133666807 
0.0686385770973498 
0 
0 
0.04884483658586895 
0 
0.02560952205259128 
0 
0 
0.02535492666698958 
0.09733139865448823 
0.03428455530260188 
0 
0 
0 
0.03000270038957809 
0.08546988133666807 
0.0686385770973498 
0 
0 
0.04884483658586895 
0 
0.02560952205259128 
0 
0 
0.02535492666698958 
0.09733139865448823 
0.03428455530260188 
0 
0 
0 
0.03000270038957809 
0.08546988133666807 
0.0686385770973498 
0 
0 
0.04884483658586895 
0 
0.02560952205259128 
0 
0 
0.02535492666698958 
-0.1557401243545258 
0.1328872574914949 
-0.2045321247863581 
-0.2049285518897746 
0.08211225510614628 
-0.02522466702997498 
0.05028270386857034 
-0.3070688672278102 
0.04552085016962251 
-0.03171624033779642 
0.1930120712984638 
-0.294744859352311 
-0.05254068905932805 
0.1215809721126261 
-0.1670413666792677 
-0.0730812459409205 
-0.208305007604197 
0.1130788905532663 
0.1245160824062001 
0.0287892335262259 
0.1609797281083759 
0.350095943136143 
0.01990437574726612 
-0.1787054207498571 
0.2162923830578451 
-0.1222079884429229 
-0.2395096875749336 
0.01465753554613839 
0.08921221641184884 
0.04442321466423762 
-0.3348334269953087 
0.01816909393960787 
-0.410852638487259 
0.2028267478553923 
0.3886217845567298 
-0.01708361225145158 
-0.06055876718626232 
0.001922952364271164 
0.3914188406150835 
-0.01601692337451314 
0.08898096437287466 
0.04570839788991476 
0.1343538101635271 
0.1929526876871059 
-0.1501306652652364 
0.4547622720992482 
0.2128807852023488 
0.06058595998720268 
-0.1239324003735729 
0.309525101628229 
-0.2043533223470671 
0.1509919287458327 
0.07197356854287827 
-0.1531502257931199 
-0.121713972040866 
-0.006988346554248502 
0.005743007837774049 
-0.0491591208793053 
0.1234544439631958 
-0.03484764257081077 
-0.01076467786378866 
-0.1488478618697546 
0.4215798726603245 
0.1066638340135567 
-0.008366103056140476 
0.320506504214958 
0.0544784398097866 
-0.04624228466568937 
0.04959061144765384 
-0.1655878282989975 
0.04769909066475784 
-0.0784592433498625 
-0.0980299529694056 
0.06653928493713536 
0.01770403765386112 
0.3047715049284874 
-0.2121295525071911 
0.1569503516626233 
0.07705519819559828 
-0.006603722926733282 
-0.1769498665114924 
-0.04299464252812466 
-0.03549957081402862 
0.2834207961944405 
-0.02805015127060894 
0.1251630062106801 
-0.0650965481353253 
0.1273369181938942 
0.2030320241668285 
0.1252955623158738 
0 
0.5330174412683348 
-0.2986614356054461 
0.2363594417551195 
0.1701750707627825 
0 
-0.1883177436430876 
-0.2536452166247627 
-0.1276569147399592 
-0.1347166464118788 
0.1519718635631231 
0.2740693883138907 
0.1716642609875038 
0.1915471088489518 
-0.2595920441417153 
-0.2564083415861376 
-0.2187835149526906 
-0.2286091309382295 
-0.0582956275501827 
0.3317987177585628 
0.1496902179211878 
0.4175905487428351 
-0.2752441674242764 
0.1668360809417817 
-0.5188851795544197 
0.1263542587523845 
-0.4840301283708234 
-0.06671973280761191 
0.33525070138156 
-0.09667559864943569 
-0.1143393523466518 
-0.2053105465621187 
-0.09292472381418727 
0.2432270683858903 
0.007912621968178978 
-0.1270029492530786 
0.5039825381519719 
0.2266900624955859 
0.2943894647074803 
-0.001681101891774198 
0.01765406925162434 
0.2476344746047731 
0.07355626403366843 
0.2066284778603213 
-0.06898044291173477 
-0.1628377290843706 
0.03140457429910813 
0.06314282104599597 
0.2549025144536234 
-0.21214875411792 
0.03168806851549318 
-0.222405164063497 
0.0415023983360544 
0.6259099631816286 
-0.01873027009791184 
0.06825512519107416 
0.06827657823708071 
-0.3733208595910983 
-0.2174638902389146 
-0.2260943162317043 
-0.1138454259767418 
0.18860380553559 
-0.001246279581353223 
-0.1305807418451765 
0.1722607942530926 
0.1064343763898889 
0.09399690972968872 
-0.1826119316901654 
-0.5000940860171897 
-0.4166182258874612 
0.4835065512223041 
0.2148994850145056 
-0.3550143196404877 
-0.2955554206074578 
0.1852866456154048 
-0.2642517562567747 
-0.1228589004272812 
-0.2380617218205142 
-0.3251846342546785 
-0.2118438069213604 
-0.1186558138092218 
0.04953528796313288 
-0.09165101267636322 
-0.2270592498653114 
0.08364165338654107 
0.7118416434361493 
0.01114089621582282 
0.3624042030195712 
-0.2638522177387853 
0.06691365106543279 
0.07210893864048394 
0.5044461503477054 
-0.05393515120755189 
-0.1976907681395975 
-0.2358792845937696 
0.08025731498310849 
0.07502449051012392 
-0.1126293004217705 
-0.06371709829423464 
0.2036874718456365 
0.4703059283378446 
0.086951942335213 
-0.05520933143902364 
-0.5429754159837774 
-0.07190138513738696 
0.05139998997958634 
0.2090817187678002 
-0.1649382564801816 
-0.158806323212826 
0.2144772567520125 
-0.04586056424529329 
-0.181159771747644 
-0.03632443999830533 
-0.07659062294219059 
-0.09468845041089387 
0.2787341200021947 
-0.1325794473075083 
0.1294323118181817 
0.1491107296136949 
-0.07142627962144221 
0.1480871978680409 
-0.1919855681947588 
0.2662390655456495 
-0.07369727791609716 
-0.07048944548495052 
0.2476374187836733 
-0.03621712982180762 
-0.03787475877425198 
-0.00428016013358792 
-0.2001378941545696 
0.1372421712663802 
0.3852697467518533 
0.07016761173400009 
0.3643720015546826 
-0.08090608211441135 
-0.1078583546554994 
-0.2659402332842687 
-0.03621914287190122 
0.3341835113597783 
0.1158772629892805 
0.3531803421718497 
-0.03296014875342825 
0.0370171025402417 
-0.3898233513045647 
-0.1645885221278978 
0.5633120739370578 
-0.131974409893336 
0.05302713179743897 
0.1040091674217482 
-0.08116350686303264 
-0.02899118520448501 
0.7227424330795292 
-0.09094228836638016 
-0.2480111485227934 
-0.03072750569155415 
-0.1718420515729904 
-0.4304799473951544 
-0.3346465532571935 
0.1462942858155298 
0.3289273512812787 
0.0607311039673184 
-0.1931656018397437 
0.1317693765107695 
0.1253990167164472 
0.3846905409930916 
0.05094406698711252 
-0.1789391206488842 
0.188750910144897 
-0.1932186525803092 
0.0607437188535013 
0.2741541333468009 
-0.1843800832374201 
-0.29657726077498 
-0.3311501878522187 
0.1712923272785803 
0.08530322038700096 
-0.3676567493156666 
0.02545865627862833 
-0.1631633205083035 
0.3348567597467189 
-0.1278954613691873 
-0.165310834626816 
0.1630914109671593 
-0.2332095290147521 
0.4702732707576051 
-0.06826137112560027 
-0.1532332499032722 
-0.03247587683090594 
-0.153743875385545 
0.4996560766717723 
-0.1899015728942244 
0.007827320687645932 
-0.5222536437128091 
0.07834901260221602 
-0.1161484193424846 
0.2072139454812521 
0.3254357634619858 
0.1254421651408745 
-0.08561137055956936 
0.3410675682136582 
-0.1035875026747257 
-0.1144573437971796 
0.05482592238672249 
-0.3203439074074356 
-0.116865776292727 
-0.2525115905245396 
0.08132139921009926 
0.05395945325272695 
0.05526330325001051 
-0.2253138852366935 
-0.2380312652219686 
0.01108539240778705 
-0.1974587267864841 
0.1227439877839784 
0.2393133210498457 
0.2042625410207056 
-0.2115811907838348 
-0.258720908752001 
-0.135847766881684 
-0.4065300767346451 
-0.2926814340636231 
0.3799219757572825 
0.1295327849953376 
0.1652739951245501 
0.2543287097966195 
0.2343196629365359 
-0.1074281682102494 
0.1275117362398856 
-0.1732026793577695 
-0.07249415053429989 
-0.2125073528442381 
-0.5073927329584519 
0.2286875701668741 
0.009454666368268742 
-0.04294665637933913 
0.2078718304209541 
0.08738482447966958 
0.07706270436856269 
0.2060175059468148 
-0.01865336324993042 
0.2021122391843676 
-0.02444753837404457 
0.08898511380592329 
-0.2919583801201197 
-0.2913439582585508 
-0.134355895276865 
0.4525712584762256 
-0.08201369347192393 
0.08311090757431074 
-0.09310827966950122 
0.01197717876243502 
-0.1623534607848759 
-0.2325897863237658 
-0.06462645635137163 
0.1184422771893066 
0.4468405915068439 
0.113628772441531 
0.008265844449662153 
-0.006563564862771452 
0.0074465659499345 
-0.09243206199417307 
-0.1671959722149349 
0.1707984553840749 
0.1225524616665038 
-0.007208247707012784 
-0.03624021072774172 
-0.04495712494641115 
0.2597370907772573 
0.2526357706378002 
0.2847637952064608 
-0.0448403365974352 
-0.09876925375781229 
0.1742733909386235 
0.3522236176814966 
0.2291158656438956 
-0.1871047344802196 
-0.0613940279166568 
0.1372039412399836 
0.2036818364894423 
-0.07096337767347069 
-0.211286059340409 
-0.4044117752755174 
0.2828055175632135 
-0.2809653407035408 
0.1601257420158224 
-0.04540547789895253 
0.02886509665588195 
0.001889626205282465 
-0.1645291869097105 
-0.2711746725251171 
0.5161337119521573 
-0.02325331010387767 
-0.05394874972341205 
-0.09564050614252173 
0.2767463079363397 
-0.01152311408841641 
0.1028796721866866 
-0.3392289804825565 
-0.007584392933911754 
0.04080494893670721 
-0.1934567520250135 
0.1403130312976495 
0.07161709126314791 
0.1383940672423675 
-0.09186677801433918 
0.02059086338143108 
0.1179714073362717 
0.2039052602615748 
-0.1716843559281136 
-0.06358048800939913 
-0.1272003117997834 
-0.1427118391160594 
0.1486484012843815 
-0.2351926735137345 
0.007845023598810914 
-0.05414416345477641 
-0.2019180702625458 
-0.0594752069205423 
-0.02676296299089832 
0.09623824212396018 
0.4433523005737983 
-0.1011371259417211 
0.1017856670537971 
-0.2845582875091388 
0.03678488873196624 
0.04746249880771183 
-0.01923223417956701 
0.01081968498074219 
-0.01311722555609763 
-0.196806476072948 
0.1373950457893465 
0.072825415712669 
-0.09582608575528617 
0.02843689547257371 
-0.2432914817523754 
-0.1396371586008018 
0.01005872542950682 
0.1491710739256848 
-0.1908823139029792 
-0.0181182691384736 
-0.1090716719284749 
0.102951560164391 
0.1798123507117016 
-0.3375052527797202 
0.09463826606303213 
-0.2333209364160243 
-0.09963206214758889 
0.2667045601721784 
0.008065153856928171 
-0.1595874362341602 
-0.1449822721819022 
-0.4389282733774131 
0.2332424261910187 
-0.03738636069214962 
-0.2000180026134111 
0.2813130336777284 
0.1814602206166864 
0.07679623489181589 
0.2971751038178235 
-0.1058665982322501 
0.1020085213797184 
0.5717838294282989 
-0.1528303136305473 
-0.04799897060258353 
0.3232332032352022 
0.2717894261157628 
-0.1566318815109818 
0.1630328445211996 
-0.09428336378464965 
-0.01345770088866584 
-0.07654673578586091 
-0.09442815368959519 
0.02701656769679208 
0.4108823799549244 
0.06932273603245238 
0.1924803449675447 
0.2472196433680017 
-0.1610635827998025 
-0.2277876483829282 
-0.1517999586317571 
0.07112524277076596 
-0.1205733274399097 
-0.02775968322206631 
0.3863328435445914 
0.1826657250722901 
-0.1438669371004292 
-0.1489417052052267 
-0.2653354885499004 
0.03086282043533002 
0.06361333806820776 
-0.005688662018127272 
0.429737765775604 
-0.08855205991196588 
0.1945470337666194 
0.2772080910569785 
0.2899811421603912 
-0.276154560560344 
-0.1966004121096665 
-0.09471324408583393 
0.0009372595057611479 
-0.1389799893897859 
-0.2242280985376917 
0.03094946562030074 
-0.1799591855475193 
-0.2203497076466138 
0.2707131523512325 
0.07431212473274204 
-0.1758360603918054 
-0.2017652225059244 
0.3087964023459027 
-0.4655062963968736 
0.07591983706402257 
0.02989555600167161 
-0.01187216830077474 
-0.09667073143659312 
-0.05684708316474291 
0.0933886346895323 
-0.3140567826561715 
0.00635360526145366 
0.2544200017666269 
0.1521539755551756 
-0.2092904080066326 
-0.07897764681956988 
0.1153178027784703 
0.1176810733588293 
-0.3854323571789717 
-0.1469189197695848 
-0.01564590796735043 
-0.2671681275886067 
0.02792547098485435 
0.1278048024884245 
-0.1968685997684835 
-0.05904090696387999 
0.03706552396734349 
0.1790293664960865 
-0.2238072611073049 
0.003400751994386356 
-0.09043849925797672 
0.05545709395366996 
-0.1913375181511536 
-0.2021841925903756 
-0.4379269368789227 
-0.1219429845698039 
-0.09131739528506773 
-0.03135410388719991 
0.3397035535708887 
-0.1896538289865394 
-0.1325218302845753 
-0.307087368280156 
0.02585631592254632 
0.1716509948134069 
0.5023464295357174 
0.1063668499532289 
-0.1948681748785609 
-0.3044986167175306 
0.1716509948134069 
-0.6290023185487655 
-0.2523854606969241 
0.1426326185735331 
0.2463689955067384 
-0.005567603571499749 
-0.07327515751051564 
0.04586361461969652 
-0.1353139816917598 
-0.02245265047549967 
0.2973173678688011 
-0.3503851562757832 
0.05612769437377455 
-0.3944373037956932 
0.1390589710639153 
0.1689689278392719 
0.1705646422173477 
0.08248171208584787 
0.3064902628566089 
-0.3578846812152218 
0.4025575363941079 
0.0745842024183329 
0.08914858181116367 
0.2368679174018337 
-0.0113966156504207 
-0.1191874139018517 
0.09947764394326461 
-0.05271802334667095 
-0.155481008463206 
0.07139129024368374 
0.2067470225290569 
0.4156497168497111 
-0.09307061986587074 
-0.3981020140453686 
0.2995844960872032 
0.05584445071548162 
0.04934588108208824 
-0.1610999869197545 
0.2217127156263062 
-0.1736712265136544 
-0.1941467830932932 
-0.1937496361607826 
0.0303448292710915 
-0.4630861913124777 
0.2166812665432551 
-0.3008602001677591 
-0.05905674936911444 
0.09765740402365959 
-0.003205661733006029 
0.04957754650753011 
0.4534848755251181 
0.4111469917842662 
-0.08546981239987092 
0.01908106011887887 
-0.04517630564061426 
0.01016718715469216 
-0.3532215296793185 
0.1345467615402975 
-0.01880206273422105 
-0.01115427367431735 
-0.2151743013494143 
0.03086873631175174 
0.1834505575943346 
0.08497195735670433 
0.2725197146314703 
-0.1465594856671766 
0.214141623587776 
0.1654965617661879 
-0.006906560280520639 
-0.3012543745583237 
0.4667140596961226 
-0.1504576810387537 
0.07332892721564463 
0.380255110613287 
-0.2548353152911336 
0.004337270012014095 
-0.05991104955273169 
0.3548199460063875 
0.3424449251141507 
-0.3006263526412792 
-0.3614160068829586 
0.3446963964536242 
0.05320602710882006 
0.1021330036968606 
-0.1994410894205319 
0.1969501716307551 
-0.3040402360267974 
-0.2298793661995173 
0.2626980369428633 
-0.07873348203265584 
-0.07196646732356371 
0.09589480192149624 
-0.1374354874003377 
-0.05491993113784523 
0.1449121595793483 
0.04107510563792707 
-0.08433897431541396 
-0.1717059282710909 
-0.04348358343989862 
-0.03874297691932913 
-0.103791092909667 
0.04727103181010886 
0.2883342103659695 
0.1323777569174624 
0.2760423406466605 
0.04570286494868891 
0.1599805385862589 
0.08808207667018832 
-0.3172252774842401 
-0.1076666104697053 
-0.1616112598915643 
0.2996391389226298 
0.08834337290779572 
-0.3501150874408541 
0.05404627447776236 
-0.1943185494610892 
-0.4895764245560081 
0.00297628861849505 
0.1046007570602931 
-0.1263642452031776 
0.3227047880056245 
0.2048583463432285 
0.06669888553147024 
-0.4724377790874533 
-0.2553542391445168 
0.1131488961777482 
0.148565781242752 
-0.3253354311831346 
0.112319596512474 
0.2106030940062667 
-0.5639305384563732 
-0.02888971756767434 
0.2983085683174799 
0.06394176920560162 
-0.2994055985823889 
-0.1767989024288356 
-0.2001828158530111 
-0.09523691753807674 
0.1892575925541111 
0.1746064244191904 
0.0629618703350925 
0.06989254698701281 
0.3197324877934975 
0.01648345992894328 
-0.1397544471642665 
0.1412158619333577 
0.006202194140680979 
-0.157715235206337 
0.01834713547852982 
-0.2368492321269862 
0.1292049385127167 
0.07278282962797188 
-0.1817921173343217 
-0.05641878266698422 
0.1865669338825135 
0.3361610332302573 
-0.1864049334742861 
0.01564771996097776 
-0.2332664197193334 
-0.2656310675038062 
-0.1290226168166103 
0.4094188385029202 
-0.09330073885298051 
0.2336589566418683 
-0.3267382779418266 
0.3887556083163512 
-0.04162418415477243 
0.2794963443722215 
-0.09855812735940274 
0.04088206570059232 
0.07975499525702093 
-0.1091324726232712 
-0.3011654642384023 
-0.2983769034974462 
-0.3093770406213052 
0.3905037713906227 
-0.05246815365388173 
0.03775193718637782 
-0.4656964140154258 
0.2887983316090099 
0.1477788139170053 
0.053755910795667 
0.4306967691812355 
-0.175369638234406 
-0.2408471643664994 
-0.01054914271066433 
-0.1725697269932095 
-0.07712098150910231 
-0.05202887389097045 
0.4491616953321131 
-0.1612875916701324 
-0.0861739857667381 
-0.1331281567311791 
-0.423424838754635 
0.2981523654955668 
-0.1006436055273357 
-0.05102254504189094 
-0.02724000678262554 
0.6333240653233792 
0.00720975085999935 
0.1907024481063641 
-0.02385338966892883 
-0.1503615200134172 
-0.294321647333263 
0.04619480505486773 
-0.08604422500225623 
-0.03870751405274136 
-0.1298513645200125 
0.281178482487167 
-0.04890161236543637 
-0.1691411299941427 
0.3162309640253898 
0.190775636639979 
0.0333744925637629 
-0.3439783193764652 
0.2027468002464839 
0.3106059644593797 
-0.08198626271693353 
0.1133527394308707 
0.08654133789330648 
-0.3085513642825502 
0.1020159169271521 
-0.1426783178504034 
0.231009909634026 
0.1681486382441509 
-0.5026705346204192 
0.02960206958021353 
0.1432271403604465 
0.3526996200465878 
-0.2492785166004387 
0.2130881238886491 
-0.02865164876151759 
-0.005970524144477973 
0.1395711528236002 
-0.2310744277925743 
-0.318079648538263 
-0.01227239238125935 
0.3421201986245506 
-0.2122913849289443 
0.1350162657660553 
0.2848973541109482 
-0.2816072734147106 
-0.04568985486121523 
0.04946698832050778 
0.1066258027404814 
-0.1027099054001405 
-0.1739304241175086 
-0.1196563078806686 
0.007490178278027901 
0.2239568484810215 
0.317510742041627 
0.08091696142335905 
-0.05376907591730694 
-0.175480133413614 
-0.02850038966065387 
0.1809592823656698 
-0.1766753767453321 
-0.1312039434055952 
0.1401629657847008 
0.01740257262756149 
-0.1429796617210897 
-0.3456968901847179 
-0.2269721643250363 
-0.02884451419546692 
-0.05721245019606053 
-0.168287123199341 
0.3603100990049228 
0.1928325251552603 
-0.4746952743172605 
-0.09718480592380653 
-0.08809344537625302 
-0.3905849880691893 
0.07627878702162452 
0.06957546486699621 
-0.1052023650958993 
-0.332488253892113 
-0.001480422148348315 
0.03093557625881135 
0.167518967373455 
0.237709702106195 
0.2545458335838008 
0.01278296802278759 
-0.1350347146894247 
0.4507029561759815 
-0.09491403008169254 
0.367493488913327 
0.01787154370217798 
-0.4904124025014269 
-0.1350328604943806 
-0.2410866601957502 
-0.09862092820133481 
-0.2038686550434616 
0.2435430436729129 
-0.1235890878285375 
0.02012843155990439 
0.1224049235631732 
-0.1754218465267109 
0.06289608887010467 
0.3129572734514151 
0.05777954312737845 
-0.2846395397155229 
-0.198703877254534 
0.3677739822712051 
-0.03934754006403943 
0.1796470551935992 
-0.1506036839408492 
0.07779780705167337 
0.2206618227820233 
-0.2151575042605377 
0.1158053378141996 
0.3731148149166577 
-0.08941816303224234 
-0.4748675618826916 
0.4198404653157854 
0.24650904663168 
0.1591348110026766 
-0.04501159953243891 
-0.2231180975858281 
-0.4965713826147221 
0.130913706363102 
0.007344289167215274 
-0.1332051333866201 
-0.132119497393934 
0.333795232334086 
0.2053422221339974 
-0.1563941947454529 
-0.06149350135939245 
0.08645997159668527 
-0.306574201002127 
0.06777667225953794 
-0.09096984210770001 
0.07288337397819233 
0.3082134462765481 
0.1811159824216882 
-0.374013287630794 
0.325942641682541 
-0.4585626450565457 
0.259910987838938 
0.05484705285706154 
0.001409417485392683 
0.08197040056439223 
0.185814916454956 
-0.142822214636745 
-0.04705313459847207 
0.2493755030566936 
0.2585625543341091 
0.02380047854837436 
0.03758753187400001 
-0.06742998531102352 
-0.3412955534655985 
-0.2463676962396053 
0.3656297555550505 
-0.09526742237861378 
0.1519689014717936 
0.09390610923078252 
