solver_type L2R_L2LOSS_RANKSVM
nr_class 2
nr_feature 1124
bias -1
w
-0.007894242012775336 
0.2111437721749083 
0.07421540306652963 
0.04866821235344001 
-0.0344732093109533 
0.02099391585340401 
-0.123162394313462 
-0.03400306411722847 
0.04711587226777515 
0.1420742762210444 
-0.05534649410233329 
0.01682203035090344 
-0.05228988141753094 
0.1061008091728916 
0.05826031384875373 
0.1579901692612965 
-0.06336075775723084 
0.1152663416023124 
0.04419317947351223 
0.02947891953736329 
0.00773429061748603 
-0.03614131108868333 
0.06074122163063896 
0.05816749945728415 
0.09621711967937659 
0.01698402468571296 
0.07313447310276722 
0.1044463747390891 
0.2184287950206137 
-0.1184107573724073 
0.06983020210854131 
0.02951279767709182 
0.07189796839646674 
0.1916364190314521 
0.004763031096850238 
-0.1677384566165933 
-0.04099231070381951 
-0.09835444815920254 
-0.07637486119581936 
-0.06965642588428668 
-0.2422233207211082 
-0.01512452352352829 
-0.03763361725110276 
-0.05093693550633992 
-0.02552976763366005 
-0.05373579594770754 
0.002633909846369277 
-0.06162049756920754 
-0.2959662421970813 
0.1555290953451498 
0.01089855056587048 
0.01932880108986572 
-0.05347248570346012 
-0.02765062034768626 
-0.02462887418249368 
0.1331636465120316 
-0.008445036780061191 
0.1316863736498558 
0.1825226354346992 
-0.02498330385400172 
0.06205700500906789 
-0.1624114771521147 
0.04946888416457815 
0.1341330009122658 
0.196324373922332 
-0.0517474881222589 
0.02128887988191667 
0.04489503548838587 
-0.07800529158724727 
-0.01258676839643181 
0.08970977287192961 
-0.03520171964073066 
0.0438203591387491 
-0.06253385674320282 
-0.001346472339561037 
-0.02620649676420566 
-0.169961686305796 
0.287204972675387 
-0.2901586065197914 
-0.2165556254967143 
0.1455223247338467 
-0.2185964170402865 
-0.003184468129536093 
-0.1428634329884136 
-0.07035622935104796 
0.03548413133436842 
0.05978256666526696 
-0.01209724205982427 
-0.0921065428623332 
-0.05634359717673922 
0.03250378542806143 
-0.1296179740160372 
-0.09865262483308084 
-0.1724079825238037 
-0.1135620428764289 
-0.1491685078847812 
0 
0 
0 
0 
0 
0.08230104012272602 
1.867452111138054 
0.1341025250755256 
0.4184834862790755 
0.4138098432859439 
0.2795617595539081 
0.3372276782740658 
1.241782136371948 
0 
0 
0 
0 
0 
0 
-0.4211628633993061 
-2.248817220789003 
-0.3133022364066286 
0.133161387465646 
0.1531475229906146 
0.3685177129010986 
0.2400201512454195 
1.622724322335612 
1.828325144177806 
0 
0 
0 
0 
0.3951950877094446 
-0.01962434986490002 
0.0801786742409467 
0.08244218511083205 
0.07829001995630297 
0.2589070738884646 
0.04984043739096566 
0.2933268624458277 
0.1884060143909666 
0 
0.1138074584760236 
0 
0.1518540525374438 
0.0603824060447985 
0.2071885319475541 
0.3106859971524409 
-0.006924182295111391 
0.03262276811133941 
-0.4649089250157998 
0.04531816016241183 
0.4568403781256336 
-0.007605761255770484 
0.4000091281587292 
0.06107322211454855 
0.3138753060291001 
0 
0.01053025720961285 
0 
0.09552975679586392 
0 
0 
-0.0008227008146436877 
-0.006924182295111391 
0.03262276811133941 
-0.4649089250157998 
0.04531816016241183 
0.4568403781256336 
-0.007605761255770484 
0.4000091281587292 
0.06107322211454855 
0.3138753060291001 
0 
0.01053025720961285 
0 
0.09552975679586392 
0 
0 
-0.0008227008146436877 
-0.006924182295111391 
0.03262276811133941 
-0.4649089250157998 
0.04531816016241183 
0.4568403781256336 
-0.007605761255770484 
0.4000091281587292 
0.06107322211454855 
0.3138753060291001 
0 
0.01053025720961285 
0 
0.09552975679586392 
0 
0 
-0.0008227008146436877 
-0.006924182295111391 
0.03262276811133941 
-0.4649089250157998 
0.04531816016241183 
0.4568403781256336 
-0.007605761255770484 
0.4000091281587292 
0.06107322211454855 
0.3138753060291001 
0 
0.01053025720961285 
0 
0.09552975679586392 
0 
0 
-0.0008227008146436877 
-0.006924182295111391 
0.03262276811133941 
-0.4649089250157998 
0.04531816016241183 
0.4568403781256336 
-0.007605761255770484 
0.4000091281587292 
0.06107322211454855 
0.3138753060291001 
0 
0.01053025720961285 
0 
0.09552975679586392 
0 
0 
-0.0008227008146436877 
0.1313151028840753 
0.1196680540103185 
0.00751332902682474 
-0.02915547145099258 
0.01422351223858655 
0.03871455907551435 
0.02287868924355227 
0.08218838948824525 
-0.005838338600577394 
-0.03263623578759969 
-0.01223882655006964 
-0.1124440548924455 
-0.005145750835639462 
-0.007954926024741999 
-0.04888110427435858 
0.04294576077302508 
0.03610097851324745 
0.07652573462565079 
0.06936479013188805 
0.05720680865470218 
-0.09859414395103743 
0.0151413580388912 
0.07249399872912617 
-0.00754056460411903 
0.02960304474190998 
0.04157543127453351 
-0.005008018629183184 
0.02741934880424805 
-0.02082640870085008 
-0.005631547238764885 
0.04701545208910613 
-0.03573863398930947 
0.01382932846457283 
0.06156806917575116 
-0.05067177047210988 
-0.07928967116845659 
0.02455033098214267 
-0.04892954779362578 
-0.01787406259954253 
0.004872736426278033 
0.1389497643358088 
-0.06756965785700433 
-0.02761935720899047 
0.02785122832506804 
-0.02530192167164832 
0.02113321697257854 
-0.08873175382675012 
0.07056731476316341 
-0.0231265646424795 
0.01730055068557802 
-0.06373009856658261 
-0.0126673664145773 
0.03112932297259399 
0.03267270619989951 
0.02852708910902314 
0.1178070986084405 
-0.02374623909011842 
0.017317960936249 
-0.05563262650820406 
-0.1012978635875853 
-0.3001504817386103 
0.5194888673145712 
-0.1867673523949804 
-0.1319787233134506 
-0.01885877507473186 
-0.2559695299909967 
0.2296786378765457 
0.2207913759704613 
-0.3577224386081317 
-0.09300688500642942 
-0.06655393635991726 
-0.1057651247022098 
-0.202291316627774 
0.3152125940445365 
0.1722036674654338 
0.06102552448901619 
0.01437362107694233 
0.09594419618081097 
-0.002504168286926511 
0.00657306725701215 
0.1127572908076259 
-0.001745723249670796 
0.05072758638332219 
-0.03761649361264152 
-0.07994913152198599 
-0.01192276114185047 
-0.05783776306471079 
-0.06384199080363004 
-0.02547723645137624 
0.04548268195788167 
-0.1143755497187458 
0.0509703250910095 
-0.0111304068174533 
0.0203030891310583 
0.1294424221972164 
0.1405500899508956 
-0.003608521661451885 
0.05114021175577531 
-0.01526822689639468 
-0.05358806910612571 
-0.07027267976868327 
-0.06453808561462715 
-0.05558576587411707 
0.05280589468931579 
-0.07235692529933971 
0.1853067790853291 
-0.2108991272415579 
-0.02397783781433878 
-0.03397882832294153 
0.05530244045494085 
-0.05934757520671868 
0.08464415225695077 
-0.03606177136550431 
0.03019290427105477 
-0.05769812884850601 
0.05118559050926208 
0.05896508737208688 
-0.1213995779300341 
-0.01810509610621612 
-0.009677352926947037 
0.4510631456323768 
-0.1133579140199519 
0.1702064633198735 
0.09093495661881941 
0.05940065419394611 
-0.1612380629228957 
-0.4637007856335129 
-0.009807018293434239 
0.2363976714811675 
0.01338678450289588 
0.1584015393991052 
0.2413342523285006 
-0.02995265329787388 
-0.1727919697093849 
0.04843211024334748 
0.4794955821998366 
-0.1619986112882757 
-0.02244398162157982 
0.02224916507444329 
0.2200200822666316 
0.1184022412871676 
-0.1397657056455673 
-0.333473098699522 
0.003759734633629077 
0.1021351309251429 
-0.2132528173781733 
0.3590038889470185 
-0.1041372562919786 
-0.002177215570721131 
-0.2445882455871388 
-0.05753593871379333 
-0.02420570118080825 
0.07795488472103118 
-0.07011610287493626 
0.01036342860596914 
0.02474706711187979 
-0.004705451144696563 
0.06059029138241902 
-0.001461075692381905 
0.01167627440354729 
0.09216634861706942 
0.01103963085659121 
0.01204598344294588 
-0.008957018006380504 
-0.06955384475394967 
0.0885280529407672 
-0.04381430130734428 
-0.02733951670592271 
-0.01467482111418727 
-0.05605709960733065 
0.04727495001939491 
-0.08737644545885906 
-0.02352415809748505 
-0.02291854121240438 
0.01215277683280529 
0.00115230744228766 
-0.001833821479304078 
0.02817010201256971 
-0.04556180765333267 
0.03218689324979254 
0.03707885337806592 
0.09357945140700476 
-0.02531625915616217 
-0.02251936098608313 
-0.05595978089920484 
-0.007751577170235259 
0.04363749816145534 
0.05909243776071652 
-0.05607674155808198 
-0.06407795122175661 
0.004997726061225899 
-0.0616905337564882 
0.04134918264500537 
0.03114674329854332 
-0.04873206503331888 
0.04118538508899299 
-0.008632923055442143 
0.05122965298463115 
-0.05373338107724436 
0.03292108187315137 
0.04171185266126681 
-0.002796230403216193 
0.005728248178985732 
0.005080555006054633 
0.01271830690615124 
-0.02397105266545842 
-0.04113942417844588 
-0.03418606772681172 
0.03299149976817278 
-0.009629411825371489 
0.02198912102951032 
0.0258551891142238 
-0.007392602110522972 
-0.1205443049105955 
-0.1425988181949514 
-0.06871193143235189 
0.03725285153558521 
0.07380878599706178 
0.04132988189579723 
0.01911519043409975 
-0.09336059606287563 
0.06505845254799371 
0.004634881440872667 
-0.06850769328069804 
-0.02128879728715601 
-0.02364546989335869 
0.00786744578477396 
-0.1238460593864866 
0.012240162961645 
0.01401398797979123 
-0.02347624033801797 
0.007353118928972855 
-0.03616167343397964 
0.018470889773858 
-0.04688296039002974 
-0.005850377797344936 
-0.06668051722800089 
0.02108078789819376 
-0.04910970344039607 
-0.0857771848522776 
-0.2079125590363437 
-0.02711390385574393 
0.08227389866442941 
0.03854115691562497 
-0.07484023279744886 
-0.1295689479763202 
-0.07810557531444189 
0.05358504572018884 
-0.06271390137974338 
-0.01040125284909022 
0.02373373733499731 
-0.001963600909427307 
-0.05464332165691947 
-0.01999780793826365 
0.01311086151382533 
0.03860782141503617 
-0.02697467164226002 
0.005293032695531928 
0.1364148368656243 
-0.02376991062921972 
0.1095630319018327 
-0.1380430135220256 
0.04240918226176736 
0.09924218564874193 
-0.08235839250222221 
-0.06623637244376887 
0.0004665432048815373 
-0.1105420718928987 
0.0006566382539700275 
0.07757308898688438 
0.1385131913829764 
-0.01469170334224991 
0.006169685084635935 
0.05682317599788387 
-0.01292342785077502 
0.04084339278962589 
-0.04278988297736329 
0.08056433657002031 
-0.0832990005345244 
0.004043380286606833 
-0.05847630674192619 
0.05352541347106048 
0.01011426125364508 
-0.05618737780374194 
-0.03955799448203862 
0.2572827990714487 
0.01886282680561409 
-0.1379496597326935 
0.1033771494248681 
-0.05923860854584058 
0.159068704573051 
0.02617219264022962 
0.05383804375508244 
-0.07623230427353836 
0.008278908131895352 
0.1116060096743956 
-0.05042281028719287 
-0.06384299379883769 
0.06298975285853806 
-0.02673228825062352 
0.007771228199681976 
0.1986348488135895 
0.01789627163222799 
-0.09887585232060053 
0.0970231537731439 
0.0123230979613598 
0.06747970146086971 
-0.0292663179081724 
0.04069518242755216 
0.01432922866658681 
0.05432188865657257 
0.09784596797302353 
0.02933838329217218 
-0.004425819785443256 
0.03903780172858645 
0.04749511026608153 
0.03878923271570951 
-0.08184252055935944 
-0.06096363702536307 
0.03161862868198705 
0.002782097894143356 
-0.00952834606767596 
-0.03134211576497926 
-0.02003308574461112 
0.07048904530478287 
-0.01902140439495979 
0.09115270819952716 
0.05043077935716428 
-0.03139777174998377 
-0.0145147967078917 
0.02744939330474955 
-0.01493157932767939 
0.03057805399644215 
0.1780981675849498 
-0.007248113758543882 
0.06544106708880826 
0.03515086593056979 
-0.06262941074896747 
-0.02579578965863412 
-0.07289478193587339 
-0.0119089335412603 
0.07068551204376797 
0.1707007988851918 
-0.06889536890056121 
-0.005973140825247708 
0.05971477210254681 
-0.0500982138802593 
0.07052779963521982 
0.01039275025073745 
0.01727732921184933 
-0.01730859500689442 
0.04367677009444781 
0.02046120954715821 
0.01380872769268559 
-0.05504607820360129 
0.04987029658665187 
-0.02357592574075516 
-0.01312254665317696 
0.0640797514815028 
0.0008771455968379678 
0.029476922711178 
-0.05120030044842074 
-0.02322859343340863 
0.03312034004385563 
-0.0951164519056006 
0.07327983336512058 
-0.1845248830240817 
-0.04475776778298797 
0.1288283525334011 
-0.004620165337162177 
0.0487605158697839 
-0.2010027146214348 
0.02873387836524268 
0.05691571043748091 
0.01493067193917089 
0.2762491226699781 
0.03708210531837743 
-0.6169579168342566 
0.003631356892101035 
-0.1319285730887433 
0.1316348879374286 
0.0380603134634015 
0.3592174058323356 
-0.01059757758337208 
0.2242086920169212 
0.3131352877738872 
0.02039055415479552 
0.1598140383743631 
-0.06357935465121377 
-0.5229894077037538 
0.05516494497300747 
-0.00729221797690789 
0.09637187487977449 
0.05334159605451305 
0.061349732947564 
-0.0231613997196253 
0.1172208967767023 
0.05111691534668868 
-0.03402021552204533 
0.002291030534335499 
0.008873905454744657 
-0.08453343641914271 
0.02512858156852882 
-0.03002580914550292 
0.06097929525522513 
0.07835966539327804 
0.005647546772498267 
0.01015728210086671 
-0.04610826751944752 
-0.06481175396709847 
0.06765851817468742 
-0.004507420980677037 
-0.01084211343397588 
0.05499289035622351 
0.001414126295987088 
-0.002253355461945924 
-0.02741379514691873 
-0.09298519618273891 
-0.004166837353641228 
0.0491715084652356 
0.06399938764968625 
-0.07243727715856993 
-0.005866616034242445 
-0.03158946914467799 
-0.01510093831008751 
-0.0272708244120857 
0.04096924779939527 
0.04189261176346327 
0.01644175726220762 
0.006615337096833849 
-0.02506880251988064 
-0.1115956273531805 
0.04281133241993528 
0.09543104713591522 
-0.06337531280359987 
0.09077728856473746 
-0.005952140776434109 
0.05807812771268996 
0.04925899699084801 
0.04759108278402632 
-0.003750806841183306 
-0.1093522740237973 
-0.01911892951213259 
-0.03811565282537294 
-0.02700161151610665 
0.07053024529394932 
-0.03730700940737362 
-0.04803452188782147 
0.06384970721070601 
0.05537620999675916 
-0.03451362242209796 
0.0706030517486876 
0.07331150344224043 
-0.0776417395393922 
-0.01110803965518102 
-0.05795664691362461 
-0.008941162625509256 
-0.01951257462534656 
0.009662533512136869 
0.006660062538071423 
0.05294924156797688 
0.06357243047929084 
0.03619467632623531 
-0.02226616245589634 
-0.06460126857885838 
0.03256700761052968 
-0.000593665061619425 
0.1305099874610275 
-0.04851371445481077 
-0.04937387350771152 
0.07225335400213774 
-0.1295011960388245 
-0.02038996837826554 
-0.002308944670929935 
-0.04116995518164453 
-0.004288999108541768 
0.08253160414671586 
-0.0231544392084653 
0.007686001047707802 
0.00412517271096941 
0.05587876905409034 
-0.1208153429456874 
0.04698300102274262 
0.03951272355448851 
-0.05146936288406686 
0.03771928327054235 
0.01759381774928072 
-0.09127057368554073 
0.01121727682357777 
-0.02753853654032933 
-0.06779158435505461 
-0.02335101899780449 
0.02779313888699984 
0.06841836308540041 
-0.006721758482940832 
0.05910971099312961 
-0.0301656182244433 
0.05961369268106327 
-0.04229975143172459 
0.04657297572161381 
-0.02979406368898238 
-0.08639804843575213 
0.1322270271384784 
0.009652812924692411 
0.04101412026206177 
-0.01471119630880451 
-0.09877524286262977 
0.04132759959843724 
-0.0894269606738199 
-0.02608602632942312 
0.1764669223367754 
0.02671748355364648 
-0.05975003511162219 
1.329003821847047 
1.265044898366282 
0.7714897209456821 
-1.154244271000937 
-0.04732773415162635 
-0.2820597422430944 
-1.89827493995959 
0.1859780656115135 
0.1202486492804159 
0.03635296828795318 
-0.1102069159322621 
-0.4321409668950762 
-0.0996567565130668 
-0.008404191830260433 
-0.0302737610788975 
-0.02386865866698273 
-0.07463001064310788 
-0.07423945120612678 
-0.00954193947811021 
-0.03941888790940944 
0.01176976966190913 
0.04120060684136933 
0.1098761436402186 
0.03340668427033779 
0.006791552138388238 
0.02504004850075022 
-0.02615111215683638 
0.05632974019934051 
0.001458510836842176 
-0.1598460093508543 
0.08500794780440735 
0.01567070710128498 
0.07274885836910565 
-0.03484790242277552 
0.07490790066335681 
-0.09865057951183003 
0.08343731120338978 
0.1369872062787987 
-0.05912715558754557 
-0.1059055072861162 
-0.03497540468632698 
-0.03029496574952085 
-0.8107399048506179 
0.6666277426893474 
0.1536027865509606 
-0.06098498328623155 
-0.04013862822355153 
-0.09297896502532084 
0.2983754240323063 
0.06248169660297106 
0.02780337277528739 
-0.01609315104354759 
0.02832507174132172 
-0.109330618121774 
-0.01697109595227818 
-0.04300313843425487 
0.05326815157144966 
-1.424464521286605 
2.537829578650554 
0.03617688943379784 
-2.149569134295309 
-0.000376059775651245 
-0.3793105279167814 
1.03534445580467 
-0.01992580563738606 
-0.2303435082583167 
-0.06370975041442323 
0.3572208476207922 
0.162054858399909 
-0.002102146966078532 
-0.2521426024068491 
-0.06154007004199983 
-0.08396664885685405 
0.4104183201346491 
0.08865345251422752 
-0.02268601502855725 
-0.599854766076082 
-1.976178079741666 
1.139488025640694 
-0.8569145039930093 
0.03108554047971014 
0.1523021172526453 
0.1264674512973731 
0.8146931170979062 
0.1390742132460517 
0.08961809645131398 
0.3791271061103811 
0.01810655470482268 
0.06285705626891627 
-0.04008264440223405 
-0.1166949143373385 
0.05452585178452274 
0.07604339862344728 
-0.04705123825706129 
-0.07146403202729398 
0.02233984780505029 
-0.02127028895846018 
0.01679501220840389 
0.001104263794506416 
-0.013910344585719 
-0.0075233007919932 
0.01873181996690987 
-0.01565365254892199 
-0.009171597970869104 
0.06672431885928994 
0.006875045644778743 
0.03488991816609448 
0.05896934843399412 
0.06216100843998747 
-0.002810489191688879 
-0.00767455055753757 
-0.04924581570660725 
0.01790958238417601 
0.01396235979812427 
0.03888152956740689 
0.009386894099280122 
0.03953706831972342 
0.01406331788294615 
0.07602876187279974 
0.009098694412942006 
-0.07555296321537397 
-0.02080631740395845 
-0.07944656290917718 
0.03460026240247933 
-0.0212016268299895 
-0.003024288384470764 
-0.05341694259915664 
-0.08915574596827898 
0.09695702841975035 
-0.02175644706971087 
-0.01727640223811022 
0.04322916668763607 
-0.04487882255729688 
0.1160927276008807 
0.05171747798829489 
-0.01159627342361858 
0.02086873654580359 
0.02591156910772621 
0.02054390229094624 
-0.01428580299061028 
0.01012391140508078 
-0.0005232222315223792 
-0.06448966774595774 
-0.03736419450433366 
-0.009765223007683808 
0.02160758372127185 
0.0005276987265809958 
-0.09036141380826183 
0.003835663769593158 
0.008472267351348147 
0.0549653626992439 
-0.04004819121867808 
0.01576339196644034 
0.00712853749916697 
0.009020686670501342 
0.03235088161758404 
-0.04092033549474706 
-0.021791603489508 
0.02383660996971113 
0.03792150871732986 
-7.556533365745896e-005 
0.01134355812255061 
0.05730122225175158 
-0.01739486148811642 
-0.0106618048013005 
-0.006201014955458043 
0.03934466641248766 
-0.08479180557144328 
-0.08662035113979258 
0.04469445265823926 
0.1253799612965393 
-0.06232175023116743 
-0.06218366888260973 
-0.03002699926642637 
0.07111455202724068 
0.0363928590212201 
0.05749624290067953 
-0.02834625718555011 
0.01773582887620034 
0.03809940868350369 
0.008795033184405705 
-0.01638860680841526 
0.432654246070016 
-0.01063710447889782 
0.02170905950984286 
-0.04192223020800561 
-0.009653865216720927 
-0.09360016574063231 
-0.003938522655953798 
0.09638271354499546 
-0.01731467420077961 
0.0992267003818436 
0.007599374411905941 
0.06712790192117933 
-0.1133789412408746 
-0.03595158361913688 
-0.1144039262571163 
0.02734585735478902 
0.1481974634101952 
-0.04064850830481342 
-0.09518120709508211 
0.05093645482367138 
0.06555056535999336 
-0.01348254873699741 
-0.1123034069480097 
0.07319614152409816 
-0.01329931681036208 
0.1194777108523181 
-0.05405660924377077 
0.09614031123168706 
0.04568348231834197 
-0.05226490533766827 
0.002887210023616121 
-0.01879300419860004 
0.001968098126851863 
-0.03894159179041939 
0.0160896155862083 
-0.004528304654461561 
0.01537377074869684 
-0.02134061972428051 
-0.01919536205395602 
-0.008254597034301484 
-0.4793886421375447 
0.01610710471193162 
0.07409309262343643 
0.004926494141569656 
-0.06192850045164612 
-0.2603497070383143 
-0.01013508898954086 
0.2150013568857346 
0.06028040004542085 
0.003007792349236651 
0.02675144987733057 
0.04409104025109763 
0.03678953309087485 
0.02446163443089265 
-0.024603720483517 
-0.1362008155064326 
0.1642460887797487 
0.0175436000662147 
-0.0766024230650446 
0.004913265394532989 
-0.1208054741256642 
-0.2879191557599425 
-0.04676534758926389 
0.09244199074044719 
-0.01944513323453352 
-0.01525124753114494 
-0.04092002865680231 
0.001928936437654415 
0.01828587183319135 
-0.06637012111558729 
0.0416863367712539 
0.02520671793764167 
-0.04383675828131863 
-0.04953204124566744 
0.03179948562078259 
0.02531630346542479 
-0.06090106712782818 
-0.07426070358762762 
0.08794161967825852 
-0.06414693552286886 
0.01686422218325642 
-0.05095427366967641 
0.01843105454737958 
0.008396341455321471 
0.01994502039874457 
-0.0728754814995079 
-0.08661221367218167 
1.725822412426909e-005 
0.05387163036089632 
0.07104620048878357 
-0.1703002750189242 
-0.03732280049442244 
-0.03208804099958216 
0.04611651771987795 
-0.00515777064975514 
0.05249069601233903 
0.06932931536154856 
-0.001806620500183216 
-0.002233600607510807 
-0.08706558266265881 
-0.1227139718844893 
-0.06200813134760044 
0.0412235744128182 
-0.1044157519668624 
-0.01024293045923998 
0.02597603073930105 
-0.01838614427251484 
-0.01843330532293984 
-0.009561892475420586 
0.03157872696285597 
0.01277486450955095 
0.08395867389128406 
-0.0155961924674476 
-0.07056208370151733 
0.01827770618792764 
-0.05644019095473999 
-0.009050010417513174 
-0.11419282283622 
0.006873512619701733 
-0.0697534211663793 
0.02075873393083805 
0.07061606312922539 
0.02615718582763969 
0.08009461538657464 
0.06376195986287733 
-0.08418536957328791 
-0.2267197056481947 
0.2425155482291992 
0.1286113795325911 
0.1221981735202625 
-0.5769175814797439 
0.1048777358105705 
-2.285751731074572 
0.1053169699861204 
1.301992592018288 
-0.5536983060124234 
-0.07077563047574124 
1.38037296278133 
0.004242779602642287 
-0.2939873056739794 
-0.006393781233681249 
-0.03494072322883504 
0.1661576380507895 
0.06905000327391957 
0.5690736821177774 
0.02214331741206852 
-0.02589793494980659 
0.08619482926030692 
-0.1459291808195067 
0.03113017265587916 
-0.1330581726777413 
0.03541208498378916 
0.01195753673407857 
-0.07510576861170366 
-0.04756462760482196 
0.0328964050922207 
0.04246118701092806 
-0.09301587345565272 
0.01401809865745619 
0.03146418877006398 
-0.1246649717543992 
0.006437787515137254 
0.05772862412923134 
-0.0366412182981075 
-0.002585920584351603 
0.02600375952973126 
-0.09488677114276103 
0.1198300559884259 
-0.02098754096983914 
-0.02518812146386775 
0.02439541057149554 
-0.03490453886964282 
0.0134914524169147 
0.02399189749002864 
-0.01317738790386652 
0.0483963655666572 
-0.04925964645300507 
-0.08372156396828702 
0.03055923541578506 
0.07248362099571802 
-0.04820811480399338 
-0.0125491828908708 
0.002632994707825889 
0.002405372247829181 
-0.002394737013402201 
0.005403882155320696 
0.01134184534632292 
-0.0406136903546644 
0.05697877119296464 
0.09201485117190454 
0.04816100923974472 
-0.03240495638041108 
0.0008873561234566089 
0.04893192621248094 
0.02674654156202866 
-0.05476001752580368 
-0.008382158206901748 
-0.002428205119053376 
-0.05749734628285229 
-0.0627844524938169 
0.08589815447670769 
-0.006974153223620876 
0.0465793987618556 
-0.04601226338902906 
-0.02926549703483524 
