solver_type L2R_L2LOSS_RANKSVM
nr_class 2
nr_feature 1124
bias -1
w
0.06525633158112242 
-0.03576684780114371 
-0.1622053602234605 
-0.08744107376132451 
0.005374241195304504 
0.01974625368581817 
0.05448377578329154 
0.06794700984638417 
0.008797268172961351 
-0.08939134394597793 
-0.3982500397161385 
-0.248193324146622 
0.2885143966324295 
0.119771993918472 
0.6691899868189501 
-0.2512624405512612 
-0.5694889323417636 
-0.3936298317431863 
-0.2071375208345757 
0.2954231948446736 
0.3362197907271632 
0.4313922218361797 
-0.02530543896424835 
0.187576887956924 
-0.3885279182200211 
-0.09472331685286853 
0.181173199213395 
0.1219721888472293 
0.08881878912457941 
-0.5758622590882203 
-0.01960748658468971 
-0.5415315516631863 
0.303714491666072 
0.1501893517360392 
0.05737312333963127 
-0.06907612759062166 
0.1260649238538735 
-0.1871712816563723 
0.173403034060282 
-0.03379362203968784 
0.02040624070456671 
0.1563314750373893 
-0.018819701584871 
-0.187696408137929 
-0.1403801229400953 
-0.2770456433144145 
-0.03217899537645817 
-0.05885137193771153 
-0.5850758436028675 
0.4126962086280991 
-0.02947993096454554 
0.1910698687557186 
-0.5820653383967236 
0.237460550681902 
-0.2778016499127161 
-0.384394829384422 
-0.1001398054449791 
0.3737475552567822 
-0.3753550648240592 
0.2451199310150803 
0.2482240201871084 
-0.2402878336320733 
-0.6202812159643549 
0.58458394857635 
-0.08707020287410568 
0.2213943730827213 
0.05587185805030298 
0.1238886770757563 
-0.5309196073605507 
0.3751275009836788 
0.07185524315568667 
0.06991142614322909 
-0.09590394392327048 
-0.152298850266634 
0.08354066467912828 
-0.1816536127685454 
0.2985307986240465 
0.006247780230453026 
0.2465281697829832 
0.2193169298461739 
0.4314293404060874 
-0.06781037148224862 
0.2194315693608693 
0.3962316172667387 
-0.2400743728284381 
-0.4117047516854457 
-0.3716517932607937 
-0.2963439048677886 
0.1879216517013246 
0.2357155985046526 
-0.2021701936329106 
0.299419621145447 
-0.1911893501536322 
-0.1399639067290484 
0.3977293187693765 
0.09827931435769848 
0 
0 
0 
0 
0 
0 
-0.126379702746833 
0.1017757809028464 
-0.16828951861089 
0.5261921582304479 
0.2797305313687403 
0.1681295897701026 
0.2237881561877808 
0 
0 
0 
0 
0 
0 
0 
0.05364696198446606 
0.4787693123510915 
0.1167694220631883 
0.7629227481751456 
0.231749616263074 
0.4523670686583976 
0.2969828351476714 
0 
0 
0 
0 
0 
0.2671363319990813 
0.5971779109088694 
-0.1253292224672704 
-0.2537694381776263 
0.4242271040901472 
0.4205143376961882 
-0.3924748294229377 
0.07461994151654752 
0.3767729034819645 
0 
-0.09810235502180983 
0 
0.2136762369850677 
0.03837420216957838 
-0.01892839022955062 
-0.1132411739406888 
-0.006567424130988929 
0.037779935439878 
-0.07705264807308976 
-0.1018828676865521 
0.09817452605576882 
0.04129003714816703 
0 
0 
0 
0 
0.0117854088762124 
0 
0.02923593540245609 
0 
0 
-0.02371423695396407 
-0.006567424130988929 
0.037779935439878 
-0.07705264807308976 
-0.1018828676865521 
0.09817452605576882 
0.04129003714816703 
0 
0 
0 
0 
0.0117854088762124 
0 
0.02923593540245609 
0 
0 
-0.02371423695396407 
-0.006567424130988929 
0.037779935439878 
-0.07705264807308976 
-0.1018828676865521 
0.09817452605576882 
0.04129003714816703 
0 
0 
0 
0 
0.0117854088762124 
0 
0.02923593540245609 
0 
0 
-0.02371423695396407 
-0.006567424130988929 
0.037779935439878 
-0.07705264807308976 
-0.1018828676865521 
0.09817452605576882 
0.04129003714816703 
0 
0 
0 
0 
0.0117854088762124 
0 
0.02923593540245609 
0 
0 
-0.02371423695396407 
-0.006567424130988929 
0.037779935439878 
-0.07705264807308976 
-0.1018828676865521 
0.09817452605576882 
0.04129003714816703 
0 
0 
0 
0 
0.0117854088762124 
0 
0.02923593540245609 
0 
0 
-0.02371423695396407 
0.1181468529836706 
-0.386015613409215 
-0.04715754569282176 
-0.07863359852977561 
0.004416162729083874 
-0.1160570780052872 
-0.4543595373777318 
0.1107709809191 
-0.1488269206163327 
0.1045778745970436 
0.05566776911514505 
0.1463504706274117 
-0.1877275602240278 
0.1818473599161832 
0.2696031405334838 
-0.3461924707939871 
-0.07302263077729351 
-0.1894914420304341 
0.4254655786053714 
-0.01316775818166039 
0.3726363906575162 
-0.2239573566934263 
-0.1484202753833823 
0.04597842618500113 
0.1347543352997648 
0.1396885031757461 
-0.05385462578156484 
-0.05966031288280429 
0.1131705416761181 
0.05352940851284264 
0.319140147847218 
0.1442394696861409 
-0.4197481225837662 
-0.3594613623295433 
-0.0001229270655636787 
0.01006750006734541 
0.3772483409801835 
0.1679519743562442 
0.1492805803329982 
0.4952432252907357 
0.0989173472175537 
0.1997564980063579 
0.0637552679873791 
0.1661777064121284 
-0.2569081225594094 
0.6332035443002623 
-0.07976090806622328 
0.3422991245619476 
0.05273664082752261 
0.02086298018045007 
-0.0740122729221764 
0.1420579596447114 
0.1501767208263873 
0.2618595406990528 
-0.2952483757155747 
-0.2221007732781139 
-0.08316153315608812 
0.3430108959476367 
0.2487165998776382 
0.0822576971557919 
0.09997900447426485 
0.09300358241203238 
0.2078699816234837 
-0.03781742302779746 
-0.1033982420070871 
0.2069352982740239 
-0.4591758782749992 
-0.2463556932221929 
0.5877402121296417 
0.1324346390494119 
-0.3137554947922621 
-0.289895576374573 
-0.08776888398309227 
0.0003788418657727512 
-0.03173627470152792 
-0.0412015444950688 
-0.4782104722217384 
0.1120650092681837 
0.3234165155628185 
0.04179555550285487 
-0.3012981621091246 
0.1414662130690697 
0.2213280648460513 
-0.2667241612994556 
0.3030061587119022 
-0.3976913297043958 
-0.03361217633939658 
-0.02337188019041742 
-0.1461538639723228 
0.02331633128228787 
0 
0.2314754989866852 
0.2044658119946675 
0.3555685280820057 
-0.1311485783031889 
0 
-0.1466166986672519 
-0.09631051322608128 
-0.7283706806008805 
0.03841129029525003 
-0.3773547545283113 
0.3859093144728975 
-0.09349103565736615 
-0.1565192893595687 
-0.2379583368748481 
-0.4132034607027431 
0.06987783946628624 
-0.5705761412153885 
-0.1634726122197353 
0.03248836789070828 
0.1757642756072929 
0.5491501065394852 
-0.3596748944550816 
0.1370877663027678 
0.3499398667267217 
-0.3421219454430836 
-0.09549197300481344 
-0.1146711358760711 
-0.2670956131632852 
-0.2952808774999281 
-0.004395376440134342 
0.03686917348306203 
0.0267200437618343 
0.02117111359648465 
-0.05060967750586217 
0.3718401221225856 
0.282481175585316 
0.4593325211048337 
-0.03601439395149705 
-0.2654107768310833 
0.09527794673507935 
-0.166540393651208 
0.1390255546757352 
-0.02689788350380777 
0.1298613565882183 
0.2230333982119047 
-0.2844227472560761 
-0.1669987429651961 
-0.1144852194270985 
-0.1586702927771082 
0.1534684959580453 
0.4683517601217651 
0.06804645582794713 
0.1007653915010504 
-0.004932567398037569 
0.3566738748847128 
-0.28729218360408 
0.3016822820011458 
-0.2632649474144896 
0.06995121738936874 
-0.06872498789896664 
-0.01878996256449798 
0.2886956330829206 
-0.06428593530531385 
-0.1680900410307381 
0.3101338009472122 
-0.4270201143608192 
-0.1965772075224089 
0.08637450161855635 
0.4027250350021935 
-0.1093932883019007 
-0.1010223881069482 
-0.2025993093691959 
-0.2205819879216118 
-0.07332518247824819 
-0.04925539371819817 
0.02003595023083048 
0.1770053345557009 
-0.2100943610301273 
0.002815142634511348 
0.06755751403574821 
-0.1734941832210107 
0.2740377031137157 
-0.3849173755871381 
0.003911771874677264 
0.05764993666676756 
0.0117197368931926 
0.1496892835137663 
-0.002702247353220185 
0.05586821740010672 
-0.3416047535814066 
0.487305539490547 
-0.154123867913761 
-0.6405701762085452 
0.7266894184625061 
-0.1170014413210257 
0.3821617762873678 
-0.1018519630103697 
-0.09259323560695494 
-0.200918443977205 
0.03827013949750979 
0.02130982271510892 
0.35045315781968 
-0.04560466739553307 
-0.2928118282460929 
-0.04566017724809188 
0.005178881789040322 
0.00807913376875628 
-0.0177733656700931 
0.2703923546018396 
-0.4474133363167019 
0.08712442764882129 
-0.3229275475886873 
0.2858294768989947 
-0.2832559502911971 
-0.01897931003423618 
-0.1092506451337127 
0.2926532351366644 
0.08734412632233961 
-0.4720124731459101 
0.08184673456562934 
0.3819718235677926 
0.5759508281871992 
-0.09845018603086891 
-0.2586833822376234 
0.05173585269244231 
0.500599091712534 
0.3192128491210824 
-0.6217779333998407 
-0.09808104433559246 
-0.5680680083464291 
0.09144901258134139 
0.2383690677884658 
0.2683042740883085 
0.1159031992840166 
-0.10059015062122 
-0.1064792765066791 
0.5557989605952423 
0.02831149118302408 
0.002568724247882893 
-0.2735644800408766 
0.6144198634655962 
0.1670900768135094 
-0.3239326447634957 
-0.2624456961475971 
0.4495156713292676 
0.1344090817232549 
-0.3484719035468651 
-0.3448071456487469 
0.4765863687261079 
0.3741330429364833 
0.09072428327504906 
-0.5037766785916356 
0.1953441812065048 
-0.1303459150709475 
0.117413921214521 
0.4279305289364551 
-0.08280512246682888 
0.3956141921021277 
-0.4523653818216081 
-0.1060363882424773 
0.2294646553416775 
0.2386695510994891 
0.5558494925527461 
-0.2789273670765144 
-0.333794289626138 
-0.1395868393771928 
0.05629377421711281 
-0.1254129202711564 
-0.4842768150997928 
0.3804457745150772 
0.3356277610463536 
0.3392651210092732 
0.1422284450328481 
0.05459340377707229 
-0.009076743903624757 
0.3139179779038565 
-0.1458955710878686 
-0.2424106032127362 
-0.3609022551913917 
0.0007184477525879621 
-0.07464241975160245 
-0.3157681123524065 
-0.1645383203870433 
-0.03492494132464647 
0.7110987014194417 
0.1316340863943676 
-0.05298164637708112 
-0.09392357257852235 
-0.08880239289798975 
0.240757472997849 
-0.7048524281853339 
-0.03075822389849376 
-0.4836118649872982 
-0.1366721127069673 
0.03718199857746542 
-0.2418895559525661 
0.1222435596070909 
0.06057362051987422 
-0.04129865040231145 
0.260272694713356 
0.09397523772991909 
-0.01061752193550966 
0.00288808885401915 
-0.2013059546397074 
0.2685985992552589 
0.005950145765928388 
0.2642671470953519 
-0.03906255762126513 
-0.2629167863709435 
0.3979221628752389 
-0.07999903001917703 
0.1516908747229769 
-0.05733971906842008 
0.0005778121383215708 
0.2451601575959586 
0.1722415092282722 
-0.2210443131468152 
0.0267433762021004 
0.2705290226697261 
-0.210730938361599 
-0.02421270060310958 
0.3788454588603201 
-0.4889729092118623 
0.02177839103588522 
-0.1698511740976293 
0.3033164769887011 
-0.2523826006758778 
-0.1003567699535143 
-0.3511155221304758 
-0.5397361975526381 
0.02490777813501449 
-0.02880486410450814 
0.1892012924428989 
0.7291163544293089 
-0.1750808263036676 
0.339025379292526 
0.1535558790715873 
-0.01549197978410168 
0.1320486049269956 
0.1130251657051658 
0.3466686529218803 
0.05360355895107996 
-0.08380800436840404 
-0.2126045005052852 
0.136777382418483 
0.1287841610114916 
-0.2071419015701501 
0.2421553012394878 
-0.3604399766017261 
-0.03873584468806508 
-0.1268529175762391 
0.1489659228493334 
-0.01112488552568983 
-0.01710354287272833 
0.2192397432499669 
0.452699004069258 
0.0125200019547762 
-0.007011929196157151 
0.0595563738243385 
0.06915719173492346 
-0.1253922892044751 
0.1554676687992879 
-0.2512669331747306 
0.232860819325307 
-0.1985365703339091 
0.03136016218721796 
-0.3806318400733622 
0.005103214650620497 
0.2911096111823636 
-0.2782757814247882 
0.2444861652193344 
0.08820005739305167 
0.6224845984810625 
-0.06458830274839902 
0.04354400296576518 
0.476596443064254 
-0.1324763967481503 
-0.2586729072382304 
0.23065047466467 
-0.05965957315198305 
0.09758995821486519 
0.2099627815803221 
0.3250265182057388 
-0.2466041264817541 
0.1718546354656427 
-0.2880581789172728 
0.1104694753635656 
-0.1449200871512175 
0.06873500833312939 
0.03456839819427097 
-0.3007476151657154 
-0.06654945683923107 
0.4615637567108964 
-0.02892176866694509 
-0.05035279347850942 
0.001773568955913608 
-0.2461168150260903 
0.5583287249923479 
-0.1107746118747636 
0.3009700924200509 
0.1965256392211179 
0.5314220099076215 
-0.120704531017404 
-0.2502185370856379 
-0.1009539966012805 
0.04995283295646699 
0.2725249999977947 
0.08893756620207111 
0.3803019073629457 
0.3264962264640995 
-0.1500871034836416 
0.1314006337388543 
-0.0791964260728413 
-0.3075532641986656 
0.2358035114297145 
-0.2902266982212751 
-0.542002156131887 
0.2242221881586784 
-0.04389752662166355 
0.07617577562593393 
0.5192635952629028 
-0.3073387575636344 
-0.3022037992174772 
0.2213980106522658 
-0.5913961123347969 
-0.1087175016922728 
-0.3048679080495256 
-0.4054809651680308 
0.0135875416558825 
-0.4726949230126218 
0.5237516671579584 
-0.245833238033751 
0.1399868627660172 
0.3603152841556884 
0.133817811122459 
-0.554161242427216 
0.1622770407758048 
0.09294606262978711 
0.06350640312732171 
0.005489787902517177 
0.06434972796338551 
-0.1166143735858008 
0.1426970137889 
-0.06443751663339342 
0.04618385910778213 
-0.1132808585386843 
-0.005300879824209339 
0.1189863887655151 
0.08465260502765629 
0.04899506346186968 
0.1054341704235752 
-0.02462145121514184 
0.3082899287028771 
0.1806997236171023 
-0.3446038349123793 
0.04031680349102146 
-0.313128393326892 
0.1085962959376724 
0.06328147628980502 
-0.1254203217725599 
0.1882608417993112 
-0.1432694707808538 
0.02233671799566359 
0.06147143103583436 
0.2012664743573741 
0.2245258266069209 
-0.2087874087603526 
0.07957456120831614 
0.1539828229734689 
0.1686158215019096 
0.178707722089948 
-0.2090520341940195 
0.1146440420735374 
0.0431005274664993 
0.5528209407992152 
-0.2943469768807077 
-0.367566781697235 
-0.3803755354829823 
0.1838037232897572 
-0.1067757695705294 
0.02693025059638268 
-0.3402381719003391 
-0.134986697277459 
0.2951133639517738 
-0.01720812527104417 
-0.1825431377740254 
0.03473361009746824 
0.5889310288791954 
-0.3468997299618517 
-0.4756235953317418 
-0.4382856011342644 
-0.07085514151267072 
0.4055666406784487 
0.2355936043677631 
-0.1068104553940531 
0.1454093423888167 
0.1394052923475618 
-0.2668117373826918 
-0.2001993608295034 
-0.1949448248967611 
-0.07814554283775262 
-0.2272189991372885 
0.001139400062350131 
-0.3153399302111179 
-0.01504570101213762 
0.2018409208857239 
-0.04424516814378241 
-0.646569671479546 
-0.02307747680515994 
-0.3389515066274699 
-0.1199719346778814 
-0.2101259116773419 
-0.03276311077501948 
0.2823490161846717 
0.09611070728056687 
-0.2080602495187498 
-0.33367190119769 
0.105395210914934 
-0.2572726140607127 
0.2213947690979833 
0.1094666561600158 
0.208200437168178 
-0.007951859375912015 
0.2264442332607526 
-0.1870536377406425 
0.08490978709368362 
-0.1415675462573384 
-0.4345633956511326 
0.3177304726573477 
-0.2745297068486209 
-0.358712592874899 
-0.08267752902202687 
0.4225847806693679 
0.0326813909731528 
0.263505774770199 
0.0704888183670201 
0.0730049128093028 
-0.4372666242504762 
-0.06691013841364564 
-0.0505229640483818 
-0.03628538291179152 
0.3307372103658113 
-0.04225895188839826 
-0.1951086172964661 
0.5901090897468686 
0.4084909447414424 
-0.1842916829157909 
-0.1710556667430975 
-0.2815719433313694 
0.1343332695043788 
-0.497047041119221 
-0.1913768444715798 
0.4149545837508472 
0.2252792480330574 
0.1343332695043788 
0.05127859677576662 
0.5261046206149227 
0.6753196575968732 
0.3352409252118531 
-0.592349523784623 
-0.1694859362928845 
0.05735725711695677 
-0.108322209706492 
-0.161546844987594 
0.1020009321953963 
0.5748994850402903 
0.4702637894521578 
0.07602344682716104 
-0.06869392715121163 
-0.1243685380683294 
-0.1326946011156671 
0.04584369960857056 
0.1489199724307994 
0.02883637863148455 
0.219810227899723 
-0.1928228997530669 
0.2500320154896043 
0.06797294741508356 
0.02496132479209149 
0.4100773565700568 
0.2041993396512914 
0.2575148944457726 
0.00618195439495886 
0.09476886523093564 
-0.3635564406118559 
0.04837622917555071 
-0.1620750714755271 
0.1241349865240283 
0.0915722793320449 
-0.1133758032701339 
-0.1784813402173398 
0.30900951624993 
-0.09098132694049675 
-0.6303821754308546 
-0.1841164479173303 
-0.189671315543285 
0.3434362019726283 
-0.7032226080587753 
-0.344486595062189 
-0.4296204160281378 
0.4126446061084736 
-0.2344059339606761 
0.5394272954017462 
0.2790700981302948 
-0.01914046437722786 
-0.1172304778121548 
0.07276340729430184 
0.444559618095177 
-0.5428070115024878 
0.12410866343897 
-0.09529793678611841 
0.5325271099594255 
0.5204044583783265 
0.09454043173388754 
0.5415483099661587 
-0.4438493662146706 
-0.1448077885591456 
0.0398611471306811 
0.1219436480572808 
-0.1601837337280808 
-0.2371831508685224 
0.1489181143876416 
0.3801198579120457 
-0.1250061879763111 
-0.4916261474505907 
-0.1728458498927669 
-0.06031121351028387 
-0.09466443149081359 
0.3510893357024831 
0.1778560969727595 
0.1827711342220034 
-0.05643938940976059 
-0.1353341024716469 
-0.1109985228604193 
0.7170928879556271 
0.1290692949501643 
-0.3406468861169533 
-0.03286771151144943 
-0.1799837786616599 
0.2230029015478123 
0.2672151281682801 
0.08449101626447785 
-0.4528997543918499 
0.01307385844947548 
0.4280296298660106 
-0.1792194801649367 
0.2902709162509711 
-0.0526039312305935 
-0.160660739612627 
-0.1953410780215419 
0.03442110608243794 
0.551653572992082 
-0.03461743795096425 
-0.02814974601665944 
0.2078181779311719 
-0.4315684477401849 
0.258639033248999 
-0.2865513520203437 
-0.05751691022908925 
-0.03695851315912644 
0.2111886494836017 
-0.2742873895772147 
0.1410628691081537 
0.2680570855639245 
0.1682020548579707 
-0.130479569288114 
-0.3307218268645792 
0.06551403326709709 
0.07590545606029225 
-0.08766991126604329 
-0.1906968737468784 
0.01448262333713763 
0.2633292022132471 
0.01677493418956851 
-0.3736274514532202 
-0.003366188446298029 
0.397134191666173 
-0.1061049169627173 
0.3386894213390707 
-0.2493841159623904 
-0.5320424842181061 
-0.28952813423408 
-0.5490826125616763 
-0.1751600506337283 
0.2378517001916753 
-0.6348474181822621 
0.1639946147868658 
0.02245590860891319 
0.4340361685359247 
-0.1705854819733491 
-0.1154623209363612 
0.05016302485022063 
0.2510456078775596 
-0.4232188425986835 
-0.2967818806187973 
-0.1832862572392894 
-0.5564032800302557 
0.2756029920363642 
0.04079132400148493 
-0.3386040206504817 
-0.08140319943129611 
-0.5663990125131629 
-0.1797450378436401 
0.2635951577993352 
-0.6315101709879721 
0.1733834597095671 
-0.4134040009619351 
0.4647748772543563 
-0.2969294578930797 
0.2228157171555359 
-0.0810828979191569 
0.1100945660877326 
-0.3632450635478073 
0.1871115384984045 
-0.533182913451104 
-0.2988263807865612 
-0.02591061528323038 
-0.04018056542706525 
-0.4874728727522289 
0.1317567397755275 
0.1057845831201734 
-0.3621983352088569 
0.6642236811291652 
-0.1698481693562283 
0.373657344842275 
-0.0634393100598644 
0.4139928123698554 
0.4800722271137526 
0.06784497136989683 
-0.1881808699302271 
0.1703346408718706 
0.2011274145008145 
0.001902958792343411 
0.4678937216253434 
-0.561014665539505 
0.001128603031084357 
0.2847213281645035 
-0.0108855671030699 
0.07382709042878581 
-0.2483474554633791 
0.3163939949742934 
0.1875743624215489 
0.1980555289035045 
-0.06245996418815951 
-0.3234761574778758 
0.01984201660239499 
0.08164335246867266 
-0.1500050450010623 
-0.2252961977093154 
0.2842159695197876 
-0.04195245217545301 
0.1192889333351377 
-0.444177429647228 
-0.276309311689677 
0.0006707005392180125 
0.007241177204101362 
-0.09453454278836665 
-0.0630957576889684 
-0.2611150373264082 
-0.04127281308023251 
-0.3355244418989553 
-0.2078923505206187 
-0.03898004363348483 
-0.0851003208819404 
0.5284249781555147 
0.1525350373838419 
-0.09662712074211767 
-0.1173437977777755 
-0.06199432266762323 
-0.09689083156001042 
-0.08713022189342719 
-0.2394781403176968 
-0.03748156516904867 
0.1979136136108721 
-0.06851897689247977 
-0.07067149493606512 
0.136474616056052 
-0.1890769955248191 
-0.1327425572532564 
0.1773014455284843 
-0.04132685394276087 
-0.3176139704854938 
-0.09972928394902086 
-0.03929605426380489 
0.4123606247140205 
0.2851024619301124 
-0.1163070889548859 
-0.2543179375676241 
0.3953966861589843 
-0.2409929977505299 
0.02899444087824084 
0.01520387974236215 
-0.06800601010265084 
0.07655956651849366 
0.06723287679424131 
0.239395693430406 
0.1398707246280481 
-0.03860682280368536 
-0.1148390567742418 
-0.1709750584375117 
0.03544873277027469 
0.1749390268251758 
-0.1153804444370095 
0.2693676213297798 
0.0720253603598749 
-0.1131086260492175 
0.3619102477643927 
-0.2705799840158499 
0.2324172134615014 
0.2017567710830215 
-0.1509870896280595 
-0.1915038969361248 
0.009354616796328829 
-0.3932508618925578 
-0.07667820071807356 
0.1432794614303218 
-0.2652017609570154 
0.1617641882117595 
-0.2242181801333446 
0.1796310945064351 
0.3314068067390184 
-0.02486537843057335 
0.479688933979477 
-0.01836048042508418 
-0.005039869330603746 
-0.3618963324134852 
-0.06872767791697612 
0.1207709379527792 
-0.4271922019526676 
-0.3028071096847211 
0.2061223387315753 
0.1010072552872138 
-0.215885919713461 
0.152655390827084 
0.2214192663373129 
0.4578465186459431 
-0.0182447165781644 
0.4456269697606921 
-0.03343993195460803 
0.1262131375922371 
-0.1619681976907075 
0.04290831308472751 
-0.2223965915390483 
0.02887770334955803 
0.6174192096401665 
0.1373137727849341 
0.01941240659502349 
-0.06801171023757829 
-0.3479834667678928 
0.2973436006167676 
0.1025725992181558 
-0.3262557554632207 
-0.2274201057238086 
-0.1725231669112961 
-0.3060341892163871 
0.1612169467110833 
0.2942307650994455 
-0.1333132821068534 
0.1494453628980165 
-0.07118432468250058 
0.1215772724790487 
-0.347710699993808 
0.03640207142106598 
-0.5504154353367455 
0.5116158524891498 
0.1136116654723244 
-0.2494857325306153 
0.04158352313623466 
-0.263498037879616 
-0.135417986763791 
-0.03115778470053698 
0.3470881167055251 
0.2361421047916185 
0.5071636690436866 
-0.1012483174701253 
0.0585105607874243 
-0.07981462705847713 
0.1967648821582595 
0.2353024745778328 
-0.352051822986142 
-0.07102987709545536 
0.1743745873229855 
0.1949483930185889 
0.3671395462832676 
0.1185711360851919 
-0.1598576229377741 
0.450685053769499 
0.09986023134566439 
0.1322782532940423 
-0.4355630697224509 
-0.2269311714316909 
-0.3446430084505313 
-0.2263211066101661 
0.16576152885246 
-0.1301129245657846 
-0.2321066693569153 
0.03890871108687613 
0.3019292627298256 
-0.2160039699157815 
-0.2090054960954167 
-0.0387220515374348 
0.2631268504141827 
-0.3369239163389521 
-0.01243282531311441 
-0.3044283844802846 
-0.08550398778527986 
-0.04137985558358587 
0.0895960783863457 
-0.00583786483177539 
