solver_type L2R_L2LOSS_RANKSVM
nr_class 2
nr_feature 1124
bias -1
w
-0.0172953941818544 
0.2385993252277156 
0.1292000103063181 
0.09557384773708241 
0.01021868924852705 
-0.00490140754250582 
-0.0480512837419465 
-0.1104693168823825 
0.1069471721883128 
0.01371339127680437 
0.01071144100158061 
0.08458532021653697 
0.04166848535222831 
0.02631623189338346 
0.08371851816102885 
0.08180288234588454 
-0.005715156776593995 
0.04988218573040509 
0.03495137554987499 
-0.0951487625378947 
0.01820669104159721 
-0.04006930605542451 
0.003481082716262151 
0.164358528890702 
-0.2312548623121512 
0.1107578908093228 
0.08411616327052454 
-0.08835622047668586 
0.1404980307258902 
0.03853739871124055 
-0.1070126670075503 
0.06435581954771005 
0.0109332207715996 
0.1350765291397857 
-0.01548242251427008 
-0.1262134197263693 
-0.06940729484421147 
-0.07514795855692753 
-0.06338066559980329 
-0.09704069151160441 
0.157391648264988 
-0.03626544616892635 
-0.03853647286114457 
0.05719788679215931 
-0.05410111053977821 
0.084346155347618 
0.09361142721720221 
-0.1321103632856924 
-0.2530676019297015 
0.2494156948009752 
-0.02973824537835543 
-0.1189283893606744 
0.02987149747664403 
0.09235046720841157 
-0.02901856374472446 
0.02870301218070735 
-0.04367456169388841 
0.2108642842189986 
0.1812743289462822 
-0.02058806628830563 
0.02866835080457543 
-0.214691341995363 
0.05245127911125882 
0.2174898073882244 
0.191658493790006 
-0.05631623730310759 
0.01238074353266712 
0.01147995910003811 
-0.04021977193825828 
0.01478919550919225 
0.05721561122613104 
-0.02700387576892591 
0.07898827599388814 
-0.03469036405361279 
-0.004189341150034162 
-0.0611735511852454 
0.05541929030444596 
-0.06184760234470083 
-0.2860955624861554 
-0.1314940642265794 
0.2883978040828976 
-0.05330019341803882 
-0.0226653958920928 
-0.1225045033927585 
-0.08243000210435959 
0.01646262601334357 
0.08798081485637944 
-0.006624397341803774 
-0.2428482744502233 
-0.08318796840923078 
0.006062785583259032 
-0.05120591949479179 
-0.1650741970587578 
-0.2417910778156114 
-0.1793172588065066 
-0.1291804243489685 
0 
0 
0 
0 
0 
0 
1.154773912161912 
0.07347785241012976 
0.4340000319150316 
0.3797110974220243 
1.026992701888896 
0.8202181468111938 
0.2327848313325714 
0 
0 
0 
0 
0 
0 
0 
-0.3700294102448047 
0.3112035281019553 
0.2513188855625314 
0.1016414417778877 
0.3688568885248038 
0.160611651054433 
1.598038659334245 
0.540590064181854 
0 
0 
0 
0 
0.4611402116222134 
0.01010318028169941 
0.02390312543712232 
0.1538195717864944 
0.09221288224807217 
0.1723806268746495 
0.1115715797207018 
0.3349949509291736 
0.1907974464708233 
0 
0.2248724909955682 
0 
0.04991308623647295 
0.29629276006481 
0.09291359287503032 
0.3290082730572787 
-0.02016924663839609 
0.03192911841171511 
-0.008243062982341599 
-0.1072669262669373 
0.3279500778051288 
-0.006720307910261878 
0.2842438564692477 
0 
0 
0 
0.01431972190728513 
0 
0.04714338737332274 
0 
0 
0.02274114398999623 
-0.02016924663839609 
0.03192911841171511 
-0.008243062982341599 
-0.1072669262669373 
0.3279500778051288 
-0.006720307910261878 
0.2842438564692477 
0 
0 
0 
0.01431972190728513 
0 
0.04714338737332274 
0 
0 
0.02274114398999623 
-0.02016924663839609 
0.03192911841171511 
-0.008243062982341599 
-0.1072669262669373 
0.3279500778051288 
-0.006720307910261878 
0.2842438564692477 
0 
0 
0 
0.01431972190728513 
0 
0.04714338737332274 
0 
0 
0.02274114398999623 
-0.02016924663839609 
0.03192911841171511 
-0.008243062982341599 
-0.1072669262669373 
0.3279500778051288 
-0.006720307910261878 
0.2842438564692477 
0 
0 
0 
0.01431972190728513 
0 
0.04714338737332274 
0 
0 
0.02274114398999623 
-0.02016924663839609 
0.03192911841171511 
-0.008243062982341599 
-0.1072669262669373 
0.3279500778051288 
-0.006720307910261878 
0.2842438564692477 
0 
0 
0 
0.01431972190728513 
0 
0.04714338737332274 
0 
0 
0.02274114398999623 
0.033410101330045 
0.03727697749422726 
0.07687443065094582 
-0.01532462848754316 
-0.03749220553802061 
0.04976016215679288 
0.05329379587905859 
0.01074577898224055 
-0.0120254471480577 
-0.03264121879647716 
0.09962083498848026 
-0.04779896287876803 
0.01449813659312883 
0.003991844842120212 
-0.01339550316044607 
0.07609534128294218 
0.02632275966933114 
0.06308285639633479 
0.08751464323144834 
0.007894176175422358 
-0.009793460111462015 
0.03401089158792406 
0.02361024693519544 
0.01454633568390484 
0.02823983136407746 
-0.0007083759023955845 
-0.03299933655512045 
0.09390243170378504 
0.05526360589662571 
0.009223701208069599 
0.01688203395648751 
-0.01727764735218001 
0.002755234171675777 
-0.03077744136413501 
-0.03803931601965607 
0.01160942638579896 
0.1024369070117646 
0.1566910934187941 
-0.01636088272562045 
-0.07902681939575586 
-0.09894129261263714 
-0.04367917755545961 
0.08039133546438541 
0.006144451192524399 
-0.04992266460543098 
0.09164348250797727 
-0.03799469198139223 
0.07319605084832608 
0.001181750710189835 
0.006260371824790844 
-0.07388562936620025 
-0.08939582455965922 
0.02586741596070465 
0.06479242870597039 
0.05438380393686584 
0.07269005256258951 
-0.07886317377661196 
0.02584843918118011 
-0.04923593560827379 
-0.1059328727609982 
0.8674330449557975 
0.2701879831459356 
-0.155543463498958 
-0.07379446850931923 
-0.1753510814478219 
-0.2580113117884548 
0.02701074534723316 
-0.1995092701282589 
-0.1794543239619915 
0.1854435191708383 
-0.05932377606102741 
-0.1221170081769753 
-0.1385482732865737 
0.2193845211516314 
0.08896008539971778 
0.08235202459984573 
0.03731608519390268 
0.09327973702538116 
-0.007824296833631474 
0.01929440942460632 
0.08835184382120949 
-0.004825083727599282 
0.00933046827316048 
-0.05643886802884492 
-0.1008930914848948 
-0.1170044882260582 
0.01739773964422025 
-0.05473056148622712 
-0.04542060329066334 
0.0154625598132916 
-0.01748260561706072 
0.02130838678386871 
-0.05400224517031166 
0.1241269564442533 
0.1398970017819346 
0.08121410762010756 
-0.02034642630025682 
-0.09753432904265333 
-0.154064288545831 
0.03485242455209473 
0.006062169414728253 
-0.05095925501759717 
-0.1194941067851935 
-0.02550072025737649 
-0.02330558338466346 
-0.1369650124864235 
0.02988976227194916 
-0.07686470718866628 
0.03033408674839366 
0.03679596509845876 
0.06642525751458819 
0.03522294703940906 
-0.1111550010405682 
-0.016276688659437 
-0.02891994260471115 
0.1303446919477452 
-0.01010791992223012 
-0.002118788077090772 
-0.0622404156201758 
0.02999475802138636 
-0.1117437937967483 
0.3227874463651609 
0.1550264612658625 
0.1888397463593687 
0.07439026286828926 
-0.240722988191798 
0.108862479195023 
-0.0266573938178312 
0.1976539035717975 
-0.03149008698790495 
-0.01079876749227315 
-0.02940326314763053 
-0.02178657179249526 
-0.06315701979797617 
-0.004244984690305966 
0.6976432911102395 
-0.2647277535511575 
-0.6823822496904464 
0.1179429516821272 
0.04253357803422878 
0.4550209107173396 
-0.3440747319895339 
0.336562462336727 
-0.1199204288025099 
-0.09506594562956923 
-0.3364656304742685 
0.6222960220215742 
-0.3722798742949135 
0.088061551127111 
0.166235356195004 
-0.06699115451649694 
-0.02396097047791212 
0.04890030862083975 
-0.02010080829614586 
-0.01214033294947739 
0.01151215663780468 
0.04704208859709712 
0.08425024153129411 
-0.004451583643168826 
0.0285998031646242 
0.148741126046695 
-0.06979001109206948 
0.002969785884073198 
0.01081691007660722 
-0.01455759996024776 
0.1621914342817065 
0.02490566861275328 
0.008145345981754809 
-0.0266579716849671 
-0.03938477167647252 
-0.01410239901796158 
-0.08226290352428309 
0.05506310523960829 
0.0149854572810137 
0.06042836249520132 
0.04850969259748449 
0.001864239143401017 
0.03213232229497558 
-0.07381693728328655 
-0.06132655683831002 
0.05990159603231512 
0.003589066447624746 
0.03060642505746228 
0.0248562357820504 
0.001919957963086226 
-0.005093164286290454 
-0.02401224099425564 
0.08885671700494896 
-0.08528175437633018 
-0.02057694186057825 
-0.06394600379658096 
-0.06334861199346967 
-0.05480416979598365 
-0.0002746537725487376 
-0.02722157157929451 
0.0706872233549143 
0.02670958059998901 
-0.008267950347870827 
-0.01522232613025567 
0.02263013991796626 
0.05610747515526773 
-0.004303857692636934 
0.01088326696211925 
0.02210100580377173 
-0.06953359110312615 
0.01825220630454494 
0.001698596125576005 
-0.005915191032322016 
0.02900745349687027 
-0.01885099093642015 
-0.000746122680324524 
-0.008405818851400513 
0.02647082945798209 
-0.09536114019550998 
-0.1112263051616762 
-0.01703785672470266 
0.07051769601435973 
0.06755730269984224 
0.05451925320777297 
-0.06456704641546414 
0.03040717896019415 
0.0276066859789442 
0.03900648049346163 
0.006011158051360737 
0.001117360622965288 
0.04542662788858586 
0.06104546311670295 
-0.1158587609519692 
-0.003424197244134656 
0.04948638866027867 
-0.008786535183836573 
0.02236652139989902 
-0.05729203873563488 
-0.02017529662133026 
0.01512777003776351 
-0.005206382619191253 
0.02621614771209061 
0.0748408903692076 
-0.02557720149911585 
-0.05175269484702948 
-0.08501943162259894 
-0.009766660708459572 
0.02243349330249452 
-0.005277094818227195 
-0.02003151755527611 
0.03778498182828621 
-0.05608256604492056 
0.0593318019046447 
0.01866983428588934 
-0.0725609675420965 
-0.02369192936536749 
-0.03650119249247136 
0.02858067535518708 
0.01713373814206495 
-0.04707527203329903 
0.02480441612448064 
-0.08145143873391532 
0.08791376181612313 
-0.0879354654102012 
-0.06141631196258171 
0.1191079703203539 
-0.03227149374783889 
-0.007412158939085653 
0.05159543473277699 
0.02474759995519321 
-0.02975292584037025 
-0.04195885312916867 
0.04014516148982546 
0.1580136780204617 
0.1005343452716042 
0.106301207718582 
-0.06365291553069732 
0.02055445838617114 
0.001812149840823725 
-0.05138603751908036 
0.04126913022872104 
-0.05905564469394799 
0.03883044086451605 
-0.05910883695379006 
0.06436660808719734 
-0.1245118900360007 
-0.01974154780156095 
0.04066707599561311 
-0.1037953814432006 
0.02067061940110374 
0.4061350362118068 
0.007191437929521607 
-0.1727546774860762 
0.08447463294991228 
0.02876959848780477 
0.2667806313789727 
-0.04580943681779828 
0.04664812244933994 
-0.02062227124176132 
-0.01815442538071036 
-0.03437439842529467 
0.01509336161928951 
-0.02516394668260269 
0.03262001025805418 
-0.03576582944230555 
-0.06619061100327842 
0.2590791401042342 
-0.0064713044655106 
-0.05232791438604916 
0.03695767565357282 
0.07240267654188562 
0.08760629522205018 
-0.001922725139419344 
0.06412858119601951 
-0.03560870925460851 
-0.008848565979372544 
0.04910074143738227 
0.01767024555049289 
-0.06814277752387783 
0.01286146735837076 
-0.03053581414479779 
-0.002188416081619642 
-0.07671375968500727 
-0.01654508757679038 
0.01029145256060515 
0.05696887420003687 
-0.03562619852870858 
-0.0004403276299386255 
-0.05385072918298421 
0.04718404132708157 
0.01142055697646183 
0.03091394735667354 
0.02310040020314806 
-0.01136017420264617 
-0.02663833546231484 
-0.003371817194565384 
0.00462872008278849 
-0.1060901210261547 
0.1918615916402135 
-0.08115191136441564 
0.009756305529978603 
0.100764420526077 
-0.02318849375677557 
0.01474643241539235 
-0.1107688639181913 
0.04663727683150125 
0.0264819150133058 
0.0883715826789909 
-0.01261818023859615 
0.07118883149863599 
0.0171197078700627 
-0.01661477501872462 
0.07055226747853582 
0.1167456156357093 
0.05863343379063011 
-0.008238053053975607 
-0.03446256151342323 
0.009057571415630263 
0.04627244059192819 
-0.01298410960419824 
-0.01272140508253992 
-0.04593786463406258 
-0.02202069932787818 
-0.01111760979643408 
0.03505547634934679 
-0.2596276611262518 
-0.07921151027795066 
0.0985471378906749 
-0.0002121947206404577 
-0.06946176891294766 
0.1354059420054465 
-0.07113888360368967 
-0.02814536002789473 
0.09699085784656479 
0.1146598719827146 
0.1584370449101117 
-0.01559264985008673 
0.006827053841008192 
-0.03209514365226261 
-0.02817017543670037 
-0.07489048384947611 
0.05775501995931916 
-0.703453500198317 
0.02090059061612674 
0.09298593605059502 
0.2452525408661515 
0.005436798807740006 
0.1726600468450695 
-0.003775140219463563 
-0.1735678359580178 
0.241046537051507 
0.008603686898521881 
-0.123991703226233 
-0.0316001014977226 
0.00322881501327189 
0.04464798322859075 
0.01468761627129901 
0.06430760201461189 
0.07741775940364916 
0.06370088701795476 
-0.05157628311600736 
0.11421878827532 
0.04174487874837904 
-0.1234312872017383 
0.03786419778036621 
0.07761762932071784 
-0.06419729424056042 
-0.01784346056020735 
-0.02313854881682321 
0.1036471172251161 
0.1247013939745443 
0.0445219391209421 
-0.09171654105915819 
-0.009962381130361006 
-0.04358205354745117 
0.03771120019215442 
-0.007126468105244686 
-0.04188492599644132 
-0.006344269626423579 
0.0408394998977412 
-0.01962503616433389 
-0.04925620246584327 
0.008520303553668313 
-0.02950407864044479 
0.05051067538586415 
0.03710360365222158 
-0.1051402326920825 
0.02734983845535432 
0.06754989360266074 
0.01713800965545986 
-0.05232797749060619 
0.0004737510775895905 
0.02310621016821305 
0.01671822364746357 
-0.06801704600433609 
0.03955864395030549 
-0.09708568182082498 
0.05379205469675406 
0.01257818519695811 
-0.04190014386223349 
-0.006132423688237956 
-0.1044902001523198 
0.06485641544227515 
0.1047944175977559 
0.007968435085929111 
0.03633951461422771 
-0.05510038536970048 
-0.006916625956239406 
-0.01955651433311303 
-0.06002242240687716 
0.1061182862559654 
-0.03383181603144917 
0.01588180653802933 
0.05073824327037062 
-0.02465767883019316 
-0.005606624189041689 
0.09583125212893118 
0.02792088010089213 
-0.09013388702402299 
-0.02444301376691738 
0.06560483418698263 
-0.0518210122154246 
0.03384155287025787 
-0.00734050109231436 
-0.04336971746433949 
-0.07758309366438541 
0.05343863669795323 
-0.04985936490689349 
0.05981089430938581 
-0.02755688428041676 
0.006351133618853828 
-0.007070117330811408 
0.0991503576647003 
-0.06228983769578889 
-0.02528792808386155 
0.01628294069581206 
-0.0860978767567912 
-0.02936418067011501 
-0.03479305815010431 
-0.01988958234595551 
0.03039694949165998 
0.04329926384031965 
0.09564696200917988 
0.005833599699110555 
-0.01435891374438351 
0.05805694201528193 
-0.06342357243347416 
-0.02899461383516248 
0.05323208737829745 
-0.0431668267035817 
-0.05280660524340572 
0.04666518057893565 
-0.0409686157897966 
0.0665237084964448 
0.06363443229237657 
-0.1204305159831643 
-0.03632389879667376 
0.04561818050182213 
-0.02412920140047796 
0.01316247608696147 
0.08382466606495238 
0.04194565445606889 
0.005031237911655922 
-0.06182033908221344 
-0.01070596372166104 
0.07393803034501284 
0.07788753792175619 
0.1799381752614565 
-0.0433182977227947 
-0.1183749709219708 
-0.0002692675191925194 
-0.06847283571053033 
0.006397911663235781 
-0.1008247766380164 
-0.02319761019247704 
-0.2054751758803974 
-0.3190020261260341 
-0.4355648508928924 
0.0402346381108513 
-0.9131855135920362 
0.147991256499163 
0.46509417227807 
-0.1141845322365251 
1.17659798636875 
0.2348804251633742 
0.4808067907239735 
-0.07856659645309783 
0.4386083636396253 
-0.8766985062594884 
-0.6072247149592549 
0.009163787076030239 
-0.01012696682754445 
-0.01738867743089498 
-0.04934500330169781 
0.06988215613424906 
-0.1265785929541824 
-0.08510226914588448 
0.04875334573688696 
-0.03970706549226832 
-0.03077383383593634 
0.1194932511428809 
0.07929218446268105 
0.04669153283827946 
0.04768315763112116 
-0.03515758707475748 
-0.08513335937755995 
0.00319439152964952 
-0.06800361289785877 
0.08199843581729514 
0.05380349906648464 
0.170167486338365 
0.1050832271851885 
0.0417704390758025 
-0.06298903950391498 
0.04164355296297458 
0.005145165264311722 
-0.1895055873214938 
-0.05931706543081129 
-0.03781201130516491 
0.0282439795213854 
-1.181554779984267 
0.1966738499005984 
0.7107924482744817 
-0.07385170316848318 
0.0260438384546563 
-0.05644193899984023 
0.3128275376858938 
0.1863382787205409 
-0.009242245718791557 
-0.02742919686383871 
0.03530992195559356 
0.0359367019416842 
-0.04713404619918188 
-0.09916579462828681 
0.06648065362162849 
-0.1389259919431635 
-0.1210154194684551 
0.02011810326349934 
-1.1804902263277 
-0.04593431368278169 
-0.09362276895506719 
0.9554308637173613 
0.03898366722818648 
0.01420674147165796 
-0.09167053783208487 
0.3837609306820771 
0.08404878038864141 
0.007313263921315275 
-0.295643606810901 
0.002590493612825273 
-0.9048076254307802 
0.2305653013120465 
0.295269619661661 
0.02859847398986361 
0.3071755822603239 
-0.8126533088586185 
0.0432417127255026 
0.5896176942293478 
0.07626334879223438 
-1.075378633284102 
0.1020727101836112 
0.4216477894477414 
0.8361733240694763 
0.1160936571031581 
-0.6651107282029558 
0.02349446767021559 
0.005709062814249808 
-0.02453404919480243 
-0.0613015154647884 
0.05783532862625979 
0.0883626509208463 
0.04787121022557224 
-0.06224011084744276 
-0.008547437485945322 
-0.0368667079511909 
-0.06593624373020027 
-0.02621196183580031 
-0.04404045707413606 
-0.07379767167250165 
0.04379953983442318 
0.1262148922959528 
-0.02081752993586356 
0.03949652744490494 
-0.05508272558826473 
0.02635038663905011 
0.05334559762269511 
0.009393565479316893 
-0.03928153922615027 
-0.02107693406726892 
-0.05229499443123103 
0.02911678054822193 
0.01951042533862086 
-0.07937876309532883 
0.005924193796269171 
0.01577110875186978 
-0.01280366973005101 
0.01882323295135136 
0.01846778508052816 
-0.02826838741341463 
-0.02556317351576432 
-0.08194562954881922 
0.01778701075228623 
-0.0553461225367716 
0.05307959869209047 
-0.04060930280920611 
-0.09045687901537063 
0.09076940266357886 
-0.002859871385607558 
-0.01276644920830062 
0.1181490658332608 
-0.07386899385432849 
0.0524130906537256 
-0.01277808681594882 
0.0125734855107342 
0.04690921610229308 
0.0008878281897667507 
-0.07912639796284146 
0.09741617751555645 
0.1041539304790038 
0.03308349325407357 
-0.05504076884602537 
-0.01411120536215066 
-0.01732397299479041 
0.003844722902273278 
-0.02694666473525362 
-0.1452287639400124 
0.01409444887631381 
0.003615756149370708 
0.03259301618280022 
-0.06501180496147987 
0.007818799958656081 
-0.01704862656205409 
-0.02710418385464032 
0.0008041554628211171 
-0.04074469103792226 
-0.05236930973625526 
-0.02404046899131011 
0.1185811390373537 
-0.1003976487248287 
0.01957211638654692 
-0.07885185330000488 
-0.07224865864150881 
-0.05941207553200485 
-0.04791203090488637 
-0.0329979095365988 
-0.06179534181428533 
-0.04634268280937092 
-0.01989008911179788 
0.0982010886451108 
0.02711787010642846 
0.008214549892312666 
0.004294625873474502 
-0.0393323966021636 
0.0174318507480709 
0.0547707376506551 
0.2172507379286138 
0.009279002494450055 
0.0885777534704357 
0.02448285037823737 
-0.02757811240014044 
-0.3245599413368715 
0.01847288381868762 
0.05157452621211766 
-0.001970788772677489 
-0.02154394769393877 
0.03410406128121029 
-0.05293184769977762 
0.1242227986006731 
-0.02349015921296783 
0.01228781956454077 
-0.005631554811553953 
0.03033948123207945 
-0.04058768160386089 
0.006778866055833869 
-0.1333796729838701 
0.04987962238229553 
0.01315621617939998 
0.049497680234792 
-0.1630552147306301 
0.03401737720901938 
-0.03832963535965262 
-0.07194444447367643 
-0.04307299387403105 
-0.001579922707008563 
0.03810266975053784 
0.04826214762972 
0.02045219299477995 
0.1387021744273844 
0.07186363020685041 
-0.04108040792484138 
0.07513104253975449 
-0.03889623427051085 
0.0008796565234949199 
0.03603077044790919 
0.03563682493487382 
-0.002520498702792929 
0.02598214759634315 
0.01486925233442179 
-0.0157228537601782 
-0.03440608117186262 
-0.02910842081836632 
0.08320032712978695 
-0.4147533271586298 
0.06943231961873196 
-0.1032478172619332 
-0.5635748430726884 
-0.04556830823502491 
-0.2832137055003214 
0.05335749891269376 
-0.03470396734155755 
0.4993116331957415 
0.01641249856511667 
0.2143578777963807 
0.0631626209358868 
0.08028573767221979 
0.1953133865954784 
-0.4586974705530593 
0.04992862005550811 
0.02133059121606203 
0.09462536658480707 
-0.2100865347911096 
0.1044159639197228 
0.006875051709360877 
0.03980960670184022 
-0.1047272111898111 
-0.1393568562185515 
0.0460826556727865 
0.008502856020585141 
0.06302277794868635 
-0.04257473796925531 
0.02952649995167899 
0.1181734928866591 
-0.07132833056810153 
-0.1321102689794182 
0.01031448574037476 
-0.03921326969398048 
0.002606721170179127 
-0.01844920386996835 
0.04276525261522398 
-0.001591252409165488 
0.03689554470424043 
-0.01604565293854731 
0.02273339448070254 
-0.004256002108653602 
0.06281287064591797 
0.006442675059722872 
-0.004803559307983828 
0.01054446451081426 
0.04529665773496264 
0.04766049376561816 
-0.1558917423860209 
-0.0848067273446277 
-0.04361743445622645 
-0.002048798612725371 
-0.04050531569420345 
-0.006967225603558989 
-0.04125361089933626 
0.02821759795318525 
0.08486776008282873 
-0.04283127877064856 
-0.1102860595241091 
-0.01861583295048193 
-0.002042618679257158 
-0.08237589834577247 
-0.048978184127407 
0.04888145159450224 
-0.02760085743417085 
0.005592436097076253 
0.03721118420697007 
0.06756441610699646 
-0.07170004535821359 
0.05237627128994961 
-0.01838952801651831 
-0.09597735880094355 
0.01639074735322621 
-0.3205455988191345 
0.07778732964339528 
0.2541515695426279 
0.1075737386644591 
-0.1346717174582201 
0.002392016817839173 
0.07790773877048918 
0.06404771396558884 
0.03428462154486983 
-0.07717085020936154 
-0.1351780573765679 
-0.146048450108497 
0.05961563769171958 
0.1153578600883194 
0.037992477180725 
0.6059779355502923 
0.03152095143377064 
-0.6599122391642012 
0.1082712655208026 
-1.049497938168803 
0.6757085607415511 
-0.005036578937344039 
0.9360015782428263 
0.01948898534511132 
-0.1065088455356853 
-0.3677617858850013 
-0.03610503490791042 
0.5472772754990039 
0.03275187732641958 
-0.3291276834187796 
0.05777340484858308 
-0.06637565784704445 
0.08626048267294983 
-0.04282785236905102 
0.0149905053045037 
-0.06950173806756288 
-0.1104028656418093 
-0.01344473039548427 
-0.05246545115500424 
-0.1103841402030401 
0.09019668019469979 
0.007953314111279607 
-0.09472585324508633 
0.03740881033214829 
0.06029539458709059 
-0.05307366613785969 
-0.03933473844887969 
0.02649236971354557 
-0.05778359529448744 
-0.02647809288986556 
-0.002749967228435796 
-0.01866639111551046 
0.06422799390110584 
-0.01433143947333523 
0.05212197685374504 
-0.05230420960759024 
-0.08754856603743046 
0.04239115108898137 
0.04273026071789528 
0.002884563042221215 
0.01959269387729165 
-0.06283102331940013 
-0.01905102726585554 
0.0009340122281027888 
0.03382125553069426 
-0.01395593534711907 
0.03103909950835895 
0.009839907189135454 
0.05533338421546583 
-0.04759211070361037 
0.1159177913411541 
-0.00897785049579727 
-0.02018932314680146 
0.08115779337174076 
0.003113740627423813 
-0.001166627478163266 
0.002866910113859932 
0.02090438214834182 
0.05241039823637902 
-0.0244431786684795 
-0.0359929575776369 
-0.00063029151076284 
-0.02575283037061205 
-0.04768014286364594 
-0.02866831696844953 
0.09414283279595527 
0.00926709781089511 
-0.005838823711651185 
0.003891590452094717 
-0.03555714855179423 
