solver_type L2R_L2LOSS_RANKSVM
nr_class 2
nr_feature 1124
bias -1
w
0.09458262582984162 
0.1148768608708066 
-0.3038254320895643 
0.05725507165405508 
-0.1012281121109956 
0.3574875319012038 
0.1265139799160322 
0.001276428721382325 
0.2079956883773675 
0.2055163324571532 
0.149558365848426 
0.1622307545703323 
0.08718573206107674 
0.1092071702164447 
-0.1058638050176357 
0.00950139601564582 
0.2127558100938676 
0.2761564306311458 
0.1344822276922498 
0.1205846407068846 
0.00652769488688185 
-0.2554823787934294 
0.04532597266480386 
-0.0172253495146706 
0.1011599588200917 
0.2475633392726449 
0.1381877812985364 
-0.2789668466999028 
-0.1216572309623158 
0.1391947975035245 
0.0866878966815878 
0.1087648790293995 
-0.1634513852231633 
-0.09095202962177423 
0.09138246622805415 
-0.1664740552157379 
0.2629236205236165 
-0.1224363633935781 
-0.02321316471420327 
0.04223815062218668 
-0.2745161407006412 
0.1540788110652466 
0.09744114365287029 
-0.1022645142544282 
-0.08906376977479037 
0.02556920243761925 
0.1458871349512311 
-0.01800095413458951 
0.2568065052442782 
0.2270312981560949 
-0.1469997433519303 
0.03781437729047813 
0.1220347123360948 
0.03849479186224809 
-0.1543623884621923 
0.03572060081366481 
0.2736550398429273 
0.05710261359265378 
0.319636921778332 
-0.1962277570939367 
-0.1028093323876838 
-0.225916779750306 
0.134988428355937 
0.2835984255658232 
0.04137052150524735 
-0.3388644691455695 
-0.2325616202256481 
0.04227288026030069 
-0.1893270484739658 
-0.2903462747096364 
-0.1000656818705954 
0.002404838133328974 
0.1603261724765715 
0.1128807615694471 
0.06504110550635753 
-0.1634886769520844 
-0.04326119305684072 
-0.0004911908567155985 
-0.02987919979627212 
0.02590876029161565 
-0.2471151637070058 
-0.06447135427758956 
0.03023481067202619 
-0.1113411180659696 
-0.03508219606008819 
-0.01228326660741028 
-0.0136712837046911 
0.0638124174587885 
0.05219964677473586 
-0.1899967518751234 
0.03230532086267406 
-0.2630687311897879 
0.3389561528170604 
-0.1224420699987847 
-0.2309593065350728 
-0.3957365629503655 
0 
0 
0 
0 
0 
0 
0.3277141266988707 
0.2144620943227057 
0.02404983478653226 
0.09830665854071717 
0.4303871099975231 
0.3109286734313737 
-0.02331279510353151 
0 
0 
0 
0 
0 
0 
-0.01531722497026537 
0.2189647814399489 
0.06443079132555984 
0.3732429514056342 
0.2832555638544915 
0.3942493319681434 
0.4239039973626875 
0.248655501014277 
0 
0 
0 
0 
0 
0.3882547162514174 
-0.1233438943744319 
0.3352056901484766 
0.1334131111161126 
0.01961080829122738 
0.1457522467737293 
0.005326764944728751 
-0.06612944990759563 
0.5159908133295084 
0 
0.3234885557635391 
0 
0.02061465924298109 
0.4040241824171066 
-0.03942080785659792 
0.5002938367378816 
-0.02352973181730941 
0.03986723994301587 
0.007004852814480243 
0 
0.05651043713426941 
-0.002352048974538123 
0.1181661471861393 
0 
0 
0 
0.003000780179077605 
0 
0.1187328003554339 
0 
0 
-0.01315537688878941 
-0.02352973181730941 
0.03986723994301587 
0.007004852814480243 
0 
0.05651043713426941 
-0.002352048974538123 
0.1181661471861393 
0 
0 
0 
0.003000780179077605 
0 
0.1187328003554339 
0 
0 
-0.01315537688878941 
-0.02352973181730941 
0.03986723994301587 
0.007004852814480243 
0 
0.05651043713426941 
-0.002352048974538123 
0.1181661471861393 
0 
0 
0 
0.003000780179077605 
0 
0.1187328003554339 
0 
0 
-0.01315537688878941 
-0.02352973181730941 
0.03986723994301587 
0.007004852814480243 
0 
0.05651043713426941 
-0.002352048974538123 
0.1181661471861393 
0 
0 
0 
0.003000780179077605 
0 
0.1187328003554339 
0 
0 
-0.01315537688878941 
-0.02352973181730941 
0.03986723994301587 
0.007004852814480243 
0 
0.05651043713426941 
-0.002352048974538123 
0.1181661471861393 
0 
0 
0 
0.003000780179077605 
0 
0.1187328003554339 
0 
0 
-0.01315537688878941 
0.03914111824895257 
-0.0113523798900352 
0.120578673664516 
0.1593089603889935 
-0.1959533746588035 
-0.3497930082606149 
-0.1286806582258204 
-0.003019396054356901 
0.01220098239743198 
-0.01695074777313967 
-0.221892702987801 
0.03151976008586657 
0.03269139946150723 
-0.177384747388416 
-0.04410734951534346 
-0.2043506282489715 
0.2437853811987948 
-0.1332407527279227 
0.01657542041353143 
-0.3265569451660573 
-0.1899302430658093 
0.007386094993286472 
-0.2405152782252899 
0.1828136356971903 
0.3157341357319103 
0.1555203400204118 
-0.02770154534666468 
0.02018454669017101 
-0.09979611480926058 
0.09823713903418756 
-0.1836640171767852 
0.1337155017902895 
-0.1734600081130356 
0.009798054908323944 
0.1166183432601787 
-0.03596482716184268 
0.1323791753474277 
-0.03144006605598043 
-0.250672351627011 
-0.02055031629493063 
-0.1434315880327911 
-0.1728561005655716 
-0.04007856536966347 
0.1472172593189101 
-0.1855107635532537 
0.3804455996160009 
-0.1098433709569996 
0.1692113933161149 
0.103931005045861 
-0.05333635100387406 
0.2121671791166071 
-0.06278583081688489 
-0.150200860933178 
-0.2041825363857557 
0.004706533864563036 
-0.08329972448455247 
0.1480645602913618 
-0.1111631493083953 
-0.3217503641419107 
0.2995420014259482 
-0.4113030364456148 
0.06853838530640363 
0.1129222054969586 
-0.4092252210593259 
0.05331625875786768 
0.5167691491405388 
0.4469505456723567 
-0.003839702364371768 
0.2412783317257557 
-0.06176464611619585 
-0.327453023367199 
0.373417391509175 
-0.1169160030586276 
-0.38436008457413 
0.2805925303231042 
-0.1246238170471452 
-0.3408771415443131 
0.2609890870173259 
-0.1403449780591323 
0.1515761747999745 
-0.0448245534576775 
0.1864875641202448 
0.1634237785850224 
-0.2068752341572438 
-0.04739034291088224 
-0.1265856410228003 
-0.2126038660427968 
-0.0442874974836535 
-0.07364120666761406 
0.03489285485133736 
0 
-0.003227518619312204 
-0.4079414228837327 
-0.06130928018920517 
0.05733303233885345 
0 
-0.03280859949310962 
-0.1211566894716851 
-0.5252636171293319 
0.223847895283492 
0.03597409383283122 
0.194935486538239 
-0.1556538287122859 
0.1828986014235749 
0.2202864455506484 
0.005976346596635197 
0.1216547354845976 
-0.2995633472171109 
0.01865014631604132 
-0.3527975604646024 
0.131328258417828 
-0.089248476334789 
0.2502581431296821 
0.1123371004267223 
0.07568893943501114 
0.1334337743899139 
-0.01861751957250625 
0.08584274518242852 
-0.2778054836599853 
-0.2036238467078012 
0.1227895972933338 
0.2901670910615485 
0.2472450682212404 
-0.1136259521757422 
0.2019059101387532 
0.1455082446431193 
-0.241450864328763 
0.01907650847421688 
-0.07742355296007256 
-0.2231613087356965 
0.4206373926661551 
-0.09259630339061338 
-0.1486742554436416 
0.1329342066615579 
-0.2214325437883707 
-0.1099256646021593 
0.09760368004116016 
-0.2047490744685478 
-0.03601624624804389 
0.1386325223304705 
-0.03841731910038621 
-0.1745988960079798 
0.2162684256503563 
-0.238376251756194 
-0.0671479975893008 
0.04481949927887424 
-0.2544114368007184 
0.0986785673944304 
-0.1002936702721473 
0.08263716490531739 
-0.3776873052490467 
-0.3557806221403598 
0.2661051586452597 
-0.2934466611501243 
-0.0209438688664874 
0.07675748643324436 
-0.05073371209939755 
-0.1109039912023743 
0.04677530192366799 
-0.1178573982217915 
0.5459288967999745 
-0.112892736109262 
0.04005603889298874 
-0.2548482244534792 
-0.02981570913539854 
0.189369757909012 
0.09026345061203514 
-0.0261305957844927 
0.2049080372238021 
-0.2042756375021816 
-0.09793454412354805 
0.05438710881261937 
-0.02052207806232144 
0.07862317101736327 
-0.2133643169572188 
0.2215840734263894 
0.2375949235815412 
0.2553869999843305 
0.1480404340201778 
-0.09688486053757815 
-0.1348741612254037 
-0.2795640956809562 
0.1323608891506831 
-0.5631414067499293 
-0.1736268230275096 
0.2440773268227558 
0.3083107597595269 
0.2022195849328417 
0.295956636920803 
-0.189969869027249 
-0.1671895872923277 
0.1182771297346633 
0.07386251073869118 
0.09003396181868485 
0.1034986658540109 
-0.04300798642401787 
-0.06349016376389195 
-0.09190272658152419 
0.02665755425017518 
-0.1062867559226288 
-0.1154081431690433 
0.49148480628338 
0.3182710909602999 
-0.3175096456120264 
-0.1860718737191003 
0.02653058578731489 
-0.1041157028848313 
0.1972262005758201 
-0.3029200475345207 
-0.09365066655638571 
0.08238107969914056 
0.1651424322277007 
0.1099428202050574 
-0.3105609447204515 
-0.1432691117509264 
0.05091072991635978 
0.2386363898296717 
-0.0488106487984963 
-0.3550957160623884 
-0.02653600749298128 
0.3001540923381275 
0.04771484376421938 
-0.1613494547568058 
0.02643777447671554 
0.07990032120447922 
0.2793351498524396 
0.3104008874954283 
0.09348231509918704 
0.1955565252233711 
-0.04820570648264624 
-0.2768140350236938 
0.08405773846479782 
0.007192121372242834 
0.07657194120338738 
-0.07221067596781029 
-0.2385607449770375 
-0.1151878652003943 
-0.03283076662600428 
0.1446137749919206 
-0.1953573089267358 
0.07414453159625467 
-0.06324982324635887 
0.2438071859578744 
-0.08088278127558078 
0.2342290312188511 
-0.05982345047697147 
-0.339340574468211 
0.4394837559647559 
0.008122649150048039 
-0.0893166554444742 
-0.07524571320538108 
0.3519622272387339 
-0.5174958659573667 
0.260265763113791 
0.4178370493381673 
-0.3762502736858271 
0.08676409879704293 
0.2227113116886768 
0.008581629603070601 
-0.2095581536302223 
0.2553734918491605 
0.04757945644234474 
0.03927466928860702 
-0.1039582180228009 
-0.2453922129751855 
-0.03625267620033598 
-0.1801446607194046 
0.01135331368820975 
0.4613207435503868 
-0.08415385508669614 
-0.1297151654356352 
0.3930683839035558 
0.09464509419472775 
0.2599104090420912 
-0.08581474283198737 
0.2621685516464727 
-0.01419839510602671 
0.01516889604403243 
-0.2818920351763165 
0.01608289171345223 
0.3570221934227549 
-0.03812062099005123 
-0.005621831412919399 
0.04219569323092148 
-0.1337692884968605 
0.4553838249652298 
0.008406281522327344 
0.2365558580422719 
-0.2980015172993011 
0.09164397056232687 
-0.03282374743300285 
0.05744821420811883 
0.07859773966492707 
0.05650088821615418 
-0.004719684530495736 
-0.06454009283812436 
-0.01213315991608038 
-0.1002369578582619 
-0.1877857710817844 
-0.2042531776780991 
0.4296662899545409 
0.04100079995583834 
-0.2570138348479752 
-0.2222056247397457 
-0.1007454566646621 
0.1603963265462518 
-0.02880330217425006 
-0.1048107163367426 
0.2893983500011203 
-0.1871764511849383 
0.03734355546438677 
-0.1012361675780484 
0.06299222804770077 
-0.1923044280425213 
-0.2603394398470346 
0.02740061540220254 
-0.02191832255738307 
0.1521980738586334 
0.009583257302976709 
0.03793544287937939 
0.2230568500375652 
0.06528391466949549 
-0.0412773832729337 
-0.169535610810866 
0.1520685176992021 
0.05968002454784771 
-0.1711880570544678 
0.09404668300621366 
0.1768977226123576 
0.277424369189214 
0.4397386471469305 
-0.1317028678466042 
-0.3824540409478613 
-0.02803410621061046 
-0.1948923402273617 
-0.1985571020539942 
-0.03149011053952005 
0.09317586825017121 
0.01188484795395642 
-0.1165994561843526 
-0.08601706092536277 
-0.0767178947265432 
0.006175515049640865 
-0.001357213539943436 
-0.01538389429649864 
0.2210205923760144 
-0.1693151891109494 
-0.1509531751797013 
0.1291781900678535 
-0.01472078002291877 
0.1105121074416309 
0.124281674044078 
0.0610007748895826 
0.156976606752411 
-0.04852230809116209 
-0.02566979001149465 
-0.05695992287402703 
-0.07760085096817347 
0.2063295660583407 
-0.09493873717393314 
0.1627501367498397 
-0.01370186438356252 
0.3333049811343758 
-0.07546631623638823 
-0.2783798390398429 
0.06013467357359967 
-0.2762291402007313 
0.01330381530680182 
0.04340243715590535 
0.07463880930653447 
-0.3389512773471253 
0.07776861041986734 
-0.1341501161864037 
0.08458620998101683 
0.2103187958344046 
0.313674820001214 
0.09344854870531934 
0.1515866485037284 
0.2309156050388964 
0.0618168226368034 
0.06457022730056544 
-0.3465067256938162 
0.1475553097880736 
-0.07896160949225817 
-0.2379619030241162 
-0.07128569812568834 
-0.01081704918566682 
-0.2131349601299441 
-0.06542488787074584 
0.07071198806404661 
-0.22393290558926 
0.03353880612736736 
-0.07124621889875736 
-0.07428293992869278 
-0.05595700847826905 
0.2975946639747857 
-0.3157538940976975 
0.0775936190001414 
0.0943604653397384 
-0.1473176328422537 
-0.0463880265626722 
0.09151065032552581 
0.2896838451250982 
0.06754119895125536 
0.2065435227383535 
-0.1068006377318304 
-0.07741000356804964 
0.1686700719513088 
0.2891886673929862 
-0.02505952767789594 
-0.1205442841663374 
0.1102560842613997 
-0.2150872190275647 
0.03009641289886652 
0.04485546161744603 
-0.1505823873557435 
0.1687645326982308 
0.1300612415616437 
0.02499986767119766 
-0.2569530959094639 
-0.0413134738917437 
-0.04878559039881136 
-0.04113858834187234 
-0.2002867274510421 
0.156608788918869 
-0.03386371095116348 
-0.04028917571480317 
-0.1281184473572877 
-0.07578782484916821 
-0.1881306029064891 
0.1827595279803264 
-0.2918322945524883 
-0.2449318257795186 
0.2120460081273518 
-0.2241051231868222 
0.1239869046666447 
0.03686174059773432 
0.1514143121188333 
0.04478059950096689 
0.0197404390457737 
0.5022466214966923 
-0.1126208779513879 
0.1550976364122828 
-0.1532646115176501 
-0.3106055862298568 
-0.05033326317772524 
-0.1667355762330109 
-0.08243133457504701 
0.160757592036502 
-0.006554438662568618 
-0.03586751350753227 
0.07980871130793961 
0.2709490018307814 
-0.1356069269498132 
0.138298001614057 
0.09695176617324246 
-0.00137895446414697 
0.01683191221307942 
0.002527573031977972 
0.1930247689571264 
0.1428439729300547 
-0.1315483838429203 
-0.115555426718626 
0.1196919086227522 
-0.09684926314248053 
0.2463383804992779 
-0.03543275138253803 
0.2822501493306496 
0.2167561007335501 
0.2007858460363812 
0.1022395795041442 
-0.08589192619249876 
0.3297324264572867 
0.1785674236729944 
-0.1960057081126936 
-0.3092950811276817 
0.2535529749037524 
-0.05825963073711349 
-0.04989690075760146 
-0.1428266554640606 
-0.01311087195002581 
-0.04098003958813171 
-0.1864043601141215 
0.06869122775761771 
-0.1082912941847075 
0.2027655116103922 
0.03946365178800814 
-0.200405783229702 
0.2951086907439188 
0.07778526491262525 
-0.1183969197777872 
-0.08264962982749094 
0.03605617478802112 
0.08649450638365915 
-0.07152904013031021 
0.09955604841120905 
0.2564050686115321 
-0.1501397324410186 
-0.0003952510476360354 
0.04624696790545641 
-0.03247490410289063 
0.1284593503174733 
0.05385461941079863 
-0.4176202946543092 
0.1222988483933245 
0.08224683165836515 
0.05052581432427703 
-0.2943545387117254 
0.3945441599693541 
-0.2025140421791501 
-0.000846240434890087 
-0.04196671674968575 
-0.2584836165844296 
-0.1332318332944057 
-0.01079680172159482 
0.105677114627348 
-0.1805360939267454 
0.2247065453144284 
-0.07919738133106938 
0.2164037898346856 
-0.1963438884635401 
-0.1550720687827733 
0.1200009773844693 
0.1254875181817199 
0.0006018685911029337 
-0.1506732680731407 
-0.0332787035766303 
-0.04985267138020222 
0.0502994280745603 
-0.08648648507663788 
0.05148280509146627 
0.08284009560973647 
0.1311268314564067 
0.03087633671923627 
-0.1044686661393682 
0.1617969703391441 
0.003848847472350639 
0.03820984893218109 
0.06941644687563862 
-0.1132759179395034 
0.01147014043816537 
0.1243455573116872 
-0.1248105376391621 
-0.281170541094408 
-0.02470263901713965 
0.01147014043816537 
0.2650749332550244 
0.4422173753258212 
-0.04567295975031494 
0.1559075746263356 
0.1049026455779388 
-0.06985703136474616 
0.0734910956571244 
-0.1271846242446539 
0.1301895981363536 
-0.1613769376929857 
-0.2093793594170634 
-0.1290390122101264 
0.07806323177978736 
0.5253243109646492 
0.03429579851700387 
0.1565740276522071 
-0.200387234269765 
0.04370905907839211 
-0.1673905311021331 
0.3634762465733863 
-0.2567824539419078 
0.08539288810603077 
0.009105559729463982 
-0.2103101480085996 
0.1950352484325038 
0.1071539076634726 
-0.04600339788510761 
-0.3072429217072746 
-0.1540112412588882 
0.1007856514277537 
0.06048656880546925 
0.04100352642468768 
-0.1461489721865274 
0.02442997703319921 
-0.01072432014602365 
0.1248563121157486 
0.1240181232133254 
-0.2354114716641761 
0.152973280149949 
-0.03818947998392115 
0.1265044505851414 
0.1117022058838583 
0.09611680294515972 
0.1326254517372009 
0.08903626407739704 
-0.1979985406844242 
0.1890365326598477 
-0.1188073925965209 
0.08287987511221358 
0.05545761761753631 
-0.3390351750898724 
0.04165227461366117 
-0.2937055118524812 
0.1020753667328064 
0.03674295019636177 
0.3526736683856427 
-0.002553681440070208 
0.1615443399953207 
0.07413980397252491 
-0.3947725051840565 
0.08307356066164486 
-0.1755222369505091 
0.3478986102073439 
0.07918285583276731 
0.2131534672801064 
-0.1982278804601678 
-0.0596191311481054 
0.02423739347532037 
0.1853760441214727 
0.2017052384148255 
-0.2563890997468357 
-0.2756817979135362 
-0.09242442063203696 
0.1826478131983763 
0.1535731785567616 
-0.1515521172175907 
-0.2406599680704105 
0.01599224070483844 
-0.1810149207391709 
0.215804555657972 
0.09789035581721033 
-0.2515270728040426 
0.03218122761905905 
-0.03221841696072908 
-0.3412599750919858 
-0.1131419572310393 
0.06799718092677502 
0.0839742995889738 
-0.1760367225008421 
-0.1950907732098955 
-0.1045008060779802 
0.03063800040046807 
-0.2655688085800534 
-0.03732973698202712 
0.2455810064332852 
-0.02340056350410882 
0.2511095189549843 
-0.1141524006335492 
-0.06472135705892133 
0.1437515368962787 
0.3349989333325645 
-0.4921769694878476 
-0.1804159941183564 
-0.1120518529378135 
-0.2189942408718366 
-0.04461855485510714 
0.200466733888629 
-0.1175045072018949 
0.4369864438720219 
0.0518064984857467 
0.2923820508080248 
0.151194025821207 
-0.0488484801396273 
0.09412149915267977 
-0.03055359038671021 
-0.1930394147163081 
-0.08957408953602188 
0.05597885563164291 
0.07398005477586744 
0.1616936381668297 
-0.01472253130592775 
-0.07128838856653526 
0.2979499097227973 
-0.1600212112204233 
-0.02346224951916474 
-0.01050813704888668 
-0.07482953488768125 
0.2113608918368023 
0.1245184703767409 
0.2024921423151465 
-0.0916551816423731 
-0.2856555824065797 
-0.1174142029226303 
-0.06035999850406214 
-0.01090175263255293 
0.08811855869861922 
-0.02684947703696943 
-0.3091625669771249 
0.185740740118755 
0.09150534119724545 
-0.1664707330301581 
-0.07043337512954426 
0.1498076994645449 
0.2010624742674861 
0.2390256278637133 
-0.3415200677910814 
0.2364458137298098 
0.1734098984671956 
-0.03940794328251453 
-0.09576405622340273 
-0.32474953847278 
-0.001181025059664804 
-0.1451158770767672 
0.3649845126299435 
-0.1176023864258768 
-0.1518920950187798 
0.2821996053241268 
-0.07825987243572077 
-0.3572443763577821 
0.06455278514580515 
-0.02692780611695584 
0.1435712605231757 
-0.02331622250613561 
-0.2216448740831657 
0.09057375553328262 
-0.09909598482897358 
0.06602019622536098 
0.3490671159987041 
0.2223844573043736 
0.1311275115904915 
-0.3052379181740016 
-0.2663932772498761 
-0.4289508156084068 
-0.01006115665898543 
0.03785732960667553 
0.1212907211643254 
-0.3160691227276203 
0.004107380499758564 
-0.0428682404892198 
-0.2255519698501671 
-0.3319278008919937 
-0.1750673117024207 
0.1066409887130709 
0.2533522850219873 
0.03794200976942133 
0.05366602577500952 
-0.06486441142779374 
-0.2085472512363899 
-0.2044115145211679 
-0.1467083648092169 
-0.06058174154932729 
0.1071826731155266 
0.02988408410747771 
-0.1041911333701236 
0.1053307480810552 
-0.04083726835725611 
-0.1301654448555648 
0.08600224823565025 
-0.01644634684244137 
-0.0275070587331733 
0.07300970269009492 
0.3089199938822886 
0.02139435700011909 
0.1401144869550169 
-0.01750362195648753 
-0.007455981950754105 
-0.05598279424688114 
0.1116222204344929 
0.128044140014095 
0.005366265039569677 
0.05464336934299057 
0.1112156951403415 
0.08583043121645917 
0.1481335613760766 
0.1019973805925409 
-0.0318152868716272 
0.09732368236534049 
-0.1479748977001736 
-0.1960618788004317 
0.1068726584019183 
0.0641211604975509 
-0.01773010405156197 
0.1159557026991968 
-0.1287004126983858 
-0.2866484914922255 
-0.1895540789810269 
-0.02699359718601371 
-0.3061789867651273 
0.1966274942980644 
-0.300918013086177 
0.1367149903072344 
0.1207801289180669 
0.1051098633015712 
-0.1008132991612635 
0.269460109606239 
0.4883568741173623 
-0.1315261791955156 
-0.1014920975910204 
-0.01485286007196494 
0.1284935162525061 
0.1361846385201342 
0.0407439230218578 
-0.1528865571702748 
0.01721602691261009 
-0.01597306948819837 
-0.01696026828938062 
-0.2310558315415426 
-0.06591642541643106 
0.3006021501159238 
-0.2862117928125002 
-0.140928389859612 
0.2966643545568659 
-0.01392943302263835 
-0.05293598114401881 
0.1534367181761686 
0.07565853745067877 
-0.002065352844527448 
-0.1944507781209421 
0.331972347768477 
0.06126981161195502 
-0.1291786985164802 
-0.1878466639696801 
0.1486931846694443 
0.1826614246698726 
-0.008213621015118203 
0.1946649758314144 
0.192683595930358 
-0.4352097434291693 
-0.100728188532149 
0.3044854856014291 
-0.0212657617836592 
-0.1115499686725564 
-0.2178166421797663 
0.03140485605838547 
-0.1272186470241628 
-0.1741184943543478 
0.2634663583830892 
0.1676889301256398 
0.1280522042338124 
-0.2422397853471628 
-0.01870148489829732 
0.1782081075732349 
-0.06975737635015986 
0.1758595431302363 
0.2155294573593829 
-0.03796418949843979 
-0.1556662438877181 
0.0557130235303 
0.09202982146730117 
-0.09781918913723628 
0.1471702736098204 
-0.1194820845330491 
-0.0588146412257641 
-0.08176819027243597 
0.002438408997021845 
0.1133699730447181 
-0.1994892193094576 
0.2515413362464474 
0.02536489691670843 
-0.1524629605569275 
-0.3903256421476136 
0.02033497866511044 
-0.119080420853159 
0.07547073657294767 
-0.1945166370454596 
0.05522100683345534 
0.1221309116610237 
0.2561876075764685 
-0.04483428124969894 
-0.156870286247803 
-0.03533468906429789 
0.09165208404578427 
0.03220173501639805 
0.01545802941411581 
0.1944127307435978 
0.04022299326733043 
-0.05377063297143175 
-0.1637933028818459 
-0.07586906051130886 
0.03705447235919045 
0.1862085866926413 
-0.1450282527612832 
-0.2733173912107533 
0.2299652983638648 
-0.1322096677595434 
-0.07804155989832683 
0.1247626728764303 
-0.1381340334110473 
-0.1163543031859308 
0.0642413567239144 
-0.03269151644784982 
0.1107354776651843 
0.1517344559444458 
0.01340659375013793 
0.06247773935257531 
0.163032390868414 
0.03797983969283098 
0.3131144353864733 
0.3580310560304688 
0.1058128382212016 
0.01065038914185147 
0.3089423134829078 
-0.06573766113343182 
0.01783026411726566 
-0.005707627392699918 
-0.01692693783728804 
0.1946629319456289 
-0.175484411519756 
-0.08435362319852194 
0.2195552038369468 
0.05944059917153301 
-0.1291853951089977 
0.172236949361631 
-0.08505284702028505 
