solver_type L2R_L2LOSS_RANKSVM
nr_class 2
nr_feature 1124
bias -1
w
-0.04510141432038557 
0.05374615704425875 
0.1858720564027044 
-0.2907964322752449 
-0.1891307092382198 
0.355770076003589 
0.1116461969233995 
0.1468359203681761 
-0.02323215685746649 
-0.009636281720306797 
0.507567756806704 
-0.2158818754499173 
0.3428107374035569 
-0.2576693293015887 
-0.05666014246416773 
-0.3058347962071218 
0.2847924224752415 
0.03027832976867505 
-0.06997550666367326 
-0.08746091222620854 
0.3951970030565227 
0.1092796887474959 
0.05495662459987311 
0.2918051423879817 
-0.1104490473928517 
-0.08391742900353717 
0.01053315542376255 
-0.02818105669025061 
0.1331708401797851 
-0.01976533152865052 
0.08641472220224677 
0.1189852578628921 
0.05854899545723026 
0.1546598727381621 
-0.286525041941766 
0.01591567937439478 
-0.331310047592398 
0.1556897962635515 
0.2169157541736453 
-0.3516927373485929 
0.1618668130231351 
0.2606204420489032 
-0.3035721093992072 
0.01529316351780726 
-0.2310837281627477 
0.04644689182466077 
0.01298471429030951 
-0.007008118933458852 
0.07373111587396589 
-0.1050063946075417 
-0.4055883529042483 
0.3184028872358926 
0.1484304553352765 
-0.02155067245496577 
-0.1116024958797734 
-0.05092387764838013 
-0.08820172743570187 
0.5445438101332848 
0.1074156129757858 
0.2736578743246772 
-0.3162879293017165 
0.1409462168541779 
-0.07288226999277121 
0.3895403261519035 
-0.1071552372381546 
-0.3684966734703593 
-0.1637554689880844 
-0.04920304654706456 
-0.406184850337189 
0.1753431101944006 
-0.2481479312383401 
0.03716649013639798 
0.003209575995448239 
0.2063330220114539 
0.1295767948664365 
-0.3005178066320792 
0.1373121348736819 
0.08559359273263301 
0.2497580131239239 
0.338305833040372 
-0.07120804076899263 
0.3668773615996941 
0.05576230623353044 
0.3480830558768586 
-0.06794670191335694 
-0.3257441592487662 
-0.353891007360943 
-0.08365172661934851 
-0.2216571755847357 
-0.01794216801721471 
-0.370891520082475 
0.2617665417235132 
-0.2194448776283674 
0.1680115218735922 
0.09616755926313422 
-0.01807901208828848 
0 
0 
0 
0 
0 
0.0003374590363328681 
0.2570133267122173 
0.1635913545564286 
0.06480642432387626 
0.175330185490625 
0.8652108229414385 
0.2812570478744558 
0.03062794705362425 
0 
0 
0 
0 
0 
0 
-0.0151247787613827 
0.4927235366013092 
0.3648365395648591 
0.3226650323734818 
0.5193486754414964 
0.2453803001178298 
-0.04523173713190875 
0.261109001299051 
-0.1448335190943276 
0 
0 
0 
0 
-0.1548947175594129 
0.5314269030139709 
0.220384448204633 
0.3444906927278789 
0.1658830776243517 
0.3675896483771458 
0.3628244916779624 
0.1166130836082188 
0.4793557480247508 
0 
-0.04030862665486842 
0 
0.2989837332504805 
0.2588347253695909 
0.2204821036443992 
0.321037386951877 
-8.853722746651857e-013 
0.0032659548236012 
0.04439780553789285 
0 
0 
0.04081544570843885 
0.1378549382682098 
0 
0 
0 
-0.002164909278785439 
0 
-0.04830075958404409 
0 
0 
-0.007577363530549447 
-8.853722746651857e-013 
0.0032659548236012 
0.04439780553789285 
0 
0 
0.04081544570843885 
0.1378549382682098 
0 
0 
0 
-0.002164909278785439 
0 
-0.04830075958404409 
0 
0 
-0.007577363530549447 
-8.853722746651857e-013 
0.0032659548236012 
0.04439780553789285 
0 
0 
0.04081544570843885 
0.1378549382682098 
0 
0 
0 
-0.002164909278785439 
0 
-0.04830075958404409 
0 
0 
-0.007577363530549447 
-8.853722746651857e-013 
0.0032659548236012 
0.04439780553789285 
0 
0 
0.04081544570843885 
0.1378549382682098 
0 
0 
0 
-0.002164909278785439 
0 
-0.04830075958404409 
0 
0 
-0.007577363530549447 
-8.853722746651857e-013 
0.0032659548236012 
0.04439780553789285 
0 
0 
0.04081544570843885 
0.1378549382682098 
0 
0 
0 
-0.002164909278785439 
0 
-0.04830075958404409 
0 
0 
-0.007577363530549447 
-0.3056801168077704 
0.1363476925887019 
-0.01462583399157025 
0.01712290037399793 
-0.09705457176998482 
0.07426388115877686 
-0.0252157351271378 
-0.230605791967596 
0.071499988203656 
0.07900897793725206 
0.1642982286834722 
0.01578636873056245 
-0.1457892596943952 
-0.1087435292853503 
-0.2970172245594634 
0.1668629910370764 
-0.2896186583010973 
-0.2258029496910444 
0.1541682974844933 
-0.02280917449491273 
0.4114146830475494 
0.3520912820498257 
-0.2670940253109614 
-0.198991604186508 
0.02382430415371353 
0.1631697229796418 
0.02353740483767434 
-0.2084078837461741 
-0.04399576562846017 
-0.02933700414533615 
-0.09943304029238287 
-0.07097354035796855 
-0.3677276301571676 
0.07965217867326378 
0.2698351518316537 
0.3359968656866744 
0.3261292787856432 
0.2356972889522966 
-0.02114588632090145 
-0.0189159598218402 
-0.2023709883468374 
0.140966464945018 
0.05607494680840388 
0.04977018131541018 
0.1293537292557285 
0.03860211672871595 
0.116207363605531 
0.1255420224146202 
0.2618486557003694 
0.4409081846367711 
-0.3823300296454892 
-0.05436446285735565 
0.1022546365863683 
0.1786968846222172 
-0.4548690096131063 
0.3702722690673276 
0.2443542154705788 
-0.1204375272689068 
-0.04614120136840243 
0.2707920306878849 
0.1728453661346157 
-0.1598769792760973 
-0.09790457991185778 
-0.05123104305900347 
0.06015112180282541 
-0.09020352508363656 
0.1359564005756861 
0.2668659613326601 
-0.3990037778683796 
-0.1295209980378967 
0.07257523412019783 
-0.1392917949502063 
-0.1163733978409922 
0.2185443906267012 
0.08901145919501753 
-0.1110458161126722 
0.06895349446401006 
-0.04922458037587723 
0.04138238443668146 
0.1833718801421 
-0.03923596329552795 
-0.1414587948560624 
0.07803515454929429 
0.1151741439510452 
0.2510869690182378 
0.2343540698125987 
-0.1324350099911174 
0.173220003306349 
0.1080344222722871 
0.1112104013201719 
0 
0.0946210001029546 
-0.4107691184844959 
-0.01580493301861396 
0.2577218611878261 
0 
0.4495495630119968 
0.04718904369030179 
-0.1375479198535634 
-0.1925162244894211 
0.3995730989914382 
0.1397622693487428 
-0.187132180599996 
-0.1193539442275881 
-0.1269605373441701 
-0.1105303647657405 
-0.2282478793314698 
0.2719491913509244 
-0.0200273051124792 
-0.2121813751442132 
0.04732655681887901 
0.02707298228235321 
0.1413839419309697 
0.1964303544492257 
0.3339646013734835 
0.1475703236589743 
0.3107198019971181 
0.01895561264645564 
-0.02361274849602164 
-0.180067089245741 
-0.01556423248756847 
-0.3519584163637439 
0.1824793037134787 
-0.1615354329480069 
0.02836731139566131 
0.2197560092286094 
-0.2157970393303039 
-0.1256650413106289 
0.459684231940316 
-0.3572753235831648 
0.2679253315428581 
-0.1742525624082972 
-0.2155452946471171 
-0.3012758264035176 
-0.3919886342526027 
0.01771334124234358 
-0.2402521354786909 
0.2227375396404428 
0.3602753741360357 
0.1394542744599882 
0.1765619519629846 
-0.4227471311362053 
-0.1333457524173997 
-0.3466369138720025 
-0.09013980757738214 
-0.2867112436191574 
-0.03204876105183183 
-0.05887125630493754 
-0.06582262648659312 
-0.009147912069726162 
-0.5165616632939005 
-0.2187394609087323 
0.4503880506370834 
-0.1037964462697095 
-0.1089813590356352 
0.1466430788688271 
0.4292774706199019 
-0.2920427662851591 
-0.09170243870630469 
0.08028531817802845 
-0.1128493856225824 
0.4068299507405432 
0.2131284042895364 
-0.1046892078716361 
-0.1999877754183928 
-0.3235744034900472 
0.02302848353708808 
0.04969598686941985 
-0.4098025092330558 
0.08382527260983562 
0.1243440197744766 
-0.4303280025662766 
0.2687451043183055 
0.19209614756501 
0.1112343640964764 
0.240747397237273 
0.3738873943034956 
-0.05315973841245685 
-0.1172523274785538 
-0.1848947146777452 
-0.1015725483659624 
0.1417232010833361 
-0.2927519242951995 
-0.03219290654211713 
-0.0317712104881839 
-0.2705939454534733 
0.09625672630429269 
-0.01584490997425033 
-0.01211148069785052 
0.204359793351019 
0.3820053573060332 
0.002348240290689854 
-0.5193708976472229 
0.199781836311023 
-0.02425669552079025 
0.5198524562465569 
0.2176490248643645 
-0.11464372981944 
-0.02978375967287145 
-0.03451585514021686 
0.0321936111184042 
0.02697444972808636 
0.2557176890519408 
-0.2304320900102527 
0.1095636587708147 
0.219555636132315 
-0.3384341587064544 
-0.1194235399571355 
0.02330759714333978 
0.01287479430933545 
0.1582659404346498 
0.1831080571247843 
0.1004518336527643 
0.1913244555315699 
-0.074314241451296 
0.1275935566132663 
0.03307822940747353 
0.1889287690315642 
0.372459931265478 
-0.0130215953716989 
0.004368172529117032 
-0.1710123349323448 
-0.2483311212255398 
-0.1685744498715746 
-0.1185644429660251 
-0.1634441566715154 
-0.02780690030855643 
0.04000569974305875 
-0.1371064750454018 
0.06961631343436497 
0.2085185542386757 
-0.04455607068049448 
0.04251316634351033 
-0.1705800923574619 
-0.06944742175639596 
0.2695641225778901 
-0.1988413477109206 
0.1406251424717095 
-0.02142586018211194 
0.03549145998169018 
0.5848427599511191 
0.1880616959470022 
-0.1900840166335928 
-0.2710684283795146 
-0.4459794346853034 
-0.04772502085953594 
0.004077753952165884 
0.04087035575467743 
-0.04840668525561111 
-0.3281038074257561 
-0.05698496264379431 
-0.1192017841030974 
-0.05254536790360114 
0.1129196065066071 
0.2221352986790041 
-0.1242016016204655 
-0.1897713933835872 
-0.2260994004420822 
0.1482306722410354 
0.02672282826134078 
0.2722050991917053 
-0.02961962580299721 
0.1253898594510509 
0.1835910020821092 
0.01238509532103311 
-0.594836760533133 
0.2467144502975732 
-0.04453465499485938 
-0.5773043641704231 
-0.2201385613627699 
0.2051760722771377 
-0.05309188063700902 
0.2304237311720685 
0.03943696084582002 
-0.03813506904976394 
0.2007478940335951 
-0.3896382364847544 
0.02744514240791384 
0.08071124177845754 
0.06028427269564027 
-0.2877759210014483 
0.001541238787018757 
0.1880451672320523 
0.3253455148777296 
-0.2384613908743959 
0.1514057955025466 
-0.1005542805047573 
0.02353166546348863 
0.1903067673078423 
-0.09000275566975728 
0.2904396708854945 
-0.1954172368282873 
0.364853158426214 
-0.06639883787113303 
-0.1710332425156523 
-0.392806061883112 
0.02251364347132399 
0.28776458950453 
-0.04647957680065686 
0.02401879501253794 
0.3036842681181421 
-0.07042431342035828 
0.2580892588617701 
-0.1489128705570961 
0.1353975133144315 
-0.09215730766277 
-0.02186897485848661 
-0.09913138724172624 
0.2746515710043331 
-0.4902241656099214 
-0.009411395699502735 
0.1625612665382334 
-0.05845181699695309 
-0.2308726326360762 
-0.2340296748857083 
-0.2036229202809438 
0.1744376929205289 
-0.0001883717406538617 
-0.06874560605858054 
0.1441088438766209 
0.2261316028901607 
-0.0638594536868511 
0.1135969846231034 
-0.2729821430429015 
0.3616100455832479 
-0.3273781788390541 
0.3396939460995574 
-0.2817393223812538 
-0.389531367010142 
-0.3187623240958998 
0.2028444638284085 
0.01206895360880782 
-0.1223540443364655 
-0.1299288308102922 
-0.03086264422824364 
0.09814043611630872 
0.1363432162141912 
0.06802345340088117 
0.1565553231032886 
-0.03515320965689689 
0.005138814191279892 
-0.2555115348630155 
0.06810325838972807 
-0.1729442226367929 
0.09880506818023128 
0.1030635288314851 
0.213972619091739 
-0.197444732274258 
0.06710105652941356 
0.1546034984004457 
0.3069116906939957 
0.1965945103307632 
-0.5331645332576485 
0.1883796908773469 
0.2118064070639751 
-0.1220010870852906 
-0.03595704914683155 
0.06089123403116875 
0.08342445871648405 
0.1070133688872523 
0.3388335628654798 
-0.05906567733540673 
-0.0405556567417413 
-0.0797871180855895 
0.07705837488012526 
-0.03167867531697199 
-0.2102172871580831 
0.1510322099018972 
-0.1545273997362819 
0.2442540356501444 
-0.02683751984669195 
-0.1870522764535479 
-0.3150545327118637 
-0.2212525947532566 
0.2248937208530958 
-0.1627760039322265 
-0.1245340881737199 
-0.1108346388992202 
0.04587057515853962 
-0.06898786716982634 
-0.0200080982511576 
0.2794401132284478 
-0.04720979993205877 
-0.07604625446604192 
0.1490034044481694 
-0.04994084275792676 
0.01704792960793193 
-0.215797540225774 
0.06538034715061053 
0.111046209839291 
0.08560216105494313 
-0.2363940775686575 
0.1037085472833564 
0.1282423810061281 
0.04341658653842662 
0.3058776397288255 
-0.1911997859019334 
-0.2415422309595201 
0.0524371624384269 
0.02784677813434264 
0.06568807634579524 
-0.4654399310601555 
0.5248694109230586 
0.1457924670392462 
-0.2649297136859901 
-0.1426105117030974 
-0.4036372076818057 
-0.009075240491387287 
-0.1266600184402077 
0.2626473811346867 
-0.102297163570251 
0.2348734219299882 
-0.1042735179626596 
-0.4589262163425678 
-0.110460089534579 
0.5294092458353302 
-0.05359000651537755 
0.6859089532748771 
-0.1342357164495595 
-0.1032659181475497 
-0.1733283474274387 
-0.1603429591866838 
-0.05913642429353949 
0.3391878921286746 
0.114016439169833 
0.4567250866849542 
-0.07609539244408579 
-0.3636273478385358 
-0.05509872111536366 
-0.02984529119482687 
-0.004581179115751825 
-0.3075774566963417 
0.1195395182678208 
-0.06246892083296853 
-0.2479882165949651 
-0.3170140789062317 
-0.03160030084935844 
-0.1698393091940857 
-0.01922852547175424 
-0.6017956440841037 
0.1012047696024403 
0.1463828339910621 
0.2312961268437839 
0.09095277620727466 
-0.2769967421770023 
0.1237180524241289 
0.0004446621150288117 
0.2642035828731607 
0.2599244462952559 
-0.1065706565984523 
0.1115392424334892 
-0.1432420054368075 
-0.05207242219675365 
0.1669599707454636 
0.4871113606630388 
0.2563699375919313 
-0.183604905741874 
0.4920471583364883 
-0.3808918534918065 
-0.1210087101263137 
-0.1864136458134715 
0.07398278186734925 
0.1693529174547395 
0.1360280666306952 
0.01950224751992643 
0.2584185466948506 
0.3392542537592091 
0.106065017846366 
0.04922690411510491 
-0.08086650496965313 
0.078746908156521 
-0.3018009753873975 
0.09821231977672966 
-0.2397533143418874 
0.1113888138389286 
-0.09898323120982905 
-0.006419904737004848 
0.15389272074239 
0.03931269303981135 
0.01527097470071714 
0.1047461359333093 
0.2905233735366704 
-0.1736109924641 
-0.2848031661262965 
0.4107414488476638 
0.1317128071791609 
-0.4880666578863593 
0.07273502180504798 
0.08482918000572122 
0.09231076088584343 
-0.07241032199288759 
-0.143676232850446 
-0.3322593809606274 
0.1462243832442726 
0.02395478660889018 
-0.1337034611439674 
-0.1725014487274518 
-0.3355099177394665 
0.09484632946207564 
0.2144446394824796 
0.2410875309715815 
0.1543522300942657 
0.2597370432486961 
0.3896474192748133 
-0.3102437825365406 
-0.1992394466147889 
-0.4845543057205737 
-0.1165995537172555 
-0.02157156483143485 
-0.09626476217781622 
0.1351011134025246 
-0.2994209820622585 
0.3151634807494546 
-0.02000773643634441 
0.1164488777520466 
-0.1260027660696118 
0.1453839601091027 
0.2377803363828961 
-0.2209424446007194 
-0.03556872106643658 
0.07943224320119666 
-0.1929758008826412 
0.08233793828301905 
0.07981075467089974 
0.02954371348881654 
0.09374579250113443 
-0.2631808396066264 
-0.3568527765561169 
-0.06595770804965428 
0.2155998291449481 
-0.08636556880853567 
-0.0105602743838501 
0.2595650690664427 
0.3004318441427527 
-0.08692527566785956 
0.1174561188755715 
0.03766325145612589 
0.3235775014317746 
-0.2146664300859534 
-0.4400714946154216 
0.340815708190846 
0.4097193380032232 
-0.2691733084799445 
-0.2105656781803791 
-0.4605937129690687 
0.340815708190846 
-0.2966930106323156 
-0.1467924688933754 
-0.1635446578227541 
-0.2055282343903763 
0.01023042446749221 
0.2878119788323698 
-0.1214204909089688 
0.133835267339824 
-0.0542646385954516 
-0.2952756166626773 
-0.1445467812627106 
0.1708072712689728 
-0.485470589700091 
0.3297511671630519 
-0.3504657492960463 
0.05156768211319592 
-0.1107982841893654 
0.002119745021535465 
-0.01169100773535326 
0.4389793313136722 
0.2861141215230832 
-0.2551782388265853 
-0.07052843953097984 
-0.1660768771506931 
0.4115644544589425 
-0.1605037337316279 
0.0322165750787779 
-0.07191395480955197 
-0.1731524416925571 
0.2684578600043905 
0.08859181159148401 
0.1699881764860939 
0.1627654755062434 
-0.03049267105626581 
-0.1640449474035923 
0.347690892853306 
0.02199695688670036 
0.0829268225629709 
0.130092380292503 
0.5275780322851145 
0.1775278967120967 
0.1316557567397917 
-0.2046401670592036 
-0.3034934393494453 
-0.1958958837077955 
-0.3457632791963761 
0.2754076138594812 
0.5062431204491583 
-0.3239344727506196 
0.2487690211585559 
0.004237706584682646 
0.3919094856825771 
-0.2636876229474838 
-0.1920717351530906 
-0.03731771433806317 
0.1047133734096845 
-0.225422780219883 
0.05273880453332395 
-0.3215885897308063 
-0.1107013680432913 
-0.4916800290443019 
0.4157433798572289 
-0.117394988359181 
0.3462569507710365 
-0.1648227736219836 
0.05561784842862073 
0.2277802305563009 
0.2481354035682728 
-0.09872793090295166 
0.1587776268544523 
-0.04940969169507576 
0.3356928019083957 
-0.1195369780017189 
0.1370533546954946 
-0.1055327560194602 
0.2769984607677908 
-0.3628100393388256 
-0.03046076159048535 
0.08728881085502196 
-0.05197246967685607 
-0.3138427339192373 
-0.289111469608084 
0.1501258140814772 
0.07520751100445779 
0.2432333244116385 
0.170343955973983 
-0.1340853265258666 
-0.3492272817171612 
-0.04629717404191559 
-0.2355197828175693 
0.1787463548433414 
-0.03227677906258738 
0.06101992959360915 
-0.07835993081301282 
-0.003422331757194837 
0.3122108740471376 
-0.01219256103837341 
0.1723889727057552 
-0.1750681559424366 
0.2295464125767731 
0.06776707716490622 
-0.2212720467418426 
-0.01800248600701965 
-0.3935079037311276 
-0.06265404861184032 
0.1995954477005288 
-0.1999829115324042 
0.115831215050486 
-0.02081184138330221 
-0.2314036699101034 
0.1365468168450998 
0.06278360242698566 
-0.1119044767045738 
0.1535100342884159 
-0.08570513629566112 
-0.2240796645421416 
-0.1605203585250996 
-0.2438424777639836 
0.2053378825190257 
0.007306003689379023 
-0.02873955185857883 
-0.2961661405122417 
0.04611007139097675 
0.3053469691254059 
0.1499007126447197 
-0.08279065844732864 
-0.2186716164682454 
-0.446754221550016 
0.08290546443749076 
-0.08416962503218949 
0.02459829383382294 
0.1828969298543304 
0.2043153102100375 
-0.05318186651692833 
-0.2009876999029898 
-0.212888989465726 
-0.0001787631337844518 
0.1156278003725106 
0.09927736126804125 
-0.3615647199630722 
0.2639262704919475 
-0.1500598295267893 
0.06214336369780815 
-0.001503057830630169 
-0.05296664111541684 
0.1955773676882268 
-0.2190200172433154 
-0.2519717109415398 
0.3564960186823736 
-0.2378833881918416 
0.2837310119728859 
0.1055245730315091 
-0.2601635527146795 
-0.2297052673883625 
0.2621762790570493 
0.1992247167446639 
0.2335283008416215 
-0.2036309300655489 
0.2580743869371135 
-0.3649280052058818 
0.3673456595553571 
-0.02046709022356952 
0.1491283354776606 
-0.06380837741873936 
-0.1855039640624015 
0.02083353286641352 
-0.1725911385975602 
0.01633320099215518 
0.457393708425925 
0.07894563128559348 
0.1323659811030506 
0.3625609527574171 
-0.06239703728354774 
-0.4114745164870946 
-0.485528448437589 
-0.1318296304343608 
0.05152184152315108 
0.1420426736006878 
0.02830139445751014 
-0.05413531712083237 
0.2221986760688298 
0.006642258541685021 
-0.2554545300954001 
-0.3888352200935389 
-0.08972687806983506 
-0.0932280924876313 
0.183834218380409 
-0.176631087527395 
0.4645863747193497 
-0.1144982788744452 
-0.4183872954465679 
0.2189385297817458 
0.06053070335319375 
-0.2013637294756029 
-0.08516781637204424 
0.3076368137054989 
-0.1212786337966081 
-0.00548439453992613 
0.05606786220329187 
0.2853634388968518 
0.08419920126396668 
-0.1520307748769516 
0.3290747434216829 
0.05546771619234969 
0.2662109581512901 
-0.2081138874807503 
0.01356508686311339 
0.1452568545499259 
-0.04259418115517377 
-0.197906981368949 
0.06228586276183228 
-0.0195657711900988 
-0.06994021390580878 
-0.1453059573798217 
-0.01009498376324173 
-0.01289570631448967 
0.1250084323593809 
-0.03195549211346661 
0.09789062154455765 
0.05220322035716628 
-0.2909748480779598 
0.3916675370453023 
0.2054327786670412 
-0.08398612920623848 
-0.2608814646202068 
0.4806333594413006 
-0.1573039626414685 
0.0709679946033584 
0.2914526409300471 
0.01648517372348277 
-0.1146124501815335 
-0.0008351842216933799 
0.3130720404677936 
-0.1816623591349003 
-0.001856280937672721 
-0.3518486325916315 
0.1875781212643757 
-0.4758257660824566 
0.2001401470752194 
0.2240672824034036 
0.248130109412896 
-0.06697812976405423 
-0.03067177249308934 
0.04074486346348678 
0.1323510674747924 
0.1810145138743358 
-0.2304960559033881 
-0.5519010252053396 
0.3182954067327109 
0.07750310224974306 
0.02446719013472682 
-0.1965376225159972 
0.09415613194116723 
-0.1201783197769601 
-0.08264707203368309 
-0.399692199668086 
0.3947133655377285 
0.4205998720302232 
0.1062726656530154 
-0.2084162089714896 
0.06242554873080791 
-0.002996287470922759 
-0.16789686809646 
-0.0008723002657008602 
-0.1553394700820152 
0.3938679761149593 
-0.05652822425515195 
-0.3894425125655211 
0.0939346674981599 
-0.06767462990015556 
-0.03926792331754404 
-0.1594550954647341 
-0.05557436035302931 
0.3411687831582743 
0.1443523437909909 
-0.5093255849298889 
-0.07147127440397623 
0.1139703449479142 
0.3653283780492265 
0.06034696852651758 
-0.1876789806918033 
-0.0926682448487003 
0.2710484473091388 
-0.01846181890116041 
0.3220016279653417 
-0.3982625212910941 
0.1417492132892454 
0.224177617835147 
-0.209802458974263 
0.09873755819086046 
0.0920022895063759 
0.09934334317972282 
-0.09188491408472178 
-0.2086442311985517 
0.2295729876647487 
0.2557749953448048 
0.172861646086899 
0.02686488536433529 
0.08368218879146493 
0.1348963371149644 
0.09321171495123931 
0.07916457607635527 
-0.0331621703767479 
-0.1727928520562186 
0.2622157798855597 
-0.04263710246724178 
-0.3865816079544702 
-0.1543223378224143 
0.09181097961631721 
0.1897543665193414 
-0.318012826146344 
-0.1311889277032222 
0.2256884215399006 
0.1742772986420509 
0.08785136184938568 
0.1068223709185704 
-0.1871993354810746 
-0.3205099122968328 
0.09892659082416622 
0.1447200850302242 
0.1721348649656163 
-0.02914377876552106 
-0.2140621193905009 
-0.1212929013110701 
0.1084808019759988 
-0.2420616034760821 
0.3807414776546306 
-0.2784360785947925 
0.057754863719867 
-0.01215675488922955 
0.08294498261294604 
-0.07199469677217041 
0.1867641094188331 
-0.02618464261093247 
0.116504384052779 
-0.09420960085404981 
0.1365764415350696 
0.002609719023216408 
0.4845407144631918 
-0.04577118505945065 
-0.03274016526751098 
-0.1766498845429399 
-0.02009676199189217 
0.134510608584468 
-0.0460520975633054 
0.07396359530983419 
0.09596991482220504 
-0.2051688181220868 
-0.1008365846448288 
-0.06087377827197052 
-0.03158254006949775 
-0.06401176485794487 
-0.03565586177280652 
0.294285885950751 
