solver_type L2R_L2LOSS_RANKSVM
nr_class 2
nr_feature 1124
bias -1
w
-0.05424171747581202 
-0.05366591620762557 
-0.3672677747330977 
0.02690613192667865 
0.1921321691399115 
-0.2577491159239003 
-0.006768768305390574 
-0.2845214869802024 
0.1337679182995554 
0.1125810689969402 
0.09026935848083781 
0.1199040395063782 
0.5605350824940862 
0.2626895780536853 
0.1261293690891648 
-0.1627622680710014 
0.2396431826114521 
0.4599964227061125 
0.1162804018073452 
0.02087239322385397 
0.1081568746876979 
-0.4039311312682331 
-0.04064285850604855 
0.2631523615596819 
0.09888047646370217 
0.08345625121907771 
-0.1356916013322365 
0.2372797840068552 
-0.3819243093134125 
-0.2004876916442516 
-0.03916611354526483 
0.07537261427666563 
-0.4333409750874275 
0.108544031265104 
-0.3290959683512087 
0.004678304651494383 
0.2302444482271335 
0.05387459008949683 
-0.06293606017612807 
0.2268459730019761 
-0.2891261117237216 
-0.2481189539397315 
0.09316017395786891 
0.2173773598293418 
-0.2103328054350367 
0.1424718806065834 
0.09381462366090862 
-0.1546241482495493 
0.2590533320697808 
0.5297499993070525 
-0.2209764816002162 
0.06572835427172599 
0.05990846272627774 
0.09601007182758976 
0.108809233940791 
0.04581050752553171 
-0.1220535915780532 
0.1307592951975065 
0.2360762098563607 
0.06564088443377263 
-0.3005255219410812 
-0.09512795922269131 
0.2879760139618695 
0.2715149636028743 
0.1981116705051101 
-0.419235109995217 
0.2036956679125676 
0.1019854765050333 
-0.5421142805730851 
0.1883817149018861 
0.09115188896577281 
-0.1141622159580937 
-0.1216624579130752 
-0.197429309217773 
-0.009395318933458925 
0.07416892049503975 
0.09591493724552926 
0.2715146420565068 
-0.04354412108191273 
-0.006213897767510121 
0.1303455264764161 
-0.2878549964868123 
0.07795735462592103 
-0.02879913061574429 
0.08902429102481257 
0.1223036353735447 
0.07712735412835052 
0.1185994997051924 
0.02814308784518329 
0.1920901358678413 
-0.4917911711257907 
0.177388833853745 
-0.1525116649453081 
0.444742421051241 
-0.2136714556784206 
-0.3979585352436844 
0 
0 
0 
0 
0 
0 
0.3004556808984785 
0.2661792028263922 
0.4425128655540573 
0.1363245384189949 
0.008061797692541473 
0.1863766149663464 
-0.01450285699509748 
0 
0 
0 
0 
0 
0 
0 
-0.01319857667716243 
0.1014423504419655 
0.08107009949313931 
0.0354546657916724 
0.2383446021293249 
0.09466061533239464 
0.3561265955465694 
0.118250795813955 
0.04872207746980077 
0 
0 
0 
0.5313422654533975 
0.119439281779759 
0.2216248792732779 
-0.08467544173980661 
0.1622926640431635 
-0.03776386592846855 
0.04007578936016466 
0.2215136341056492 
-0.01385438946060939 
0 
-0.2092532072642257 
0 
0.21537726648232 
0.01737243445022599 
0.06588822137431503 
-0.06587171850976348 
-0.05724459205909117 
0.09265870972246447 
-0.01652209784159708 
0 
0 
-0.02146028662891852 
0.2711260349835115 
0.04407621163896989 
0 
0 
0.08279151214797616 
0 
0.1389274929483653 
0 
0 
0.03568831410445385 
-0.05724459205909117 
0.09265870972246447 
-0.01652209784159708 
0 
0 
-0.02146028662891852 
0.2711260349835115 
0.04407621163896989 
0 
0 
0.08279151214797616 
0 
0.1389274929483653 
0 
0 
0.03568831410445385 
-0.05724459205909117 
0.09265870972246447 
-0.01652209784159708 
0 
0 
-0.02146028662891852 
0.2711260349835115 
0.04407621163896989 
0 
0 
0.08279151214797616 
0 
0.1389274929483653 
0 
0 
0.03568831410445385 
-0.05724459205909117 
0.09265870972246447 
-0.01652209784159708 
0 
0 
-0.02146028662891852 
0.2711260349835115 
0.04407621163896989 
0 
0 
0.08279151214797616 
0 
0.1389274929483653 
0 
0 
0.03568831410445385 
-0.05724459205909117 
0.09265870972246447 
-0.01652209784159708 
0 
0 
-0.02146028662891852 
0.2711260349835115 
0.04407621163896989 
0 
0 
0.08279151214797616 
0 
0.1389274929483653 
0 
0 
0.03568831410445385 
-0.3712723897054205 
0.1179367765553464 
0.357463111740891 
-0.002513737464645682 
-0.09137004287157108 
-0.0940701066825657 
0.1289678357696959 
-0.1329730916742075 
-0.1005483207175208 
-0.08393908040797257 
-0.1012304915261816 
0.1971735153487985 
0.2961161223473589 
-0.2592067611069621 
0.1359713080472073 
-0.4165300817462338 
0.1678379651518863 
0.1991721526796048 
0.1306904996990806 
-0.1084294776361458 
0.2022172939189261 
0.2503327535706115 
-0.1829585660697347 
-0.256404591731188 
-0.01424616831372197 
-0.01194774293822767 
0.04674208766445942 
0.01768034716245333 
-0.139880264856334 
0.02012537404208705 
-0.3377744577312404 
0.1044546246875593 
0.09675048242551676 
-0.009434344672107773 
-0.1429334878136544 
-0.1023492808936608 
-0.2084486576797969 
0.02609402933443343 
0.07947739211194067 
0.1673301893908396 
-0.02476997690799428 
0.02691125112585517 
0.0008421254555481183 
0.327263323791399 
0.08212396108239334 
0.2109182918044951 
-0.4082410782243495 
-0.02475455021620523 
0.1773551479972156 
-0.1733269068697833 
-0.1243793679861199 
-0.1054526119991729 
0.05143959189738662 
0.200225955811623 
-0.1334629985195376 
0.06164625720783157 
-0.008775694603649759 
0.1173832753142194 
0.223694327567024 
-0.49211012375181 
0.0702808014044605 
0.1285415382160333 
-0.04488390477549293 
-0.02326942382746498 
0.2050045207035005 
0.554794232060071 
-0.2238928291761402 
0.09797777959319225 
-0.1878271408398522 
-0.4331689960936286 
-0.1260171639468358 
0.3489496661685186 
-0.08953315211943569 
-0.3497718148823753 
-0.1218057270772376 
-0.1608790677529911 
-0.04107488556639621 
0.2584509922332468 
-0.02378318995694859 
0.3069635267549382 
0.2461480627221645 
-0.1424598755210736 
0.1454127817952068 
0.08478968187392975 
-0.1850401087844287 
0.02595043785498557 
0.006869887583814247 
-0.04392726355237946 
0.01162323809436375 
-0.2007346005487644 
0 
-0.1908041391559008 
0.02381378485217637 
0.08610687880108658 
-0.1118029116516563 
0 
-0.2980116712848506 
-0.01627144826608683 
0.1117526457117956 
0.1561700397827223 
-0.2567521851453632 
-0.139501290285732 
0.3172953363964228 
-0.0288617502738582 
0.05643506788147777 
0.4299015242678564 
0.4771959664460267 
0.3215288985733104 
-0.253788280366868 
0.06993589733504076 
-0.2001848553936056 
0.3312802497329527 
-0.2490995393349985 
0.3479759730475008 
0.2067033870853033 
0.2826863590660314 
0.2203018017353933 
0.1182939027229895 
-0.3048066342344659 
-0.2811155194619935 
0.2014041139241315 
0.07732726190287349 
-0.06430322283306919 
-0.2452483041738564 
-0.1609072132893524 
-0.03547898227157161 
-0.1430019450835737 
0.1578949874826655 
-0.2164726010896736 
0.1525269158948372 
0.07592615888084109 
0.1194329401048164 
0.05760090809063478 
0.1525639588538243 
-0.1261031844876102 
0.05904245907237656 
-0.2010887005496785 
0.05136568289910351 
-0.4222845477306921 
-0.1556739964469291 
0.2256987869047998 
0.2369776079925935 
-0.1922813806599641 
0.1533914459912156 
0.1017224330967009 
-0.1306947890811599 
0.2497267484803361 
-0.2880789274856934 
-0.15337413708089 
0.12955382791394 
-0.2987445365931559 
-0.2120256103342743 
-0.03271902340771432 
-0.6305914321781294 
-0.1210668676558383 
0.04796592748394152 
0.0998436363967783 
-0.2161320757230213 
0.599572319174522 
-0.3631772605385553 
0.8815749881897348 
-0.1159051936788314 
-0.2105831256254661 
0.00707329586023945 
-0.2511696214500949 
0.2594351214096705 
0.2013589022072742 
-0.09291270535367091 
0.02384077205690287 
-0.1102310821883879 
-0.1198476288214965 
0.04928165089388905 
-0.04603424473906517 
0.05695758757907636 
0.1600054232432923 
0.233971084274957 
-0.03350803403044139 
0.1853558601976786 
-0.01553618362402118 
0.2149039705274109 
-0.3535265340191582 
0.02611935564360342 
0.332047535091051 
-0.2437211486236074 
0.1019819525038018 
0.1827868926693707 
0.1444676134115518 
0.0593972081129739 
0.2706778014127843 
-0.2243814266747858 
0.3477722152435062 
-0.1415271763286467 
0.07609040122454475 
-0.1162265190098662 
-0.188608998857878 
-0.1733626008442816 
0.01840944713104786 
0.04377385075771897 
0.1169762763158129 
-0.00901643393945608 
-0.1158613453905629 
0.2914226156255057 
0.1951918918002749 
-0.04826953169601502 
-0.4708913467086621 
0.2257239818550846 
-0.007133416468674565 
-0.2734025882125531 
0.3965339907058987 
-0.2105825578603345 
0.1202287113470013 
-0.05936226846189242 
0.1325440895619479 
-0.001008671461394778 
0.1159534256326682 
0.06603961377274042 
-0.02946821316603607 
-0.4115156278487595 
-0.2128776574388069 
-0.2149759135396189 
0.5452754478669893 
-0.2684476106963451 
-0.0252290768308355 
-0.2273829097353657 
0.2783572568503585 
-0.3097185841055425 
0.2936927091063526 
-0.2042786815239089 
0.1178903178930917 
0.06330096442022502 
-0.1895476481108722 
0.01936828024013613 
0.02209031143317847 
0.03532795086602118 
-0.3287626118096044 
-0.2565569410674533 
0.01112350183683131 
0.076274996609055 
0.0495699478140034 
-0.1546231998141117 
-0.1869138816175987 
-0.05156517208933255 
-0.1775023235844532 
-0.07814587270718768 
0.1237815987706603 
-0.1152958482742937 
-0.3029010560799837 
0.321668119031453 
-0.4646206379506224 
0.04354811437085199 
0.3271546713530427 
0.06740304157211779 
-0.3583383667927264 
-0.3164538098996482 
-0.1848270307933612 
0.0260353467620273 
-0.06823385488113744 
-0.1892596788169468 
0.1905086514435604 
-0.3901571456942564 
0.2073889431226069 
0.03732602610940763 
0.2862239817098782 
-0.2264108655773254 
0.08310456774322232 
-0.3131541359844753 
-0.2315017854249782 
0.2424377934995766 
-0.1881670193230479 
0.1942741261694546 
0.3108938095808643 
-0.07129839864111812 
0.1892607915260045 
-0.134100585812404 
-0.008246258206655224 
0.2838132378358121 
-0.2028102574661473 
-0.07330744736288831 
-0.07739370780465076 
-0.0190996573230677 
0.4143881566550069 
0.00137248444397073 
0.2250120408098908 
0.07376072538575691 
-0.3596983125181917 
-0.01461975518035233 
0.1479751200532197 
0.07352744776694241 
0.01081613981772469 
-0.0381803189181773 
0.2263030850614987 
-0.1231323147838934 
-0.1946707466604648 
0.1756405314897682 
-0.04989217184001626 
0.299113662982594 
0.03793350661736619 
-0.006997057499965341 
-0.3034690240521067 
-0.114670587675058 
0.2860646268328992 
-0.1104467017336458 
0.1141453335708693 
0.1944960330052281 
-0.4408389072803027 
-0.05470532969229897 
0.008554402432635134 
0.1412242838869274 
-0.1061874188300714 
-0.1697904220730775 
0.2236963984553553 
-0.003783125816618671 
-0.03622605228391986 
-0.03235258486592955 
0.0490154824707084 
-0.1385066838745583 
-0.3118267047844257 
-0.2173233227476185 
-0.05781542546143072 
-0.01123798941966099 
0.01453775077718693 
-0.1796781227122121 
0.3450567794793869 
0.1926145106501571 
0.1225111365336598 
0.05816790206291748 
-0.4825685634044596 
0.1346992610030681 
0.1630076380206088 
0.2493389588061605 
0.1971978515517017 
-0.07218822886066738 
0.2284941006714056 
-0.003362811806019811 
0.06088346564081186 
-0.3619553744373242 
-0.3387265050710263 
-0.01592199875759388 
0.148401207553626 
-0.003660641647833253 
0.1584012851358018 
-0.2931426957040312 
0.06550042753046738 
0.2177488222054907 
0.04332188666586004 
0.04191630927497766 
-0.4318403564205735 
0.07294521948056372 
0.2515971895265098 
0.06760296193782063 
0.1753458244591583 
-0.1274458252100543 
0.12019067312814 
0.1224237375537164 
0.08582960248294425 
-0.1535945839824102 
0.2565547915089623 
0.2292150736235617 
-0.04123771601305951 
-0.2442622862339606 
0.2205079628152051 
0.1443326267870293 
-0.5848608902550462 
0.2269388760384098 
-0.2479950926766445 
-0.0384721370290607 
0.04122399915121645 
0.2768582093105264 
0.2521520745291584 
0.1219711977111047 
-0.1911392213809419 
0.01649174400803001 
-0.1756841103410625 
-0.2703026102704074 
0.2959318246206396 
0.0956834559729515 
0.04912111959888825 
-0.06270366304928594 
0.1062216156779261 
0.03066342291010157 
0.4289259114105667 
0.1577837632774778 
0.2147842241782203 
0.0384371507514138 
-0.3354718392524825 
-0.1242962619654748 
-0.2160827943827388 
-0.1035024410739622 
-0.1138741780132267 
0.3109823930948668 
0.08648169285443494 
0.2729327877881179 
-0.3591176823986099 
-0.01984038642015481 
0.3403973695265716 
-0.3289336509342186 
0.09365192093930669 
-0.01380902784510392 
-0.05204716541462452 
0.111321756049835 
0.2364396604781274 
-0.1813734780074507 
-0.04499766631243133 
-0.1226554121371422 
0.1594357689371211 
-0.1802575130838895 
-0.04924640348021719 
0.1235333723258522 
-0.04437768179013457 
0.3811328944529727 
-0.03070374226683001 
0.06198137212129422 
0.1241801800375967 
-0.07979681500168512 
-0.139677552943701 
0.2133609259893943 
-0.2207695526976981 
0.3673525314533704 
-0.1654938796808998 
-0.2097415598605042 
0.2853736329743219 
-0.2722325051017362 
-0.01026270227997288 
-0.2692921276259652 
0.1867872610358844 
0.07975709535038311 
-0.4160285129609664 
0.2842376613293166 
0.007170753353150871 
-0.3152080027693535 
0.2695157336415107 
0.3372749697167961 
-0.1711242981211341 
-0.04236700835382069 
0.1710337871074876 
0.5442337758008191 
-0.4562007484850342 
0.009480511426749657 
0.208601969294033 
-0.05990012200182306 
-0.04267970535064704 
-0.406365991325736 
-0.2851700932464799 
-0.1985291222535666 
-0.09753664110102085 
-0.2651466799973626 
-0.04867751708932247 
-0.1617197805867715 
-0.04770379138678629 
-0.3243844824623073 
0.108370542602293 
0.1323789890023908 
0.4400125538676154 
0.1280000398571954 
0.08931467705158636 
-0.02996068245704815 
0.2319066972347742 
0.20544612992816 
0.1058654330116391 
-0.3907756813668609 
-0.1460749431425071 
0.003950884903908807 
0.01903782452820058 
0.1622106832241659 
0.05480228760018478 
0.3546372183885488 
0.09083544850005307 
-0.1418163310136252 
0.1910659569169851 
0.05039524107461774 
0.02206653215946619 
-0.01066479535654574 
-0.07711933849600591 
-0.01227935622736867 
-0.1055200295240686 
-0.2915150990158925 
0.2250891361288414 
-0.01109181680866357 
-0.2037639453031502 
0.1234948722644246 
-0.0435565147195048 
-0.1324283745434513 
-0.3082998640538801 
-0.01036015087327961 
0.0007403894914445701 
0.2364853061089299 
0.1296326119702584 
-0.008882379927889234 
0.4214074418523281 
-0.1341187440000086 
-0.1627907834214594 
-0.2471502798255556 
-0.02527130919912224 
-0.2007676430957117 
-0.107236764571544 
0.2994155968859091 
0.316469997560562 
-0.06517713497414227 
0.0253829380126026 
-0.3158310441253531 
0.01305552887711877 
0.07234903524597586 
0.02761851495061246 
0.007193811299393478 
-0.141434092600005 
-0.08111851360458877 
0.1594249856429289 
0.05760205480678178 
0.1942831970256563 
-0.1605870569970935 
-0.07640336148312958 
0.007410598039976478 
-0.3242684521814663 
0.1200778587867496 
0.02459721512050852 
0.0745837770806618 
0.04502973263133697 
-0.03171463132166819 
-0.01023616155565941 
0.07066494901423427 
0.01440675016325785 
-0.09743705310285976 
0.1105710739728746 
0.0300710347084359 
0.1026426596913557 
-0.07131600485353103 
-0.06111621316607502 
0.04617244837815573 
0.3191047860281148 
0.09518010386633587 
0.06295938151683453 
-0.05875979397029619 
-0.1849367077156728 
5.010627288248881e-005 
-0.08350088792774905 
-0.1686078251256939 
0.1820198870902794 
-0.07758516285477571 
-0.08179684134185675 
-0.06833817720378811 
-0.08492588969203879 
-0.2645052550537825 
-0.3300741255369468 
0.07692986382404846 
0.1630997545757067 
-0.08492588969203879 
0.3544396110553684 
0.1473319670177633 
-0.3036528279460442 
0.1825789556408513 
-0.07255247536249707 
0.4191297949119286 
-0.07197600461088605 
0.1205436709901903 
0.06269535037106566 
-0.05516299015652974 
-0.4622950378028373 
0.05408911611564524 
0.110215671802888 
0.01526483517594518 
-0.1150288067273842 
-0.08855321731022856 
-0.4669023123966415 
0.4323241234934847 
-0.2167653928781056 
-0.2063751856793031 
0.02870876150635841 
0.08566471955243363 
-0.0927451138733391 
-0.1796474031787163 
-0.05568320491114018 
0.02371144529621585 
-0.05881626959006644 
0.08893260265705762 
-0.1356321417198742 
-0.1189733058012302 
0.2336219555802794 
-0.1051629644854547 
-0.3615586911987308 
0.07466928944198023 
0.1098178262361859 
0.052245727981337 
0.1886214844269238 
-0.1175939978854716 
-0.007548359577398309 
-0.08453354981343986 
0.06612154191607605 
-0.0859704404490612 
0.1909784642790555 
-0.1047803434744195 
0.2547341565776777 
-0.04632190768920143 
0.1895473561945212 
0.4886480707812793 
0.08783053912031 
-0.2140686925293792 
-0.0166234257566448 
-0.08287923297488806 
-0.3605098083908059 
0.2668131567981178 
-0.04959227197518536 
0.03342401154763509 
-0.2928966627217974 
0.2990386740078704 
0.2017022002862647 
0.134598086844487 
0.1041970004512398 
-0.02365181362380298 
-0.0249939496995287 
0.2058649508675355 
0.02932444095651968 
0.04245266348184878 
-0.1014795361926403 
-0.06178429360489682 
-0.01066403096720778 
0.389619487094006 
0.0449764731308288 
0.1525960495849966 
-0.1685951670069623 
0.1931737586471362 
-0.09608562826038176 
0.05594693034003986 
-0.2476478965673587 
-0.358536037680217 
-0.02643372724303082 
-0.1627383370506647 
-0.3441630996762267 
-0.2792151581380824 
0.04242482533544871 
-0.1686449839533341 
-0.3040223232620983 
-0.1897715255616432 
-0.2327490414494825 
-0.0026100419287723 
-0.1512844590987259 
0.05958716684378373 
-0.1825422822020243 
-0.02066308225400405 
-0.07648585060868726 
-0.06283519542778998 
0.1548323011654439 
0.1647195414493239 
0.0890400659961091 
0.1021884769400653 
0.4907572509747176 
0.1856491125504746 
0.02112797460207129 
0.4328888594257155 
0.1153932614637898 
-0.1405731464499454 
-0.01953773962069119 
-0.1421132269522654 
-0.1176864565480516 
0.1335933982132381 
0.2078387821308338 
0.1522565747293379 
0.1274185595903859 
-0.3156052477577069 
-0.07638758029547506 
-0.4236810310209456 
0.205150323065884 
-0.02420604177505379 
-0.2246835337344312 
0.1007099497791869 
-0.1775766354114977 
0.116872962318893 
0.01885174233460264 
-0.08886442916996538 
0.01448300807617258 
0.1433723655850688 
-0.05890473619724713 
-0.02728188120759807 
0.380567094029142 
-0.1983400555550655 
0.1111255460767417 
0.1448799667302517 
0.01722266148730303 
-0.1294624652317688 
0.07404804222985298 
0.2285836154631197 
0.2927030948051018 
-0.1027681870129968 
-0.1437915726865569 
-0.3206269157419712 
0.1033706207732335 
0.3995870702917997 
-0.5511198511017993 
0.05911942600603929 
0.2919473601248627 
0.005755562636282372 
0.02476261366441854 
-0.1788477750053943 
0.3101558935059745 
0.06980162935797474 
0.480863866335163 
0.1294067671242218 
0.05400618829079046 
0.4176352113161889 
-0.1579592649516243 
-0.2036265086626408 
0.007731260582346744 
-0.08333381785703713 
0.2342267399020014 
0.1103972924947752 
0.1513466627069041 
0.1002552651439004 
0.07141524896332539 
0.2311480582975414 
-0.09253242716393949 
-0.1361103391381816 
-0.2436694670971013 
-0.05617174648886659 
-0.2131475191672094 
0.1906940079139557 
0.4248294528582498 
0.2580444063490978 
0.1219734473902358 
-0.03979429952627529 
-0.1236127031889933 
0.06483302762727369 
-0.1669905685470344 
-0.3674534272149722 
-0.03010749199426049 
-0.08854470744473171 
0.196534170278623 
0.04502619174927133 
0.2360711305540892 
-0.2920533235294684 
0.1590836683015278 
0.05135943755412947 
-0.07227968005020581 
0.3724098652684687 
-0.02822323147802729 
-0.1796112411507904 
-0.4004266002535691 
-0.2294854807811377 
-0.3915811783228086 
-0.06498663490982971 
0.003851324037243508 
-0.0213318049348132 
0.01885665693294676 
-0.01087716983218978 
-0.2953937389404298 
0.2371438709668933 
-0.04278933990564753 
0.3426034859110269 
-0.1322635544957867 
0.1120597306866507 
0.1000551203547453 
0.09739689067134327 
0.1646257409851291 
0.2258102573730602 
0.005559420652172068 
0.1720869316076016 
0.03253161964691678 
0.1419921070446727 
0.2696856011809417 
0.09212388980696373 
-0.1792664749723947 
-0.1140073165825226 
-0.2448168021674017 
0.01352053097831387 
-0.1414125326584712 
0.06595679193147999 
-0.1786314812000202 
0.1359713917876818 
0.09357614429126571 
-0.08085985448709679 
0.142265769049884 
-0.006152051526346324 
-0.1115067446733752 
-0.1059670161690616 
-0.1215180354387959 
0.04233807458267297 
0.09447296328949326 
-0.4774279065498082 
0.4076509419321733 
-0.0139797440397582 
-0.1703194513777943 
0.1828433293787694 
-0.06036092809303288 
0.1787428185137171 
-0.2397547220323968 
-0.08998830115845384 
-0.1305142567815695 
0.5249767687020698 
0.09679215062010033 
0.3219594860780031 
-0.1632283076449432 
0.1713225681913986 
-0.1371795362206955 
-0.06078358944044125 
-0.5535717072777165 
0.1198054108124963 
-0.1442342602382163 
0.1018788208985934 
-0.1821914480834492 
-0.2386625426320171 
-0.02258463626198299 
0.2364122580235607 
-0.357848141212184 
0.1081480508102315 
-0.1967342702802358 
-0.05139152361079232 
0.236432621106905 
-0.1675817185404921 
-0.1477855019926595 
-0.1471961935496154 
-0.2303760517987961 
0.160888948170721 
0.1574924126886905 
0.007282918886317151 
-0.1175103610976043 
-0.323518553338424 
0.1116280789099044 
0.2755351903044365 
0.4707241582847423 
-0.1533125671496684 
-0.2583974357048582 
0.137458124091166 
-0.3320470046930039 
-0.09483886441197155 
0.4420761462266109 
-0.05959065222502172 
0.05926426121560322 
0.01044959597611157 
-0.03071680404814321 
-0.1460667066048938 
0.1491614604708131 
0.09131356789640294 
0.2566776144717787 
-0.2095766022475946 
-0.05957710026077047 
0.1268863633078098 
0.2466349545846385 
-0.03217584830719439 
0.3067681614760868 
-0.173435227021 
-0.1366612061813378 
-0.120416302437893 
0.1343268657051653 
0.143639482822815 
-0.3150247062494017 
0.2976885740067805 
-0.0809250666170461 
-0.3506393348929771 
0.118747025353564 
-0.07618338778942045 
0.1199001474229695 
0.1889815003651845 
-0.2967455942704784 
-0.07607507382303139 
-0.0408189423017752 
0.00132639460152076 
0.08746456748628505 
-0.265140603166328 
-0.07594847994791058 
0.05740394464900141 
0.01223686017886641 
0.376258812635942 
-0.03768032215270501 
0.1464915011321945 
-0.2144057853224322 
0.2117495182919694 
0.15071375149791 
-0.09056650592060789 
-0.2040744432290938 
0.02141564002930013 
-0.2537350794671487 
-0.06321466511143659 
-0.4328877927632225 
0.04001918614102714 
-0.5740899069197775 
0.3071619277896459 
0.07965629960973174 
-0.5126171111108594 
-0.02689391760054023 
-0.5217278831977287 
0.1373497947270559 
0.2653665306352653 
-0.1194528403579256 
0.311957385598885 
0.2610742642873767 
-0.2146584718889349 
0.04386769465591883 
0.2850346083517307 
0.04295046674781616 
0.2031114020872912 
-0.1279301087806922 
-0.03916598766140381 
0.03066907297170449 
0.06947741328028702 
0.1540611569615035 
-0.1163729158314947 
0.2981535057978202 
0.1865718977077952 
0.07912507424291329 
-0.3135187973911839 
0.09827438094368138 
0.4503813151147389 
