solver_type L2R_L2LOSS_RANKSVM
nr_class 2
nr_feature 342
bias -1
w
0.03999122127639403 
0.03601461577605477 
0.006707150244135463 
0.009424750598739984 
0.01633678506500148 
-0.01303955605273013 
0.01848778824925415 
0.02020487072552306 
0.03264306777207358 
0.006082664190192316 
0.01728576153184139 
-0.01826544807107949 
0.03800589858518105 
-0.07676692921617571 
0.02334889599157158 
-0.07790856779579906 
0.02470832523821962 
0.08695682973118007 
0.02816491188252155 
0.0622357965671342 
0.01347932065399459 
-0.1982535105157549 
0.02922963307776831 
0.03979241667983241 
0.03010228287666147 
-0.09306684373881886 
0.0363217692983758 
-0.06782122381220065 
0.02304002526460665 
0.06413481943074319 
0.02136498059602487 
0.02624537938025424 
0.02273597912288649 
-0.00765916504780045 
0.02616851424142074 
0.02952447260698238 
0.01148616034204873 
0.1149143207163744 
0.02724583019720138 
-0.1012651226770952 
0.02810834320362344 
-0.08386459953204763 
0.03432804965890816 
0.1807963599116219 
0.02105032343586484 
-0.1407979246528624 
0.008066880021707502 
-0.3966325455086441 
0.0115208955609148 
-0.02800417368822874 
-0.00316724953338357 
0.03718860687173767 
0.01259538164575137 
0.09382552846612922 
0.01344726643208545 
-0.03498472767654249 
0.01966792650688062 
-0.2187431944966298 
0.006386417822196472 
0.08238579593600076 
0.012875867071049 
-0.1614680556671995 
-0.001809280068131043 
0.0149350440121337 
0.01396124633551043 
-0.0468320218612597 
0.0148195778384071 
0.09435816067481892 
0.02104120756436493 
-0.1235455290343944 
0.007756661478392779 
0.1881913537641762 
0.001648592812799946 
-0.1148062571842986 
0.01741304452324024 
0.05039886971140347 
0.01827768391090761 
-0.09979397141935886 
0.02448711645719443 
0.02408594492093734 
0.01120821771325094 
-0.03666886842659997 
0.002710450772033016 
-0.05027553115544443 
0.003581134602626583 
-0.02145894138112902 
0.009798800810011376 
0.01389216765830937 
-0.003474401210729481 
0.03337552581723743 
0.01934004025940126 
-0.03106844222379578 
0.02556003623225891 
0.08438087612909392 
0.01228306249529084 
-0.1223765327756146 
0.0264265677684606 
0.06497165237600366 
0.0131402899031438 
0.0420536545045927 
0.01936394644275603 
-0.08397580309758751 
0.02757556962195827 
-0.02914846742361511 
0.02849683926520763 
0.01238518350871352 
0.03078325544052534 
0.03416919992760224 
0.02099539855366125 
-0.05171153468239013 
0.03149669127201478 
-0.007564217177630533 
0.0320733908955391 
-0.06378735431730291 
0.03621536992620428 
0.002556579243661025 
0.02736186862504727 
-0.09712831948171852 
0.01872138724557681 
-0.1050427716618859 
0.02101008123841749 
0.06444055723987721 
0.01122300422356903 
-0.09182543057615576 
0.02172196625935621 
0.1077985081031726 
0.02229799746355965 
-0.07050030687603708 
0.02644276547608236 
-0.1512538424136828 
0.01759477645829896 
0.04813924444593495 
0.02191859043176212 
0.016049421755723 
0.01213340899890699 
-0.04646678459411861 
0.02263303347573691 
0.07739326532568586 
0.0232040664499552 
-0.0143479803136247 
0.02736371981586621 
-0.04513783832360671 
0.01850616427235541 
0.1261021931102246 
0.01442385513315531 
-0.1577892937700707 
0.02492910295160949 
0.05984579104892651 
0.02550316095261443 
-0.04940846530941171 
0.02965478943070121 
0.003558018123901999 
0.02079498804633952 
-0.02830357460204022 
0.01514377617008525 
-0.04075724536019738 
0.0157216019010602 
-0.1283559429798034 
0.01987192835358132 
-0.1315943518471465 
0.0110118873995635 
-0.06707166271883333 
0.02622336719991506 
-0.03947414771893538 
0.03037513088904731 
0.04597851862192212 
0.02152704124901247 
-0.0439110344753435 
0.03094956900137777 
-0.04012819552579971 
0.02209432970167931 
-0.0215570760357274 
0.02623528451103991 
-0.06154628640425308 
0.01738187172258537 
-0.07720792457584955 
0.01968878742778184 
-0.001349626830937759 
0.00988622280321408 
0.03978584307920279 
0.02040466459250044 
-0.03292729336795462 
0.02097310744634968 
-0.04986856573172667 
0.02512422190876919 
-0.04843672680907443 
0.01626099364024491 
-0.04572117354678387 
0.02059379977517535 
-0.02357857887376964 
0.01080814060549247 
-0.02342472475359702 
0.0213118576549792 
-0.1239084325706732 
0.02188166033054953 
-0.009975028676468852 
0.02603115145489222 
-0.005124100567764026 
0.0171813191934776 
-0.05706327633635652 
0.01309940106836073 
-0.04822955268519283 
0.02361410755940956 
-0.02045787524377853 
0.02418996041295028 
-0.04316296291563081 
0.02832428143180719 
0.09438174662893391 
0.01947669074699017 
-0.07383533864572617 
0.01382088784060975 
-0.03300454475548838 
0.01438603587824605 
0.01907667786353434 
0.01854121118913508 
0.120159191774703 
0.009680728955748265 
-0.02155500241959781 
0.02490175723656579 
-0.05174336361604989 
0.02905846094919495 
0.09115559851066472 
0.0201925669354596 
-0.1716253792421106 
0.02962325356497911 
0.08856160996270682 
0.02076561385479036 
-0.1194866052475321 
0.02491065672046152 
-0.03001106500090247 
0.01082549824685195 
-0.1987486502014009 
0.00102033226682651 
-0.03142135398712284 
0.01154413136865895 
-0.09985602937367116 
0.01210837413622225 
-0.05567099490700227 
0.0162658507225029 
-0.2901769403602342 
0.007403412636850118 
-0.01373943160737946 
0.003338938307110812 
0.004811853767618599 
0.01384212930524751 
0.06801105717229018 
0.01441383180061323 
-0.03705092913048932 
0.01857279581751542 
-0.1061010337111559 
0.009704059498122289 
0.02576949497800199 
0.004044600876072439 
0.03081843733777462 
0.004615570407318057 
-0.03769466446094594 
0.008770749538480324 
-0.03998672291619942 
-8.700428773813964e-005 
0.07080504395399956 
0.01512413805035221 
-0.04889470716164883 
0.0192755886202369 
-0.004092546442416124 
0.01042087975716389 
0.002050494572268414 
0.01985388752492187 
-0.0454058882851733 
0.01099382575758574 
0.04273559319267054 
0.01514529285291561 
-0.1098878452994525 
0.004246965249653923 
-0.1082461215409701 
0.01474459383856796 
-0.08182174250753241 
0.0153248704784607 
-0.04736745723459514 
0.01947307144116878 
-0.08151697050117344 
0.01061624063880709 
-0.03955056433771197 
0.00496452362998236 
-0.02059656032342617 
0.005529443107563101 
0.03693698522828418 
0.009670869810716539 
-0.009964121218793748 
0.0008107841555083845 
0.09058448767535335 
0.01603431630246389 
-0.02117123631201969 
0.02018499544041774 
0.03154560966942826 
0.01134584740220285 
0.002302274218301747 
0.02075768384322965 
0.03084498279370094 
0.01190143898667074 
0.1172403193011952 
0.01605202455562235 
0.003822714624673261 
0.007257989991407351 
-0.02650485213995755 
0.007837038485833532 
-0.07989830035055461 
0.01198866599893651 
0.03357489237557764 
0.003121660350982282 
-0.06474770698209065 
0.01833833354583794 
-0.02157908760969251 
0.02249349834785708 
0.093045229462109 
0.01362602403782694 
-0.02499632486521914 
0.02305763712804985 
-0.005564440192260258 
0.01420487325359634 
-0.03589032881009188 
0.01835269689626445 
-0.006277674873152806 
0.00854725605965681 
-0.09515515159476186 
0.01269402371770767 
-0.01188694541906706 
0.003835689721049193 
-0.06522372475443336 
0.0132707393655624 
0.02905042488231385 
0.004408526152524845 
-0.01933510585281797 
0.008567920325157692 
0.005553803082449045 
0.02377089203311597 
0.0633911507516573 
0.01491870893851575 
-0.08546490285315909 
0.01907267537626972 
-0.05380330026752411 
0.0196386001497654 
0.02751745678713384 
