solver_type L2R_L2LOSS_RANKSVM
nr_class 2
nr_feature 11130
bias -1
w
-9.27395565201679e-005 
-1.66727243829463e-005 
-5.412879868803488e-005 
5.834138925091646e-005 
-0.0001002482448192575 
-3.732670070871465e-005 
-6.503925330212556e-005 
-9.793567121459214e-005 
8.59875101254333e-005 
-6.247890115256673e-005 
-4.826486561445756e-005 
6.59975002608405e-005 
-2.675275879461406e-005 
-4.883867265649745e-005 
1.073711077497633e-006 
-0.0001105265463069896 
-2.184499736267867e-005 
-7.389320092781217e-005 
3.705178822478166e-005 
-0.0001358706791683421 
-5.820278007404107e-005 
7.270576151846227e-005 
-0.0001466561597697724 
3.072761980086793e-005 
0.0001395789346089801 
-0.0001127648177758229 
0.0001231076958646388 
1.256479712019025e-005 
1.224288292585272e-005 
0.0001000543690207085 
-0.0001345383288636694 
-2.717749583453853e-005 
5.497378527163303e-005 
2.965834703402585e-005 
-2.629374953493796e-006 
4.829768763129885e-006 
-0.0001829231011121135 
-7.281021044197575e-005 
-6.681192672742618e-005 
-3.130587527271305e-006 
2.047951614300844e-005 
8.172896691560743e-006 
-0.0001232725675873455 
4.554055474114998e-005 
-7.600328772591481e-005 
-1.249207406222842e-005 
-6.264535656271308e-005 
-0.0002047298821685577 
-0.0001651568017793109 
-4.037061223704272e-005 
1.351403859181766e-005 
-4.733232737693987e-005 
-7.652604882897802e-005 
-2.049584787940397e-005 
-0.000122806228792131 
-6.089445452044526e-005 
-6.697623733823036e-005 
-7.172043644807661e-005 
-4.753936667476783e-005 
6.453812139382869e-005 
4.877773360945394e-005 
-6.459624464867301e-005 
-0.0002249078630216961 
-0.0001483149064904578 
-5.943388074655067e-005 
4.492373789303792e-005 
3.774512535248741e-005 
-5.821144126672022e-005 
-2.415341098023188e-005 
0.0002190698538974849 
5.713783619714413e-006 
3.307066695226386e-005 
-6.106082189953087e-005 
1.887520158049818e-005 
-5.282051273211137e-005 
4.904441068210681e-005 
-0.0001448474112847045 
-9.039019525953584e-005 
-9.639128109487233e-005 
-0.0002524080654143919 
-2.378417258318592e-005 
-4.367521904686975e-005 
-3.737745453580107e-005 
5.830738476717223e-005 
-3.86092090343561e-005 
-4.299491963056972e-007 
2.832696492861642e-005 
-0.0001150113931861842 
-1.591877494866462e-005 
-2.771656880557434e-005 
-0.000300102538072201 
-0.0002501600403490621 
0.0001033502831657207 
6.284954389688095e-005 
-5.106338939949571e-005 
-2.276856265461694e-005 
-2.585596131158516e-005 
3.13959420107731e-005 
-5.45183254954797e-005 
3.084975950182968e-005 
-9.817340332779516e-005 
0.0001738519517350216 
-0.000126171231417167 
4.986890417002202e-006 
-9.191486960399569e-005 
-1.66727243829463e-005 
5.93941077542694e-005 
2.193803344920869e-005 
0.0001344082213881198 
-2.418141268209183e-005 
3.874013142845969e-005 
1.102757883500762e-005 
-2.186883907736108e-005 
0.0001620543422626821 
1.358793098457923e-005 
2.780196652276522e-005 
0.0001420643323980336 
4.931407334258119e-005 
2.722815948079385e-005 
7.714054321471319e-005 
-3.445971416979094e-005 
5.422183477453932e-005 
2.173631209423573e-006 
0.0001131186203619567 
-5.98038470311592e-005 
1.786405206320296e-005 
0.0001487725936557161 
-7.058932763257074e-005 
0.0001067944519381052 
0.0002156457667462412 
-3.669798563857464e-005 
0.0001991745280017988 
8.86316292574432e-005 
8.830971506310717e-005 
0.000176121201158042 
-5.847149672639705e-005 
4.888933630271093e-005 
0.0001310406174089144 
0.0001057251791712531 
7.343745718373795e-005 
8.089660090034338e-005 
-0.0001068562689748516 
3.25662169522199e-006 
9.254905409755521e-006 
7.293624460993835e-005 
9.654634828015547e-005 
8.423972882878653e-005 
-4.720573545014212e-005 
0.0001216073868783379 
6.354441131588576e-008 
6.357475807493857e-005 
1.342147557447771e-005 
-0.0001286630500314341 
-8.908996964207899e-005 
3.569621990011234e-005 
8.958087072898918e-005 
2.873450476025405e-005 
-4.592166917785125e-007 
5.55709842577292e-005 
-4.67393966549545e-005 
1.51723776166995e-005 
9.090594799025818e-006 
4.346395689090687e-006 
2.852746546239277e-005 
0.0001406049535310562 
0.0001248445657466252 
1.147058748854615e-005 
-0.0001488410308844455 
-7.224807435314192e-005 
1.663295139068413e-005 
0.0001209905700301846 
0.0001138119574896147 
1.785539087046498e-005 
5.191342115704034e-005 
0.0002951366860347432 
8.178061575689023e-005 
0.0001091374990895018 
1.500601023760205e-005 
9.494203371765816e-005 
2.324631940512151e-005 
0.0001251112428193496 
-6.878057914738496e-005 
-1.432336312236665e-005 
-2.032444895767496e-005 
-0.0001763412332771038 
5.228265955405502e-005 
3.23916130902829e-005 
3.868937760142832e-005 
0.0001343742169044384 
3.745762310284197e-005 
7.563688294092211e-005 
0.0001043937970659088 
-3.894456104897057e-005 
6.014805718854963e-005 
4.835026333162666e-005 
-0.0002240357059349507 
-0.0001740932082118205 
0.0001794171153029076 
0.0001389163760341387 
2.500344273767432e-005 
5.329826948258679e-005 
5.021087082563198e-005 
0.000107462774148016 
2.154850664174983e-005 
0.0001069165916389985 
-2.210657119053867e-005 
0.0002499187838721878 
-5.010439928000127e-005 
8.10537225542345e-005 
-1.584803746681234e-005 
-5.412879868803488e-005 
2.193803344920869e-005 
-1.551804085592778e-005 
9.695214708300576e-005 
-6.163748698717077e-005 
1.284057123331433e-006 
-2.642849547017175e-005 
-5.932491338245688e-005 
0.0001245982679575312 
-2.386814332046396e-005 
-9.65410778232837e-006 
0.0001046082580929324 
1.185799903744048e-005 
-1.022791482442832e-005 
3.968446890962353e-005 
-7.191578847494696e-005 
1.676576046946768e-005 
-3.528244309572128e-005 
7.566254605688316e-005 
-9.725992133620073e-005 
-1.959202224190936e-005 
0.0001113165193506148 
-0.0001080454019376704 
6.933837763300765e-005 
0.0001781896924411017 
-7.415405994367478e-005 
0.0001617184536966917 
5.117555495231566e-005 
5.085364075802593e-005 
0.0001386651268528814 
-9.592757103150135e-005 
1.14332619975333e-005 
9.358454310378073e-005 
6.826910486612783e-005 
3.598138287854937e-005 
4.344052659530068e-005 
-0.0001443123432799597 
-3.419945260991715e-005 
-2.820116889534648e-005 
3.548017030487242e-005 
5.909027397510743e-005 
4.678365452369201e-005 
-8.466180975524653e-005 
8.415131257327496e-005 
-3.739252989375703e-005 
2.611868376990689e-005 
-2.403459873060766e-005 
-0.0001661191243365852 
-0.0001265460439472512 
-1.759854404990409e-006 
5.212479642397599e-005 
-8.721569544817019e-006 
-3.791529099686837e-005 
1.811490995269339e-005 
-8.419547096008814e-005 
-2.228369668842097e-005 
-2.836547950612014e-005 
-3.310967861594719e-005 
-8.928608842667673e-006 
0.0001031488792259566 
8.738849144150359e-005 
-2.59854868165607e-005 
-0.0001862971051895886 
-0.0001097041486582613 
-2.082312291452078e-005 
8.353449572512809e-005 
7.635588318455173e-005 
-1.960068343462848e-005 
1.445734685187259e-005 
0.0002576806117296483 
4.432454145170993e-005 
7.168142478435235e-005 
-2.245006406746457e-005 
5.748595941256876e-005 
-1.420975490000441e-005 
8.765516851421179e-005 
-0.0001062366534525636 
-5.177943742746419e-005 
-5.778052326277745e-005 
-0.0002137973075822952 
1.482658524886145e-005 
-5.064461214844005e-006 
1.233303296194948e-006 
9.691814259924738e-005 
1.548797739158419e-009 
3.81808086358277e-005 
6.693772276074062e-005 
-7.640063535408067e-005 
2.269198288340604e-005 
1.089418902650585e-005 
-0.0002614917802401136 
-0.0002115492825169945 
0.0001419610409978033 
0.0001014603017290344 
-1.245263156747234e-005 
1.584219517745411e-005 
1.275479652047646e-005 
7.00066998429236e-005 
-1.590756766338028e-005 
6.946051733389494e-005 
-5.956264549566718e-005 
0.0002124627095670919 
-8.756047358512966e-005 
4.359764824907646e-005 
-5.33041117719211e-005 
5.834138925091646e-005 
0.0001344082213881198 
9.695214708300576e-005 
0.0002094223350219274 
5.08327009517373e-005 
0.000113754245062239 
8.604169246879002e-005 
5.314527455642509e-005 
0.0002370684558964498 
8.860204461847304e-005 
0.0001028160801565802 
0.0002170784460318365 
0.0001243281869763504 
0.0001022422731144692 
0.0001521546568485472 
4.055439946395493e-005 
0.0001292359484083105 
7.718774484316415e-005 
0.0001881327339957373 
1.521026660269872e-005 
9.287816569703518e-005 
0.0002237867072894826 
4.424786001188724e-006 
0.0001818085655718986 
0.0002906598803800016 
3.831612799518741e-005 
0.0002741886416356084 
0.0001636457428911931 
0.0001633238286968759 
0.0002511353147917856 
1.654261690736187e-005 
0.0001239034499364078 
0.0002060547310426733 
0.0001807392928050071 
0.000148451570817396 
0.0001559107145341861 
-3.184215534102577e-005 
7.82707353289326e-005 
8.426901904349622e-005 
0.0001479503582437256 
0.0001715604619139895 
0.0001592538424625566 
2.780837818360405e-005 
0.0001966215005120993 
7.507765804510452e-005 
0.0001385888717087768 
8.843558920826801e-005 
-5.364893639766738e-005 
-1.407585600837571e-005 
0.0001107103335338641 
0.0001645949843628886 
0.0001037486183941345 
7.455489694214026e-005 
0.0001305850978916462 
2.827471697885763e-005 
9.018649125060932e-005 
8.410470843274986e-005 
7.936050932289392e-005 
0.0001035415790962654 
0.0002156190671648948 
0.0001998586793804127 
8.648470112231443e-005 
-7.382691725064724e-005 
2.766039280661598e-006 
9.164706502439867e-005 
0.0001960046836640334 
0.0001888260711234739 
9.286950450430203e-005 
0.0001269275347907545 
0.0003701507996685878 
0.0001567947293906472 
0.0001841516127232587 
9.002012387147962e-005 
0.0001699561473514896 
9.826043303883982e-005 
0.0002001253564531676 
6.233534486404069e-006 
6.069075051145956e-005 
5.468966467611649e-005 
-0.000101327119643413 
0.0001272967731877246 
0.0001074057267240246 
0.0001137034912350844 
0.0002093883305381818 
0.0001124717367365919 
0.0001506509965746459 
0.0001794079106995846 
3.606955258473806e-005 
0.0001351621708222312 
0.0001233643769653863 
-0.0001490215923012467 
-9.907909457814901e-005 
0.0002544312289365752 
0.0002139304896678988 
0.0001000175563713914 
0.000128312383116312 
0.0001252249844593278 
0.0001824768877817226 
9.656262027545889e-005 
0.0001819307052726916 
5.290754244319073e-005 
0.00032493289750595 
2.490971435371001e-005 
0.0001560678361879172 
5.916607616693202e-005 
-0.0001002482448192575 
-2.418141268209183e-005 
-6.163748698717077e-005 
5.08327009517373e-005 
-0.0001077569331182997 
-4.483538900786127e-005 
-7.254794160131849e-005 
-0.0001054443595137892 
7.847882182632832e-005 
-6.998758945166515e-005 
-5.577355391348649e-005 
5.848881196167095e-005 
-3.426144709372485e-005 
-5.634736095566884e-005 
-6.434977221570271e-006 
-0.0001180352346061017 
-2.935368566176836e-005 
-8.140188922692842e-005 
2.954309992563624e-005 
-0.0001433793674673879 
-6.571146837309384e-005 
6.519707321932545e-005 
-0.0001541648480688717 
2.321893150178524e-005 
0.0001320702463099253 
-0.0001202735060749072 
0.0001155990075654423 
5.056108821079658e-006 
4.734194626755648e-006 
9.254568072161549e-005 
-0.0001420470171627841 
-3.468618413367304e-005 
4.746509697258179e-005 
2.214965873487249e-005 
-1.013806325266572e-005 
-2.678919535912075e-006 
-0.0001904317894111591 
-8.031889874112579e-005 
-7.43206150265935e-005 
-1.063927582637195e-005 
1.297082784386924e-005 
6.642083924889018e-007 
-0.0001307812558864751 
3.803186644195216e-005 
-8.351197602505771e-005 
-2.000076236130754e-005 
-7.015404486181573e-005 
-0.0002122385704677506 
-0.0001726654900784229 
-4.787930053621655e-005 
6.005350292751615e-006 
-5.484101567607479e-005 
-8.403473712804544e-005 
-2.80045361784614e-005 
-0.0001303149170912193 
-6.840314281953645e-005 
-7.448492563726833e-005 
-7.922912474711564e-005 
-5.504805497381254e-005 
5.702943309479821e-005 
4.126904531036173e-005 
-7.210493294773896e-005 
-0.0002324165513208083 
-0.0001558235947895311 
-6.694256904569836e-005 
3.741504959392231e-005 
3.023643705335393e-005 
-6.572012956577484e-005 
-3.166209927930292e-005 
0.0002115611655984844 
-1.794904679410784e-006 
2.556197865317353e-005 
-6.856951019863157e-005 
1.136651328141391e-005 
-6.032920103116528e-005 
4.153572238310541e-005 
-0.0001523560995836937 
-9.789888355869279e-005 
-0.000103899969393988 
-0.0002599167537134547 
-3.129286088232118e-005 
-5.118390734598552e-005 
-4.488614283497835e-005 
5.079869646806126e-005 
-4.61178973335519e-005 
-7.938637495454481e-006 
2.081827662957061e-005 
-0.0001225200814853276 
-2.342746324779289e-005 
-3.522525710472406e-005 
-0.0003076112263713301 
-0.0002576687286482431 
9.584159486651125e-005 
5.534085559777925e-005 
-5.857207769868984e-005 
-3.027725095371304e-005 
-3.336464961080742e-005 
2.388725371162343e-005 
-6.202701379466705e-005 
2.334107120261598e-005 
-0.0001056820916269351 
0.0001663432634358058 
-0.0001336799197163553 
-2.521797882232313e-006 
-9.942355790320633e-005 
-3.732670070871465e-005 
3.874013142845969e-005 
1.284057123331433e-006 
0.000113754245062239 
-4.483538900786127e-005 
1.808615510261888e-005 
-9.626397490799606e-006 
-4.252281540323e-005 
0.0001414003659368652 
-7.066045341197895e-006 
7.147990196971707e-006 
0.000121410356072226 
2.866009701674275e-005 
6.574183154869375e-006 
5.648656688890262e-005 
-5.511369049561184e-005 
3.35678584486981e-005 
-1.84803451164521e-005 
9.24646440361424e-005 
-8.045782335694117e-005 
-2.789924262690813e-006 
0.0001281186173298798 
-9.124330395834953e-005 
8.614047561227046e-005 
0.0001949917904203583 
-5.735196196446748e-005 
0.0001785205516759425 
6.797765293155735e-005 
6.765573873718453e-005 
0.0001554672248321138 
-7.912547305229407e-005 
2.823535997681975e-005 
0.0001103866410830303 
8.507120284532921e-005 
5.278348085780044e-005 
6.024262457446606e-005 
-0.0001275102453006929 
-1.739735463067743e-005 
-1.139907091611321e-005 
5.228226828413527e-005 
7.589237195433743e-005 
6.358575250292221e-005 
-6.785971177595922e-005 
0.0001009534105525098 
-2.059043191447591e-005 
4.292078174914695e-005 
-7.232500751289162e-006 
-0.0001493170263572383 
-0.0001097439459679136 
1.504224357432522e-005 
6.892689440321731e-005 
8.080528434405694e-006 
-2.111319301758627e-005 
3.491700793205165e-005 
-6.739337298071055e-005 
-5.481598708968799e-006 
-1.156338152675269e-005 
-1.630758063664509e-005 
7.873489136635673e-006 
0.0001199509772052959 
0.0001041905894208927 
-9.183388837233985e-006 
-0.000169495007210261 
-9.290205067896584e-005 
-4.021024935211459e-006 
0.0001003365937044279 
9.315798116383941e-005 
-2.798585455265454e-006 
3.125944483122111e-005 
0.0002744827097089692 
6.112663943106459e-005 
8.848352276370418e-005 
-5.647966088248463e-006 
7.428805739180915e-005 
2.592343079234807e-006 
0.0001044572664936011 
-8.94345554732657e-005 
-3.497733944818586e-005 
-4.097842528349e-005 
-0.0001969952096030074 
3.162868322812707e-005 
1.173763676441058e-005 
1.803540127550938e-005 
0.0001137202405784841 
1.680364677698263e-005 
5.498290661503356e-005 
8.37398207400758e-005 
-5.959853737481938e-005 
3.949408086268855e-005 
2.769628700573422e-005 
-0.0002446896822608197 
-0.0001947471845377585 
0.0001587631389770788 
0.0001182623997082806 
4.349466411804629e-006 
3.264429315670497e-005 
2.955689449973307e-005 
8.68087978220673e-005 
8.945303158897077e-007 
8.626261531317234e-005 
-4.276054751647472e-005 
0.0002292648075463377 
-7.075837560585507e-005 
6.039974622832184e-005 
-3.650201379268871e-005 
-6.503925330212556e-005 
1.102757883500762e-005 
-2.642849547017175e-005 
8.604169246879002e-005 
-7.254794160131849e-005 
-9.626397490799606e-006 
-3.733895008422776e-005 
-7.023536799665953e-005 
0.0001136878133433499 
-3.47785979346249e-005 
-2.056456239656118e-005 
9.369780347875289e-005 
9.475444232816322e-007 
-2.11383694385686e-005 
2.877401429547566e-005 
-8.282624308907286e-005 
5.855305855223913e-006 
-4.619289770996032e-005 
6.475209144264081e-005 
-0.0001081703759503819 
-3.050247685611369e-005 
0.0001004060647364276 
-0.0001189558565518687 
5.842792301879608e-005 
0.0001672792378269054 
-8.506451455789942e-005 
0.0001508079990825434 
4.026510033813019e-005 
3.994318614377647e-005 
0.0001277546722386418 
-0.0001068380256457737 
5.22807383317655e-007 
8.267408848948438e-005 
5.735865025192656e-005 
2.507092826430757e-005 
3.253007198101068e-005 
-0.0001552227978941905 
-4.510990722411557e-005 
-3.911162350961215e-005 
2.456971569059468e-005 
4.817981936086859e-005 
3.587319990945609e-005 
-9.557226436944089e-005 
7.324085795905193e-005 
-4.830298450791581e-005 
1.520822915570885e-005 
-3.494505334471129e-005 
-0.0001770295789506968 
-0.0001374564985613603 
-1.267030901913673e-005 
4.121434180986072e-005 
-1.963202415888931e-005 
-4.882574561096914e-005 
7.204455338630043e-006 
-9.51059255741344e-005 
-3.319415130256432e-005 
-3.92759341202166e-005 
-4.402013323012448e-005 
-1.983906345678374e-005 
9.223842461182357e-005 
7.647803682737803e-005 
-3.689594143069879e-005 
-0.0001972075598037495 
-0.0001206146032724165 
-3.173357752855622e-005 
7.262404111099092e-005 
6.544542857042521e-005 
-3.051113804871995e-005 
3.546892237761387e-006 
0.0002467701571155577 
3.341408683770526e-005 
6.077097017031504e-005 
-3.336051868161279e-005 
4.657550479849586e-005 
-2.512020951410681e-005 
7.674471390014908e-005 
-0.0001171471080666246 
-6.26898920415248e-005 
-6.869097787689572e-005 
-0.000224707762196373 
3.916130634826343e-006 
-1.5974915828909e-005 
-9.677151317911977e-006 
8.600768798511603e-005 
-1.090890581644362e-005 
2.727035402160042e-005 
5.602726814667831e-005 
-8.731108996817646e-005 
1.178152826926986e-005 
-1.626558765130455e-008 
-0.0002724022348542693 
-0.0002224597371312102 
0.0001310505863835981 
9.054984711488801e-005 
-2.336308618156701e-005 
4.931740563284933e-006 
1.844341906342262e-006 
5.909624522863761e-005 
-2.681802227751344e-005 
5.855006271969422e-005 
-7.047310010982032e-005 
0.0002015522549529706 
-9.847092819928684e-005 
3.26871936348834e-005 
-6.421456638613867e-005 
-9.793567121459214e-005 
-2.186883907736108e-005 
-5.932491338245688e-005 
5.314527455642509e-005 
-0.0001054443595137892 
-4.252281540323e-005 
-7.023536799665953e-005 
-0.0001031317859090925 
8.079139543099302e-005 
-6.767501584699188e-005 
-5.346098030893207e-005 
6.08013855663036e-005 
-3.194887348924324e-005 
-5.403478735102105e-005 
-4.122403617018041e-006 
-0.0001157226610015731 
-2.70411120572033e-005 
-7.908931562233221e-005 
3.185567353029258e-005 
-0.0001410667938628685 
-6.339889476852615e-005 
6.750964682398716e-005 
-0.0001518522744642816 
2.553150510634865e-005 
0.0001343828199144901 
-0.0001179609324702589 
0.0001179115811701243 
7.368682425639599e-006 
7.046768231321028e-006 
9.485825432620584e-005 
-0.0001397344435582534 
-3.237361052908692e-005 
4.977767057710533e-005 
2.446223233943713e-005 
-7.825489648077734e-006 
-3.663459314631484e-007 
-0.0001881192158066688 
-7.800632513657578e-005 
-7.200804142202738e-005 
-8.326702221818932e-006 
1.528340144844865e-005 
2.976781997056565e-006 
-0.0001284686822818587 
4.034444004660218e-005 
-8.119940242045015e-005 
-1.768818875676823e-005 
-6.784147125723407e-005 
-0.0002099259968631478 
-0.0001703529164737788 
-4.556672693164549e-005 
8.317923897319776e-006 
-5.252844207148198e-005 
-8.172216352347958e-005 
-2.569196257394218e-005 
-0.0001280023434865649 
-6.609056921492525e-005 
-7.217235203273353e-005 
-7.691655114268337e-005 
-5.273548136936837e-005 
5.934200669935619e-005 
4.358161891499265e-005 
-6.979235934319706e-005 
-0.0002301039777162819 
-0.0001535110211849399 
-6.462999544115345e-005 
3.972762319850141e-005 
3.254901065792993e-005 
-6.340755596122295e-005 
-2.934952567472762e-005 
0.0002138737392030555 
5.176689250491076e-007 
2.787455225776491e-005 
-6.625693659412398e-005 
1.36790868859533e-005 
-5.801662742656697e-005 
4.38482959876526e-005 
-0.0001500435259791745 
-9.558630995405732e-005 
-0.0001015873957893579 
-0.0002576041801088882 
-2.89802872776754e-005 
-4.887133374142528e-005 
-4.257356923035757e-005 
5.311127007258767e-005 
-4.380532372885957e-005 
-5.626063890857427e-006 
2.313085023417644e-005 
-0.0001202075078807218 
-2.111488964320881e-005 
-3.291268350012336e-005 
-0.0003052986527667251 
-0.0002553561550435883 
9.815416847118441e-005 
5.765342920235023e-005 
-5.625950409403315e-005 
-2.796467734918982e-005 
-3.105207600622584e-005 
2.619982731613489e-005 
-5.971444019004281e-005 
2.565364480724439e-005 
-0.0001033695180223157 
0.0001686558370404637 
-0.0001313673461116584 
-2.092242775326784e-007 
-9.711098429864926e-005 
8.59875101254333e-005 
0.0001620543422626821 
0.0001245982679575312 
0.0002370684558964498 
7.847882182632832e-005 
0.0001414003659368652 
0.0001136878133433499 
8.079139543099302e-005 
0.0002647145767711828 
0.0001162481654931644 
0.0001304622010312174 
0.0002447245669065012 
0.0001519743078508692 
0.0001298883939890529 
0.0001798007777231582 
6.820052033858243e-005 
0.0001568820692829427 
0.0001048338657178056 
0.0002157788548703457 
4.285638747729675e-005 
0.0001205242865715246 
0.0002514328281640864 
3.207090687586966e-005 
0.0002094546864464048 
0.0003183060012545699 
6.596224886975907e-005 
0.0003018347625101752 
0.0001912918637657399 
0.0001909699495714003 
0.0002787814356662984 
4.418873778184371e-005 
0.0001515495708109165 
0.0002337008519170601 
0.000208385413679396 
0.0001760976916919489 
0.0001835568354086995 
-4.196034466449576e-006 
0.000105916856203528 
0.0001119151399180152 
0.0001755964791182407 
0.0001992065827884551 
0.0001868999633371412 
5.545449905828754e-005 
0.0002242676213867706 
0.0001027237789196606 
0.0001662349925833091 
0.0001160817100828487 
-2.600281552306133e-005 
1.357026486627091e-005 
0.0001383564544085293 
0.0001922411052374243 
0.0001313947392686366 
0.0001022010178165894 
0.0001582312187661023 
5.592083785343239e-005 
0.0001178326121251266 
0.0001117508293073499 
0.0001070066301974541 
0.0001311876999708031 
0.0002432651880394379 
0.0002275048002550754 
0.0001141308219969009 
-4.618079637610329e-005 
3.041216015519098e-005 
0.000119293185898963 
0.0002236508045386119 
0.0002164721919979904 
0.0001205156253787887 
0.0001545736556653208 
0.0003977969205431448 
0.000184440850265172 
0.0002117977335978649 
0.0001176662447459514 
0.0001976022682260127 
0.0001259065539134467 
0.0002277714773277583 
3.387965536101876e-005 
8.833687138593389e-005 
8.233578555065742e-005 
-7.368099876880105e-005 
0.0001549428940622897 
0.000135051847598568 
0.000141349612109729 
0.00023703445141273 
0.0001401178576112253 
0.0001782971174492752 
0.0002070540315742016 
6.37156734593095e-005 
0.0001628082916967603 
0.0001510104978399775 
-0.0001213754714265922 
-7.143297370352438e-005 
0.0002820773498112518 
0.0002415766105424963 
0.0001276636772459888 
0.0001559585039909591 
0.0001528711053339812 
0.0002101230086563143 
0.0001242087411500784 
0.0002095768261473332 
8.055366331778427e-005 
0.0003525790183804884 
5.255583522835135e-005 
0.0001837139570625761 
8.68121970415097e-005 
-6.247890115256673e-005 
1.358793098457923e-005 
-2.386814332046396e-005 
8.860204461847304e-005 
-6.998758945166515e-005 
-7.066045341197895e-006 
-3.47785979346249e-005 
-6.767501584699188e-005 
0.0001162481654931644 
-3.221824578482223e-005 
-1.80042102468538e-005 
9.625815562843505e-005 
3.507896572866295e-006 
-1.857801728897076e-005 
3.133436644518499e-005 
-8.026589093937937e-005 
8.415658004938199e-006 
-4.363254556020479e-005 
6.731244359235601e-005 
-0.0001056100238006657 
-2.794212470647177e-005 
0.0001029664168861394 
-0.0001163955044021604 
6.098827516847741e-005 
0.0001698395899765832 
-8.250416240816242e-005 
0.0001533683512322269 
4.282545248777966e-005 
4.250353829344611e-005 
0.0001303150243883966 
-0.0001042776734961123 
3.083159532961776e-006 
8.523444063916309e-005 
5.991900240155672e-005 
2.763128041395481e-005 
3.509042413067342e-005 
-0.0001526624457444504 
-4.254955507443852e-005 
-3.655127135994315e-005 
2.713006784029963e-005 
5.074017151056525e-005 
3.843355205914296e-005 
-9.301191221972538e-005 
7.580121010874173e-005 
-4.574263235827661e-005 
1.77685813053078e-005 
-3.238470119509844e-005 
-0.0001744692268010122 
-0.0001348961464117101 
-1.010995686952329e-005 
4.377469395942318e-005 
-1.707167200936477e-005 
-4.626539346135171e-005 
9.764807488135276e-006 
-9.254557342460442e-005 
-3.063379915278826e-005 
-3.671558197063413e-005 
-4.145978108051488e-005 
-1.727871130717288e-005 
9.479877676150795e-005 
7.903838897705727e-005 
-3.433558928109724e-005 
-0.0001946472076540792 
-0.0001180542511227744 
-2.917322537901824e-005 
7.518439326058889e-005 
6.800578072002523e-005 
-2.795078589913234e-005 
6.107244387340506e-006 
0.0002493305092651496 
3.597443898726191e-005 
6.333132231982374e-005 
-3.080016653201742e-005 
4.913585694803568e-005 
-2.25598573645321e-005 
7.930506604970373e-005 
-0.0001145867559170883 
-6.012953989206692e-005 
-6.613062572740204e-005 
-0.0002221474100468315 
6.476482784262646e-006 
-1.341456367941097e-005 
-7.116799168398642e-006 
8.856804013469264e-005 
-8.348553666825986e-006 
2.983070617123737e-005 
5.8587620296132e-005 
-8.475073781870838e-005 
1.434188041877545e-005 
2.54408656193447e-006 
-0.0002698418827046187 
-0.0002198993849814837 
0.0001336109385332502 
9.311019926447125e-005 
-2.080273403199939e-005 
7.492092712864154e-006 
4.40469405587902e-006 
6.165659737836889e-005 
-2.425767012796119e-005 
6.111041486926954e-005 
-6.791274796026117e-005 
0.000204112607102456 
-9.59105760497465e-005 
3.524754578452686e-005 
-6.165421423655312e-005 
-4.826486561445756e-005 
2.780196652276522e-005 
-9.65410778232837e-006 
0.0001028160801565802 
-5.577355391348649e-005 
7.147990196971707e-006 
-2.056456239656118e-005 
-5.346098030893207e-005 
0.0001304622010312174 
-1.80042102468538e-005 
-3.790174708702813e-006 
0.0001104721911666225 
1.772193211102458e-005 
-4.363981750789523e-006 
4.554840198329011e-005 
-6.605185540133892e-005 
2.262969354301529e-005 
-2.941851002209042e-005 
8.152647913050738e-005 
-9.139598826257014e-005 
-1.372808916829639e-005 
0.0001171804524242516 
-0.0001021814688640951 
7.520231070654368e-005 
0.0001840536255146923 
-6.829012687003318e-005 
0.0001675823867703152 
5.703948802588887e-005 
5.671757383153272e-005 
0.0001445290599265003 
-9.006363795796968e-005 
1.729719507107199e-005 
9.944847617730961e-005 
7.41330379397073e-005 
4.184531595213592e-005 
4.930445966886968e-005 
-0.0001384484102063059 
-2.833551953628081e-005 
-2.233723582183244e-005 
4.134410337839284e-005 
6.495420704871566e-005 
5.264758759733568e-005 
-7.879787668158781e-005 
9.001524564683057e-005 
-3.15285968201264e-005 
3.198261684347834e-005 
-1.817066565698332e-005 
-0.0001602551912628788 
-0.0001206821108735865 
4.104078668722621e-006 
5.798872949764222e-005 
-2.857636471228355e-006 
-3.205135792316728e-005 
2.397884302631091e-005 
-7.83315378864212e-005 
-1.641976361463971e-005 
-2.250154643247666e-005 
-2.724574554238897e-005 
-3.064675769066623e-006 
0.0001090128122996075 
9.325242451516354e-005 
-2.012155374300787e-005 
-0.0001804331721159706 
-0.0001038402155847056 
-1.495918984092034e-005 
8.939842879867035e-005 
8.221981625815417e-005 
-1.373675036099841e-005 
2.032127992541244e-005 
0.0002635445448032818 
5.018847452540716e-005 
7.754535785800002e-005 
-1.658613099391549e-005 
6.334989248616645e-005 
-8.345821826360097e-006 
9.351910158785121e-005 
-0.0001003727203788548 
-4.591550435385649e-005 
-5.19165901891796e-005 
-0.0002079333745087217 
2.06905183224394e-005 
7.994718587656053e-007 
7.097236369792574e-006 
0.0001027820756728712 
5.865481871361088e-006 
4.404474170942749e-005 
7.2801655834342e-005 
-7.053670228055929e-005 
2.855591595696252e-005 
1.67581221001293e-005 
-0.0002556278471664266 
-0.0002056853494434366 
0.0001478249740712708 
0.0001073242348025453 
-6.588698493910678e-006 
2.170612825102793e-005 
1.861872959402011e-005 
7.587063291644853e-005 
-1.004363458980089e-005 
7.532445040735045e-005 
-5.369871242219326e-005 
0.0002183266426405948 
-8.169654051152943e-005 
4.946158132268652e-005 
-4.744017869836538e-005 
6.59975002608405e-005 
0.0001420643323980336 
0.0001046082580929324 
0.0002170784460318365 
5.848881196167095e-005 
0.000121410356072226 
9.369780347875289e-005 
6.08013855663036e-005 
0.0002447245669065012 
9.625815562843505e-005 
0.0001104721911666225 
0.0002247345570418667 
0.0001319842979862942 
0.0001098983841245178 
0.000159810767858558 
4.821051047394513e-005 
0.0001368920594183377 
8.484385585316621e-005 
0.0001957888450057161 
2.286637761271088e-005 
0.0001005342767070188 
0.0002314428182994954 
1.208089701121755e-005 
0.0001894646765818462 
0.0002983159913899301 
4.59722390052124e-005 
0.0002818447526455322 
0.0001713018539011623 
0.0001709799397068608 
0.0002587914258017434 
2.41987279172969e-005 
0.0001315595609463189 
0.0002137108420525386 
0.000188395403814866 
0.0001561076818274326 
0.0001635668255441515 
-2.418604433106551e-005 
8.592684633893862e-005 
9.19251300534195e-005 
0.0001556064692536049 
0.0001792165729238618 
0.0001669099534725699 
3.546448919368977e-005 
0.000204277611522034 
8.273376905506813e-005 
0.0001462449827186652 
9.609170021821547e-005 
-4.599282538765089e-005 
-6.419744998341277e-006 
0.0001183664445438736 
0.0001722510953728709 
0.0001114047294040044 
8.221100795206219e-005 
0.0001382412089015586 
3.593082798882376e-005 
9.78426022606139e-005 
9.17608194428477e-005 
8.701662033286385e-005 
0.0001111976901061822 
0.0002232751781748314 
0.0002075147903904427 
9.414081213233671e-005 
-6.617080624069913e-005 
1.042215029053371e-005 
9.930317603436597e-005 
0.0002036607946739297 
0.0001964821821334054 
0.0001005256155142478 
0.000134583645800716 
0.0003778069106785216 
0.0001644508404006836 
0.0001918077237332828 
9.76762348813858e-005 
0.0001776122583614484 
0.0001059165440488394 
0.0002077814674631034 
1.388964549631876e-005 
6.834686152138915e-005 
6.234577568607113e-005 
-9.367100863341681e-005 
0.0001349528841977105 
0.0001150618377340254 
0.0001213596022450375 
0.0002170444415480355 
0.0001201278477466595 
0.0001583071075846784 
0.0001870640217096369 
4.372566359478343e-005 
0.0001428182818322399 
0.0001310204879754364 
-0.0001413654812911634 
-9.142298356812851e-005 
0.0002620873399465943 
0.0002215866006778501 
0.0001076736673813946 
0.0001359684941263578 
0.0001328810954692982 
0.0001901329987917635 
0.0001042187312855049 
0.0001895868162827038 
6.056365345312705e-005 
0.0003325890085158943 
3.256582536375627e-005 
0.0001637239471979666 
6.682218717692139e-005 
-2.675275879461406e-005 
4.931407334258119e-005 
1.185799903744048e-005 
0.0001243281869763504 
-3.426144709372485e-005 
2.866009701674275e-005 
9.475444232816322e-007 
-3.194887348924324e-005 
0.0001519743078508692 
3.507896572866295e-006 
1.772193211102458e-005 
0.0001319842979862942 
3.923403893083187e-005 
1.714812506899882e-005 
6.706050880296074e-005 
-4.453974858153661e-005 
4.41418003627531e-005 
-7.906403202417811e-006 
0.0001030385859501713 
-6.98838814428586e-005 
7.784017651472545e-006 
0.0001386925592440167 
-8.066936204428482e-005 
9.671441752634342e-005 
0.0002055657323344212 
-4.677802005030367e-005 
0.0001890944935900437 
7.855159484565693e-005 
7.822968065131352e-005 
0.0001660411667461709 
-6.855153113822184e-005 
3.880930189084965e-005 
0.0001209605829971123 
9.564514475939678e-005 
6.335742277184353e-005 
7.081656648859047e-005 
-0.0001169363033865957 
-6.823412716568224e-006 
-8.251290020327255e-007 
6.285621019822619e-005 
8.646631386840258e-005 
7.415969441714979e-005 
-5.728576986184344e-005 
0.0001115273524665853 
-1.00164900004299e-005 
5.349472366319529e-005 
3.341441162774799e-006 
-0.0001387430844430637 
-9.917000405374446e-005 
2.561618548843789e-005 
7.950083631733238e-005 
1.865447034854325e-005 
-1.053925110348905e-005 
4.549094984609028e-005 
-5.68194310665562e-005 
5.092343205189048e-006 
-9.894396126873595e-007 
-5.733638722675609e-006 
1.844743105075483e-005 
0.0001305249191193454 
0.0001147645313349263 
1.390553076869096e-006 
-0.0001589210652961787 
-8.232810876493119e-005 
6.552916978846543e-006 
0.0001109105356184911 
0.000103731923077946 
7.77535645869341e-006 
4.183338674521506e-005 
0.0002850566516230277 
7.170058134520904e-005 
9.905746467774452e-005 
4.925975825882127e-006 
8.486199930595638e-005 
1.316628499333478e-005 
0.0001150312084075386 
-7.886061355915192e-005 
-2.440339753409253e-005 
-3.040448336940424e-005 
-0.0001864212676889554 
4.220262514220732e-005 
2.231157867847679e-005 
2.860934318955352e-005 
0.0001242941824925204 
2.7377588691167e-005 
6.555684852915691e-005 
9.431376265411147e-005 
-4.902459546079995e-005 
5.006802277669531e-005 
3.827022891981983e-005 
-0.0002341157403466885 
-0.0001841732426235823 
0.0001693370808911802 
0.0001288363416223674 
1.492340832593584e-005 
4.321823507079171e-005 
4.013083641381668e-005 
9.738273973620256e-005 
1.146847222999158e-005 
9.683655722723058e-005 
-3.21866056023893e-005 
0.0002398387494603886 
-6.018443369178627e-005 
7.097368814243834e-005 
-2.592807187855385e-005 
-4.883867265649745e-005 
2.722815948079385e-005 
-1.022791482442832e-005 
0.0001022422731144692 
-5.634736095566884e-005 
6.574183154869375e-006 
-2.11383694385686e-005 
-5.403478735102105e-005 
0.0001298883939890529 
-1.857801728897076e-005 
-4.363981750789523e-006 
0.0001098983841245178 
1.714812506899882e-005 
-4.937788792816838e-006 
4.497459494113463e-005 
-6.662566244334011e-005 
2.205588650100188e-005 
-2.999231706414058e-005 
8.095267208842988e-005 
-9.196979530462713e-005 
-1.43018962103892e-005 
0.0001166066453822043 
-0.0001027552759061717 
7.462850366451826e-005 
0.0001834798184726768 
-6.886393391212933e-005 
0.0001670085797283339 
5.646568098390744e-005 
5.614376678943262e-005 
0.0001439552528842899 
-9.063744500004057e-005 
1.672338802905885e-005 
9.887466913527592e-005 
7.355923089760771e-005 
4.127150891006583e-005 
4.873065262677534e-005 
-0.0001390222172484345 
-2.890932657835781e-005 
-2.291104286391994e-005 
4.077029633636162e-005 
6.43804000065755e-005 
5.207378055524643e-005 
-7.937168372370369e-005 
8.944143860480112e-005 
-3.210240386224524e-005 
3.140880980133334e-005 
-1.87444726991152e-005 
-0.0001608289983050197 
-0.0001212559179156518 
3.530271626560631e-006 
5.741492245549642e-005 
-3.431443513306921e-006 
-3.262516496527113e-005 
2.340503598428344e-005 
-7.890534492843272e-005 
-1.699357065676442e-005 
-2.307535347461145e-005 
-2.781955258440959e-005 
-3.638482811126763e-006 
0.0001084390052575356 
9.267861747311638e-005 
-2.069536078501294e-005 
-0.0001810069791580074 
-0.0001044140226267549 
-1.553299688288038e-005 
8.882462175671605e-005 
8.164600921619363e-005 
-1.43105574030627e-005 
1.974747288346138e-005 
0.0002629707377612472 
4.961466748333515e-005 
7.69715508159977e-005 
-1.71599380358904e-005 
6.277608544415025e-005 
-8.919628868361916e-006 
9.294529454583526e-005 
-0.0001009465274209726 
-4.648931139590885e-005 
-5.249039723115194e-005 
-0.000208507181550707 
2.011671128049106e-005 
2.25664816736056e-007 
6.52342932778083e-006 
0.0001022082686308422 
5.291674829258013e-006 
4.347093466738858e-005 
7.222784879234618e-005 
-7.111050932250256e-005 
2.798210891495105e-005 
1.618431505807763e-005 
-0.0002562016542085342 
-0.0002062591564854796 
0.0001472511670293484 
0.0001067504277605813 
-7.162505535894987e-006 
2.113232120902333e-005 
1.804492255203599e-005 
7.529682587437806e-005 
-1.061744163186095e-005 
7.475064336539582e-005 
-5.427251946419953e-005 
0.000217752835598575 
-8.227034755362422e-005 
4.888777428060011e-005 
-4.801398574042648e-005 
1.073711077497633e-006 
7.714054321471319e-005 
3.968446890962353e-005 
0.0001521546568485472 
-6.434977221570271e-006 
5.648656688890262e-005 
2.877401429547566e-005 
-4.122403617018041e-006 
0.0001798007777231582 
3.133436644518499e-005 
4.554840198329011e-005 
0.000159810767858558 
6.706050880296074e-005 
4.497459494113463e-005 
9.488697867519912e-005 
-1.671327870932574e-005 
7.196827023496255e-005 
1.992006666988344e-005 
0.0001308650558224703 
-4.205741157068011e-005 
3.561048752359918e-005 
0.0001665190291161597 
-5.284289217211365e-005 
0.00012454088739852 
0.0002333922022066625 
-1.895155017807088e-005 
0.0002169209634623099 
0.0001063780647178422 
0.0001060561505235094 
0.0001938676366183714 
-4.07250612660262e-005 
6.663577176306119e-005 
0.0001487870528693219 
0.0001234716146316133 
9.118389264414602e-005 
9.864303636075678e-005 
-8.910983351441671e-005 
2.100305715559593e-005 
2.70013408701204e-005 
9.068268007036356e-005 
0.0001142927837406138 
0.0001019861642891795 
-2.945929998969297e-005 
0.0001393538223387942 
1.780997987177444e-005 
8.132119353538415e-005 
3.116791103491662e-005 
-0.0001109166145709635 
-7.134353418164946e-005 
5.34426553606028e-005 
0.0001073273061894313 
4.648094022065127e-005 
1.728721876863035e-005 
7.331741971820094e-005 
-2.899296119448179e-005 
3.291881307724601e-005 
2.683703025939155e-005 
2.209283114943524e-005 
4.627390092277318e-005 
0.0001583513889914585 
0.0001425910012070471 
2.921702294885296e-005 
-0.0001310945954241413 
-5.450163889278004e-005 
3.437938685104044e-005 
0.0001387370054906699 
0.0001315583929500593 
3.560182633083752e-005 
6.965985661727415e-005 
0.000312883121495195 
9.95270512172328e-005 
0.0001268839345498873 
3.275244569803789e-005 
0.0001126884691780615 
4.099275486545818e-005 
0.0001428576782797209 
-5.103414368705936e-005 
3.42307233799127e-006 
-2.57801349731489e-006 
-0.000158594797816736 
7.002909501438768e-005 
5.013804855063433e-005 
5.643581306167874e-005 
0.0001521206523646911 
5.520405856329393e-005 
9.338331840129978e-005 
0.0001221402325263405 
-2.119812558855852e-005 
7.789449264885018e-005 
6.609669879204582e-005 
-0.0002062892704745874 
-0.0001563467727514538 
0.0001971635507633382 
0.0001566628114944979 
4.274987819807737e-005 
7.104470494295554e-005 
6.795730628599478e-005 
0.0001252092096083628 
3.929494210213238e-005 
0.000124663027099433 
-4.360135730150017e-006 
0.0002676652193325262 
-3.23579638195908e-005 
9.880015801454993e-005 
1.898397993543917e-006 
-0.0001105265463069896 
-3.445971416979094e-005 
-7.191578847494696e-005 
4.055439946395493e-005 
-0.0001180352346061017 
-5.511369049561184e-005 
-8.282624308907286e-005 
-0.0001157226610015731 
6.820052033858243e-005 
-8.026589093937937e-005 
-6.605185540133892e-005 
4.821051047394513e-005 
-4.453974858153661e-005 
-6.662566244334011e-005 
-1.671327870932574e-005 
-0.0001283135360939031 
-3.963198714955842e-005 
-9.168019071468916e-005 
1.926479843787307e-005 
-0.0001536576689552233 
-7.598976986099407e-005 
5.49187717315943e-005 
-0.000164443149556648 
1.29406300139276e-005 
0.0001217919448220861 
-0.0001305518075626936 
0.000105320706077783 
-5.222192666750215e-006 
-5.544106861052375e-006 
8.226737923386281e-005 
-0.0001523253186506598 
-4.496448562157774e-005 
3.718679548464325e-005 
1.187135724698128e-005 
-2.041636474042836e-005 
-1.295722102376226e-005 
-0.0002007100908989585 
-9.059720022894683e-005 
-8.45989165144343e-005 
-2.09175773141816e-005 
2.692526355986677e-006 
-9.614093095343756e-006 
-0.0001410595573742702 
2.775356495424032e-005 
-9.379027751279213e-005 
-3.027906384918217e-005 
-8.043234634962425e-005 
-0.0002225168719555345 
-0.0001829437915661907 
-5.815760202404651e-005 
-4.272951195113638e-006 
-6.511931716396364e-005 
-9.431303861596071e-005 
-3.828283766637879e-005 
-0.0001405932185791337 
-7.86814443073257e-005 
-8.47632271251809e-005 
-8.950742623509203e-005 
-6.53263564617197e-005 
4.675113160697329e-005 
3.099074382254385e-005 
-8.238323443567899e-005 
-0.0002426948528087114 
-0.0001661018962773063 
-7.722087053353267e-005 
2.713674810611613e-005 
1.995813556553653e-005 
-7.599843105371041e-005 
-4.194040076721424e-005 
0.0002012828641105708 
-1.207320616727492e-005 
1.528367716533061e-005 
-7.884781168651074e-005 
1.088211793545947e-006 
-7.060750251911879e-005 
3.125742089515722e-005 
-0.000162634401071595 
-0.0001081771850465456 
-0.0001141782708818314 
-0.0002701950552013073 
-4.15711623701581e-005 
-6.146220883388346e-005 
-5.516444432285886e-005 
4.052039498014827e-005 
-5.639619882130126e-005 
-1.821693898324428e-005 
1.053997514174035e-005 
-0.0001327983829731733 
-3.370576473571788e-005 
-4.55035585925302e-005 
-0.0003178895278591376 
-0.0002679470301359554 
8.556329337882051e-005 
4.506255410999629e-005 
-6.885037918646556e-005 
-4.05555524415761e-005 
-4.364295109851836e-005 
1.360895222381992e-005 
-7.230531528237396e-005 
1.306276971491798e-005 
-0.0001159603931147526 
0.0001560649619479501 
-0.0001439582212041379 
-1.280009936996405e-005 
-0.0001097018593909783 
-2.184499736267867e-005 
5.422183477453932e-005 
1.676576046946768e-005 
0.0001292359484083105 
-2.935368566176836e-005 
3.35678584486981e-005 
5.855305855223913e-006 
-2.70411120572033e-005 
0.0001568820692829427 
8.415658004938199e-006 
2.262969354301529e-005 
0.0001368920594183377 
4.41418003627531e-005 
2.205588650100188e-005 
7.196827023496255e-005 
-3.963198714955842e-005 
4.904956179481488e-005 
-2.998641770350844e-006 
0.0001079463473822021 
-6.497612001092094e-005 
1.269177908335796e-005 
0.0001436003206759279 
-7.57616006123233e-005 
0.0001016221789583289 
0.0002104734937664887 
-4.187025861834663e-005 
0.0001940022550220882 
8.345935627762316e-005 
8.313744208330651e-005 
0.0001709489281781483 
-6.364376970628089e-005 
4.371706332280456e-005 
0.0001258683444290125 
0.0001005529061914003 
6.826518420394922e-005 
7.572432792061716e-005 
-0.0001120285419545919 
-1.9156512845891e-006 
4.082632429916708e-006 
6.776397163016951e-005 
9.137407530038523e-005 
7.906745584901019e-005 
-5.237800842991974e-005 
0.0001164351138985693 
-5.108728568436538e-006 
5.840248509515946e-005 
8.249202594735223e-006 
-0.0001338353230112257 
-9.426224262183828e-005 
3.052394692037961e-005 
8.440859774926477e-005 
2.356223178048396e-005 
-5.631489671508092e-006 
5.039871127799419e-005 
-5.191166963474102e-005 
1.000010463701445e-005 
3.918321819111964e-006 
-8.258772907731729e-007 
2.335519248265679e-005 
0.0001354326805512992 
0.0001196722927668626 
6.298314508714962e-006 
-0.0001540133038643379 
-7.742034733295439e-005 
1.146067841083044e-005 
0.0001158182970504634 
0.0001086396845099012 
1.268311789069976e-005 
4.674114817719284e-005 
0.000289964413054972 
7.660834277705989e-005 
0.0001039652261097493 
9.833737257850795e-006 
8.976976073788205e-005 
1.807404642526699e-005 
0.0001199389698395365 
-7.39528521272959e-005 
-1.949563610223826e-005 
-2.549672193747884e-005 
-0.0001815135062569702 
4.711038657415335e-005 
2.721934011047196e-005 
3.351710462144711e-005 
0.000129201943924481 
3.228535012295471e-005 
7.046460996109802e-005 
9.922152408610087e-005 
-4.411683402875041e-005 
5.497578420868086e-005 
4.317799035180208e-005 
-0.0002292079789147466 
-0.000179265481191697 
0.0001742448423231134 
0.0001337441030543584 
1.983116975792691e-005 
4.812599650278769e-005 
4.503859784578862e-005 
0.0001022905011681704 
1.637623366197252e-005 
0.0001017443186592462 
-2.727884417037161e-005 
0.0002447465108923846 
-5.52766722597381e-005 
7.588144957436645e-005 
-2.10203104466353e-005 
-7.389320092781217e-005 
2.173631209423573e-006 
-3.528244309572128e-005 
7.718774484316415e-005 
-8.140188922692842e-005 
-1.84803451164521e-005 
-4.619289770996032e-005 
-7.908931562233221e-005 
0.0001048338657178056 
-4.363254556020479e-005 
-2.941851002209042e-005 
8.484385585316621e-005 
-7.906403202417811e-006 
-2.999231706414058e-005 
1.992006666988344e-005 
-9.168019071468916e-005 
-2.998641770350844e-006 
-5.504684533548567e-005 
5.589814381708939e-005 
-0.000117024323576001 
-3.935642448173465e-005 
9.155211711081462e-005 
-0.0001278098041774415 
4.957397539319016e-005 
0.0001584252902013374 
-9.391846218351205e-005 
0.0001419540514569055 
3.141115271246994e-005 
3.108923851821101e-005 
0.0001189007246130753 
-0.0001156919732714111 
-8.331140242302555e-006 
7.382014086388538e-005 
4.850470262625439e-005 
1.62169806387514e-005 
2.367612435547814e-005 
-0.0001640767455197189 
-5.396385484968934e-005 
-4.796557113523135e-005 
1.571576806501673e-005 
3.932587173527771e-005 
2.701925228384208e-005 
-0.0001044262119950095 
6.43869103334372e-005 
-5.715693213350332e-005 
6.354281530101908e-006 
-4.379900097034618e-005 
-0.0001858835265763106 
-0.0001463104461869791 
-2.15242566447795e-005 
3.236039418411924e-005 
-2.848597178466354e-005 
-5.767969323663704e-005 
-1.649492287129424e-006 
-0.0001039598731999146 
-4.204809892808671e-005 
-4.812988174603454e-005 
-5.287408085588485e-005 
-2.869301108248083e-005 
8.338447698612822e-005 
6.762408920164955e-005 
-4.574988905647841e-005 
-0.0002060615074294809 
-0.0001294685508981404 
-4.058752515433585e-005 
6.377009348526098e-005 
5.659148094468187e-005 
-3.936508567447115e-005 
-5.307055387981572e-006 
0.0002379162094898266 
2.456013921191666e-005 
5.191702254452451e-005 
-4.221446630733461e-005 
3.77215571726618e-005 
-3.397415713994615e-005 
6.789076627436573e-005 
-0.0001260010556924065 
-7.154383966738416e-005 
-7.754492550267069e-005 
-0.0002335617098221281 
-4.937816990999327e-006 
-2.482886345474974e-005 
-1.853109894368031e-005 
7.715374035935596e-005 
-1.976285344215124e-005 
1.841640639594863e-005 
4.717332052093627e-005 
-9.616503759395724e-005 
2.927580643519244e-006 
-8.870213213342985e-006 
-0.0002812561824798581 
-0.0002313136847568578 
0.0001221966387579554 
8.169589948919259e-005 
-3.22170338072657e-005 
-3.922207062412844e-006 
-7.009605719365689e-006 
5.024229760297251e-005 
-3.567196990314102e-005 
4.969611509411885e-005 
-7.932704773556236e-005 
0.0001926983073272001 
-0.00010732487582493 
2.383324600920701e-005 
-7.306851401178558e-005 
3.705178822478166e-005 
0.0001131186203619567 
7.566254605688316e-005 
0.0001881327339957373 
2.954309992563624e-005 
9.24646440361424e-005 
6.475209144264081e-005 
3.185567353029258e-005 
0.0002157788548703457 
6.731244359235601e-005 
8.152647913050738e-005 
0.0001957888450057161 
0.0001030385859501713 
8.095267208842988e-005 
0.0001308650558224703 
1.926479843787307e-005 
0.0001079463473822021 
5.589814381708939e-005 
0.0001668431329697204 
-6.079334423355271e-006 
7.158856467081874e-005 
0.0002024971062633903 
-1.686481502489234e-005 
0.0001605189645457616 
0.0002693702793538998 
1.702652696917143e-005 
0.000252899040609487 
0.0001423561418650261 
0.0001420342276708173 
0.0002298457137656503 
-4.746984118796081e-006 
0.0001026138489102796 
0.0001847651300164712 
0.0001594496917789028 
0.0001271619697913611 
0.0001346211135080483 
-5.313175636716967e-005 
5.698113430287365e-005 
6.297941801733904e-005 
0.0001266607572175812 
0.0001502708608878847 
0.0001379642414364708 
6.5187771576024e-006 
0.0001753318994859733 
5.378805701898631e-005 
0.000117299270682576 
6.714598818216325e-005 
-7.493853742376312e-005 
-3.53654570343957e-005 
8.942073250786289e-005 
0.000143305383336716 
8.245901736796537e-005 
5.326529591601236e-005 
0.0001092954968655171 
6.985115952738123e-006 
6.889689022451768e-005 
6.281510740662925e-005 
5.80709082967421e-005 
8.225197807011018e-005 
0.0001943294661387078 
0.0001785690783543362 
6.51951000962073e-005 
-9.511651827682623e-005 
-1.852356174553813e-005 
7.035746399830349e-005 
0.0001747150826378537 
0.0001675364700972842 
7.157990347811803e-005 
0.0001056379337646259 
0.0003488611986424294 
0.0001355051283645493 
0.0001628620116972297 
6.873052284527821e-005 
0.0001486665463252773 
7.697083201268469e-005 
0.0001788357554270362 
-1.505606653979853e-005 
3.940114948527537e-005 
3.340006365001414e-005 
-0.0001226167206695227 
0.0001060071721615974 
8.611612569793543e-005 
9.241389020898176e-005 
0.0001880987295119473 
9.118213571052178e-005 
0.0001293613955485552 
0.0001581183096735011 
1.477995155862773e-005 
0.0001138725697960542 
0.000102074775939215 
-0.0001703111933273311 
-0.0001203686956042389 
0.0002331416279105556 
0.0001926408886417655 
7.872795534533543e-005 
0.0001070227820901751 
0.0001039353834332602 
0.000161187286755596 
7.527301924942705e-005 
0.0001606411042466933 
3.16179414170441e-005 
0.0003036432964797606 
3.620113327698839e-006 
0.0001347782351618312 
3.787647514085747e-005 
-0.0001358706791683421 
-5.98038470311592e-005 
-9.725992133620073e-005 
1.521026660269872e-005 
-0.0001433793674673879 
-8.045782335694117e-005 
-0.0001081703759503819 
-0.0001410667938628685 
4.285638747729675e-005 
-0.0001056100238006657 
-9.139598826257014e-005 
2.286637761271088e-005 
-6.98838814428586e-005 
-9.196979530462713e-005 
-4.205741157068011e-005 
-0.0001536576689552233 
-6.497612001092094e-005 
-0.000117024323576001 
-6.079334423355271e-006 
-0.0001790018018164196 
-0.0001013339027221823 
2.957463887035569e-005 
-0.0001897872824179058 
-1.24035028472618e-005 
9.644781196081176e-005 
-0.0001558959404239151 
7.997657321646508e-005 
-3.056632552793411e-005 
-3.088823972233769e-005 
5.692324637252158e-005 
-0.0001776694515119046 
-7.030861848280806e-005 
1.184266262345485e-005 
-1.347277561412854e-005 
-4.576049760163888e-005 
-3.830135388507577e-005 
-0.0002260542237602395 
-0.0001159413330902741 
-0.0001099430493757327 
-4.626171017544619e-005 
-2.265160650515379e-005 
-3.495822595654749e-005 
-0.0001664036902354656 
2.40943209293655e-006 
-0.0001191344103741177 
-5.562319671046268e-005 
-0.0001057764792108893 
-0.0002478610048167362 
-0.0002082879244274339 
-8.350173488518615e-005 
-2.961708405636119e-005 
-9.046345002509792e-005 
-0.0001196571714770692 
-6.362697052760683e-005 
-0.0001659373514403969 
-0.0001040255771685641 
-0.0001101073599863786 
-0.0001148515590963681 
-9.067048932302276e-005 
2.140699874564627e-005 
5.646610961286759e-006 
-0.0001077273672968554 
-0.0002680389856699029 
-0.0001914460291385522 
-0.0001025650033947025 
1.792615244852607e-006 
-5.385997295738339e-006 
-0.0001013425639148865 
-6.728453362839298e-005 
0.0001759387312494362 
-3.741733902845469e-005 
-1.006045569589086e-005 
-0.0001041919445477366 
-2.42559210677008e-005 
-9.595163538027716e-005 
5.913288034023467e-006 
-0.0001879785339327497 
-0.00013352131790769 
-0.0001395224037430044 
-0.0002955391880625439 
-6.691529523140367e-005 
-8.680634169508407e-005 
-8.050857718404581e-005 
1.517626211892745e-005 
-8.174033168250218e-005 
-4.356107184446029e-005 
-1.480415771950729e-005 
-0.0001581425158343775 
-5.904989759687156e-005 
-7.084769145374854e-005 
-0.0003432336607202903 
-0.000293291162997306 
6.021916051758401e-005 
1.97184212487272e-005 
-9.41945120477243e-005 
-6.589968530280906e-005 
-6.898708395981196e-005 
-1.173518063748841e-005 
-9.764944814361037e-005 
-1.228136314632882e-005 
-0.0001413045259760342 
0.0001307208290867529 
-0.0001693023540654182 
-3.814423223121963e-005 
-0.0001350459922521811 
-5.820278007404107e-005 
1.786405206320296e-005 
-1.959202224190936e-005 
9.287816569703518e-005 
-6.571146837309384e-005 
-2.789924262690813e-006 
-3.050247685611369e-005 
-6.339889476852615e-005 
0.0001205242865715246 
-2.794212470647177e-005 
-1.372808916829639e-005 
0.0001005342767070188 
7.784017651472545e-006 
-1.43018962103892e-005 
3.561048752359918e-005 
-7.598976986099407e-005 
1.269177908335796e-005 
-3.935642448173465e-005 
7.158856467081874e-005 
-0.0001013339027221823 
-2.366600362793986e-005 
0.000107242537964645 
-0.0001121193833237037 
6.526439624692143e-005 
0.0001741157110550568 
-7.822804132969188e-005 
0.0001576444723107273 
4.710157356636292e-005 
4.67796593719354e-005 
0.0001345911454668033 
-0.0001000015524176402 
7.359280611422436e-006 
8.951056171769158e-005 
6.419512348009407e-005 
3.190740149263701e-005 
3.936654520918071e-005 
-0.0001483863246659691 
-3.827343399594974e-005 
-3.227515028146303e-005 
3.140618891881788e-005 
5.501629258904552e-005 
4.270967313771561e-005 
-8.873579114130825e-005 
8.007733118722871e-005 
-4.146651127988408e-005 
2.204470238378306e-005 
-2.810858011662436e-005 
-0.000170193105722475 
-0.0001306200253331556 
-5.833835790992178e-006 
4.805081503789315e-005 
-1.279555093082866e-005 
-4.198927238284492e-005 
1.404092856669672e-005 
-8.826945234604824e-005 
-2.635767807437711e-005 
-3.243946089215131e-005 
-3.718366000201924e-005 
-1.300259022870776e-005 
9.907489783995799e-005 
8.331451005550149e-005 
-3.005946820252639e-005 
-0.0001903710865755997 
-0.000113778130044269 
-2.489710430044612e-005 
7.946051433916332e-005 
7.228190179856564e-005 
-2.36746648206262e-005 
1.038336546595847e-005 
0.0002536066303437199 
4.025056006587575e-005 
6.760744339840131e-005 
-2.652404545341134e-005 
5.341197802656708e-005 
-1.828373628597699e-005 
8.358118712829616e-005 
-0.0001103106348385138 
-5.585341881341107e-005 
-6.185450464875118e-005 
-0.0002178712889682562 
1.075260386289055e-005 
-9.138442600808652e-006 
-2.840678089758034e-006 
9.284416121328637e-005 
-4.072432588221914e-006 
3.410682724983718e-005 
6.286374137484979e-005 
-8.047461674010251e-005 
1.861800149744554e-005 
6.820207640554292e-006 
-0.000265565761626037 
-0.0002156232639029957 
0.0001378870596118625 
9.738632034308663e-005 
-1.652661295349098e-005 
1.176821379142706e-005 
8.680815134504696e-006 
6.593271845675945e-005 
-1.998154904941743e-005 
6.53865359478196e-005 
-6.36366268817601e-005 
0.0002083887281810115 
-9.163445497116405e-005 
3.952366686300416e-005 
-5.737809315799459e-005 
7.270576151846227e-005 
0.0001487725936557161 
0.0001113165193506148 
0.0002237867072894826 
6.519707321932545e-005 
0.0001281186173298798 
0.0001004060647364276 
6.750964682398716e-005 
0.0002514328281640864 
0.0001029664168861394 
0.0001171804524242516 
0.0002314428182994954 
0.0001386925592440167 
0.0001166066453822043 
0.0001665190291161597 
5.49187717315943e-005 
0.0001436003206759279 
9.155211711081462e-005 
0.0002024971062633903 
2.957463887035569e-005 
0.000107242537964645 
0.0002381510795570487 
1.878915826880307e-005 
0.0001961729378394399 
0.0003050242526475901 
5.268050026284899e-005 
0.0002885530139032626 
0.0001780101151588287 
0.0001776882009644689 
0.0002654996870593393 
3.090698917487171e-005 
0.0001382678222038999 
0.000220419103310212 
0.0001951036650726405 
0.00016281594308498 
0.0001702750868016876 
-1.747778307351721e-005 
9.263510759653209e-005 
9.863339131104103e-005 
0.0001623147305112929 
0.0001859248341815369 
0.0001736182147302129 
4.217275045118965e-005 
0.000210985872779737 
8.944203031261655e-005 
0.0001529532439762331 
0.000102799961475834 
-3.928456413002928e-005 
2.88516259377809e-007 
0.0001250747058015137 
0.0001789593566303828 
0.0001181129906616379 
8.891926920955662e-005 
0.0001449494701591591 
4.263908924641899e-005 
0.0001045508635182043 
9.846908070036651e-005 
9.372488159044489e-005 
0.0001179059513637724 
0.000229983439432424 
0.0002142230516480765 
0.0001008490733899137 
-5.946254498314754e-005 
1.713041154824942e-005 
0.0001060114372919931 
0.0002103690559316355 
0.0002031904433910068 
0.0001072338767718522 
0.0001412919070582985 
0.0003845151719362257 
0.0001711591016582971 
0.0001985159849909226 
0.0001043844961390179 
0.0001843205196190262 
0.0001126248053064591 
0.0002144897287207147 
2.059790675396226e-005 
7.505512277908489e-005 
6.905403694376359e-005 
-8.696274737572819e-005 
0.0001416611454554167 
0.0001217700989916931 
0.0001280678635027704 
0.0002237527028057764 
0.0001268361090043335 
0.0001650153688422909 
0.0001937722829672293 
5.043392485240465e-005 
0.0001495265430898753 
0.0001377287492330826 
-0.0001346572200334425 
-8.471472231039105e-005 
0.0002687956012043266 
0.0002282948619354919 
0.0001143819286390672 
0.0001426767553839148 
0.0001395893567270199 
0.0001968412600494723 
0.000110926992543153 
0.0001962950775404748 
6.727191471083983e-005 
0.0003392972697735483 
3.927408662139226e-005 
0.0001704322084556117 
7.353044843465322e-005 
-0.0001466561597697724 
-7.058932763257074e-005 
-0.0001080454019376704 
4.424786001188724e-006 
-0.0001541648480688717 
-9.124330395834953e-005 
-0.0001189558565518687 
-0.0001518522744642816 
3.207090687586966e-005 
-0.0001163955044021604 
-0.0001021814688640951 
1.208089701121755e-005 
-8.066936204428482e-005 
-0.0001027552759061717 
-5.284289217211365e-005 
-0.000164443149556648 
-7.57616006123233e-005 
-0.0001278098041774415 
-1.686481502489234e-005 
-0.0001897872824179058 
-0.0001121193833237037 
1.878915826880307e-005 
-0.0002005727630194036 
-2.318898344878999e-005 
8.566233135937719e-005 
-0.000166681421025456 
6.91910926149564e-005 
-4.135180612944304e-005 
-4.167372032377892e-005 
4.613776577112051e-005 
-0.000188454932113326 
-8.109409908426847e-005 
1.05718202202464e-006 
-2.425825621571416e-005 
-5.654597820325945e-005 
-4.908683448657614e-005 
-0.0002368397043617125 
-0.000126726813691676 
-0.0001207285299771585 
-5.704719077691867e-005 
-3.343708710669701e-005 
-4.574370655806816e-005 
-0.0001771891708370639 
-8.376048508463501e-006 
-0.0001299198909755736 
-6.640867731193609e-005 
-0.0001165619598123727 
-0.0002586464854182495 
-0.0002190734050289638 
-9.428721548673279e-005 
-4.040256465787896e-005 
-0.0001012489306266429 
-0.0001304426520786835 
-7.441245112904904e-005 
-0.0001767228320418777 
-0.0001148110577700759 
-0.0001208928405879407 
-0.0001256370396978249 
-0.0001014559699244491 
1.062151814417985e-005 
-5.138869640253355e-006 
-0.0001185128478983597 
-0.0002788244662714453 
-0.0002022315097401057 
-0.0001133504839962976 
-8.992865356641101e-006 
-1.617147789724171e-005 
-0.0001121280445163907 
-7.807001422993676e-005 
0.0001651532506479061 
-4.820281963005505e-005 
-2.084593629739978e-005 
-0.000114977425149262 
-3.504140166923268e-005 
-0.000106737115981849 
-4.872192567559443e-006 
-0.0001987640145343373 
-0.000144306798509291 
-0.0001503078843445482 
-0.0003063246686640467 
-7.770077583292298e-005 
-9.759182229665489e-005 
-9.129405778555116e-005 
4.39078151750927e-006 
-9.252581228401479e-005 
-5.434655244600477e-005 
-2.558963832098894e-005 
-0.0001689279964359338 
-6.983537819847411e-005 
-8.163317205517823e-005 
-0.000354019141321828 
-0.0003040766435987076 
4.943367991606902e-005 
8.932940647282705e-006 
-0.0001049799926491589 
-7.668516590438078e-005 
-7.977256456125313e-005 
-2.252066123887662e-005 
-0.0001084349287450737 
-2.306684374776904e-005 
-0.0001520900065774253 
0.000119935348485263 
-0.0001800878346668877 
-4.8929712832693e-005 
-0.0001458314728536859 
3.072761980086793e-005 
0.0001067944519381052 
6.933837763300765e-005 
0.0001818085655718986 
2.321893150178524e-005 
8.614047561227046e-005 
5.842792301879608e-005 
2.553150510634865e-005 
0.0002094546864464048 
6.098827516847741e-005 
7.520231070654368e-005 
0.0001894646765818462 
9.671441752634342e-005 
7.462850366451826e-005 
0.00012454088739852 
1.29406300139276e-005 
0.0001016221789583289 
4.957397539319016e-005 
0.0001605189645457616 
-1.24035028472618e-005 
6.526439624692143e-005 
0.0001961729378394399 
-2.318898344878999e-005 
0.0001541947961218283 
0.0002630461109300405 
1.070235854519484e-005 
0.0002465748721855594 
0.0001360319734412044 
0.0001357100592469087 
0.0002235215453417126 
-1.1071152542764e-005 
9.628968048632456e-005 
0.0001784409615925983 
0.000153125523354971 
0.0001208378013674447 
0.0001282969450841133 
-5.945592479115276e-005 
5.065696587888247e-005 
5.665524959343206e-005 
0.0001203365887937129 
0.0001439466924639509 
0.0001316400730126187 
1.946087336451127e-007 
0.0001690077310620922 
4.746388859505632e-005 
0.000110975102258713 
6.082181975826446e-005 
-8.126270584759973e-005 
-4.168962545827506e-005 
8.309656408400099e-005 
0.0001369812149128226 
7.613484894402399e-005 
4.694112749198699e-005 
0.0001029713284415772 
6.609475287617159e-007 
6.25727218005631e-005 
5.649093898270199e-005 
5.174673987284618e-005 
7.59278096462222e-005 
0.0001880052977147777 
0.0001722449099303766 
5.887093167225598e-005 
-0.0001014406867008117 
-2.484773016946005e-005 
6.403329557438374e-005 
0.000168390914213991 
0.0001612123016733854 
6.525573505426817e-005 
9.931376534073117e-005 
0.0003425370302185287 
0.0001291809599405807 
0.0001565378432733382 
6.240635442142118e-005 
0.0001423423779013998 
7.064666358882751e-005 
0.0001725115870031113 
-2.138023496369368e-005 
3.307698106134897e-005 
2.7075895226135e-005 
-0.0001289408890933642 
9.968300373772236e-005 
7.979195727402124e-005 
8.608972178505261e-005 
0.0001817745610881133 
8.485796728662896e-005 
0.0001230372271246864 
0.0001517941412496273 
8.455783134740468e-006 
0.0001075484013721874 
9.575060751541902e-005 
-0.0001766353617512181 
-0.0001266928640280389 
0.0002268174594866714 
0.0001863167202178806 
7.240378692138829e-005 
0.0001006986136662612 
9.761121500936811e-005 
0.0001548631183317649 
6.894885082550634e-005 
0.0001543169358228125 
2.529377299315181e-005 
0.0002973191280558399 
-2.704055096278268e-006 
0.0001284540667379597 
3.155230671699948e-005 
0.0001395789346089801 
0.0002156457667462412 
0.0001781896924411017 
0.0002906598803800016 
0.0001320702463099253 
0.0001949917904203583 
0.0001672792378269054 
0.0001343828199144901 
0.0003183060012545699 
0.0001698395899765832 
0.0001840536255146923 
0.0002983159913899301 
0.0002055657323344212 
0.0001834798184726768 
0.0002333922022066625 
0.0001217919448220861 
0.0002104734937664887 
0.0001584252902013374 
0.0002693702793538998 
9.644781196081176e-005 
0.0001741157110550568 
0.0003050242526475901 
8.566233135937719e-005 
0.0002630461109300405 
0.0003718974257382036 
0.0001195536733533372 
0.0003554261869937255 
0.0002448832882493178 
0.0002445613740550591 
0.0003323728601498994 
9.778016226539561e-005 
0.0002051409952944885 
0.0002872922764007762 
0.0002619768381631189 
0.0002296891161755623 
0.0002371482598922405 
4.939539001700553e-005 
0.0001595082806870456 
0.0001655065644016015 
0.0002291879036018376 
0.0002527980072720967 
0.0002404913878207977 
0.0001090459235418192 
0.0002778590458702712 
0.0001563152034032131 
0.0002198264170668636 
0.0001696731345663659 
2.758860896049381e-005 
6.716168934982988e-005 
0.0001919478788921159 
0.0002458325297209591 
0.0001849861637521939 
0.0001557924423001739 
0.0002118226432497068 
0.0001095122623368856 
0.0001714240366086664 
0.0001653422537908475 
0.0001605980546809935 
0.0001847791244543724 
0.000296856612522939 
0.0002810962247385454 
0.0001677222464804254 
7.410628107328679e-006 
8.400358463864062e-005 
0.0001728846103825561 
0.0002772422290221252 
0.000270063616481503 
0.0001741070498623883 
0.0002081650801489261 
0.0004513883450266572 
0.0002380322747487816 
0.0002653891580814368 
0.0001712576692294988 
0.0002511936927094876 
0.0001794979783968957 
0.0002813629018112632 
8.747107984444559e-005 
0.0001419282958695567 
0.0001359272100342312 
-2.008957428525323e-005 
0.0002085343185458432 
0.0001886432720821076 
0.00019494103659324 
0.0002906258758962879 
0.000193709282094726 
0.0002318885419328094 
0.0002606454560577894 
0.0001173070979429332 
0.0002163997161803287 
0.0002046019223235527 
-6.778404694301401e-005 
-1.784154921992485e-005 
0.0003356687742948017 
0.000295168035026047 
0.0001812551017295909 
0.0002095499284744408 
0.0002064625298175548 
0.000263714433139923 
0.0001778001656336506 
0.0002631682506309355 
0.0001341450878013165 
0.0004061704428641006 
0.0001061472597119668 
0.0002373053815460744 
0.000140403621525044 
-0.0001127648177758229 
-3.669798563857464e-005 
-7.415405994367478e-005 
3.831612799518741e-005 
-0.0001202735060749072 
-5.735196196446748e-005 
-8.506451455789942e-005 
-0.0001179609324702589 
6.596224886975907e-005 
-8.250416240816242e-005 
-6.829012687003318e-005 
4.59722390052124e-005 
-4.677802005030367e-005 
-6.886393391212933e-005 
-1.895155017807088e-005 
-0.0001305518075626936 
-4.187025861834663e-005 
-9.391846218351205e-005 
1.702652696917143e-005 
-0.0001558959404239151 
-7.822804132969188e-005 
5.268050026284899e-005 
-0.000166681421025456 
1.070235854519484e-005 
0.0001195536733533372 
-0.0001327900790313846 
0.0001030824346089732 
-7.460464135427007e-006 
-7.782378329790654e-006 
8.0029107765072e-005 
-0.0001545635901193443 
-4.720275709027298e-005 
3.494852401598183e-005 
9.633085778335272e-006 
-2.265463620922326e-005 
-1.519549249259473e-005 
-0.0002029483623677858 
-9.283547169771787e-005 
-8.683718798320798e-005 
-2.315584878296133e-005 
4.542548872873271e-007 
-1.185236456404377e-005 
-0.0001432978288429903 
2.551529348546077e-005 
-9.602854898157734e-005 
-3.251733531797243e-005 
-8.267061781845611e-005 
-0.0002247551434242954 
-0.000185182063034955 
-6.039587349273202e-005 
-6.51122266380281e-006 
-6.735758863260381e-005 
-9.655131008463624e-005 
-4.052110913504214e-005 
-0.0001428314900478832 
-8.091971577611223e-005 
-8.700149859391389e-005 
-9.174569770378001e-005 
-6.756462793038785e-005 
4.451286013817432e-005 
2.875247235374209e-005 
-8.462150590433018e-005 
-0.0002449331242774407 
-0.0001683401677461388 
-7.945914200221572e-005 
2.489847663737312e-005 
1.771986409674439e-005 
-7.823670252238268e-005 
-4.417867223595738e-005 
0.0001990445926418899 
-1.431147763599524e-005 
1.304540569671329e-005 
-8.108608315521573e-005 
-1.150059675220664e-006 
-7.284577398780886e-005 
2.901914942641999e-005 
-0.0001648726725403797 
-0.000110415456515249 
-0.0001164165423505425 
-0.0002724333266699689 
-4.380943383887637e-005 
-6.370048030260395e-005 
-5.740271579154589e-005 
3.8282123511424e-005 
-5.863447029009332e-005 
-2.045521045200324e-005 
8.301703672956367e-006 
-0.0001350366544418499 
-3.59440362044369e-005 
-4.774183006127436e-005 
-0.0003201277993278603 
-0.0002701853016047267 
8.332502190996089e-005 
4.282428264119506e-005 
-7.108865065524628e-005 
-4.279382391041145e-005 
-4.588122256727873e-005 
1.137068075512658e-005 
-7.454358675114386e-005 
1.082449824617081e-005 
-0.0001181986645835129 
0.0001538266904792403 
-0.0001461964926729095 
-1.503837083867231e-005 
-0.0001119401308597171 
0.0001231076958646388 
0.0001991745280017988 
0.0001617184536966917 
0.0002741886416356084 
0.0001155990075654423 
0.0001785205516759425 
0.0001508079990825434 
0.0001179115811701243 
0.0003018347625101752 
0.0001533683512322269 
0.0001675823867703152 
0.0002818447526455322 
0.0001890944935900437 
0.0001670085797283339 
0.0002169209634623099 
0.000105320706077783 
0.0001940022550220882 
0.0001419540514569055 
0.000252899040609487 
7.997657321646508e-005 
0.0001576444723107273 
0.0002885530139032626 
6.91910926149564e-005 
0.0002465748721855594 
0.0003554261869937255 
0.0001030824346089732 
0.0003389549482493356 
0.0002284120495049018 
0.0002280901353105458 
0.0003159016214054175 
8.130892352095126e-005 
0.0001886697565500789 
0.000270821037656341 
0.0002455055994187327 
0.0002132178774311767 
0.0002206770211478344 
3.292415127256113e-005 
0.0001430370419425998 
0.0001490353256571303 
0.0002127166648573832 
0.0002363267685276598 
0.0002240201490763208 
9.257468479737434e-005 
0.0002613878071257837 
0.0001398439646587686 
0.0002033551783223968 
0.0001532018958219009 
1.111737021604695e-005 
5.069045060540231e-005 
0.0001754766401476209 
0.000229361290976512 
0.0001685149250077336 
0.0001393212035557024 
0.0001953514045052899 
9.304102359250418e-005 
0.0001549527978642203 
0.0001488710150464457 
0.0001441268159365293 
0.0001683078857098655 
0.0002803853737785417 
0.0002646249859941549 
0.0001512510077360622 
-9.060610637077788e-006 
6.753234589417443e-005 
0.0001564133716381074 
0.0002607709902777195 
0.0002535923777371164 
0.0001576358111179915 
0.0001916938414045053 
0.0004349171062822695 
0.0002215610360044002 
0.0002489179193369477 
0.00015478643048515 
0.0002347224539651509 
0.0001630267396526068 
0.0002648916630669047 
7.099984110010554e-005 
0.000125457057125154 
0.0001194559712898238 
-3.656081302964094e-005 
0.0001920630798014638 
0.0001721720333377835 
0.0001784697978488391 
0.0002741546371519006 
0.0001772380433503273 
0.0002154173031883888 
0.0002441742173133266 
0.0001008358591984703 
0.0001999284774359709 
0.0001881306835791754 
-8.425528568745931e-005 
-3.431278796433092e-005 
0.0003191975355503737 
0.0002786967962816159 
0.0001647838629850744 
0.0001930786897300298 
0.0001899912910731014 
0.0002472431943954466 
0.0001613289268891728 
0.0002466970118864909 
0.00011767384905691 
0.0003896992041195787 
8.967602096742722e-005 
0.0002208341428016656 
0.000123932382780657 
1.256479712019025e-005 
8.86316292574432e-005 
5.117555495231566e-005 
0.0001636457428911931 
5.056108821079658e-006 
6.797765293155735e-005 
4.026510033813019e-005 
7.368682425639599e-006 
0.0001912918637657399 
4.282545248777966e-005 
5.703948802588887e-005 
0.0001713018539011623 
7.855159484565693e-005 
5.646568098390744e-005 
0.0001063780647178422 
-5.222192666750215e-006 
8.345935627762316e-005 
3.141115271246994e-005 
0.0001423561418650261 
-3.056632552793411e-005 
4.710157356636292e-005 
0.0001780101151588287 
-4.135180612944304e-005 
0.0001360319734412044 
0.0002448832882493178 
-7.460464135427007e-006 
0.0002284120495049018 
0.0001178691507605719 
0.0001175472365661463 
0.000205358722661092 
-2.923397522341109e-005 
7.812685780573914e-005 
0.0001602781389119677 
0.000134962700674362 
0.0001026749786868128 
0.0001101341224034586 
-7.761874747174475e-005 
3.249414319827106e-005 
3.849242691283103e-005 
0.0001021737661130517 
0.0001257838697832974 
0.0001134772503319506 
-1.79682139469894e-005 
0.0001508449083815279 
2.930106591442012e-005 
9.281227957806163e-005 
4.265899707765052e-005 
-9.942552852823895e-005 
-5.985244813888101e-005 
6.493374140331169e-005 
0.0001188183922322319 
5.797202626343352e-005 
2.877830481133687e-005 
8.480850576094078e-005 
-1.75018751518226e-005 
4.440989911984232e-005 
3.832811630202418e-005 
3.358391719222896e-005 
5.77649869655632e-005 
0.0001698424750341544 
0.0001540820872497229 
4.070810899167305e-005 
-0.0001196035093814102 
-4.301055285012791e-005 
4.587047289376268e-005 
0.0001502280915333761 
0.0001430494789927434 
4.709291237362298e-005 
8.115094266009596e-005 
0.0003243742075379035 
0.0001110181372600854 
0.0001383750205926582 
4.42435317408147e-005 
0.0001241795552208036 
5.248384090826696e-005 
0.0001543487643224683 
-3.954305764429718e-005 
1.491415838078908e-005 
8.913072545515257e-006 
-0.0001471037117739938 
8.152018105718198e-005 
6.162913459352848e-005 
6.792689910448852e-005 
0.0001636117384074807 
6.66951446059946e-005 
0.0001048744044440411 
0.0001336313185690282 
-9.707039545841472e-006 
8.938557869165887e-005 
7.758778483477141e-005 
-0.0001947981844318689 
-0.0001448556867086581 
0.0002086546368060811 
0.0001681538975372712 
5.424096424074721e-005 
8.253579098561573e-005 
7.94483923287448e-005 
0.000136700295651083 
5.078602814487312e-005 
0.0001361541131421173 
7.130950312502469e-006 
0.0002791563053752109 
-2.086687777691181e-005 
0.0001102912440573641 
1.338948403626885e-005 
1.224288292585272e-005 
8.830971506310717e-005 
5.085364075802593e-005 
0.0001633238286968759 
4.734194626755648e-006 
6.765573873718453e-005 
3.994318614377647e-005 
7.046768231321028e-006 
0.0001909699495714003 
4.250353829344611e-005 
5.671757383153272e-005 
0.0001709799397068608 
7.822968065131352e-005 
5.614376678943262e-005 
0.0001060561505235094 
-5.544106861052375e-006 
8.313744208330651e-005 
3.108923851821101e-005 
0.0001420342276708173 
-3.088823972233769e-005 
4.67796593719354e-005 
0.0001776882009644689 
-4.167372032377892e-005 
0.0001357100592469087 
0.0002445613740550591 
-7.782378329790654e-006 
0.0002280901353105458 
0.0001175472365661463 
0.0001172253223718847 
0.0002050368084667399 
-2.955588941772051e-005 
7.7804943611349e-005 
0.0001599562247175859 
0.0001346407864799214 
0.0001023530644924036 
0.0001098122082091295 
-7.794066166608513e-005 
3.217222900397718e-005 
3.817051271844258e-005 
0.0001018518519187009 
0.0001254619555889476 
0.0001131553361376554 
-1.829012814139008e-005 
0.0001505229941870659 
2.897915172004858e-005 
9.2490365383733e-005 
4.233708288324943e-005 
-9.974744272262379e-005 
-6.017436233322015e-005 
6.461182720900929e-005 
0.0001184964780378374 
5.765011206908756e-005 
2.845639061705853e-005 
8.44865915665874e-005 
-1.782378934618627e-005 
4.408798492558896e-005 
3.800620210775466e-005 
3.326200299784065e-005 
5.744307277118842e-005 
0.0001695205608398078 
0.0001537601730554454 
4.038619479730808e-005 
-0.0001199254235757615 
-4.333246704435144e-005 
4.554855869944618e-005 
0.0001499061773390717 
0.0001427275647984556 
4.677099817932345e-005 
8.082902846577453e-005 
0.0003240522933436711 
0.0001106962230656881 
0.0001380531063983308 
4.392161754648279e-005 
0.0001238576410265129 
5.216192671391275e-005 
0.0001540268501281658 
-3.986497183852987e-005 
1.459224418641067e-005 
8.59115835113741e-006 
-0.0001474256259683973 
8.119826686278762e-005 
6.130722039908448e-005 
6.760498491007261e-005 
0.0001632898242131761 
6.637323041162597e-005 
0.0001045524902497088 
0.0001333094043746318 
-1.002895374018699e-005 
8.906366449725844e-005 
7.726587064038619e-005 
-0.0001951200986261728 
-0.0001451776009030035 
0.0002083327226117513 
0.0001678319833429721 
5.391905004647633e-005 
8.221387679137527e-005 
7.912647813441511e-005 
0.000136378381456845 
5.04641139505751e-005 
0.0001358321989478751 
6.809036118286266e-006 
0.0002788343911809644 
-2.118879197116471e-005 
0.0001099693298629961 
1.30675698420136e-005 
0.0001000543690207085 
0.000176121201158042 
0.0001386651268528814 
0.0002511353147917856 
9.254568072161549e-005 
0.0001554672248321138 
0.0001277546722386418 
9.485825432620584e-005 
0.0002787814356662984 
0.0001303150243883966 
0.0001445290599265003 
0.0002587914258017434 
0.0001660411667461709 
0.0001439552528842899 
0.0001938676366183714 
8.226737923386281e-005 
0.0001709489281781483 
0.0001189007246130753 
0.0002298457137656503 
5.692324637252158e-005 
0.0001345911454668033 
0.0002654996870593393 
4.613776577112051e-005 
0.0002235215453417126 
0.0003323728601498994 
8.0029107765072e-005 
0.0003159016214054175 
0.000205358722661092 
0.0002050368084667399 
0.0002928482945616848 
5.825559667717933e-005 
0.0001656164297062066 
0.000247767710812481 
0.0002224522725748589 
0.0001901645505872701 
0.0001976236943039499 
9.870824428785025e-006 
0.0001199837150988605 
0.0001259819988133742 
0.0001896633380136675 
0.0002132734416838983 
0.0002009668222324884 
6.952135795343943e-005 
0.0002383344802820449 
0.0001167906378149708 
0.0001803018514786665 
0.0001301485689781719 
-1.193595662775646e-005 
2.763712376164738e-005 
0.0001524233133037343 
0.0002063079641326593 
0.0001454615981639216 
0.0001162678767118436 
0.0001722980776614501 
6.998769674865361e-005 
0.0001318994710205153 
0.0001258176882025489 
0.0001210734890926697 
0.0001452545588660823 
0.0002573320469346995 
0.0002415716591502833 
0.0001281976808921846 
-3.211393748081439e-005 
4.447901905037997e-005 
0.0001333600447943156 
0.0002377176634339183 
0.0002305390508933267 
0.0001345824842741747 
0.00016864051456065 
0.0004118637794385402 
0.0001985077091605597 
0.0002258645924932803 
0.000131733103641374 
0.0002116691271213677 
0.000139973412808709 
0.0002418383362229942 
4.794651425631659e-005 
0.0001024037302812413 
9.64026444460015e-005 
-5.961413987349921e-005 
0.0001690097529576496 
0.0001491187064939207 
0.0001554164710049505 
0.000251101310308056 
0.0001541847165065008 
0.0001923639763445546 
0.0002211208904695872 
7.778253235465345e-005 
0.0001768751505921288 
0.0001650773567353279 
-0.0001073086125313058 
-5.736611480812033e-005 
0.0002961442087065716 
0.000255643469437765 
0.0001417305361412609 
0.0001700253628861215 
0.0001669379642292948 
0.0002241898675516886 
0.0001382756000454562 
0.0002236436850426788 
9.462052221304853e-005 
0.0003666458772757685 
6.662269412362197e-005 
0.0001977808159578048 
0.0001008790559368546 
-0.0001345383288636694 
-5.847149672639705e-005 
-9.592757103150135e-005 
1.654261690736187e-005 
-0.0001420470171627841 
-7.912547305229407e-005 
-0.0001068380256457737 
-0.0001397344435582534 
4.418873778184371e-005 
-0.0001042776734961123 
-9.006363795796968e-005 
2.41987279172969e-005 
-6.855153113822184e-005 
-9.063744500004057e-005 
-4.07250612660262e-005 
-0.0001523253186506598 
-6.364376970628089e-005 
-0.0001156919732714111 
-4.746984118796081e-006 
-0.0001776694515119046 
-0.0001000015524176402 
3.090698917487171e-005 
-0.000188454932113326 
-1.1071152542764e-005 
9.778016226539561e-005 
-0.0001545635901193443 
8.130892352095126e-005 
-2.923397522341109e-005 
-2.955588941772051e-005 
5.825559667717933e-005 
-0.0001763371012072603 
-6.897626817826669e-005 
1.317501292799807e-005 
-1.214042530963829e-005 
-4.442814729715165e-005 
-3.696900358042246e-005 
-0.0002247218734556507 
-0.0001146089827855943 
-0.0001086106990710735 
-4.492935987084117e-005 
-2.131925620062807e-005 
-3.362587565194607e-005 
-0.0001650713399309304 
3.741782397616379e-006 
-0.000117802060069452 
-5.429084640586491e-005 
-0.0001044441289063516 
-0.0002465286545122641 
-0.0002069555741228946 
-8.21693845806335e-005 
-2.828473375177103e-005 
-8.91310997205328e-005 
-0.0001183248211726224 
-6.229462022305668e-005 
-0.0001646050011358173 
-0.000102693226864065 
-0.0001087750096819437 
-0.000113519208791729 
-8.933813901834334e-005 
2.273934905024409e-005 
6.978961265791249e-006 
-0.0001063950169922976 
-0.0002667066353653379 
-0.000190113678834043 
-0.0001012326530901759 
3.124965549484964e-006 
-4.053646991146882e-006 
-0.0001000102136103101 
-6.595218332381432e-005 
0.0001772710815539721 
-3.608498872397463e-005 
-8.728105391200302e-006 
-0.0001028595942431042 
-2.292357076308533e-005 
-9.461928507571109e-005 
7.245638338541447e-006 
-0.0001866461836281846 
-0.000132188967603272 
-0.0001381900534384961 
-0.0002942068377579197 
-6.558294492675269e-005 
-8.547399139055479e-005 
-7.917622687948182e-005 
1.650861242350669e-005 
-8.040798137800743e-005 
-4.222872153991781e-005 
-1.347180741489468e-005 
-0.0001568101655297723 
-5.771754729227362e-005 
-6.951534114914161e-005 
-0.0003419013104158254 
-0.0002919588126926248 
6.155151082207519e-005 
2.105077155332862e-005 
-9.286216174314194e-005 
-6.45673349982506e-005 
-6.765473365514643e-005 
-1.040283033285254e-005 
-9.631709783905682e-005 
-1.094901284178534e-005 
-0.0001399721756713778 
0.0001320531793913516 
-0.0001679700037607643 
-3.681188192653687e-005 
-0.000133713641947614 
-2.717749583453853e-005 
4.888933630271093e-005 
1.14332619975333e-005 
0.0001239034499364078 
-3.468618413367304e-005 
2.823535997681975e-005 
5.22807383317655e-007 
-3.237361052908692e-005 
0.0001515495708109165 
3.083159532961776e-006 
1.729719507107199e-005 
0.0001315595609463189 
3.880930189084965e-005 
1.672338802905885e-005 
6.663577176306119e-005 
-4.496448562157774e-005 
4.371706332280456e-005 
-8.331140242302555e-006 
0.0001026138489102796 
-7.030861848280806e-005 
7.359280611422436e-006 
0.0001382678222038999 
-8.109409908426847e-005 
9.628968048632456e-005 
0.0002051409952944885 
-4.720275709027298e-005 
0.0001886697565500789 
7.812685780573914e-005 
7.7804943611349e-005 
0.0001656164297062066 
-6.897626817826669e-005 
3.838456485091628e-005 
0.0001205358459571519 
9.522040771950777e-005 
6.293268573202829e-005 
7.039182944866515e-005 
-0.0001173610404266481 
-7.248149756599808e-006 
-1.249866042010144e-006 
6.243147315827322e-005 
8.604157682845741e-005 
7.373495737717599e-005 
-5.771050690188044e-005 
0.0001111026154266504 
-1.044122704048045e-005 
5.306998662319055e-005 
2.916704122719517e-006 
-0.0001391678214831538 
-9.959474109381439e-005 
2.519144844839177e-005 
7.907609927730538e-005 
1.822973330851172e-005 
-1.096398814349046e-005 
4.5066212806085e-005 
-5.724416810672993e-005 
4.667606164976501e-006 
-1.414176652797162e-006 
-6.158375762635287e-006 
1.802269401077952e-005 
0.0001301001820793799 
0.0001143397942948869 
9.658160368148722e-007 
-0.000159345802336259 
-8.27528458049136e-005 
6.128179938975707e-006 
0.0001104857985785785 
0.000103307186037969 
7.350619418745039e-006 
4.140864970528048e-005 
0.0002846319145830925 
7.127584430517326e-005 
9.86327276378733e-005 
4.501238785925325e-006 
8.443726226597504e-005 
1.274154795336222e-005 
0.0001146064713676258 
-7.928535059913256e-005 
-2.482813457412057e-005 
-3.082922040936751e-005 
-0.0001868460047288074 
4.177788810231236e-005 
2.188684163849119e-005 
2.818460614959697e-005 
0.0001238694454526331 
2.695285165109917e-005 
6.513211148917782e-005 
9.388902561415349e-005 
-4.94493325007051e-005 
4.964328573673624e-005 
3.784549187991726e-005 
-0.0002345404773867236 
-0.0001845979796635293 
0.000168912343851184 
0.0001284116045824347 
1.449867128593481e-005 
4.279349803079072e-005 
3.970609937391599e-005 
9.695800269620324e-005 
1.104373519001726e-005 
9.641182018732296e-005 
-3.261134264229469e-005 
0.0002394140124204192 
-6.060917073168532e-005 
7.054895110249466e-005 
-2.635280891855399e-005 
5.497378527163303e-005 
0.0001310406174089144 
9.358454310378073e-005 
0.0002060547310426733 
4.746509697258179e-005 
0.0001103866410830303 
8.267408848948438e-005 
4.977767057710533e-005 
0.0002337008519170601 
8.523444063916309e-005 
9.944847617730961e-005 
0.0002137108420525386 
0.0001209605829971123 
9.887466913527592e-005 
0.0001487870528693219 
3.718679548464325e-005 
0.0001258683444290125 
7.382014086388538e-005 
0.0001847651300164712 
1.184266262345485e-005 
8.951056171769158e-005 
0.000220419103310212 
1.05718202202464e-006 
0.0001784409615925983 
0.0002872922764007762 
3.494852401598183e-005 
0.000270821037656341 
0.0001602781389119677 
0.0001599562247175859 
0.000247767710812481 
1.317501292799807e-005 
0.0001205358459571519 
0.0002026871270634366 
0.0001773716888256992 
0.0001450839668382439 
0.0001525431105548308 
-3.520975932041543e-005 
7.4903131349658e-005 
8.090141506416216e-005 
0.0001445827542644209 
0.000168192857934699 
0.0001558862384834204 
2.444077420435854e-005 
0.0001932538965329141 
7.171005406582559e-005 
0.000135221267729451 
8.506798522894184e-005 
-5.701654037688445e-005 
-1.744345998750851e-005 
0.0001073427295546567 
0.0001612273803835474 
0.0001003810144148015 
7.118729296276904e-005 
0.000127217493912292 
2.490711299949351e-005 
8.681888727118119e-005 
8.073710445343559e-005 
7.599290534359169e-005 
0.0001001739751169663 
0.0002122514631855579 
0.0001964910754011444 
8.311709714302352e-005 
-7.719452123005386e-005 
-6.015646987050558e-007 
8.827946104518957e-005 
0.0001926370796847906 
0.0001854584671441797 
8.950190052503308e-005 
0.000123559930811523 
0.000366783195689329 
0.0001534271254114146 
0.0001807840087440797 
8.66525198921764e-005 
0.000166588543372237 
9.489282905959596e-005 
0.0001967577524738549 
2.865930507106958e-006 
5.732314653213318e-005 
5.132206069690684e-005 
-0.0001046947236226336 
0.000123929169208479 
0.0001040381227447016 
0.0001103358872557668 
0.0002060207265588016 
0.0001091041327573662 
0.0001472833925954405 
0.0001760403067203379 
3.270194860547021e-005 
0.0001317945668429535 
0.0001199967729860924 
-0.0001523891962805269 
-0.0001024466985572856 
0.0002510636249573873 
0.0002105628856886782 
9.664995239213905e-005 
0.0001249447791370501 
0.0001218573804801335 
0.0001791092838024495 
9.319501629620465e-005 
0.000178563101293513 
4.953993846391539e-005 
0.000321565293526613 
2.154211037449239e-005 
0.0001527002322087227 
5.57984721876551e-005 
2.965834703402585e-005 
0.0001057251791712531 
6.826910486612783e-005 
0.0001807392928050071 
2.214965873487249e-005 
8.507120284532921e-005 
5.735865025192656e-005 
2.446223233943713e-005 
0.000208385413679396 
5.991900240155672e-005 
7.41330379397073e-005 
0.000188395403814866 
9.564514475939678e-005 
7.355923089760771e-005 
0.0001234716146316133 
1.187135724698128e-005 
0.0001005529061914003 
4.850470262625439e-005 
0.0001594496917789028 
-1.347277561412854e-005 
6.419512348009407e-005 
0.0001951036650726405 
-2.425825621571416e-005 
0.000153125523354971 
0.0002619768381631189 
9.633085778335272e-006 
0.0002455055994187327 
0.000134962700674362 
0.0001346407864799214 
0.0002224522725748589 
-1.214042530963829e-005 
9.522040771950777e-005 
0.0001773716888256992 
0.0001520562505881844 
0.0001197685286006177 
0.0001272276723172305 
-6.05251975579928e-005 
4.95876931120256e-005 
5.558597682654809e-005 
0.0001192673160267961 
0.0001428774196970675 
0.0001305708002457516 
-8.746640332603406e-007 
0.0001679384582952976 
4.639461582811672e-005 
0.0001099058294917887 
5.975254699131346e-005 
-8.23319786144996e-005 
-4.275889822517982e-005 
8.202729131699827e-005 
0.0001359119421459161 
7.506557617716476e-005 
4.587185472511808e-005 
0.0001019020556746542 
-4.083252381395019e-007 
6.15034490336199e-005 
5.542166621577998e-005 
5.067746710590431e-005 
7.485853687925708e-005 
0.0001869360249478991 
0.0001711756371634816 
5.78016589053936e-005 
-0.000102509959467635 
-2.591700293636294e-005 
6.296402280756733e-005 
0.0001673216414471171 
0.0001601430289065607 
6.418646228738311e-005 
9.824449257380107e-005 
0.0003414677574516983 
0.0001281116871738552 
0.000155468570506376 
6.133708165457927e-005 
0.0001412731051346974 
6.957739082196912e-005 
0.0001714423142362274 
-2.244950773051997e-005 
3.200770829451203e-005 
2.600662245921514e-005 
-0.0001300101618602773 
9.861373097090364e-005 
7.872268450720784e-005 
8.502044901814749e-005 
0.0001807052883212207 
8.378869451973738e-005 
0.000121967954357698 
0.0001507248684826826 
7.386510367814728e-006 
0.0001064791286053588 
9.468133474842054e-005 
-0.0001777046345181597 
-0.0001277621367949727 
0.0002257481867197226 
0.0001852474474510226 
7.133451415450073e-005 
9.962934089937659e-005 
9.654194224247959e-005 
0.0001537938455648527 
6.787957805857946e-005 
0.0001532476630559101 
2.422450022628787e-005 
0.0002962498552890305 
-3.773327863101533e-006 
0.0001273847939711204 
3.048303395001152e-005 
-2.629374953493796e-006 
7.343745718373795e-005 
3.598138287854937e-005 
0.000148451570817396 
-1.013806325266572e-005 
5.278348085780044e-005 
2.507092826430757e-005 
-7.825489648077734e-006 
0.0001760976916919489 
2.763128041395481e-005 
4.184531595213592e-005 
0.0001561076818274326 
6.335742277184353e-005 
4.127150891006583e-005 
9.118389264414602e-005 
-2.041636474042836e-005 
6.826518420394922e-005 
1.62169806387514e-005 
0.0001271619697913611 
-4.576049760163888e-005 
3.190740149263701e-005 
0.00016281594308498 
-5.654597820325945e-005 
0.0001208378013674447 
0.0002296891161755623 
-2.265463620922326e-005 
0.0002132178774311767 
0.0001026749786868128 
0.0001023530644924036 
0.0001901645505872701 
-4.442814729715165e-005 
6.293268573202829e-005 
0.0001450839668382439 
0.0001197685286006177 
8.748080661313869e-005 
9.493995032968807e-005 
-9.281291954551037e-005 
1.72999711245091e-005 
2.3298254839058e-005 
8.69795940392793e-005 
0.0001105896977095799 
9.828307825825543e-005 
-3.316238602076875e-005 
0.000135650736307678 
1.410689384068889e-005 
7.761810750428449e-005 
2.746482500385037e-005 
-0.000114619700602076 
-7.504662021264399e-005 
4.973956932959428e-005 
0.0001036242201584869 
4.277785418973873e-005 
1.358413273765946e-005 
6.96143336872454e-005 
-3.269604722558682e-005 
2.921572704615804e-005 
2.313394422834435e-005 
1.838974511854859e-005 
4.257081489181172e-005 
0.0001546483029604706 
0.0001388879151761016 
2.551393691789518e-005 
-0.0001347976814550826 
-5.82047249238581e-005 
3.067630082009819e-005 
0.0001350339194596967 
0.000127855306919026 
3.189874029995877e-005 
6.595677058637835e-005 
0.0003091800354642491 
9.582396518632638e-005 
0.0001231808485189685 
2.904935966710399e-005 
0.0001089853831471486 
3.72896688345059e-005 
0.0001391545922487442 
-5.473722971801168e-005 
-2.800136929250286e-007 
-6.281099528204662e-006 
-0.0001622978838477024 
6.632600898347212e-005 
4.643496251968287e-005 
5.273272703071134e-005 
0.0001484175663337828 
5.150097253232062e-005 
8.968023237033853e-005 
0.0001184371464952287 
-2.490121161968341e-005 
7.419140661789518e-005 
6.239361276094088e-005 
-0.0002099923565056135 
-0.0001600498587824347 
0.0001934604647322665 
0.0001529597254634992 
3.904679216700925e-005 
6.73416189119018e-005 
6.425422025500561e-005 
0.0001215061235773208 
3.559185607109856e-005 
0.000120959941068368 
-8.063221761209197e-006 
0.0002639621333014926 
-3.606104985061667e-005 
9.509707198361917e-005 
-1.80468803748669e-006 
4.829768763129885e-006 
8.089660090034338e-005 
4.344052659530068e-005 
0.0001559107145341861 
-2.678919535912075e-006 
6.024262457446606e-005 
3.253007198101068e-005 
-3.663459314631484e-007 
0.0001835568354086995 
3.509042413067342e-005 
4.930445966886968e-005 
0.0001635668255441515 
7.081656648859047e-005 
4.873065262677534e-005 
9.864303636075678e-005 
-1.295722102376226e-005 
7.572432792061716e-005 
2.367612435547814e-005 
0.0001346211135080483 
-3.830135388507577e-005 
3.936654520918071e-005 
0.0001702750868016876 
-4.908683448657614e-005 
0.0001282969450841133 
0.0002371482598922405 
-1.519549249259473e-005 
0.0002206770211478344 
0.0001101341224034586 
0.0001098122082091295 
0.0001976236943039499 
-3.696900358042246e-005 
7.039182944866515e-005 
0.0001525431105548308 
0.0001272276723172305 
9.493995032968807e-005 
0.0001023990940464645 
-8.535377582884857e-005 
2.475911484122882e-005 
3.075739855576804e-005 
9.443873775593011e-005 
0.0001180488414262447 
0.0001057422219748958 
-2.570324230405811e-005 
0.0001431098800244727 
2.156603755739616e-005 
8.507725122104242e-005 
3.492396872050707e-005 
-0.0001071605568853334 
-6.758747649592113e-005 
5.719871304622517e-005 
0.0001110833638751741 
5.023699790639249e-005 
2.104327645442096e-005 
7.707347740395063e-005 
-2.523690350889575e-005 
3.667487076290421e-005 
3.059308794502615e-005 
2.584888883519048e-005 
5.002995860854035e-005 
0.0001621074466771486 
0.0001463470588928375 
3.297308063464849e-005 
-0.0001273385377383674 
-5.074558120717732e-005 
3.813544453677501e-005 
0.0001424930631763707 
0.0001353144506357985 
3.935788401669199e-005 
7.341591430313489e-005 
0.0003166391791809933 
0.0001032831089030107 
0.0001306399922356373 
3.650850338377922e-005 
0.0001164445268638042 
4.474881255117282e-005 
0.0001466137359655273 
-4.727808600133421e-005 
7.179130023758651e-006 
1.178044188422043e-006 
-0.0001548387401310496 
7.378515270018796e-005 
5.389410623640372e-005 
6.019187074743317e-005 
0.0001558767100505341 
5.896011624897908e-005 
9.713937608699009e-005 
0.0001258962902119659 
-1.744206790287522e-005 
8.165055033458654e-005 
6.985275647780596e-005 
-0.0002025332127888959 
-0.0001525907150657707 
0.0002009196084489743 
0.0001604188691802394 
4.650593588373465e-005 
7.480076262859262e-005 
7.171336397169906e-005 
0.0001289652672940584 
4.305099978780411e-005 
0.000128419084785046 
-6.040780444908933e-007 
0.0002714212770181746 
-2.860190613397948e-005 
0.0001025562157003023 
5.654455679320845e-006 
-0.0001829231011121135 
-0.0001068562689748516 
-0.0001443123432799597 
-3.184215534102577e-005 
-0.0001904317894111591 
-0.0001275102453006929 
-0.0001552227978941905 
-0.0001881192158066688 
-4.196034466449576e-006 
-0.0001526624457444504 
-0.0001384484102063059 
-2.418604433106551e-005 
-0.0001169363033865957 
-0.0001390222172484345 
-8.910983351441671e-005 
-0.0002007100908989585 
-0.0001120285419545919 
-0.0001640767455197189 
-5.313175636716967e-005 
-0.0002260542237602395 
-0.0001483863246659691 
-1.747778307351721e-005 
-0.0002368397043617125 
-5.945592479115276e-005 
4.939539001700553e-005 
-0.0002029483623677858 
3.292415127256113e-005 
-7.761874747174475e-005 
-7.794066166608513e-005 
9.870824428785025e-006 
-0.0002247218734556507 
-0.0001173610404266481 
-3.520975932041543e-005 
-6.05251975579928e-005 
-9.281291954551037e-005 
-8.535377582884857e-005 
-0.00027310664570401 
-0.0001629937550339865 
-0.000156995471319447 
-9.331413211923811e-005 
-6.97040284489694e-005 
-8.201064790037885e-005 
-0.0002134561121793423 
-4.464298985072061e-005 
-0.0001661868323178021 
-0.0001026756186541789 
-0.0001528289011547545 
-0.0002949134267607032 
-0.0002553403463712322 
-0.0001305541568290428 
-7.666950600003253e-005 
-0.0001375158719688745 
-0.0001667095934209444 
-0.000110679392471389 
-0.000212989773384235 
-0.0001510779991124602 
-0.000157159781930219 
-0.0001619039810400449 
-0.0001377229112666951 
-2.564542319808984e-005 
-4.140581098248041e-005 
-0.000154779789240641 
-0.0003150914076136627 
-0.0002384984510823473 
-0.000149617425338504 
-4.525980669895221e-005 
-5.243841923952153e-005 
-0.0001483949858586842 
-0.0001143369555722457 
0.000128886309305644 
-8.446976097223728e-005 
-5.711287763954869e-005 
-0.0001512443664914399 
-7.130834301149532e-005 
-0.0001430040573240749 
-4.113913390981184e-005 
-0.0002350309558766131 
-0.0001805737398515064 
-0.0001865748256868295 
-0.0003425916100062682 
-0.0001139677171751045 
-0.0001338587636389276 
-0.000127560999127835 
-3.187615982481922e-005 
-0.0001287927536263049 
-9.061349378825019e-005 
-6.185657966326906e-005 
-0.0002051949377781233 
-0.0001061023195406814 
-0.0001179001133974733 
-0.0003902860826641728 
-0.0003403435849410288 
1.316673857367558e-005 
-2.733400069507122e-005 
-0.0001412469339915576 
-0.0001129521072466751 
-0.0001160395059035266 
-5.878760258127717e-005 
-0.0001447018700874436 
-5.933378509010681e-005 
-0.0001883569479196894 
8.366840714291655e-005 
-0.0002163547760091773 
-8.519665417499513e-005 
-0.000182098414196029 
-7.281021044197575e-005 
3.25662169522199e-006 
-3.419945260991715e-005 
7.82707353289326e-005 
-8.031889874112579e-005 
-1.739735463067743e-005 
-4.510990722411557e-005 
-7.800632513657578e-005 
0.000105916856203528 
-4.254955507443852e-005 
-2.833551953628081e-005 
8.592684633893862e-005 
-6.823412716568224e-006 
-2.890932657835781e-005 
2.100305715559593e-005 
-9.059720022894683e-005 
-1.9156512845891e-006 
-5.396385484968934e-005 
5.698113430287365e-005 
-0.0001159413330902741 
-3.827343399594974e-005 
9.263510759653209e-005 
-0.000126726813691676 
5.065696587888247e-005 
0.0001595082806870456 
-9.283547169771787e-005 
0.0001430370419425998 
3.249414319827106e-005 
3.217222900397718e-005 
0.0001199837150988605 
-0.0001146089827855943 
-7.248149756599808e-006 
7.4903131349658e-005 
4.95876931120256e-005 
1.72999711245091e-005 
2.475911484122882e-005 
-0.0001629937550339865 
-5.288086436395215e-005 
-4.688258064938811e-005 
1.679875855085284e-005 
4.040886222105224e-005 
2.810224276969401e-005 
-0.000103343221509318 
6.546990081929349e-005 
-5.607394164777664e-005 
7.437272015856604e-006 
-4.271601048469119e-005 
-0.0001848005360906015 
-0.0001452274557012127 
-2.044126615896166e-005 
3.344338466997467e-005 
-2.74029812988287e-005 
-5.659670275092875e-005 
-5.665018013891634e-007 
-0.0001028768827141387 
-4.096510844242282e-005 
-4.70468912601507e-005 
-5.179109036999448e-005 
-2.761002059656019e-005 
8.446746747197434e-005 
6.87070796875267e-005 
-4.466689857059331e-005 
-0.0002049785169435861 
-0.0001283855604123024 
-3.950453466840315e-005 
6.485308397125871e-005 
5.767447143062826e-005 
-3.828209518853321e-005 
-4.224064902133332e-006 
0.000238999199975784 
2.564312969778656e-005 
5.300001303046432e-005 
-4.113147582137591e-005 
3.880454765866593e-005 
-3.289116665395305e-005 
6.897375676032057e-005 
-0.0001249180652064218 
-7.046084918142083e-005 
-7.64619350167533e-005 
-0.0002324787193361847 
-3.854826504998014e-006 
-2.374587296877152e-005 
-1.744810845770014e-005 
7.823673084528559e-005 
-1.867986295616642e-005 
1.949939688184085e-005 
4.825631100686389e-005 
-9.508204710803023e-005 
4.010571129459019e-006 
-7.787222727367652e-006 
-0.0002801731919940055 
-0.0002302306942708835 
0.0001232796292438566 
8.277888997504654e-005 
-3.113404332144126e-005 
-2.839216576531769e-006 
-5.926615233419783e-006 
5.13252880888748e-005 
-3.458897941731205e-005 
5.077910557999322e-005 
-7.824405724960175e-005 
0.0001937812978130927 
-0.0001062418853389901 
2.491623649514594e-005 
-7.19855235259055e-005 
-6.681192672742618e-005 
9.254905409755521e-006 
-2.820116889534648e-005 
8.426901904349622e-005 
-7.43206150265935e-005 
-1.139907091611321e-005 
-3.911162350961215e-005 
-7.200804142202738e-005 
0.0001119151399180152 
-3.655127135994315e-005 
-2.233723582183244e-005 
9.19251300534195e-005 
-8.251290020327255e-007 
-2.291104286391994e-005 
2.70013408701204e-005 
-8.45989165144343e-005 
4.082632429916708e-006 
-4.796557113523135e-005 
6.297941801733904e-005 
-0.0001099430493757327 
-3.227515028146303e-005 
9.863339131104103e-005 
-0.0001207285299771585 
5.665524959343206e-005 
0.0001655065644016015 
-8.683718798320798e-005 
0.0001490353256571303 
3.849242691283103e-005 
3.817051271844258e-005 
0.0001259819988133742 
-0.0001086106990710735 
-1.249866042010144e-006 
8.090141506416216e-005 
5.558597682654809e-005 
2.3298254839058e-005 
3.075739855576804e-005 
-0.000156995471319447 
-4.688258064938811e-005 
-4.088429693483287e-005 
2.279704226541131e-005 
4.640714593557488e-005 
3.410052648425267e-005 
-9.73449377947255e-005 
7.146818453382965e-005 
-5.007565793334767e-005 
1.343555573029687e-005 
-3.671772677018206e-005 
-0.0001788022523759786 
-0.0001392291719867293 
-1.44429824445111e-005 
3.944166838445905e-005 
-2.140469758429474e-005 
-5.05984190364353e-005 
5.43178191314789e-006 
-9.687859899966546e-005 
-3.496682472790181e-005 
-4.104860754566983e-005 
-4.579280665550298e-005 
-2.161173688210613e-005 
9.046575118647489e-005 
7.470536340200452e-005 
-3.86686148561514e-005 
-0.0001989802332291416 
-0.0001223872766978283 
-3.350625095395884e-005 
7.085136768572269e-005 
6.36727551451071e-005 
-3.228381147410237e-005 
1.774218812345027e-006 
0.000244997483690216 
3.164141341229799e-005 
5.89982967449261e-005 
-3.513319210696039e-005 
4.480283137313673e-005 
-2.689288293951065e-005 
7.497204047478653e-005 
-0.0001189197814920023 
-6.446256546693374e-005 
-7.046365130219727e-005 
-0.0002264804356217279 
2.143457209415897e-006 
-1.774758925432423e-005 
-1.144982474322346e-005 
8.423501455979454e-005 
-1.268157924173211e-005 
2.549768059627696e-005 
5.425459472129033e-005 
-8.908376339358478e-005 
1.000885484386311e-005 
-1.78893901292314e-006 
-0.0002741749082795736 
-0.0002242324105564163 
0.0001292779129583119 
8.877717368947858e-005 
-2.513575960697628e-005 
3.159067137888661e-006 
7.166848103978281e-008 
5.732357180327098e-005 
-2.859069570288958e-005 
5.67773892944429e-005 
-7.224577353518057e-005 
0.0001997795815275122 
-0.0001002436016245801 
3.091452020957532e-005 
-6.598723981143998e-005 
-3.130587527271305e-006 
7.293624460993835e-005 
3.548017030487242e-005 
0.0001479503582437256 
-1.063927582637195e-005 
5.228226828413527e-005 
2.456971569059468e-005 
-8.326702221818932e-006 
0.0001755964791182407 
2.713006784029963e-005 
4.134410337839284e-005 
0.0001556064692536049 
6.285621019822619e-005 
4.077029633636162e-005 
9.068268007036356e-005 
-2.09175773141816e-005 
6.776397163016951e-005 
1.571576806501673e-005 
0.0001266607572175812 
-4.626171017544619e-005 
3.140618891881788e-005 
0.0001623147305112929 
-5.704719077691867e-005 
0.0001203365887937129 
0.0002291879036018376 
-2.315584878296133e-005 
0.0002127166648573832 
0.0001021737661130517 
0.0001018518519187009 
0.0001896633380136675 
-4.492935987084117e-005 
6.243147315827322e-005 
0.0001445827542644209 
0.0001192673160267961 
8.69795940392793e-005 
9.443873775593011e-005 
-9.331413211923811e-005 
1.679875855085284e-005 
2.279704226541131e-005 
8.647838146557402e-005 
0.0001100884851357752 
9.778186568444849e-005 
-3.36635985944886e-005 
0.0001351495237340701 
1.360568126691574e-005 
7.711689493051493e-005 
2.696361243007167e-005 
-0.0001151209131757878 
-7.554783278645706e-005 
4.923835675577567e-005 
0.0001031230075846893 
4.227664161592144e-005 
1.308292016385992e-005 
6.911312111334983e-005 
-3.319725979937479e-005 
2.871451447238626e-005 
2.263273165463304e-005 
1.788853254476864e-005 
4.206960231813839e-005 
0.0001541470903867605 
0.000138386702602313 
2.501272434420056e-005 
-0.000135298894028885 
-5.870593749754904e-005 
3.017508824627494e-005 
0.0001345327068859173 
0.0001273540943453341 
3.139752772620991e-005 
6.5455558012658e-005 
0.0003086788228904246 
9.53227526125353e-005 
0.0001226796359451467 
2.854814709326118e-005 
0.0001084841705733208 
3.678845626068211e-005 
0.0001386533796749923 
-5.523844229179342e-005 
-7.81226266680217e-007 
-6.782312102004857e-006 
-0.0001627990964215092 
6.582479640966039e-005 
4.593374994591432e-005 
5.223151445699709e-005 
0.0001479163537600307 
5.099975995862713e-005 
8.917901979657879e-005 
0.0001179359339215076 
-2.540242419333657e-005 
7.36901940441635e-005 
6.189240018724749e-005 
