solver_type L2R_L2LOSS_RANKSVM
nr_class 2
nr_feature 100
bias -1
w
0.0003460055137501015 
0.004925026055312132 
-0.003397830690393596 
0.004687771158306761 
-0.01408919274568031 
-0.003167791408631019 
-0.004653074233541487 
-0.0004940189966041213 
0.003335515229797216 
0.0004282630201435571 
-0.0002809550993696684 
0.004781941619655944 
-0.0008694274984310846 
-0.001423517515739057 
0.001107687290957617 
0.008530138107185581 
-0.002569632129410415 
-0.001582721753228208 
0.0001428754575372117 
-0.001515490807644855 
0.00355572272354353 
0.003597306287036411 
0.001420480602269552 
-0.000415511940123431 
0.002680162086434366 
-0.003843706004676598 
0.005098228156666487 
0.005144408670473196 
-0.0007251536588010591 
-0.003248757065584644 
0.001188833043785902 
-0.005705229921754593 
-0.001729401708949496 
5.099725353714244e-005 
-0.003713873441854941 
-0.005233665478717 
-0.000733609421339849 
0.005973972084641123 
0.003191223521302124 
0.003856168066918735 
-0.003008040087234279 
0.006851856280908935 
-0.002809382921083059 
0.001290531775366894 
0.008189482453262679 
0.002586397733433385 
0.001533022135224269 
0.001759105221908944 
0.006226519362527238 
0.002587838508394903 
0.0003179527070795153 
0.006972645878382505 
-0.0008103172288897401 
-0.001207781445797602 
0.001617399988151222 
-0.00881123675120422 
0.004907767799216248 
-0.004367950950640235 
-0.000241096488752161 
-0.002960415722445975 
0.002713417496650128 
-0.001870929059627352 
0.003563132472111602 
0.007569268226766483 
-0.00448078080217504 
0.009214156546468667 
0.002491272117112644 
-0.005756441220069809 
-0.001371282593921263 
0.01689615080325562 
-0.0008031534632588277 
-0.003583961237159664 
-0.004935896519485202 
-0.005808496842920395 
0.004172138377907866 
0.001972380082681527 
0.008610624103268776 
0.0009603264756098533 
0.002338688357081544 
0.0007036668295945003 
0.002748713569362065 
-0.004210918660761835 
0.00223717370278457 
-0.0009717874308485556 
0.002852448713982464 
-0.01231076467496952 
0.002420033387789239 
0.006671582252008399 
0.003015172398721764 
-0.001588775680365766 
-0.003090797627527151 
-0.004664226514886887 
-0.001749625418111408 
-0.0008053580312521221 
-0.001619556924151997 
0.005046373857589435 
0.0007824407313810977 
-0.002450366897071438 
-0.0005674002365255544 
-0.002471077552657153 
