solver_type L2R_L2LOSS_RANKSVM
nr_class 2
nr_feature 500
bias -1
w
-0.0004552879771068682 
-0.004943101578920547 
0.001708257746962881 
0.008416771526405799 
0.02378155153737169 
-0.003507330563569046 
0.001290267172766683 
0.006382041583008152 
0.01254669949852998 
-0.02009155556780344 
-0.002758505074239974 
0.008330342978267031 
0.004262498855430681 
0.01238032975268287 
0.002466605816421402 
-0.00177130120316483 
0.005084206143304312 
0.01823953647122805 
-0.00370590782849396 
-0.01469633004745103 
0.008348282654311803 
-0.002527539312246009 
0.008777923156967772 
0.008968440193890922 
0.007214094135382894 
0.001569669176430896 
-8.94864297709348e-005 
-0.008944785028331532 
-0.02085236705715823 
-0.009165599187284771 
-0.001085596730850126 
-0.0204765640359008 
0.01067982704740626 
-0.0002131287154562574 
0.001240404371661128 
-0.01413909669020725 
0.0224408565824171 
0.01074810938633338 
-0.007040372034742207 
0.007647413751735403 
-0.001661731495616126 
-0.001575583739370857 
0.004700851292260642 
0.01022145662061293 
0.02135010604650415 
-0.001234184707452683 
0.01227530139208739 
0.008168149622073408 
-0.004753513630971759 
-0.02096947921396409 
-0.01984836542400782 
-0.01329008958562794 
-0.001722740525050976 
-0.004360783474509088 
0.00116692198657495 
-0.001202502905187333 
-0.007352235232214706 
0.00275662875378556 
-0.008973687847027968 
0.01330796772306114 
-0.0002447452458560987 
0.02115223356131146 
0.005853959386904669 
-0.01548970554729887 
0.006245688072466163 
-0.01118911723083148 
-0.001511270096095215 
0.007378124001148631 
-0.007188002240889978 
-0.001179969687767976 
0.005197755726635945 
-0.008758281969315976 
0.004730089710251574 
-0.0002820382955547808 
-0.0002612934489693899 
-0.0002246803860320183 
-0.02511302055912893 
0.004565583169653171 
0.01611555879070127 
0.01021347325885908 
0.01933942357216225 
0.001826872067557311 
0.01891035112178619 
0.007206608592637983 
0.006076259122465761 
0.001442946428420118 
0.00848565785688736 
0.0212170759999828 
0.004247301325296017 
-0.01983290095229111 
0.003973413703667947 
0.001229244205972521 
0.001685199930476093 
0.02035084442155096 
0.004252519425185689 
0.003125388990691731 
0.01336414975536199 
0.01297433026282312 
0.01230937321449596 
0.005260513480713736 
0.02935345635135028 
0.0007139309357258426 
-0.01065598914822679 
0.01171760990855398 
-0.001725557638742938 
0.01364693201287389 
-0.01081675254989922 
-0.02030996714296554 
-0.01617500713540382 
0.009573917838234932 
-0.0161322916308952 
0.02857286866192796 
-0.007356333249725281 
-0.00138394665287033 
-0.007972959402682779 
0.001411117072225358 
-0.0006333635118320346 
0.01759792540803899 
0.006532710340693488 
0.005388431877657285 
0.01895806831314306 
0.006930076385763241 
0.0275460540439211 
-0.01738556358001473 
0.007382408292313818 
-0.007387474953089508 
0.006575919591306937 
-0.01819504725842611 
0.01249551173199498 
-0.01412224375386318 
0.005806205668776559 
-0.00460003915849791 
0.01046573387743919 
0.005833197918195718 
-0.005752628073523078 
-0.01006139131266327 
-0.01436656645326952 
0.007751831877241685 
0.01006915426035957 
-0.005129308981110392 
-0.01129899838918687 
-0.009373811879164133 
-0.0041084569709548 
-0.01208760015611909 
0.009280842298404471 
-0.007422066967002022 
0.0006092816909352624 
0.005494357501587764 
-0.00698596392492949 
0.002357996643010217 
-0.001988801804800934 
0.01153009185566904 
0.0003514820157318092 
-0.001205050320070438 
-0.03897801707602499 
0.002422835890522003 
-0.01710474213228477 
-0.01947671784285013 
0.02460650790663241 
0.01060753545711652 
-0.007454766649766003 
0.02007742468967522 
-0.002752384051376337 
-0.004050173856700892 
-0.003799472216854524 
0.007628960037166663 
-0.03565324009343974 
0.005858538068278329 
-0.007206152169624069 
-0.01645984227377429 
0.02533422857531448 
-0.01782929208174735 
-0.02123438640299991 
-0.02794419591509666 
0.00485787460098957 
-0.003330003765027958 
-0.00606767298361599 
-0.009974131075852899 
-0.006679289711870424 
-0.00214690238296877 
0.009588552833609553 
-0.01135294092576914 
-0.008778369564480956 
-0.01333664120044794 
-0.02107981985786191 
-0.008155781449113499 
0.024343618184965 
-0.00110055897594405 
-0.00549733457518 
0.007784318195667919 
0.006542055870063712 
-0.01014989836018484 
0.004994813158414538 
0.002160310898691618 
0.00270900216463566 
0.0009633049903306988 
-0.02260148105668983 
-0.007523280026075586 
0.002894395273676654 
-0.0002337412871799209 
-0.008274683364135151 
0.002872785753049893 
-0.0009678426460300808 
-1.544339969979644e-005 
0.01229669456944903 
-0.001303557832696081 
0.01234854982940679 
-0.003154820541662213 
0.0009811679876914193 
0.0009843388003555656 
-0.008232801369226507 
0.01445030502138456 
-0.00491263812114292 
0.0001332089567851266 
-0.002696768821782948 
-0.007185460535694328 
-0.001835928695606429 
-0.003701743773256292 
0.00332068795965952 
-0.009854295665715657 
0.007471524907726101 
-0.004008224016957196 
0.01194398217600229 
0.0009907378158485105 
0.0172617810539257 
0.005302478958330767 
0.001491725427984155 
0.01268945580193568 
-0.002763527708232288 
-0.01024126324361562 
0.006269073577053632 
0.01028887679117453 
0.006942629640932773 
-0.005730311135838597 
-0.003997921306705886 
0.01729319959430674 
0.005195065219905512 
0.03011358053199141 
-0.01103086141750148 
0.001850512294547741 
-0.005570341467738372 
-0.004771453565122039 
0.00580718868002567 
0.01741607727319416 
-0.01553880659510616 
-0.01959780053373257 
-0.005245145236137192 
-0.006607557475009968 
-0.0001564309414407489 
-0.01055433536206921 
-0.008296488984282126 
0.009542414079659429 
0.01325094402532714 
-0.002663793615146895 
0.02186102622379266 
0.004221862122153379 
-0.007067922510033946 
0.008520954910731737 
-0.01790192059215932 
-0.009214674356730252 
-0.003596796378209175 
0.009344356661717923 
0.002264017912861683 
-0.001216442556362923 
-0.007163028575483687 
-0.003872487824344723 
0.002981929573916751 
0.007141661441379342 
0.01695384163722954 
0.01543804800539192 
-0.003807110123478911 
0.01242462101359874 
-0.003515982719783276 
0.01475715063322741 
-0.007255055300686003 
-0.01899962711371677 
0.0119007124171986 
0.0113629579616145 
-0.006657420499948373 
-0.02480637982037922 
0.001743419724626313 
0.002528812818551384 
0.006962195564659433 
0.001662403076287378 
0.005646551698196237 
0.01003163736776925 
-0.007445515962773927 
0.01197373633755249 
-0.00773679348557162 
0.001458439644852684 
-9.192329986598871e-005 
-0.006149069854765561 
0.008583718582582058 
0.004106632881208286 
-0.003664952112279617 
0.01455282564181719 
0.008453681056075049 
-0.009091071148141771 
0.03305923152866878 
0.0006667143288249542 
-0.008993212517513678 
0.004520637859633531 
-0.004523480559297866 
0.008104684450941216 
-0.004045330357470849 
-0.008894197055338742 
-6.220240751944511e-005 
0.01044440061217414 
-0.002057835369114863 
0.0151364991798345 
0.02507178144480658 
0.0036706348495813 
0.005038495570945626 
-0.02024530819227427 
-0.0004617523715855174 
-0.007027538986275623 
-0.00590733825233858 
-0.009564207108756228 
0.01584957734408668 
0.003714427975700259 
-0.01578509211949713 
-0.005006095577796276 
0.009009700761216537 
0.005810628205829168 
-0.005999404192180767 
-0.005653193846330565 
-0.002943650318817926 
0.02483134959829474 
0.008459326877296277 
-0.005052000062626611 
0.009423189635775733 
0.004875892572397251 
-0.01548372996982079 
0.001999782227081503 
-0.007277063793250319 
-9.215996111183939e-005 
-0.004351344050211829 
0.003953866672108182 
-0.006226449868207409 
0.01098634677346953 
-0.006180825382022359 
0.01186666124591606 
0.002698054925739133 
-0.01064018936998483 
-0.01416085171260521 
-0.01011480362881171 
-0.01851654492916196 
0.002104273430560088 
0.03256021413222571 
0.005922959655092717 
0.003392175385056182 
0.01775487876498461 
0.004661463215279301 
0.0008115234466744782 
-0.007457121454979974 
-0.001007634862057134 
-0.01089743379125263 
-0.009408012740589703 
-0.01053754505182774 
-0.009328433033420333 
-0.002390975707582932 
0.02003295525169292 
-0.00552486866527762 
-0.02508649603440087 
0.001703957564566361 
-0.0008950326146951 
0.01060810947516868 
0.003985408852364959 
0.0203349566928532 
-0.01977261634844556 
-0.01155172785242932 
0.0006937916378370454 
-0.02363071102587999 
0.01492190797964747 
0.001264290758428649 
-0.01632064449981235 
0.003420284685261591 
-0.008510984766853772 
0.007179630655661049 
-0.02726199713527139 
0.009592166351629627 
0.01561083323195861 
-0.01375287448128526 
-0.0003891397074154222 
0.00908837709487232 
-0.007214245230394213 
-0.002146548907383796 
-0.009019123418390633 
-0.00865551119809373 
0.01452256152665601 
-0.005930867871491575 
-0.008315044619162108 
-0.03201568979079728 
-0.008456026856537936 
0.002473611338065397 
-0.001583985853496732 
0.004675380266575538 
0.01122353042594404 
0.003700741233966532 
0.008157256906809055 
0.001661675493559089 
0.005003008658023007 
-8.390193236016753e-005 
0.0003163953311857988 
0.01081572011882408 
-0.02467751431892038 
0.003803221167962108 
0.01040771781872588 
-0.02007514758838463 
-0.007250190791402701 
-0.006256026356494123 
0.02160880354769721 
0.006172908399685448 
0.005662957635226965 
0.01572489450503175 
0.003990584436166146 
0.006429163512964811 
-0.008355825905048965 
0.01201008498745538 
-0.006508705532701942 
0.005228115527621747 
0.01353792239957614 
0.001966985237174119 
-0.008020194169886339 
-0.003293137713860877 
0.005821582078572076 
-0.007612399169477861 
0.008300084319563575 
0.009073178232706373 
-0.0002476318407356433 
-0.0008601421722586929 
-0.001247748742555507 
0.007589238953582452 
-0.0241384700079527 
0.002193215533518887 
-0.004739052145326692 
0.003983573898737135 
-0.01317430148618968 
-0.00446289642213782 
-0.002732955641881368 
0.01463546623920418 
0.02084861239154633 
0.0005418806023418279 
-0.002292022703010734 
-0.006569299654813962 
0.002394237651466259 
-0.02965496939607838 
-0.01224534270596974 
-0.003218805112276118 
0.01079876706308678 
-0.00108542505865622 
0.04004480330383918 
0.01054211066942749 
-0.006845710798730871 
0.01576715815614159 
-0.004221441633851895 
0.00290546208473913 
-0.01089227252159025 
0.002184313835542229 
0.008021765573931725 
-0.00149039852451765 
-0.006773132922281641 
-0.0001626778126537353 
0.01633973365171449 
-0.004700775655823359 
-0.0003221794617199059 
0.002373734714580873 
-0.002926023307996943 
0.0150867675653411 
-0.00897245270065491 
-0.008149562962844957 
0.01095842382697683 
0.0004833023170112666 
-0.003183758805910931 
-0.002300119659046169 
-0.006051606362581687 
0.01407093229753222 
-0.006089418686622732 
0.004122181179476071 
-0.002246321822112288 
-0.01929938098756211 
-0.01237459829363468 
-0.006930407996408142 
0.0007359099103495076 
0.01817240608109299 
0.01696041360146784 
-0.006215073501337407 
-0.006967700652468756 
-0.0003961714339828383 
-0.003177140241965918 
-0.01750452825094572 
0.002126402812300452 
0.0003713413068820771 
0.01062423253414281 
0.00458381161919068 
-0.006382901501428659 
-0.003628424086202457 
-0.02322296011359426 
0.002558377776744889 
0.02220892650557797 
